{
  "type": "LSTM",
  "options": {
    "inputSize": 26,
    "inputRange": 26,
    "hiddenLayers": [
      20,
      20
    ],
    "outputSize": 26,
    "decayRate": 0.999,
    "smoothEps": 1e-8,
    "regc": 0.000001,
    "clipval": 5,
    "maxPredictionLength": 100,
    "dataFormatter": {
      "indexTable": {
        "b": 0,
        "a": 1,
        "i": 2,
        "c": 3,
        "o": 4,
        "h": 5,
        "n": 6,
        "g": 7,
        "e": 8,
        "u": 9,
        "w": 10,
        "d": 11,
        "f": 12,
        "j": 13,
        "k": 14,
        "m": 15,
        "l": 16,
        "p": 17,
        "q": 18,
        "r": 19,
        "s": 20,
        "z": 21,
        "t": 22,
        "x": 23,
        "y": 24,
        "unrecognized": 25
      },
      "characterTable": {
        "0": "b",
        "1": "a",
        "2": "i",
        "3": "c",
        "4": "o",
        "5": "h",
        "6": "n",
        "7": "g",
        "8": "e",
        "9": "u",
        "10": "w",
        "11": "d",
        "12": "f",
        "13": "j",
        "14": "k",
        "15": "m",
        "16": "l",
        "17": "p",
        "18": "q",
        "19": "r",
        "20": "s",
        "21": "z",
        "22": "t",
        "23": "x",
        "24": "y",
        "25": null
      },
      "values": [
        "bai",
        "cai",
        "cao",
        "chan",
        "chang",
        "chen",
        "cheng",
        "cheung",
        "chin",
        "ching",
        "chiu",
        "choi",
        "chow",
        "chu",
        "chui",
        "chun",
        "chung",
        "cui",
        "dai",
        "deng",
        "ding",
        "dong",
        "du",
        "duan",
        "fan",
        "fang",
        "feng",
        "fong",
        "foo",
        "fu",
        "fung",
        "gao",
        "gong",
        "gu",
        "guo",
        "ha",
        "han",
        "hao",
        "hau",
        "he",
        "heung",
        "ho",
        "hon",
        "hong",
        "hooi",
        "hou",
        "hu",
        "huang",
        "hui",
        "hung",
        "io",
        "iu",
        "jia",
        "jiang",
        "jin",
        "ka",
        "kam",
        "kang",
        "keung",
        "kiu",
        "ko",
        "kok",
        "kong",
        "ku",
        "kung",
        "kwok",
        "lai",
        "lam",
        "lau",
        "lee",
        "lei",
        "leung",
        "li",
        "liang",
        "liao",
        "lin",
        "liu",
        "lo",
        "long",
        "loong",
        "lu",
        "lui",
        "luk",
        "lung",
        "luo",
        "ma",
        "man",
        "mang",
        "mao",
        "meng",
        "mo",
        "mok",
        "ng",
        "ngai",
        "pak",
        "pan",
        "pang",
        "peng",
        "poon",
        "qian",
        "qiao",
        "qin",
        "qiu",
        "ren",
        "sam",
        "sek",
        "shao",
        "shek",
        "shen",
        "sheung",
        "shi",
        "shiu",
        "shum",
        "siu",
        "song",
        "sou",
        "su",
        "sun",
        "sung",
        "sze",
        "tai",
        "tam",
        "tan",
        "tang",
        "tao",
        "tian",
        "tin",
        "to",
        "tong",
        "tou",
        "tsang",
        "tse",
        "tseung",
        "tso",
        "tsui",
        "tuen",
        "wai",
        "wan",
        "wang",
        "wei",
        "wen",
        "wong",
        "wu",
        "xia",
        "xiang",
        "xiao",
        "xie",
        "xiong",
        "xu",
        "xue",
        "yam",
        "yan",
        "yang",
        "yao",
        "yau",
        "ye",
        "yeow",
        "yeung",
        "yi",
        "yim",
        "yin",
        "yu",
        "yuan",
        "yue",
        "yuen",
        "zeng",
        "zhang",
        "zhao",
        "zheng",
        "zhong",
        "zhou",
        "zhu",
        "zou"
      ],
      "characters": [
        "b",
        "a",
        "i",
        "c",
        "o",
        "h",
        "n",
        "g",
        "e",
        "u",
        "w",
        "d",
        "f",
        "j",
        "k",
        "m",
        "l",
        "p",
        "q",
        "r",
        "s",
        "z",
        "t",
        "x",
        "y",
        "unrecognized"
      ],
      "specialIndexes": [
        25
      ]
    },
    "activation": "tanh"
  },
  "trainOpts": {
    "iterations": "20000",
    "errorThresh": "0.003",
    "log": false,
    "logPeriod": 1,
    "learningRate": "0.0001",
    "callbackPeriod": 1,
    "timeout": "Infinity"
  },
  "input": {
    "rows": 27,
    "columns": 26,
    "weights": [
      -1.1429027318954468,
      0.031161431223154068,
      0.4472567141056061,
      -0.8731725215911865,
      -0.3897709250450134,
      1.4174879789352417,
      -1.6301569938659668,
      1.2474170923233032,
      -0.5330711603164673,
      0.764269232749939,
      0.840664803981781,
      0.03984646871685982,
      0.3885778784751892,
      -0.045829806476831436,
      0.7979517579078674,
      0.0036944574676454067,
      -0.09875433146953583,
      0.26261916756629944,
      0.4978005588054657,
      1.4978115558624268,
      2.310344696044922,
      0.7177337408065796,
      0.49760010838508606,
      2.4479262828826904,
      0.4932117164134979,
      -0.31901654601097107,
      -17.358787536621094,
      3.43497633934021,
      1.5099034309387207,
      -6.577887535095215,
      -9.376904487609863,
      12.704607009887695,
      -10.84815502166748,
      11.270968437194824,
      -8.465073585510254,
      -3.541027545928955,
      1.3108465671539307,
      -12.537389755249023,
      -15.230714797973633,
      -4.381662845611572,
      7.097954750061035,
      0.47824981808662415,
      -6.780338764190674,
      -3.6306588649749756,
      4.934986591339111,
      6.171962738037109,
      -1.8976290225982666,
      8.26278018951416,
      -13.025099754333496,
      7.922642707824707,
      4.0059332847595215,
      -0.9595997929573059,
      1.6848785877227783,
      5.036674499511719,
      -6.5976243019104,
      -5.6103692054748535,
      2.666130781173706,
      0.13530591130256653,
      0.14863428473472595,
      -3.5185108184814453,
      -3.529600143432617,
      3.662801742553711,
      0.6464570164680481,
      -0.5648841857910156,
      -1.030456781387329,
      -4.087723731994629,
      0.6345881223678589,
      0.13319659233093262,
      3.0238752365112305,
      3.06669282913208,
      -0.012614667415618896,
      1.0266832113265991,
      4.768924236297607,
      -0.7863911390304565,
      3.148188352584839,
      2.86720871925354,
      2.1960673332214355,
      -2.8541083335876465,
      -4.259247779846191,
      1.8388564586639404,
      -3.1282882690429688,
      -5.016101837158203,
      -1.5255212783813477,
      -2.486466884613037,
      0.2324322760105133,
      -3.5534348487854004,
      0.27388280630111694,
      5.134271144866943,
      -0.6745299696922302,
      0.2754376530647278,
      1.5201038122177124,
      -2.5689468383789062,
      3.5627386569976807,
      2.4773354530334473,
      -4.559676170349121,
      2.7928719520568848,
      0.8107190728187561,
      3.3768093585968018,
      4.339844226837158,
      -0.9205910563468933,
      -0.31766554713249207,
      3.6533737182617188,
      3.4890589714050293,
      -0.9777312874794006,
      -1.8988429307937622,
      -6.259551048278809,
      -1.0324335098266602,
      -4.837822437286377,
      3.0616166591644287,
      -6.3343071937561035,
      -4.1137871742248535,
      1.132348656654358,
      3.6540000438690186,
      -2.0096664428710938,
      0.5740496516227722,
      -3.1212823390960693,
      8.16484260559082,
      1.2356452941894531,
      4.494657516479492,
      10.171780586242676,
      -2.658989191055298,
      3.372138738632202,
      -3.7915754318237305,
      4.312912940979004,
      8.445852279663086,
      0.3621375262737274,
      2.09830379486084,
      4.411275863647461,
      3.3549113273620605,
      -10.881905555725098,
      -4.44346284866333,
      0.5855196714401245,
      0.6159308552742004,
      -3.344078302383423,
      -1.2189340591430664,
      -1.7820459604263306,
      -0.872199535369873,
      0.29485782980918884,
      -0.7826438546180725,
      2.130340337753296,
      0.26811107993125916,
      -1.291843295097351,
      0.9961344599723816,
      -3.3590304851531982,
      4.629333972930908,
      1.7634589672088623,
      0.5575919151306152,
      -0.02303207851946354,
      -5.323663234710693,
      1.5736862421035767,
      4.781777381896973,
      -0.6988747715950012,
      1.0360616445541382,
      2.727530002593994,
      3.7385425567626953,
      -6.137139797210693,
      -6.641613960266113,
      -1.3125886917114258,
      -5.941127300262451,
      -4.77681827545166,
      -0.07110586017370224,
      5.789358139038086,
      4.210500240325928,
      4.19743013381958,
      1.2117100954055786,
      5.985019683837891,
      -3.9321370124816895,
      -10.084178924560547,
      -0.9116814732551575,
      -4.7206573486328125,
      -0.5106411576271057,
      10.773777961730957,
      3.4793541431427,
      -5.6663818359375,
      -0.6635903716087341,
      -4.829967975616455,
      7.331964492797852,
      1.7076411247253418,
      0.7148264050483704,
      6.893702030181885,
      -1.9558676481246948,
      -8.237910270690918,
      1.7507137060165405,
      -7.191779613494873,
      -3.650581121444702,
      3.8832504749298096,
      3.0785977840423584,
      -5.6782660484313965,
      -0.7162514925003052,
      9.344301223754883,
      0.2370995134115219,
      6.884639739990234,
      14.92999267578125,
      -1.89113187789917,
      9.708510398864746,
      0.49609193205833435,
      0.4945243299007416,
      4.831227779388428,
      2.6552069187164307,
      2.6942379474639893,
      -6.114748954772949,
      -4.524719715118408,
      -2.8295886516571045,
      -3.993090867996216,
      -4.992124557495117,
      2.66444730758667,
      4.480742454528809,
      -2.069204568862915,
      0.4414418041706085,
      -0.301350474357605,
      2.29888916015625,
      3.3824942111968994,
      -1.8102991580963135,
      2.790231466293335,
      -1.3125648498535156,
      2.2413268089294434,
      -0.3924383819103241,
      3.3656749725341797,
      4.106503963470459,
      -2.167856216430664,
      -1.9313642978668213,
      0.8679861426353455,
      -2.082339286804199,
      -1.3058677911758423,
      0.7856137752532959,
      -4.059261798858643,
      2.33569598197937,
      2.9534239768981934,
      2.117753505706787,
      -0.2411731481552124,
      -2.4908015727996826,
      1.1093826293945312,
      -0.8503257632255554,
      -1.5875545740127563,
      -0.6290987133979797,
      -3.6863534450531006,
      -0.23809407651424408,
      -4.477622985839844,
      4.625366687774658,
      -0.08800088614225388,
      -1.4167406558990479,
      -6.990546226501465,
      -1.7001854181289673,
      3.707524538040161,
      2.5978522300720215,
      2.291630744934082,
      -2.8074121475219727,
      -4.646926403045654,
      8.080781936645508,
      -0.20607972145080566,
      -10.935529708862305,
      -3.0554702281951904,
      -1.7035279273986816,
      -1.980390191078186,
      11.976704597473145,
      1.8173491954803467,
      1.282116413116455,
      8.791631698608398,
      10.433462142944336,
      0.17007319629192352,
      -2.1687731742858887,
      3.0921318531036377,
      2.1077797412872314,
      -3.50053071975708,
      1.8025543689727783,
      0.9818870425224304,
      -2.0090417861938477,
      3.2520687580108643,
      -6.790804386138916,
      2.4647295475006104,
      -1.4479457139968872,
      -4.9300336837768555,
      1.9248576164245605,
      -3.8205482959747314,
      2.0040807723999023,
      0.22262077033519745,
      -0.4479772448539734,
      3.418651819229126,
      -4.082148551940918,
      0.6915762424468994,
      2.6099510192871094,
      0.37014040350914,
      3.2372207641601562,
      -0.2753336429595947,
      7.219817638397217,
      -3.3524255752563477,
      2.778872013092041,
      2.947136878967285,
      4.735782623291016,
      -13.053915023803711,
      -2.0239555835723877,
      6.70910120010376,
      3.1187894344329834,
      -3.8180341720581055,
      -3.9306423664093018,
      3.8918263912200928,
      -2.2657625675201416,
      -0.5024396777153015,
      -4.169486045837402,
      -4.795536518096924,
      0.3592032194137573,
      0.7981962561607361,
      -1.5837080478668213,
      -1.7443604469299316,
      -0.9398148655891418,
      -4.7020583152771,
      3.2449257373809814,
      -1.3881984949111938,
      7.486086845397949,
      6.498085021972656,
      7.247739791870117,
      -2.2015230655670166,
      1.8175581693649292,
      0.6030228137969971,
      -1.7021392583847046,
      5.144344806671143,
      2.128434658050537,
      10.312333106994629,
      -12.01638412475586,
      7.476022243499756,
      -4.528076648712158,
      -0.08720582723617554,
      8.07407283782959,
      -0.19752629101276398,
      -1.735588550567627,
      1.6359832286834717,
      -12.888141632080078,
      -8.604134559631348,
      0.8056515455245972,
      6.878496170043945,
      -0.7935490012168884,
      2.9764678478240967,
      -4.964008331298828,
      -1.025528073310852,
      2.1272501945495605,
      5.167750835418701,
      -6.022817611694336,
      10.312398910522461,
      -5.028603553771973,
      -0.47636350989341736,
      9.37912368774414,
      2.5615620613098145,
      -0.9680150151252747,
      8.009915351867676,
      3.6594951152801514,
      4.7082390785217285,
      -1.4409513473510742,
      -2.1338603496551514,
      9.924614906311035,
      -3.2633211612701416,
      -3.957542657852173,
      -4.579801559448242,
      -4.744207859039307,
      1.691298246383667,
      -1.0902419090270996,
      -3.6211984157562256,
      0.4743337035179138,
      10.224637031555176,
      9.0228853225708,
      7.35957670211792,
      -1.2836220264434814,
      0.03734620288014412,
      -9.6774320602417,
      1.2876989841461182,
      -2.6954917907714844,
      -2.374790906906128,
      -0.302368700504303,
      -4.09370756149292,
      -3.2817695140838623,
      2.6862120628356934,
      -6.1279730796813965,
      -0.14843617379665375,
      -6.671200752258301,
      -0.573404848575592,
      1.8065876960754395,
      -0.855923056602478,
      -1.3682204484939575,
      -0.25258317589759827,
      0.24940073490142822,
      -6.566030979156494,
      1.6295439004898071,
      -3.5240631103515625,
      2.426551580429077,
      0.13054734468460083,
      -1.888755202293396,
      1.2193851470947266,
      -0.14080214500427246,
      6.666687488555908,
      1.6618647575378418,
      -1.638933539390564,
      -2.901594400405884,
      -1.1591861248016357,
      0.20097662508487701,
      -2.2465851306915283,
      -4.718550682067871,
      0.9130243062973022,
      -0.5748737454414368,
      7.438599586486816,
      6.353606224060059,
      -1.615617036819458,
      3.8278303146362305,
      9.113356590270996,
      8.579080581665039,
      -7.262828826904297,
      2.8189499378204346,
      -2.853733777999878,
      4.417943477630615,
      -7.5218119621276855,
      1.2257131338119507,
      -5.500785827636719,
      -8.33768081665039,
      -3.549154758453369,
      0.38340672850608826,
      6.6483306884765625,
      5.496384620666504,
      -2.736818790435791,
      4.721198081970215,
      -2.4319934844970703,
      4.65501594543457,
      -11.053730964660645,
      -1.9824568033218384,
      -1.812739372253418,
      -2.3281922340393066,
      4.394440174102783,
      -0.7671611905097961,
      0.4486710727214813,
      0.06584934145212173,
      -2.0747175216674805,
      -5.8634138107299805,
      -2.0253968238830566,
      7.817072868347168,
      1.4285529851913452,
      -3.418680191040039,
      -2.9363882541656494,
      1.921026349067688,
      -1.6729192733764648,
      2.506446599960327,
      2.0569839477539062,
      0.18284538388252258,
      1.290369987487793,
      -0.03897096961736679,
      -2.810349941253662,
      1.6416252851486206,
      -0.9320800304412842,
      1.64924156665802,
      -7.128083229064941,
      -2.4284555912017822,
      -0.2956697642803192,
      0.8331194519996643,
      0.9215971827507019,
      4.981657981872559,
      0.4299977719783783,
      5.57565975189209,
      2.3725051879882812,
      1.643761396408081,
      1.2125238180160522,
      -3.1266112327575684,
      1.0006928443908691,
      4.1902689933776855,
      -1.1982266902923584,
      7.2381134033203125,
      4.351490020751953,
      4.05323600769043,
      4.306417942047119,
      -4.04733419418335,
      1.703831434249878,
      -3.1040377616882324,
      -6.41119909286499,
      7.636828422546387,
      7.199185371398926,
      -2.7830147743225098,
      1.413493275642395,
      -4.699979305267334,
      -2.145509719848633,
      -7.074745178222656,
      -0.6278738975524902,
      4.4940009117126465,
      17.927946090698242,
      -4.520924091339111,
      9.536539077758789,
      -12.656877517700195,
      1.8103415966033936,
      -9.794878959655762,
      -2.915881872177124,
      -5.826508522033691,
      7.186513423919678,
      1.8833802938461304,
      10.646244049072266,
      -3.5831782817840576,
      11.629523277282715,
      -3.5892224311828613,
      1.1177791357040405,
      6.074955940246582,
      -4.89607572555542,
      -6.409209251403809,
      6.852633953094482,
      9.14233112335205,
      -6.437982082366943,
      2.9924018383026123,
      -7.955077171325684,
      -1.026647925376892,
      -1.4737951755523682,
      3.6250789165496826,
      7.598195552825928,
      6.033174991607666,
      0.2350696474313736,
      -1.9526209831237793,
      2.5467443466186523,
      -1.3277430534362793,
      6.339913368225098,
      -8.368664741516113,
      2.893721342086792,
      -12.318581581115723,
      3.326317310333252,
      9.21380615234375,
      2.495577096939087,
      0.2004140317440033,
      15.6224365234375,
      -0.6546291708946228,
      -4.2670183181762695,
      -17.94394302368164,
      -5.986016750335693,
      2.8636422157287598,
      10.298957824707031,
      -4.056809902191162,
      9.006991386413574,
      -3.906071424484253,
      18.772653579711914,
      5.992739677429199,
      7.935041427612305,
      3.420579195022583,
      0.44918742775917053,
      -8.644500732421875,
      -3.042644500732422,
      19.70560073852539,
      -2.4405765533447266,
      -7.835793495178223,
      2.1050493717193604,
      -3.3101532459259033,
      4.554543495178223,
      3.985301971435547,
      -3.660545825958252,
      12.196523666381836,
      12.452699661254883,
      -11.102177619934082,
      -13.945544242858887,
      -1.991989016532898,
      3.4272119998931885,
      -7.787656307220459,
      -6.109489440917969,
      -5.924210071563721,
      -5.979392051696777,
      5.191690444946289,
      -0.2774611711502075,
      -4.702789306640625,
      13.173494338989258,
      -4.536526203155518,
      -2.0202531814575195,
      2.414362668991089,
      -6.347175121307373,
      4.434662342071533,
      5.67789363861084,
      0.5073718428611755,
      -5.6847004890441895,
      -1.8617002964019775,
      9.597970962524414,
      2.7736871242523193,
      2.966844081878662,
      0.9095928072929382,
      5.999752044677734,
      -1.3388676643371582,
      -9.526296615600586,
      7.767585277557373,
      10.009377479553223,
      0.8468167185783386,
      6.960188865661621,
      2.3424956798553467,
      -3.861409902572632,
      3.885791301727295,
      -0.9744325876235962,
      2.83849835395813,
      4.876542568206787,
      3.3955204486846924,
      0.4532027244567871,
      2.3706109523773193,
      2.153836250305176,
      0.7169600129127502,
      6.274219036102295,
      1.6730709075927734,
      -11.329833030700684,
      0.8059409856796265,
      -8.430768966674805,
      2.5540881156921387,
      4.248908519744873,
      -1.118943214416504,
      -13.790038108825684,
      -15.780713081359863,
      1.0315707921981812,
      1.2303335666656494,
      4.881820201873779,
      2.108853816986084,
      -4.74039363861084,
      -12.817072868347168,
      3.334991216659546,
      -4.198401927947998,
      1.8444432020187378,
      3.3979721069335938,
      -0.5079591870307922,
      8.787374496459961,
      5.400966167449951,
      0.2755705416202545,
      0.09850452840328217,
      5.209929466247559,
      -16.471046447753906,
      4.384652137756348,
      -10.928561210632324,
      2.713855743408203,
      1.251259684562683,
      -7.4961323738098145,
      3.2874481678009033,
      3.488541841506958,
      17.55836296081543,
      -2.6800589561462402,
      -0.12170634418725967,
      -3.5741961002349854,
      -4.707522392272949,
      0.19766156375408173,
      -4.758296489715576,
      3.9280600547790527,
      -4.683002471923828,
      -2.026047468185425,
      0.02871948480606079,
      3.392995595932007,
      -2.1606497764587402,
      -0.1152685284614563,
      -1.9758626222610474,
      6.006145477294922,
      1.6657365560531616,
      7.297662258148193,
      12.791301727294922,
      -1.9454681873321533,
      3.919814109802246,
      -3.3885934352874756,
      5.444594383239746,
      8.584329605102539,
      0.4483663737773895,
      2.2771732807159424,
      3.6577610969543457,
      3.1247165203094482,
      -9.802119255065918,
      1.3951629400253296,
      5.230371952056885,
      1.3201946020126343,
      -4.441528797149658,
      -14.114445686340332,
      4.39626932144165,
      -5.173476219177246,
      1.7027838230133057,
      2.400878667831421,
      -0.6267086267471313,
      9.720084190368652,
      4.961286544799805,
      0.24345076084136963,
      -0.1842450052499771,
      5.1968793869018555,
      -16.832468032836914,
      3.660573720932007,
      -11.235373497009277,
      1.5055724382400513,
      1.4403047561645508,
      -7.871583461761475,
      3.683600425720215,
      4.4068098068237305,
      18.18039321899414,
      -2.387665271759033,
      0.9679772257804871,
      -0.0009676214540377259,
      -0.001295546186156571,
      -0.00009774898353498429,
      0.0018220955971628428,
      -0.0022794848773628473,
      0.0006074151606298983,
      -0.000033187756343977526,
      -0.002368060639128089,
      0.001486349618062377,
      0.00018715944315772504,
      -0.00041870083077810705,
      0.0010069984709843993,
      0.0018018204718828201,
      -0.0007463916554115713,
      -0.000914733624085784,
      -0.0025030849501490593,
      -0.00020654950640164316,
      0.0011619292199611664,
      -0.0004519275389611721,
      -0.0017289496026933193,
      0.0005613892572000623,
      0.0007222601561807096,
      -0.002271245000883937,
      0.00144564313814044,
      0.0017033396288752556,
      -0.0006986094522289932
    ]
  },
  "hiddenLayers": [
    {
      "inputMatrix": {
        "rows": 20,
        "columns": 26,
        "weights": [
          -0.1373046636581421,
          0.03776043653488159,
          0.0780353993177414,
          -0.004358673468232155,
          0.057976748794317245,
          0.11328642815351486,
          0.1654321551322937,
          0.01272707711905241,
          -0.09156065434217453,
          0.2566852569580078,
          0.16689065098762512,
          -0.06156574934720993,
          0.3242581784725189,
          -0.0588335320353508,
          -0.11749714612960815,
          -0.038223110139369965,
          -0.3426096439361572,
          0.12199725210666656,
          0.21828711032867432,
          0.20982545614242554,
          0.20023226737976074,
          0.26029932498931885,
          -0.09344621747732162,
          0.09379065036773682,
          0.18065457046031952,
          0.15207161009311676,
          -0.0647173598408699,
          -0.1037936806678772,
          0.0986405685544014,
          -0.08061745762825012,
          -0.24457909166812897,
          0.14976970851421356,
          -0.08134092390537262,
          0.01159338466823101,
          -0.07552605122327805,
          0.4319087862968445,
          -0.020261267200112343,
          0.07481992244720459,
          -0.09747357666492462,
          0.13440994918346405,
          0.06370726227760315,
          0.24359530210494995,
          0.10296779870986938,
          0.18411105871200562,
          -0.04672788083553314,
          0.32957181334495544,
          0.07841728627681732,
          -0.19737832248210907,
          -0.009442281909286976,
          0.1331411749124527,
          -0.14609616994857788,
          -0.02950337529182434,
          0.23674431443214417,
          0.01708967052400112,
          0.2024041712284088,
          0.19271694123744965,
          0.061234742403030396,
          0.03320794552564621,
          -0.12822526693344116,
          0.017339851707220078,
          0.15858297049999237,
          -0.08063017576932907,
          0.04605810344219208,
          0.0545286126434803,
          -0.2221429944038391,
          0.1008128821849823,
          0.017259031534194946,
          -0.03618207201361656,
          -0.11915293335914612,
          -0.014651177451014519,
          0.0451408214867115,
          -0.06602520495653152,
          0.21361885964870453,
          -0.04012184590101242,
          0.2845989465713501,
          0.0863185003399849,
          -0.18428190052509308,
          0.14191433787345886,
          0.023869555443525314,
          -0.07932530343532562,
          -0.0024233502335846424,
          -0.05688205733895302,
          -0.03224606812000275,
          0.37882956862449646,
          -0.30393704771995544,
          0.07702124118804932,
          0.11718656122684479,
          0.5252618789672852,
          0.018770743161439896,
          -0.2999882996082306,
          -0.2889227569103241,
          -0.2124607264995575,
          -0.1604551374912262,
          -0.16288432478904724,
          0.08011297136545181,
          0.15612666308879852,
          0.051513366401195526,
          0.023912668228149414,
          0.09068905562162399,
          -0.20983241498470306,
          0.2918318808078766,
          0.05041183531284332,
          -0.0010381779866293073,
          -0.37070342898368835,
          0.15868593752384186,
          0.1512945592403412,
          -0.07304146140813828,
          -0.1500745415687561,
          0.15666432678699493,
          0.12508752942085266,
          0.030711432918906212,
          -0.016547197476029396,
          -0.14094285666942596,
          -0.1695287972688675,
          -0.3777316212654114,
          0.04390542209148407,
          -0.548505425453186,
          0.35036590695381165,
          -0.04896147549152374,
          0.17103657126426697,
          -0.22960379719734192,
          0.1853407621383667,
          -0.3945768177509308,
          0.2119928002357483,
          0.7201091647148132,
          0.08864670991897583,
          0.24652288854122162,
          0.04255305603146553,
          -0.08597870916128159,
          -0.08332169055938721,
          -0.07376763969659805,
          -0.1230507418513298,
          -0.2014542520046234,
          0.4341783821582794,
          0.08380616456270218,
          -0.18703463673591614,
          -0.030498668551445007,
          -0.10319146513938904,
          0.19623692333698273,
          0.03818769007921219,
          -0.08151444792747498,
          -0.07955270260572433,
          0.5454643964767456,
          -0.13693317770957947,
          -0.14164510369300842,
          -0.11957009881734848,
          -0.22801144421100616,
          0.12962359189987183,
          0.2310102880001068,
          0.2522636353969574,
          0.03629672899842262,
          0.3715153932571411,
          0.3023928105831146,
          0.017240282148122787,
          0.11509206891059875,
          -0.07292788475751877,
          -0.020235391333699226,
          0.01615549810230732,
          -0.3292202353477478,
          -0.2540241479873657,
          -0.20244887471199036,
          -0.26707178354263306,
          -0.5315917730331421,
          -0.09133802354335785,
          -0.024858608841896057,
          -0.23796209692955017,
          -0.43421369791030884,
          0.2060891091823578,
          0.14467787742614746,
          0.23406349122524261,
          0.1370481699705124,
          -0.014539641328155994,
          0.15771549940109253,
          0.12865914404392242,
          0.1042272076010704,
          -0.05377226695418358,
          -0.21840956807136536,
          0.12178904563188553,
          -0.12121844291687012,
          0.13794347643852234,
          0.1938084363937378,
          -0.08654966205358505,
          -0.01428600400686264,
          -0.17697802186012268,
          0.12100893259048462,
          0.16392654180526733,
          0.11804164201021194,
          0.17941966652870178,
          -0.013449077494442463,
          -0.10811712592840195,
          0.09681521356105804,
          0.17042702436447144,
          0.0388370007276535,
          0.11383438855409622,
          0.0034693903289735317,
          0.11973448842763901,
          0.12013144046068192,
          0.1836693286895752,
          -0.19960999488830566,
          0.11989910155534744,
          -0.05194807052612305,
          -0.005547483451664448,
          0.1236528530716896,
          -0.05167870596051216,
          -0.2750813066959381,
          0.05396365001797676,
          -0.046876512467861176,
          0.03159816190600395,
          0.21316109597682953,
          -0.27111026644706726,
          -0.11215783655643463,
          0.02191539667546749,
          -0.07363969832658768,
          -0.004006996285170317,
          0.0895824134349823,
          -0.011273536831140518,
          -0.25978419184684753,
          0.5066251754760742,
          -0.21759945154190063,
          0.006116930395364761,
          -0.5324165225028992,
          -0.23438341915607452,
          -0.12259726971387863,
          -0.21364173293113708,
          -0.14235347509384155,
          0.24126319587230682,
          -0.0695771723985672,
          -0.025796471163630486,
          0.4505617320537567,
          -0.015678802505135536,
          0.028650205582380295,
          0.29871806502342224,
          -0.21530717611312866,
          0.01596924103796482,
          -0.1531877964735031,
          0.16638189554214478,
          -0.07627370208501816,
          0.28558549284935,
          0.12910009920597076,
          -0.18911515176296234,
          -0.13800516724586487,
          0.10910722613334656,
          -0.04067731276154518,
          -0.33366721868515015,
          0.2255644053220749,
          -0.029715130105614662,
          0.28601306676864624,
          -0.15288645029067993,
          0.12762437760829926,
          -0.013315017335116863,
          0.1626293808221817,
          -0.025160769000649452,
          0.21089622378349304,
          0.022141054272651672,
          0.13375771045684814,
          0.19497911632061005,
          0.033840615302324295,
          0.0448620431125164,
          -0.0711991935968399,
          0.020915012806653976,
          0.14929935336112976,
          -0.15899096429347992,
          -0.06193913519382477,
          -0.03793388977646828,
          -0.02085139974951744,
          -0.07320236414670944,
          -0.15468177199363708,
          0.037080224603414536,
          -0.134137362241745,
          0.05393947660923004,
          -0.025336051359772682,
          -0.048328109085559845,
          0.025483153760433197,
          -0.22969675064086914,
          -0.0357658676803112,
          -0.1821867972612381,
          -0.05223316699266434,
          -0.08251605182886124,
          -0.05966803431510925,
          -0.06343723088502884,
          0.03315553069114685,
          -0.08375370502471924,
          0.21312689781188965,
          0.04884837940335274,
          0.0452234223484993,
          -0.08940187096595764,
          -0.0194967333227396,
          -0.035616327077150345,
          -0.07054486870765686,
          0.06020370498299599,
          0.31849098205566406,
          -0.07239068299531937,
          -0.10152846574783325,
          -0.2033875733613968,
          -0.3326233923435211,
          0.2652018368244171,
          0.14156751334667206,
          -0.06984397023916245,
          0.017142271623015404,
          0.12667155265808105,
          0.038881052285432816,
          -0.17690669000148773,
          -0.2520521581172943,
          0.16545675694942474,
          0.04675840586423874,
          0.11297895759344101,
          0.2480172961950302,
          0.19122634828090668,
          0.13913211226463318,
          0.07452405244112015,
          -0.14366883039474487,
          -0.09334664046764374,
          0.24331718683242798,
          0.22601284086704254,
          0.28553858399391174,
          -0.07552287727594376,
          0.12709303200244904,
          0.3517158329486847,
          -0.009284988045692444,
          0.4007331132888794,
          -0.5348171591758728,
          0.21099655330181122,
          0.3469042181968689,
          -0.519067645072937,
          0.14027650654315948,
          0.16303949058055878,
          -0.1764112412929535,
          -0.2332332283258438,
          0.0013971670996397734,
          0.1095852181315422,
          0.004949110560119152,
          0.09069176763296127,
          0.011381291784346104,
          0.12987416982650757,
          0.13460958003997803,
          0.11354343593120575,
          0.04712219163775444,
          0.1902035027742386,
          0.05040276423096657,
          0.029247773811221123,
          0.15027542412281036,
          -0.33330580592155457,
          -0.065096415579319,
          -0.18086370825767517,
          0.020224517211318016,
          -0.21979239583015442,
          -0.19389608502388,
          -0.0915369987487793,
          0.453366219997406,
          0.11696171760559082,
          0.08702127635478973,
          0.15943914651870728,
          -0.07183349132537842,
          -0.07836529612541199,
          0.21566863358020782,
          -0.32049989700317383,
          0.15244102478027344,
          0.03133038431406021,
          0.3193507194519043,
          0.003936425317078829,
          -0.21548348665237427,
          0.39457836747169495,
          0.10077038407325745,
          0.13363340497016907,
          -0.3014757037162781,
          -0.14858515560626984,
          0.20585206151008606,
          -0.25260570645332336,
          -0.03415025398135185,
          0.29047614336013794,
          -0.01732010394334793,
          0.16081106662750244,
          0.03582456335425377,
          0.15007156133651733,
          0.07360727339982986,
          -0.2468690723180771,
          0.06654391437768936,
          0.12528148293495178,
          -0.1297471970319748,
          -0.016129272058606148,
          0.12708334624767303,
          0.16275475919246674,
          -0.07444217801094055,
          0.15632975101470947,
          -0.08280369639396667,
          0.12221081554889679,
          0.01662890799343586,
          0.01590644381940365,
          0.15951018035411835,
          -0.25334432721138,
          0.06798075139522552,
          0.06614162027835846,
          0.11485496163368225,
          -0.19240058958530426,
          -0.1729303002357483,
          -0.01673591136932373,
          -0.08404543995857239,
          0.06366035342216492,
          0.05044444277882576,
          -0.09613007307052612,
          0.24004758894443512,
          0.037469346076250076,
          0.21529386937618256,
          0.07874193787574768,
          -0.008151775225996971,
          0.14408007264137268,
          0.07548727095127106,
          0.14327335357666016,
          0.06552194803953171,
          0.44445857405662537,
          -0.16217805445194244,
          -0.05267724767327309,
          0.0006473330431617796,
          0.2901743948459625,
          0.09785715490579605,
          0.01465327013283968,
          0.08149952441453934,
          0.07167893648147583,
          0.000901768624316901,
          0.018112272024154663,
          0.12444570660591125,
          0.23550787568092346,
          -0.15502089262008667,
          0.3728397786617279,
          -0.2900477647781372,
          0.38588955998420715,
          0.07102478295564651,
          -0.01612296886742115,
          -0.1369844377040863,
          -0.17699576914310455,
          0.08140607178211212,
          -0.2905818819999695,
          0.16716420650482178,
          0.276856929063797,
          -0.07697753608226776,
          -0.023226778954267502,
          0.6192807555198669,
          -0.3626178801059723,
          0.268051415681839,
          0.07348663359880447,
          -0.12786291539669037,
          -0.19439926743507385,
          0.4859318137168884,
          -0.26089832186698914,
          -0.09363187849521637,
          -0.33898183703422546,
          -0.3994249701499939,
          -0.09957592189311981,
          -0.2455057054758072,
          -0.09310426563024521,
          -0.12819041311740875,
          -0.06995269656181335,
          0.20499825477600098,
          0.25338101387023926,
          -0.12706202268600464,
          0.12756745517253876,
          0.40192434191703796,
          -0.004709620960056782,
          -0.16329297423362732,
          -0.08910390734672546,
          -0.13243882358074188,
          0.15920652449131012,
          -0.18249817192554474,
          0.02715693786740303,
          -0.3010464012622833,
          0.337240606546402,
          -0.012801130302250385,
          0.0324467234313488,
          -0.1595117300748825,
          -0.06398753821849823,
          -0.008489259518682957,
          0.16343218088150024,
          0.07086455076932907,
          0.32294756174087524,
          0.06570201367139816,
          0.3987993001937866,
          -0.20646598935127258,
          0.1742953509092331,
          -0.0038483296521008015,
          0.07020063698291779,
          0.16846010088920593,
          -0.2241302877664566,
          -0.15935556590557098,
          -0.2000259906053543,
          -0.08054710924625397,
          -0.1907641440629959,
          -0.14365270733833313,
          -0.1270139366388321,
          -0.23340611159801483,
          -0.01018022932112217,
          0.04866553843021393,
          0.12009810656309128,
          0.03919018432497978,
          0.11055787652730942,
          0.10092897713184357,
          0.03528983145952225,
          0.13003100454807281,
          -0.026052769273519516,
          0.2811810374259949,
          0.0855485126376152,
          -0.2549407482147217,
          -0.1951179802417755,
          -0.029706105589866638,
          -0.06154376640915871,
          0.2669271230697632,
          -0.04736196622252464,
          -0.3485223948955536,
          -0.0020022860262542963,
          -0.2390710413455963,
          0.23303170502185822,
          0.05789412185549736,
          -0.09306968748569489,
          0.328468382358551,
          0.11416245251893997,
          0.39660781621932983,
          -0.06309516727924347,
          0.2815728187561035,
          0.027046523988246918,
          -0.03595929965376854,
          -0.10834675282239914
        ]
      },
      "inputHidden": {
        "rows": 20,
        "columns": 20,
        "weights": [
          0.28301095962524414,
          0.5092071294784546,
          0.046057023108005524,
          0.5831699967384338,
          0.3353601396083832,
          0.0770210400223732,
          0.12964804470539093,
          0.8446327447891235,
          -0.997585117816925,
          0.17995360493659973,
          -0.35331884026527405,
          -0.07848315685987473,
          -0.7099082469940186,
          0.19294269382953644,
          0.4785361588001251,
          -0.6696304678916931,
          1.4195163249969482,
          -0.15721218287944794,
          -0.4304313659667969,
          0.460858017206192,
          0.02990131825208664,
          0.31410542130470276,
          -0.15414845943450928,
          0.10879392176866531,
          0.3647291660308838,
          -0.35645413398742676,
          0.11294132471084595,
          0.14866626262664795,
          -0.09668216854333878,
          -0.37734663486480713,
          0.08988390117883682,
          0.05894705653190613,
          -0.17115665972232819,
          -0.08940499275922775,
          0.17800790071487427,
          -0.017141839489340782,
          0.45123735070228577,
          0.4021260738372803,
          -0.14737264811992645,
          0.5786963701248169,
          -0.06500592082738876,
          -0.5558475255966187,
          0.4796087145805359,
          -0.1480533331632614,
          -0.8333690762519836,
          0.022534003481268883,
          0.5114348530769348,
          -0.8624221086502075,
          0.1314384788274765,
          -0.6474354863166809,
          -0.2030491977930069,
          -0.4022648334503174,
          -0.07252686470746994,
          0.6557234525680542,
          -1.0294172763824463,
          -1.0007667541503906,
          0.32296010851860046,
          -0.27563390135765076,
          0.062214188277721405,
          0.17758914828300476,
          0.22277668118476868,
          0.2648410201072693,
          0.4326252341270447,
          -0.2897913455963135,
          0.0994371622800827,
          0.026619909331202507,
          -0.08730268478393555,
          0.28608545660972595,
          0.39106619358062744,
          -0.4128839075565338,
          0.04286390170454979,
          -0.4011991322040558,
          0.6955347061157227,
          0.2831672430038452,
          0.03281897306442261,
          0.40417805314064026,
          -0.4920656383037567,
          -0.8014453649520874,
          -0.510250985622406,
          0.1397341787815094,
          -0.04918703809380531,
          -0.15039972960948944,
          0.21698255836963654,
          0.084562748670578,
          -0.08284275233745575,
          -0.11773308366537094,
          -0.026257816702127457,
          -0.5294332504272461,
          0.3438560664653778,
          -0.055476412177085876,
          -0.09893691539764404,
          -0.39177843928337097,
          -0.07761114090681076,
          0.017445465549826622,
          -0.28703373670578003,
          -0.14639480412006378,
          0.1368626058101654,
          -0.05636709928512573,
          -0.016360396519303322,
          0.11133000254631042,
          -0.03476109728217125,
          -0.11986105889081955,
          -0.2345302402973175,
          -0.21437188982963562,
          0.6981571316719055,
          -0.14993475377559662,
          0.20926938951015472,
          0.9605141282081604,
          -0.3234241306781769,
          -0.6123341917991638,
          -0.4670994281768799,
          -0.014765700325369835,
          0.13999299705028534,
          -0.33832594752311707,
          0.6384013891220093,
          0.5761749148368835,
          -0.3638269007205963,
          -0.34601476788520813,
          -0.07626781612634659,
          0.19944307208061218,
          0.31453341245651245,
          -0.6156371831893921,
          0.20321489870548248,
          -0.5335305333137512,
          -1.0207033157348633,
          -0.19994384050369263,
          0.18984749913215637,
          0.06112765148282051,
          0.3765072822570801,
          -0.34980231523513794,
          -0.5434327721595764,
          -0.3463723063468933,
          0.08596707880496979,
          0.8210318088531494,
          -0.5272380113601685,
          -0.49489468336105347,
          -0.03854922950267792,
          -0.1080785021185875,
          0.061864569783210754,
          0.33247891068458557,
          -0.2554309666156769,
          -0.16451485455036163,
          -0.08269175887107849,
          0.1713077425956726,
          0.20390400290489197,
          0.019856194034218788,
          -0.2712550759315491,
          0.40897122025489807,
          0.3799387216567993,
          0.408613920211792,
          0.6066402792930603,
          -0.626296877861023,
          0.6699873208999634,
          -0.6744951009750366,
          0.17999519407749176,
          0.2664152979850769,
          -0.18877901136875153,
          -0.16480553150177002,
          0.05409122258424759,
          -0.497643381357193,
          -0.22695665061473846,
          -0.45200619101524353,
          0.13901087641716003,
          -0.05344218760728836,
          -0.7684552669525146,
          0.25735265016555786,
          0.29158395528793335,
          -0.026979681104421616,
          0.3100895285606384,
          -0.7510271072387695,
          0.13299457728862762,
          -0.29017314314842224,
          0.36245784163475037,
          -0.17787140607833862,
          -0.4197655916213989,
          -0.4994964003562927,
          0.33018916845321655,
          -0.6682873964309692,
          -0.39263615012168884,
          0.33511653542518616,
          -0.1900167167186737,
          -0.4891107976436615,
          0.07013782858848572,
          -0.16292807459831238,
          -0.6897932887077332,
          0.04776904359459877,
          -0.04857078194618225,
          0.008956529200077057,
          0.4608834385871887,
          -0.6151047945022583,
          0.0938052088022232,
          -0.218084916472435,
          0.11948264390230179,
          0.4286263883113861,
          -0.3179514408111572,
          -0.23269641399383545,
          0.11378499865531921,
          -0.24600929021835327,
          -0.3401947617530823,
          0.419597327709198,
          -0.23909436166286469,
          -0.09719198197126389,
          0.2079923301935196,
          0.15418151021003723,
          -0.3434620797634125,
          0.49970972537994385,
          -0.04757147654891014,
          0.21554233133792877,
          -0.3141370415687561,
          0.005294452887028456,
          -0.35130271315574646,
          0.3439156115055084,
          -0.003575955517590046,
          0.5004998445510864,
          -0.4862525165081024,
          -0.8666125535964966,
          0.2137967348098755,
          0.3507063090801239,
          -0.12642395496368408,
          0.4637892544269562,
          0.37014052271842957,
          -0.2653523087501526,
          0.07909299433231354,
          -0.02951224334537983,
          0.2491489201784134,
          -0.24947577714920044,
          0.16575244069099426,
          0.12732845544815063,
          -0.2500554919242859,
          0.04771312326192856,
          -0.01939745433628559,
          0.06672713905572891,
          -0.21804451942443848,
          0.07512591034173965,
          -0.09580971300601959,
          0.50362628698349,
          0.05526451766490936,
          -0.08694325387477875,
          0.01686546392738819,
          0.4285372793674469,
          0.47923752665519714,
          0.8352860808372498,
          0.13510213792324066,
          -0.5546057224273682,
          0.36721500754356384,
          0.080437570810318,
          -0.19208092987537384,
          0.2489067167043686,
          -0.5692640542984009,
          0.4987711012363434,
          -0.3127221465110779,
          -0.06805606186389923,
          -0.1298220455646515,
          -0.2752688229084015,
          0.4441448450088501,
          0.0717557743191719,
          -0.37791794538497925,
          0.09111993759870529,
          0.4873984754085541,
          0.09977021813392639,
          0.3576285243034363,
          0.39764124155044556,
          0.1085045263171196,
          -0.6223090291023254,
          -0.0061710067093372345,
          -0.2512006461620331,
          0.6998681426048279,
          0.12419744580984116,
          -0.11034788936376572,
          -0.19936750829219818,
          -0.44615039229393005,
          -0.09831774979829788,
          -0.15945683419704437,
          0.16851717233657837,
          -0.0084642693400383,
          -0.8417916297912598,
          -0.29044318199157715,
          -0.4063943922519684,
          -0.18154855072498322,
          -0.2070751041173935,
          -0.1687481552362442,
          -0.019314657896757126,
          0.12293597310781479,
          0.1126260831952095,
          0.09080449491739273,
          -0.33962899446487427,
          0.12696152925491333,
          0.13332439959049225,
          0.40600109100341797,
          0.43563249707221985,
          0.17571048438549042,
          -0.0795663520693779,
          0.08211877942085266,
          0.005958639085292816,
          -0.6504523754119873,
          -0.061029545962810516,
          -0.26755234599113464,
          0.09686629474163055,
          0.22756578028202057,
          -0.5038485527038574,
          -0.1124071553349495,
          0.14164850115776062,
          0.05924508348107338,
          0.5221508741378784,
          0.47157374024391174,
          0.22379657626152039,
          -0.005094702821224928,
          0.13152247667312622,
          0.2404525876045227,
          0.24571506679058075,
          0.0759802758693695,
          -0.13008776307106018,
          -0.0631871372461319,
          -0.3843719959259033,
          0.419442355632782,
          0.5277681946754456,
          0.10699806362390518,
          -0.04323114827275276,
          -0.013838686980307102,
          -0.49846720695495605,
          0.0237655658274889,
          -0.14387483894824982,
          0.20728799700737,
          0.17275188863277435,
          -0.3478195071220398,
          -0.13771358132362366,
          0.32077375054359436,
          -0.19741809368133545,
          0.16697460412979126,
          -0.1883733570575714,
          0.07445432245731354,
          0.11043215543031693,
          0.26073646545410156,
          0.4755150377750397,
          -0.5018187165260315,
          0.048924993723630905,
          0.10750342160463333,
          -0.143535777926445,
          -0.04192269966006279,
          -0.2905578017234802,
          -0.3213519752025604,
          -0.4674746096134186,
          0.006711544934660196,
          -0.1929871141910553,
          -0.1440037190914154,
          0.2508678436279297,
          -0.12083754688501358,
          -0.15813328325748444,
          0.09337345510721207,
          -0.2090286910533905,
          0.259676992893219,
          0.35827434062957764,
          -0.29695114493370056,
          0.1701088398694992,
          -0.5298227071762085,
          0.19530101120471954,
          0.09494037181138992,
          0.1284075677394867,
          0.2468044012784958,
          0.5678724646568298,
          -0.13915584981441498,
          0.09437341243028641,
          -0.2600419819355011,
          0.08286802470684052,
          0.015019303187727928,
          -0.3758305311203003,
          -0.15770015120506287,
          0.23859736323356628,
          0.06595728546380997,
          0.1059192642569542,
          0.3529774844646454,
          0.22837266325950623,
          -0.25555503368377686,
          -0.1311316192150116,
          0.008443605154752731,
          0.2135550081729889,
          0.008625631220638752,
          0.2556605935096741,
          0.3570594787597656,
          -0.14317113161087036,
          0.2121567279100418,
          0.34612220525741577,
          0.2685548663139343,
          0.11362869292497635,
          0.5116185545921326,
          -0.09388071298599243,
          0.1759217232465744,
          0.17975006997585297,
          -0.22571054100990295,
          0.3978307843208313,
          0.20819716155529022,
          0.3985597789287567,
          -0.6132835745811462,
          0.10358905047178268,
          0.4498898684978485,
          0.33052730560302734,
          -0.06669677048921585,
          0.2635042667388916,
          -0.004181277938187122,
          -0.13672341406345367
        ]
      },
      "inputBias": {
        "rows": 20,
        "columns": 1,
        "weights": [
          1.0361307859420776,
          2.0366692543029785,
          2.014047145843506,
          1.4531651735305786,
          1.854773998260498,
          2.0573627948760986,
          2.030055046081543,
          1.5134317874908447,
          1.8417774438858032,
          1.9581142663955688,
          2.0201098918914795,
          1.2511180639266968,
          0.7293376922607422,
          2.0047872066497803,
          1.9129643440246582,
          1.495390772819519,
          0.8201557993888855,
          1.634628176689148,
          1.7750418186187744,
          1.9378162622451782
        ]
      },
      "forgetMatrix": {
        "rows": 20,
        "columns": 26,
        "weights": [
          0.15267522633075714,
          -0.11871877312660217,
          0.047420434653759,
          0.16729189455509186,
          0.010016690008342266,
          0.253751277923584,
          0.23804709315299988,
          0.4404982626438141,
          -0.006586905103176832,
          0.09597509354352951,
          0.05696305260062218,
          0.003539900528267026,
          -0.1573280245065689,
          -0.33175885677337646,
          0.048177216202020645,
          0.3180706202983856,
          -0.10793527215719223,
          -0.060836311429739,
          -0.0984782800078392,
          -0.29389992356300354,
          -0.11809320002794266,
          -0.050647009164094925,
          0.1421705037355423,
          -0.05506148561835289,
          -0.07548419386148453,
          0.4369579255580902,
          0.3043920397758484,
          -0.11653789132833481,
          -0.21828332543373108,
          -0.1232663094997406,
          -0.17957709729671478,
          -0.2888000011444092,
          -0.17013713717460632,
          -0.19431036710739136,
          0.2600952684879303,
          -0.0022488879039883614,
          -0.1463695615530014,
          0.01743766851723194,
          -0.010948735289275646,
          -0.04065810143947601,
          0.323019415140152,
          0.10378123074769974,
          -0.11394196003675461,
          -0.08097351342439651,
          -0.044091496616601944,
          -0.23600813746452332,
          -0.03946956992149353,
          -0.20109720528125763,
          0.029876891523599625,
          -0.2525155246257782,
          -0.07358020544052124,
          -0.09854835271835327,
          0.0225127674639225,
          0.20086456835269928,
          -0.02194131724536419,
          0.12384442239999771,
          0.12283811718225479,
          0.09374002367258072,
          0.2777860164642334,
          -0.05607711896300316,
          0.3163871169090271,
          0.1737615168094635,
          0.2626412808895111,
          0.14051666855812073,
          -0.11301860213279724,
          -0.13860712945461273,
          -0.08521890640258789,
          0.3372967541217804,
          -0.20028240978717804,
          -0.06502643972635269,
          0.2917036712169647,
          0.11486765742301941,
          -0.06489509344100952,
          -0.12823733687400818,
          0.08405277878046036,
          -0.15459869801998138,
          0.06432904303073883,
          -0.14278466999530792,
          -0.11152227967977524,
          0.147655189037323,
          -0.2300247997045517,
          0.027030693367123604,
          -0.26304078102111816,
          -0.2292216569185257,
          -0.11522992700338364,
          -0.0038406888488680124,
          0.24569225311279297,
          0.2754053771495819,
          0.005257910583168268,
          0.14789965748786926,
          0.4294847548007965,
          -0.17372046411037445,
          0.49623560905456543,
          -0.19449174404144287,
          -0.16380704939365387,
          0.12262419611215591,
          -0.11622647196054459,
          -0.41520145535469055,
          -0.4811753034591675,
          -0.09360767900943756,
          0.4544391930103302,
          -0.2128136157989502,
          0.03907927870750427,
          -0.06628856062889099,
          -0.06665802001953125,
          -0.10582715272903442,
          0.13753221929073334,
          0.2372513711452484,
          -0.19366037845611572,
          -0.0732991024851799,
          -0.17609724402427673,
          -0.1982048898935318,
          -0.17280066013336182,
          0.2424575388431549,
          0.11467551440000534,
          0.1695595234632492,
          -0.12535983324050903,
          0.0763096809387207,
          -0.22765573859214783,
          0.003218126017600298,
          0.32198718190193176,
          -0.2548878490924835,
          0.3401215076446533,
          0.04883022606372833,
          -0.058923061937093735,
          0.17732666432857513,
          0.10840640217065811,
          0.2275378257036209,
          0.01219912339001894,
          0.020760124549269676,
          -0.17864258587360382,
          0.18452085554599762,
          -0.25881269574165344,
          -0.10795529931783676,
          -0.06801395118236542,
          0.326170951128006,
          0.15069377422332764,
          0.23306483030319214,
          0.2067708820104599,
          0.08209667354822159,
          -0.14858996868133545,
          -0.030496858060359955,
          0.14699937403202057,
          -0.26426053047180176,
          -0.3580019474029541,
          -0.08171097189188004,
          0.21223896741867065,
          -0.09694783389568329,
          0.03192673251032829,
          -0.15221334993839264,
          -0.08198446035385132,
          0.027504486963152885,
          -0.22343286871910095,
          -0.2845749855041504,
          -0.02251766063272953,
          -0.004950501956045628,
          0.24016930162906647,
          -0.21139000356197357,
          0.05662214010953903,
          -0.06758302450180054,
          0.3130611479282379,
          0.1521896868944168,
          -0.037986863404512405,
          -0.0838588997721672,
          0.0675542950630188,
          0.043628040701150894,
          0.35177770256996155,
          -0.057006899267435074,
          -0.37594929337501526,
          0.015394201502203941,
          0.3215176463127136,
          0.41142305731773376,
          0.20871348679065704,
          -0.16737909615039825,
          -0.09531539678573608,
          0.08978036791086197,
          -0.0813511312007904,
          0.28947913646698,
          0.09046019613742828,
          -0.047522228211164474,
          -0.00581800052896142,
          0.09387889504432678,
          -0.497056245803833,
          0.15168875455856323,
          0.022266410291194916,
          -0.006839838810265064,
          0.059632714837789536,
          -0.1395454853773117,
          -0.12240344285964966,
          0.27317196130752563,
          -0.016834499314427376,
          -0.09350790828466415,
          0.20103995501995087,
          0.05943404510617256,
          0.16406607627868652,
          0.02887294627726078,
          0.1610000878572464,
          0.3830192983150482,
          0.19968420267105103,
          -0.12938089668750763,
          0.37848755717277527,
          0.16181494295597076,
          -0.14346109330654144,
          -0.0027120865415781736,
          0.0366087444126606,
          -0.042263127863407135,
          -0.10929645597934723,
          0.2700665295124054,
          0.3500393331050873,
          -0.1718793660402298,
          -0.0047027054242789745,
          -0.27636271715164185,
          -0.14766032993793488,
          0.029721854254603386,
          0.03797661140561104,
          -0.0002971710346173495,
          -0.04140790179371834,
          0.08970662951469421,
          0.029532620683312416,
          0.21263833343982697,
          0.06846439093351364,
          0.19271640479564667,
          0.008387436158955097,
          -0.4260531961917877,
          0.18863601982593536,
          -0.01779663935303688,
          0.10994979739189148,
          -0.3606792688369751,
          -0.21026279032230377,
          -0.08347620069980621,
          0.06320760399103165,
          -0.14954237639904022,
          0.22826331853866577,
          -0.25353938341140747,
          -0.07321798801422119,
          0.22443628311157227,
          -0.336961030960083,
          -0.2912224531173706,
          -0.009347151964902878,
          -0.25644806027412415,
          -0.23162561655044556,
          -0.37889522314071655,
          0.007402884773910046,
          -0.1273108571767807,
          0.006706490647047758,
          0.2044505774974823,
          0.30468398332595825,
          -0.10735148936510086,
          0.051100827753543854,
          0.04044650122523308,
          -0.21683178842067719,
          0.1953287422657013,
          -0.08097447454929352,
          0.15887662768363953,
          0.11908518522977829,
          -0.14114542305469513,
          -0.008988975547254086,
          0.07865738123655319,
          -0.0746576264500618,
          0.08966462314128876,
          -0.1805429309606552,
          -0.03798524662852287,
          -0.19633668661117554,
          0.13961297273635864,
          0.13556770980358124,
          0.07866695523262024,
          -0.02158380299806595,
          0.18888157606124878,
          0.010368355549871922,
          0.2562255561351776,
          0.01094815880060196,
          0.03727973252534866,
          -0.005858244374394417,
          0.10090257227420807,
          -0.1587216854095459,
          0.06922043859958649,
          0.037662602961063385,
          0.25884947180747986,
          0.3336978852748871,
          -0.33731165528297424,
          -0.005086496472358704,
          0.2802053987979889,
          -0.3130047619342804,
          -0.046103108674287796,
          0.14108385145664215,
          -0.15038588643074036,
          0.29104647040367126,
          -0.14024634659290314,
          0.1115393191576004,
          0.22809889912605286,
          -0.11622823774814606,
          -0.06356195360422134,
          0.11881823092699051,
          -0.11519932746887207,
          -0.3231322169303894,
          -0.04795393720269203,
          -0.07346779108047485,
          0.0767597034573555,
          0.09016161412000656,
          0.3408794701099396,
          0.351185142993927,
          -0.08294710516929626,
          -0.14026042819023132,
          -0.15669474005699158,
          0.034647829830646515,
          -0.12689486145973206,
          -0.07885085046291351,
          0.049539994448423386,
          -0.2659691572189331,
          0.04330892115831375,
          -0.05245104432106018,
          0.08618821203708649,
          0.0045068091712892056,
          -0.19786134362220764,
          -0.001797863864339888,
          0.1390971541404724,
          -0.061872854828834534,
          -0.21983124315738678,
          -0.30599790811538696,
          -0.6738311052322388,
          0.00507744774222374,
          0.0651383250951767,
          0.06970281153917313,
          0.14853613078594208,
          -0.26286327838897705,
          -0.06618113815784454,
          -0.0214945487678051,
          0.19694620370864868,
          0.3635810315608978,
          0.012037555687129498,
          -0.014452542178332806,
          -0.06409765779972076,
          -0.06888220459222794,
          -0.04507377743721008,
          0.3011128008365631,
          -0.061881329864263535,
          -0.25588345527648926,
          -0.06732850521802902,
          -0.28091681003570557,
          0.17485840618610382,
          0.11258304119110107,
          0.0866013914346695,
          -0.1443476676940918,
          -0.17299383878707886,
          0.3022746443748474,
          0.14724217355251312,
          0.0036830876488238573,
          0.155429869890213,
          -0.27380505204200745,
          0.06807174533605576,
          0.10336597263813019,
          0.26786601543426514,
          -0.07986512780189514,
          -0.10421647876501083,
          0.12030982226133347,
          0.08168734610080719,
          0.027680469676852226,
          0.039714228361845016,
          -0.0925968736410141,
          0.3647337555885315,
          0.10719207674264908,
          -0.15723460912704468,
          -0.24376636743545532,
          -0.10210579633712769,
          -0.15505079925060272,
          0.08069247007369995,
          -0.16337360441684723,
          0.1616726815700531,
          -0.07873550802469254,
          -0.030500592663884163,
          0.21719394624233246,
          -0.2514791488647461,
          -0.040178634226322174,
          -0.03932122886180878,
          -0.18554183840751648,
          0.2012203335762024,
          0.21481794118881226,
          0.22581738233566284,
          -0.014046691358089447,
          0.16494996845722198,
          -0.012225520797073841,
          0.21226578950881958,
          -0.06346608698368073,
          0.3136690557003021,
          -0.09142429381608963,
          0.34824874997138977,
          0.25256600975990295,
          0.11058109253644943,
          -0.09712337702512741,
          0.18742713332176208,
          0.1330079734325409,
          -0.0695575624704361,
          -0.10050904005765915,
          0.27950990200042725,
          0.2724946141242981,
          0.21255327761173248,
          0.17292290925979614,
          0.16811928153038025,
          0.06564544141292572,
          -0.05402086675167084,
          -0.023322902619838715,
          -0.19382360577583313,
          0.010486719198524952,
          -0.12603941559791565,
          0.004154739435762167,
          -0.07995088398456573,
          0.18488004803657532,
          -0.004817187786102295,
          -0.14192213118076324,
          -0.36602216958999634,
          0.08007355779409409,
          -0.017873302102088928,
          0.08893099427223206,
          -0.03300867974758148,
          0.153732568025589,
          0.13975493609905243,
          0.0012324032140895724,
          0.040703050792217255,
          0.1595693975687027,
          0.04244913533329964,
          0.3411635756492615,
          -0.17048238217830658,
          0.09429001808166504,
          -0.05031475052237511,
          0.166382297873497,
          -0.13927064836025238,
          0.07244919240474701,
          -0.3112238943576813,
          0.08518144488334656,
          -0.2517922818660736,
          -0.05672460421919823,
          0.2150522768497467,
          -0.2733815014362335,
          0.32752567529678345,
          -0.053274672478437424,
          0.012089581228792667,
          0.044903695583343506,
          -0.19323918223381042,
          0.12486086785793304,
          -0.20197245478630066,
          -0.167621910572052,
          -0.06180302053689957,
          -0.11169720441102982,
          -0.1441136598587036,
          -0.3359484374523163,
          -0.2653632164001465,
          -0.3026164770126343,
          -0.06428952515125275,
          0.02395539917051792,
          -0.6097150444984436,
          -0.0643172636628151,
          -0.08724766969680786,
          0.1576240211725235,
          -0.2573581039905548,
          -0.40868043899536133,
          0.2017211616039276,
          0.13267330825328827,
          0.031534817069768906,
          -0.24860422313213348,
          0.1296425759792328,
          -0.3015293478965759,
          -0.16071073710918427,
          -0.19091026484966278,
          0.31271058320999146,
          0.4992102086544037,
          -0.29617345333099365,
          -0.31206005811691284,
          -0.19273437559604645,
          -0.1333690583705902,
          0.05867290124297142,
          -0.0028556061442941427,
          0.003881830256432295,
          0.15715864300727844,
          0.16469044983386993,
          0.17538250982761383,
          0.5761973261833191,
          -0.137384831905365,
          0.3413145840167999,
          0.0785863995552063,
          -0.12029556185007095,
          0.09785647690296173,
          -0.15739187598228455,
          -0.18846122920513153,
          0.07217582315206528,
          -0.08658748865127563,
          -0.02862587198615074,
          0.18957103788852692,
          0.3771122694015503,
          0.5268867611885071,
          0.6864297986030579,
          -0.25308310985565186,
          0.5191450715065002,
          -0.06059936061501503,
          0.023093996569514275,
          -0.02716636471450329,
          0.10461213439702988,
          -0.046262163668870926,
          -0.18426154553890228,
          -0.1677251160144806,
          0.20462264120578766,
          0.2872280180454254,
          -0.09648974984884262,
          -0.2121487408876419,
          -0.28173577785491943,
          -0.4371991455554962,
          -0.128770112991333,
          -0.04594207927584648,
          0.26804354786872864,
          -0.02111942321062088,
          0.1442355215549469,
          -0.06885471940040588,
          0.1748623251914978,
          -0.40308138728141785,
          -0.007234497461467981,
          0.12517046928405762,
          0.31976252794265747,
          -0.0511106513440609,
          0.01699499972164631,
          -0.0876309871673584,
          0.0011989045888185501
        ]
      },
      "forgetHidden": {
        "rows": 20,
        "columns": 20,
        "weights": [
          0.16948586702346802,
          0.45210039615631104,
          0.061090148985385895,
          0.04007218778133392,
          0.8407638072967529,
          0.0690528079867363,
          0.09256795048713684,
          0.3294619619846344,
          -0.09706748276948929,
          0.5783371925354004,
          -0.2552490830421448,
          -0.33806732296943665,
          0.2611314058303833,
          0.19759227335453033,
          0.34910082817077637,
          0.33096885681152344,
          0.49251696467399597,
          -0.22028249502182007,
          -0.43270260095596313,
          0.1461470127105713,
          -0.6811309456825256,
          -0.5550462603569031,
          -0.008727563545107841,
          0.23035657405853271,
          0.2458626627922058,
          -0.35515421628952026,
          0.5157163143157959,
          0.046740949153900146,
          0.19030584394931793,
          -0.20499679446220398,
          -0.17776894569396973,
          -0.7292564511299133,
          0.6434108018875122,
          -0.494324654340744,
          0.2657547891139984,
          -0.8107382655143738,
          0.4336620569229126,
          -0.4140976667404175,
          0.24582110345363617,
          -0.20415498316287994,
          0.21025681495666504,
          0.3825620114803314,
          0.2053895741701126,
          -0.36416926980018616,
          0.2382560670375824,
          -0.05495679751038551,
          -0.1276410073041916,
          0.2058790624141693,
          -0.25885093212127686,
          -0.1477593332529068,
          0.12991435825824738,
          0.4417151212692261,
          0.5272811651229858,
          -0.20871466398239136,
          0.1773277372121811,
          0.4161980450153351,
          -0.17995640635490417,
          0.2183646559715271,
          0.14629249274730682,
          -0.053422365337610245,
          -0.4125320017337799,
          -0.5716447234153748,
          0.07893429696559906,
          -0.0800284668803215,
          0.2258681356906891,
          -0.11702006310224533,
          -0.06088057532906532,
          0.28460487723350525,
          -0.08794573694467545,
          -0.4210694432258606,
          0.26648715138435364,
          -0.30096590518951416,
          0.5919681787490845,
          -0.18987663090229034,
          0.45108869671821594,
          -0.20726490020751953,
          0.5743838548660278,
          -0.8067954778671265,
          -0.348862886428833,
          0.21242141723632812,
          0.07268873602151871,
          0.5042787790298462,
          0.042679980397224426,
          -0.057113781571388245,
          -0.8032636046409607,
          -0.06975503265857697,
          -0.32698625326156616,
          -0.10164257884025574,
          0.8725571632385254,
          0.10473445802927017,
          0.09803645312786102,
          -0.36308005452156067,
          0.20832489430904388,
          0.24414020776748657,
          -0.42005616426467896,
          -0.13000135123729706,
          -0.27693700790405273,
          -0.2390948086977005,
          -0.12432701885700226,
          0.06571385264396667,
          -0.03618456423282623,
          -0.6134312152862549,
          0.22025097906589508,
          -0.4618762135505676,
          0.10617244988679886,
          0.5073409080505371,
          -0.3820628821849823,
          -0.32856565713882446,
          0.18763776123523712,
          -0.017635826021432877,
          -0.09110129624605179,
          0.7946022152900696,
          0.13748446106910706,
          -0.48513150215148926,
          -0.026392154395580292,
          0.09980065375566483,
          -0.22652165591716766,
          -0.02173192799091339,
          -0.06855408847332001,
          -0.17859019339084625,
          -0.24783296883106232,
          0.046677231788635254,
          -0.21090549230575562,
          0.048468805849552155,
          0.3742896616458893,
          -0.37372639775276184,
          0.19835488498210907,
          0.4065529406070709,
          -0.24836638569831848,
          -0.5578151941299438,
          0.001996645238250494,
          -0.11841411888599396,
          0.1616131067276001,
          -0.08547959476709366,
          0.4632302522659302,
          0.14214307069778442,
          -0.018745772540569305,
          -0.24455180764198303,
          -0.020734868943691254,
          0.05969209969043732,
          -0.017618928104639053,
          0.10977349430322647,
          -0.20578904449939728,
          -0.3644389510154724,
          -0.2599046230316162,
          -0.10523373633623123,
          0.20468570291996002,
          -0.8552380204200745,
          0.08424010872840881,
          -0.23421436548233032,
          -0.24443262815475464,
          -0.02679493837058544,
          -0.04131444916129112,
          0.12745895981788635,
          -0.2826327979564667,
          -0.6275303363800049,
          -0.37607449293136597,
          -0.280111700296402,
          -0.39640936255455017,
          -0.07317840307950974,
          0.07446293532848358,
          0.09246690571308136,
          -0.20750947296619415,
          -0.7687800526618958,
          -0.39272478222846985,
          -0.26918232440948486,
          -0.38818010687828064,
          0.2799818515777588,
          -0.086495541036129,
          -0.012475629337131977,
          -0.13687290251255035,
          -0.03866489604115486,
          0.4618324637413025,
          -0.33382612466812134,
          0.0014426345005631447,
          -0.6938926577568054,
          0.3499819338321686,
          0.04186609387397766,
          0.07923807948827744,
          0.30965733528137207,
          0.15705138444900513,
          -0.586449146270752,
          0.2171209156513214,
          -0.648725152015686,
          -0.08777887374162674,
          0.2345513552427292,
          0.2684754729270935,
          0.198187455534935,
          0.1469755917787552,
          -0.27330636978149414,
          -0.3125492334365845,
          0.10776207596063614,
          1.0969232320785522,
          -0.34527507424354553,
          0.4072367548942566,
          0.19813185930252075,
          -0.7768257260322571,
          -0.3743606209754944,
          -0.27675914764404297,
          -0.044790856540203094,
          -0.07351598888635635,
          0.7784560918807983,
          -0.30246877670288086,
          0.08912426233291626,
          -0.47231370210647583,
          -0.009068134240806103,
          -0.3761279582977295,
          -0.010145685635507107,
          0.0868561789393425,
          0.44345176219940186,
          0.1873573213815689,
          0.2487230896949768,
          0.2743113934993744,
          -0.7815458178520203,
          0.07791714370250702,
          -0.11475295573472977,
          -0.09596441686153412,
          0.7279520630836487,
          0.30494898557662964,
          -0.18748416006565094,
          0.2201177179813385,
          0.5105066895484924,
          -0.3325270116329193,
          0.04854651540517807,
          0.19854116439819336,
          0.41484665870666504,
          -0.04770172759890556,
          -0.2923213541507721,
          -0.03460225090384483,
          0.2613043189048767,
          -0.003099014749750495,
          0.00804821401834488,
          0.470294326543808,
          -0.6003366112709045,
          0.20236213505268097,
          -0.41263750195503235,
          0.04308833181858063,
          0.22693665325641632,
          0.22642217576503754,
          -0.42002710700035095,
          -0.7137380838394165,
          -1.1283016204833984,
          -0.30452772974967957,
          0.03207016363739967,
          0.10205911099910736,
          -0.547775387763977,
          -0.3242749869823456,
          0.6445478200912476,
          -0.34130069613456726,
          -0.7281559109687805,
          0.3312232494354248,
          0.7435144782066345,
          -0.21784959733486176,
          -0.3780306279659271,
          -0.31901758909225464,
          0.3545186519622803,
          0.2973814904689789,
          -0.11107660084962845,
          -0.10296063870191574,
          0.2889861762523651,
          0.5352702140808105,
          -0.1213284507393837,
          -0.2849363088607788,
          -0.020985666662454605,
          -0.06610429286956787,
          0.7488481998443604,
          -0.08219151943922043,
          -0.6109377145767212,
          0.2122148871421814,
          -0.2833635210990906,
          -0.2529473602771759,
          0.07530870288610458,
          -0.12585991621017456,
          0.31160858273506165,
          -0.002265464747324586,
          0.151815265417099,
          0.14506548643112183,
          0.03029659017920494,
          -0.31924551725387573,
          0.4059995114803314,
          -0.14346958696842194,
          0.5268990993499756,
          0.5952325463294983,
          -0.3534793555736542,
          -0.8456631898880005,
          0.3702717125415802,
          0.14519572257995605,
          -0.0563477985560894,
          -0.03207610920071602,
          0.2106989324092865,
          0.14729543030261993,
          -0.22407804429531097,
          0.22639970481395721,
          -0.04274827614426613,
          -0.11126413941383362,
          -0.3324444890022278,
          -0.0352415107190609,
          -0.0151224909350276,
          -0.008183242753148079,
          0.2036461979150772,
          -0.34371817111968994,
          -1.0031890869140625,
          -0.12628185749053955,
          -0.385865718126297,
          -0.3365477919578552,
          -0.15689268708229065,
          0.16360796988010406,
          -0.1691134124994278,
          0.15873976051807404,
          -0.45189109444618225,
          0.02032659575343132,
          -0.07923559844493866,
          -0.44713112711906433,
          0.028022075071930885,
          -0.42972123622894287,
          -0.11069011688232422,
          -0.22290074825286865,
          -0.21656544506549835,
          -0.018058117479085922,
          0.1564110815525055,
          -0.19278249144554138,
          -0.8066487908363342,
          -0.4174458980560303,
          0.05108606815338135,
          0.0857425108551979,
          0.2317260205745697,
          0.6195010542869568,
          0.01042987871915102,
          0.16625279188156128,
          -0.7099021673202515,
          0.22501491010189056,
          0.11758319288492203,
          0.1739058494567871,
          0.1090363934636116,
          -0.017979109659790993,
          0.499776691198349,
          0.21520909667015076,
          -0.12991146743297577,
          0.1682545691728592,
          0.5368530750274658,
          0.18593047559261322,
          -0.20032517611980438,
          -0.3948536217212677,
          -0.14633885025978088,
          -0.06618006527423859,
          0.1311962902545929,
          -0.25334951281547546,
          -0.3247775733470917,
          -0.14359422028064728,
          -0.051053084433078766,
          0.04673177748918533,
          0.3225296437740326,
          -0.2213277816772461,
          0.05044446885585785,
          -0.4150324761867523,
          0.07897420227527618,
          -0.011732635088264942,
          0.2632919251918793,
          0.30935046076774597,
          0.3220999538898468,
          0.08085576444864273,
          -0.20806042850017548,
          0.29325002431869507,
          -0.486051082611084,
          -0.2691400349140167,
          -0.366453617811203,
          0.4516022503376007,
          -0.2190859317779541,
          0.47320181131362915,
          -0.28965017199516296,
          -0.2769189774990082,
          -0.37237557768821716,
          0.9864937663078308,
          -0.004947084002196789,
          -0.0340333953499794,
          -0.6602368354797363,
          -0.5610097050666809,
          -0.5185244679450989,
          -0.17931662499904633,
          -0.29010826349258423,
          0.3368312418460846,
          -0.046283356845378876,
          0.4154894948005676,
          0.13015438616275787,
          0.17368030548095703,
          0.1769600659608841,
          0.6027726531028748,
          -0.26993492245674133,
          0.005715873558074236,
          -0.6435832381248474,
          -0.29536935687065125,
          -0.4904141426086426,
          -0.3679156005382538,
          0.2782943844795227,
          0.2685844898223877,
          0.04535529389977455,
          0.3045240640640259,
          -0.3778955340385437,
          -0.08012337237596512,
          0.5196210741996765
        ]
      },
      "forgetBias": {
        "rows": 20,
        "columns": 1,
        "weights": [
          0,
          0,
          0,
          0,
          0,
          0,
          0,
          0,
          0,
          0,
          0,
          0,
          0,
          0,
          0,
          0,
          0,
          0,
          0,
          0
        ]
      },
      "outputMatrix": {
        "rows": 20,
        "columns": 26,
        "weights": [
          -0.014026334509253502,
          0.0768122673034668,
          -0.456920325756073,
          0.06662121415138245,
          0.17192518711090088,
          0.2176307588815689,
          0.20069848001003265,
          -0.011736458167433739,
          0.05979301407933235,
          -0.13946297764778137,
          0.1482609212398529,
          -0.0800667405128479,
          -0.2723361849784851,
          -0.32913824915885925,
          -0.09841704368591309,
          -0.011694595217704773,
          -0.06274010986089706,
          -0.17920148372650146,
          0.2927217185497284,
          0.23475101590156555,
          0.05157136172056198,
          0.12553472816944122,
          0.04379652813076973,
          -0.033878013491630554,
          0.07295066863298416,
          0.03278479725122452,
          -0.05350068584084511,
          -0.14578445255756378,
          0.024215707555413246,
          -0.4256092309951782,
          0.1570269614458084,
          -0.19146788120269775,
          -0.26339077949523926,
          0.2770520746707916,
          -0.1826009452342987,
          0.13908447325229645,
          -0.06779883801937103,
          0.21780066192150116,
          -0.21643772721290588,
          0.3747934401035309,
          0.22148001194000244,
          0.017628619447350502,
          -0.17650575935840607,
          0.47017815709114075,
          -0.2042076736688614,
          0.19645431637763977,
          -0.0070894332602620125,
          -0.30065566301345825,
          0.25078943371772766,
          0.030811363831162453,
          0.13628439605236053,
          -0.01755092479288578,
          -0.20538821816444397,
          -0.031286634504795074,
          0.2620008587837219,
          -0.014682061038911343,
          0.12136797606945038,
          0.11839982122182846,
          -0.17517700791358948,
          -0.0354955717921257,
          -0.08093951642513275,
          0.35947751998901367,
          0.11676707863807678,
          0.23392674326896667,
          0.2328857183456421,
          -0.19834592938423157,
          0.13702870905399323,
          0.024252580478787422,
          -0.04617329314351082,
          -0.21585534512996674,
          0.1574549376964569,
          0.20035167038440704,
          0.017671221867203712,
          0.19571486115455627,
          -0.18808776140213013,
          0.10493490099906921,
          0.09287448972463608,
          0.2048538625240326,
          -0.16254208981990814,
          0.15216444432735443,
          0.09607509523630142,
          0.03756343573331833,
          0.1102905422449112,
          -0.0053230393677949905,
          0.20214639604091644,
          -0.07101695984601974,
          0.009821967221796513,
          -0.008164148777723312,
          0.19713722169399261,
          0.04719999060034752,
          -0.1535738706588745,
          0.08358649164438248,
          -0.24499736726284027,
          0.12199201434850693,
          -0.021115068346261978,
          -0.2190829962491989,
          0.08271856606006622,
          0.06629985570907593,
          0.40539559721946716,
          0.030370118096470833,
          -0.1191914975643158,
          -0.025630880147218704,
          -0.04433529078960419,
          0.09337811172008514,
          0.3962858021259308,
          0.25720205903053284,
          -0.08951777964830399,
          -0.2344675064086914,
          0.09852997213602066,
          0.2810935080051422,
          -0.2604803740978241,
          -0.16099368035793304,
          -0.2400917410850525,
          0.12459402531385422,
          0.019617166370153427,
          -0.32766053080558777,
          0.04182104766368866,
          -0.42905285954475403,
          0.6855565309524536,
          0.09815928339958191,
          -0.25005561113357544,
          0.2954704761505127,
          0.06633616983890533,
          -0.09072171151638031,
          -0.029093358665704727,
          -0.10075441747903824,
          0.29743537306785583,
          -0.09083591401576996,
          0.2672766447067261,
          0.28751975297927856,
          0.17454522848129272,
          0.11017727851867676,
          0.25636619329452515,
          -0.16919291019439697,
          0.32294154167175293,
          0.40872108936309814,
          0.025892117992043495,
          0.24511775374412537,
          0.026465855538845062,
          0.23199088871479034,
          0.2329455316066742,
          -0.08935945481061935,
          0.028364272788167,
          -0.010702069848775864,
          -0.16094061732292175,
          -0.06309980899095535,
          -0.02946467138826847,
          -0.05089009180665016,
          -0.08794714510440826,
          0.0493805818259716,
          -0.05868539959192276,
          0.3840721845626831,
          0.10225363075733185,
          0.2318626046180725,
          -0.0682101845741272,
          0.049910563975572586,
          0.018249424174427986,
          -0.09698636829853058,
          0.13643395900726318,
          -0.39837220311164856,
          -0.2073248028755188,
          0.15330779552459717,
          -0.24858815968036652,
          0.13034634292125702,
          -0.08287446200847626,
          -0.05191243439912796,
          0.30902722477912903,
          -0.21497255563735962,
          0.07186519354581833,
          0.03684655576944351,
          0.29698479175567627,
          0.12764248251914978,
          -0.08522361516952515,
          -0.05747608467936516,
          0.14855800569057465,
          -0.10047930479049683,
          0.08865389227867126,
          0.08309823274612427,
          -0.29852721095085144,
          0.1678031086921692,
          0.17161783576011658,
          -0.00013928435510024428,
          -0.07329817116260529,
          0.10179945081472397,
          -0.07895195484161377,
          -0.2693883180618286,
          -0.11612687259912491,
          -0.18968790769577026,
          0.246012881398201,
          -0.09620802849531174,
          -0.11614230275154114,
          0.35506731271743774,
          0.09611114859580994,
          0.10306932032108307,
          0.20032154023647308,
          0.1531500220298767,
          0.22651280462741852,
          -0.007336004637181759,
          -0.07399436831474304,
          0.18975330889225006,
          -0.06421360373497009,
          0.3318940997123718,
          0.08327797800302505,
          -0.2533944547176361,
          0.36013251543045044,
          0.14982306957244873,
          0.29179543256759644,
          0.15188314020633698,
          -0.4051947593688965,
          0.23584282398223877,
          -0.17244811356067657,
          0.05577262118458748,
          0.04664658382534981,
          0.600260853767395,
          0.17135387659072876,
          0.45886942744255066,
          -0.17160403728485107,
          -0.05530251935124397,
          0.2003551870584488,
          0.0578777939081192,
          0.23024199903011322,
          -0.35944998264312744,
          0.17708605527877808,
          -0.01070214994251728,
          -0.03273776173591614,
          -0.02803845703601837,
          0.15077625215053558,
          -0.01807100512087345,
          0.1449386477470398,
          0.3445948660373688,
          0.22203423082828522,
          0.21714095771312714,
          -0.16737103462219238,
          0.19577494263648987,
          -0.004019360989332199,
          0.3269962966442108,
          -0.06432498246431351,
          -0.10661149770021439,
          -0.18836432695388794,
          0.4101702868938446,
          -0.04912443459033966,
          0.25893551111221313,
          0.2418399602174759,
          0.14725595712661743,
          0.1815025806427002,
          0.13864624500274658,
          -0.09132746607065201,
          -0.07375658303499222,
          -0.013528854586184025,
          0.11424584686756134,
          0.16979162395000458,
          -0.14261113107204437,
          -0.010868554003536701,
          -0.13698264956474304,
          0.3464888036251068,
          0.38461825251579285,
          -0.5146899223327637,
          -0.1441742181777954,
          -0.1735592633485794,
          0.012990579009056091,
          -0.22169536352157593,
          -0.0839940756559372,
          -0.0284916702657938,
          -0.06144563481211662,
          0.1751272827386856,
          0.23806777596473694,
          -0.012276986613869667,
          -0.07576444745063782,
          0.2852584719657898,
          0.29139605164527893,
          0.36640307307243347,
          0.2611538767814636,
          -0.15799197554588318,
          0.04326794669032097,
          -0.004718757700175047,
          0.18545925617218018,
          0.2215719223022461,
          0.02269940823316574,
          -0.027734149247407913,
          -0.10315600782632828,
          0.4164474308490753,
          0.24724005162715912,
          0.36546874046325684,
          -0.12776879966259003,
          0.07229039072990417,
          0.003166092559695244,
          -0.16169141232967377,
          0.18932832777500153,
          0.02490958943963051,
          -0.261948823928833,
          -0.0370020717382431,
          0.009230835363268852,
          0.02115948311984539,
          0.5481500029563904,
          0.010881658643484116,
          0.12087593227624893,
          -0.21177534759044647,
          0.15304893255233765,
          0.16592583060264587,
          0.08932331949472427,
          0.14786934852600098,
          0.010021042078733444,
          -0.2701764702796936,
          -0.04648839682340622,
          -0.13269810378551483,
          0.02295074425637722,
          0.20172174274921417,
          -0.11692816019058228,
          -0.24126966297626495,
          -0.2599744200706482,
          -0.08976694196462631,
          0.010493461973965168,
          -0.3332573473453522,
          0.2308041751384735,
          0.11810698360204697,
          -0.3038497567176819,
          -0.012911253608763218,
          0.3870076835155487,
          -0.38652193546295166,
          0.2292516678571701,
          0.04402817040681839,
          0.06922038644552231,
          -0.09304728358983994,
          -0.31753596663475037,
          0.11189018934965134,
          -0.23249466717243195,
          -0.17384891211986542,
          0.019747016951441765,
          0.06355791538953781,
          0.10400369018316269,
          0.283121794462204,
          0.1624157726764679,
          -0.023063473403453827,
          0.4637378454208374,
          0.032733701169490814,
          -0.013885983265936375,
          -0.3124273717403412,
          -0.3552255928516388,
          -0.22564111649990082,
          0.023773007094860077,
          0.0651182159781456,
          -0.07334113866090775,
          -0.3856905698776245,
          -0.15012191236019135,
          -0.1640987992286682,
          0.19920378923416138,
          0.2135966718196869,
          0.08301840722560883,
          0.15985925495624542,
          0.005668032914400101,
          0.032154832035303116,
          -0.07077198475599289,
          0.36372825503349304,
          0.18333862721920013,
          -0.11983321607112885,
          -0.029570844024419785,
          0.13834592700004578,
          0.25627508759498596,
          0.18202246725559235,
          -0.2827151417732239,
          -0.18373622000217438,
          0.047597866505384445,
          -0.1060161218047142,
          0.07891590893268585,
          -0.030751336365938187,
          0.18086419999599457,
          -0.12538248300552368,
          -0.2280881255865097,
          -0.11469406634569168,
          -0.012739185243844986,
          -0.17254681885242462,
          -0.06582620739936829,
          0.19466964900493622,
          0.2263396978378296,
          -0.10511932522058487,
          -0.25918734073638916,
          0.011646308936178684,
          -0.09102065116167068,
          0.2565707266330719,
          0.05895668640732765,
          0.30327993631362915,
          -0.04552846401929855,
          0.01015224028378725,
          0.0758221372961998,
          0.12359299510717392,
          -0.057904694229364395,
          -0.09934969991445541,
          0.35994330048561096,
          -0.1501358151435852,
          0.29306894540786743,
          0.12362751364707947,
          -0.095095194876194,
          -0.15415161848068237,
          -0.13089662790298462,
          0.16175459325313568,
          0.24307018518447876,
          -0.2243693321943283,
          0.23642569780349731,
          -0.4237355887889862,
          0.0630292072892189,
          0.18956337869167328,
          -0.05351516604423523,
          -0.04675194248557091,
          -0.20507188141345978,
          0.15977324545383453,
          -0.2212350219488144,
          -0.055161140859127045,
          -0.2136579304933548,
          -0.2412242591381073,
          0.17341463267803192,
          0.14724677801132202,
          0.027217887341976166,
          0.03068968467414379,
          0.1478138417005539,
          -0.25978580117225647,
          0.11132518202066422,
          -0.05128626525402069,
          -0.25111067295074463,
          0.12991425395011902,
          0.008803543634712696,
          0.000435788300819695,
          0.06049877405166626,
          0.17792704701423645,
          0.17504961788654327,
          0.05291286110877991,
          -0.04046240448951721,
          0.014604749158024788,
          0.11823102086782455,
          0.11676287651062012,
          0.03918268531560898,
          0.19073499739170074,
          0.07417809963226318,
          -0.2557338774204254,
          -0.1481952965259552,
          -0.059187136590480804,
          0.19443129003047943,
          0.18152853846549988,
          0.0823250487446785,
          -0.09327095746994019,
          0.10469590127468109,
          0.029432769864797592,
          -0.22475449740886688,
          0.2449961155653,
          0.07603570818901062,
          0.07321125268936157,
          -0.15947169065475464,
          -0.17883774638175964,
          0.06459247320890427,
          -0.2006082683801651,
          0.17311260104179382,
          0.07105928659439087,
          0.28673502802848816,
          0.09310120344161987,
          -0.12361226975917816,
          0.12073370069265366,
          0.09141531586647034,
          -0.037710271775722504,
          -0.10877789556980133,
          0.04830236732959747,
          0.22163644433021545,
          0.05725155025720596,
          0.15072223544120789,
          0.3454083502292633,
          -0.041903305798769,
          -0.12458467483520508,
          -0.151803120970726,
          0.19426020979881287,
          -0.22184547781944275,
          -0.07996265590190887,
          0.17678554356098175,
          0.44234389066696167,
          0.1554802656173706,
          0.0038340117316693068,
          0.12485764175653458,
          -0.15195932984352112,
          -0.06359212845563889,
          0.17522387206554413,
          -0.2086094170808792,
          0.07642685621976852,
          0.06133579835295677,
          -0.113892562687397,
          -0.14875569939613342,
          0.012130063027143478,
          -0.1650029867887497,
          0.14233775436878204,
          -0.11221589893102646,
          0.05636005103588104,
          -0.19320063292980194,
          0.26789504289627075,
          0.1972731500864029,
          0.1506868302822113,
          0.18125714361667633,
          0.04456903785467148,
          -0.07042039185762405,
          -0.1189538910984993,
          -0.06621086597442627,
          0.29612410068511963,
          -0.06244732066988945,
          -0.301225870847702,
          0.05494372919201851,
          -0.27511659264564514,
          0.19994686543941498,
          -0.05646321177482605,
          -0.06399821490049362,
          0.3851912319660187,
          0.03529232740402222,
          0.1565190553665161,
          0.21630072593688965,
          0.2190232276916504,
          0.5090752840042114,
          -0.0768786370754242,
          -0.12975388765335083,
          0.13896600902080536,
          -0.029906973242759705,
          0.05461617559194565,
          0.34746310114860535,
          0.06995950639247894,
          -0.12798477709293365,
          0.0439753383398056,
          -0.24967701733112335
        ]
      },
      "outputHidden": {
        "rows": 20,
        "columns": 20,
        "weights": [
          -0.318146675825119,
          0.14502206444740295,
          -0.17472901940345764,
          0.4685177803039551,
          0.023275529965758324,
          -0.254976361989975,
          -0.0126944025978446,
          0.2244984358549118,
          -0.014612206257879734,
          0.18164755403995514,
          0.3635617792606354,
          0.07552860677242279,
          -0.13139547407627106,
          0.10500510036945343,
          -0.24102145433425903,
          0.06651781499385834,
          0.5707039833068848,
          0.05338035523891449,
          0.34092390537261963,
          -0.5184470415115356,
          -0.11182545870542526,
          -0.07124656438827515,
          0.08407209813594818,
          -0.0968400239944458,
          -0.3964349627494812,
          -0.0715981051325798,
          0.037060901522636414,
          0.06658226251602173,
          0.17003174126148224,
          -0.06485247611999512,
          0.004711983259767294,
          0.1383948177099228,
          -0.011035067029297352,
          0.02262442745268345,
          -0.337399959564209,
          0.08965346217155457,
          0.028350744396448135,
          0.1960073709487915,
          0.060882318764925,
          0.25595998764038086,
          -0.15691077709197998,
          0.09117382019758224,
          0.22614197432994843,
          0.025486160069704056,
          0.31944531202316284,
          -0.37391579151153564,
