{
  "type": "LSTM",
  "options": {
    "inputSize": 26,
    "inputRange": 26,
    "hiddenLayers": [
      20,
      20
    ],
    "outputSize": 26,
    "decayRate": 0.999,
    "smoothEps": 1e-8,
    "regc": 0.000001,
    "clipval": 5,
    "maxPredictionLength": 100,
    "dataFormatter": {
      "indexTable": {
        "a": 0,
        "i": 1,
        "d": 2,
        "e": 3,
        "g": 4,
        "u": 5,
        "o": 6,
        "n": 7,
        "s": 8,
        "h": 9,
        "y": 10,
        "b": 11,
        "l": 12,
        "x": 13,
        "q": 14,
        "t": 15,
        "j": 16,
        "w": 17,
        "z": 18,
        "c": 19,
        "f": 20,
        "p": 21,
        "m": 22,
        "k": 23,
        "r": 24,
        "unrecognized": 25
      },
      "characterTable": {
        "0": "a",
        "1": "i",
        "2": "d",
        "3": "e",
        "4": "g",
        "5": "u",
        "6": "o",
        "7": "n",
        "8": "s",
        "9": "h",
        "10": "y",
        "11": "b",
        "12": "l",
        "13": "x",
        "14": "q",
        "15": "t",
        "16": "j",
        "17": "w",
        "18": "z",
        "19": "c",
        "20": "f",
        "21": "p",
        "22": "m",
        "23": "k",
        "24": "r",
        "25": null
      },
      "values": [
        "aide",
        "aiguo",
        "an",
        "anguo",
        "anshi",
        "anyan",
        "anyi",
        "bai",
        "bailuo",
        "bang",
        "bangxao",
        "bao",
        "baoqing",
        "baotian",
        "bei",
        "biao",
        "bijun",
        "bin",
        "bing",
        "bingde",
        "bingwen",
        "bingzhang",
        "bingzhong",
        "binying",
        "bo",
        "bohai",
        "bojing",
        "bolin",
        "boqin",
        "buwei",
        "cai",
        "caifei",
        "chang",
        "changpu",
        "changwei",
        "changyong",
        "chao",
        "chaoxiang",
        "chaoyang",
        "chen",
        "cheng",
        "chenggong",
        "chenghao",
        "chengho",
        "chengji",
        "chenglei",
        "chengqian",
        "cheung",
        "chi",
        "chianghui",
        "chiju",
        "chiming",
        "ching",
        "chingwei",
        "chongan",
        "chongkun",
        "chonglin",
        "chongxian",
        "chongyi",
        "chuanli",
        "chun",
        "chung",
        "chunhua",
        "chunmei",
        "cong",
        "da",
        "dai",
        "dailin",
        "danzu",
        "daozi",
        "daxia",
        "de",
        "decheng",
        "deli",
        "delun",
        "deming",
        "deshi",
        "dewei",
        "dingbang",
        "dingbong",
        "dingxiang",
        "dong",
        "donghai",
        "donghua",
        "dongpo",
        "du",
        "duyang",
        "duyi",
        "enguo",
        "enlai",
        "fa",
        "fai",
        "fang",
        "fatang",
        "fei",
        "feng",
        "fengge",
        "fengxiang",
        "fengyi",
        "fu",
        "fuchi",
        "fuhua",
        "fukang",
        "fupo",
        "fuquan",
        "gan",
        "gang",
        "gangsheng",
        "gao",
        "geming",
        "gen",
        "ginfan",
        "gong",
        "gongsun",
        "gu",
        "guang",
        "guangli",
        "gui",
        "guifan",
        "guifei",
        "guiren",
        "guo",
        "guodong",
        "guofang",
        "guofeng",
        "guoliang",
        "guoning",
        "guoqing",
        "guoquiang",
        "guowei",
        "guoxiu",
        "guozhi",
        "gutin",
        "hai",
        "haidong",
        "haifeng",
        "hailiang",
        "han",
        "hangfu",
        "hangki",
        "hanwu",
        "hao",
        "haohing",
        "he",
        "heng",
        "hengzong",
        "heping",
        "hiangta",
        "hiyuan",
        "ho",
        "hong",
        "hongbin",
        "hongbo",
        "honghui",
        "hongqi",
        "hongquan",
        "hongwu",
        "hou",
        "houkang",
        "howin",
        "hsinpei",
        "hsuichen",
        "hsuichuan",
        "hu",
        "huading",
        "huaiyi",
        "huaiyu",
        "huan",
        "huanfu",
        "huang",
        "huangdi",
        "huangfu",
        "hui",
        "huiying",
        "hulin",
        "hung",
        "hungchang",
        "huojin",
        "huotu",
        "jaiguo",
        "janglu",
        "ji",
        "jian",
        "jiancheng",
        "jiang",
        "jiangang",
        "jiangun",
        "jianguo",
        "jianjun",
        "jianying",
        "jianyu",
        "jianzhang",
        "jiaolong",
        "jie",
        "jin",
        "jing",
        "jingbo",
        "jingguo",
        "jingquo",
        "jingsheng",
        "jingshuan",
        "jinguo",
        "jingxiang",
        "jingyu",
        "jingzhong",
        "jinhai",
        "jinjing",
        "jinsong",
        "jinwu",
        "jiong",
        "jiuling",
        "julong",
        "jun",
        "junjie",
        "juwei",
        "juyi",
        "juzheng",
        "kang",
        "kangxi",
        "kaokan",
        "kaong",
        "keung",
        "kong",
        "kuang",
        "kuangyin",
        "kun",
        "kung",
        "kungzheng",
        "lao",
        "laosheng",
        "lei",
        "li",
        "lian",
        "liang",
        "liangde",
        "licong",
        "lihong",
        "lijie",
        "lijun",
        "liming",
        "lingkung",
        "liping",
        "liqiang",
        "liren",
        "liuchun",
        "liujie",
        "liuliang",
        "liuwei",
        "liwei",
        "lixue",
        "liyong",
        "lizhu",
        "lok",
        "long",
        "longwei",
        "lung",
        "manchu",
        "manhuan",
        "mankeung",
        "meng",
        "ming",
        "mingfeng",
        "minghoa",
        "minghua",
        "mingjiang",
        "mingli",
        "mingtun",
        "mingyu",
        "minsheng",
        "minzhe",
        "minzhong",
        "nianzu",
        "ning",
        "ningqing",
        "on",
        "pang",
        "pei",
        "peng",
        "pengfei",
        "piao",
        "qi",
        "qian",
        "qianfan",
        "qianfu",
        "qiang",
        "qiangui",
        "qianhua",
        "qichang",
        "qichao",
        "qichen",
        "qinghua",
        "qinglai",
        "qingnian",
        "qingshan",
        "qingsheng",
        "qiquiang",
        "qiu",
        "qizhen",
        "quan",
        "quiang",
        "quon",
        "renqing",
        "renshu",
        "rong",
        "ru",
        "shaiming",
        "shan",
        "shanyuan",
        "shaoqi",
        "shaoqiang",
        "shaozu",
        "shen",
        "sheng",
        "shengli",
        "shi",
        "shifu",
        "shikai",
        "shilin",
        "shimin",
        "shing",
        "shining",
        "shiping",
        "shirong",
        "shixian",
        "shiyu",
        "shoiming",
        "shouchien",
        "shoufeng",
        "shoushan",
        "shouxin",
        "shunyuan",
        "si",
        "sidao",
        "siyu",
        "song",
        "sun",
        "sunwei",
        "sushun",
        "suwu",
        "sying",
        "tan",
        "tanming",
        "tao",
        "tengfei",
        "tian",
        "tianbai",
        "tianyu",
        "tingzhe",
        "tsepeng",
        "tsing",
        "tsunchung",
        "tung",
        "tungchi",
        "wanfang",
        "wanfu",
        "wang",
        "wangchao",
        "wangfen",
        "wanggang",
        "wangjie",
        "wangjun",
        "wanglei",
        "wangping",
        "wangqiang",
        "wangtao",
        "wangweo",
        "wangyong",
        "wei",
        "weifang",
        "weiguo",
        "weihong",
        "weikang",
        "weiliang",
        "weimin",
        "weiqian",
        "weiqiang",
        "weiquo",
        "weisheng",
        "weiyuan",
        "wen",
        "wencheng",
        "wenhua",
        "wenhuan",
        "wenyan",
        "wenzhong",
        "wing",
        "wingchiu",
        "wingfung",
        "wu",
        "wuhan",
        "wuji",
        "wujiang",
        "wusheng",
        "wushun",
        "wuzhou",
        "xian",
        "xiang",
        "xiangan",
        "xiangling",
        "xianliang",
        "xianyao",
        "xiaobo",
        "xiaochen",
        "xiaodan",
        "xiaogang",
        "xiaohong",
        "xiaojian",
        "xiaomei",
        "xiaopeng",
        "xiaoping",
        "xiaosheng",
        "xiaosi",
        "xiaowei",
        "xiaowen",
        "xiaoxuan",
        "xiaoyan",
        "xiaoyong",
        "xieli",
        "xin",
        "xinfang",
        "xing",
        "xingfu",
        "xinghua",
        "xingli",
        "xingpeng",
        "xingyun",
        "xinpeng",
        "xiong",
        "xitong",
        "xiu",
        "xiwang",
        "xu",
        "xuanling",
        "xue",
        "xueliang",
        "xueqin",
        "xueyou",
        "xugang",
        "xun",
        "yang",
        "yangcheng",
        "yanhao",
        "yanlin",
        "yao",
        "yaobang",
        "yaochuan",
        "yaopang",
        "yaoqing",
        "yaoting",
        "yaozu",
        "ye",
        "yeqing",
        "yi",
        "yifu",
        "yilin",
        "yimou",
        "yinfat",
        "ying",
        "yinghua",
        "yingjie",
        "yingpei",
        "yinreng",
        "yinxiang",
        "yinzheng",
        "yiping",
        "yixiao",
        "yo",
        "yong",
        "yonghong",
        "yongliang",
        "yongnian",
        "yongrui",
        "yongzhan",
        "yu",
        "yuan",
        "yuanjun",
        "yuanzhang",
        "yubao",
        "yuejiu",
        "yuerong",
        "yun",
        "yunfat",
        "yunqi",
        "yunxu",
        "yusheng",
        "yushu",
        "yuwei",
        "yuxing",
        "yuzeng",
        "yuzhang",
        "zedong",
        "zemin",
        "zenguang",
        "zhang",
        "zhangjie",
        "zhangjun",
        "zhanglei",
        "zhangqiang",
        "zhangsung",
        "zhangtao",
        "zhangwei",
        "zhangyong",
        "zhaodao",
        "zhaohui",
        "zhaoji",
        "zhaojun",
        "zhaoying",
        "zhen",
        "zhenbang",
        "zhengxing",
        "zhengzhong",
        "zhensheng",
        "zhenying",
        "zhi",
        "zhifu",
        "zhigang",
        "zhihuan",
        "zhiqiang",
        "zhixin",
        "zhiyuan",
        "zhong",
        "zhongqi",
        "zhongshan",
        "zhongshu",
        "zhongxian",
        "zhongyan",
        "zhongyi",
        "zhu",
        "zhuang",
        "zhulan",
        "zhuocheng",
        "zian",
        "zicheng",
        "zihao",
        "zijing",
        "zijun",
        "zixin",
        "zixing",
        "ziyang",
        "zongming",
        "zongyuan"
      ],
      "characters": [
        "a",
        "i",
        "d",
        "e",
        "g",
        "u",
        "o",
        "n",
        "s",
        "h",
        "y",
        "b",
        "l",
        "x",
        "q",
        "t",
        "j",
        "w",
        "z",
        "c",
        "f",
        "p",
        "m",
        "k",
        "r",
        "unrecognized"
      ],
      "specialIndexes": [
        25
      ]
    },
    "activation": "tanh"
  },
  "trainOpts": {
    "iterations": "5000",
    "errorThresh": "0.03",
    "log": false,
    "logPeriod": 1,
    "learningRate": "0.0001",
    "callbackPeriod": 1,
    "timeout": "Infinity"
  },
  "input": {
    "rows": 27,
    "columns": 26,
    "weights": [
      0.2504167854785919,
      -0.5460666418075562,
      0.28833410143852234,
      0.02466496452689171,
      0.2672051191329956,
      0.012159017845988274,
      0.10514453798532486,
      0.29015758633613586,
      0.17867112159729004,
      -0.7738394737243652,
      -0.38157424330711365,
      0.8001143336296082,
      0.11228060722351074,
      -0.3196088373661041,
      0.5836955904960632,
      -0.0766516700387001,
      -0.09214111417531967,
      -0.22887718677520752,
      0.09992612898349762,
      -0.24402154982089996,
      -0.48774734139442444,
      -0.6583673357963562,
      -0.2770545184612274,
      -0.074541375041008,
      -0.08129718899726868,
      -0.04044538736343384,
      1.196097493171692,
      1.1938310861587524,
      -1.639202356338501,
      -0.31041353940963745,
      0.22362491488456726,
      0.5908668637275696,
      0.11601711809635162,
      2.392178535461426,
      0.6604070663452148,
      1.270891785621643,
      0.3353061079978943,
      0.4045960605144501,
      0.7189059853553772,
      -1.6895339488983154,
      -0.3767838776111603,
      -0.2039140909910202,
      0.5777714848518372,
      -0.7391260862350464,
      0.5336111783981323,
      0.014088683761656284,
      0.4329286217689514,
      0.49063360691070557,
      0.012504758313298225,
      -0.23517531156539917,
      -1.0370482206344604,
      0.7667834758758545,
      1.0396125316619873,
      1.2815395593643188,
      -0.7086396813392639,
      0.9001278281211853,
      0.5438074469566345,
      1.093083143234253,
      1.322688102722168,
      0.4461207687854767,
      -0.934868574142456,
      0.715156614780426,
      -0.6622703671455383,
      -0.0005394868203438818,
      0.4944380223751068,
      -1.0168174505233765,
      -0.19558118283748627,
      0.16333989799022675,
      0.03220806643366814,
      0.6772606372833252,
      0.3210831880569458,
      0.5016874074935913,
      0.5235440731048584,
      0.05746836960315704,
      1.9776890277862549,
      0.07217928767204285,
      0.10825847089290619,
      -0.6033439636230469,
      -1.9805421829223633,
      0.044445887207984924,
      1.7519524097442627,
      0.012856721878051758,
      3.318460464477539,
      -1.0779638290405273,
      -2.335688352584839,
      -2.6533641815185547,
      -4.214969635009766,
      -0.2374381572008133,
      1.6001745462417603,
      0.2445593625307083,
      -1.5693550109863281,
      -0.7403504252433777,
      0.6973326206207275,
      -3.450984239578247,
      -1.9312232732772827,
      -1.2931528091430664,
      -1.140176773071289,
      -1.6223560571670532,
      0.23289601504802704,
      1.0074118375778198,
      -3.00947904586792,
      -4.718505382537842,
      2.4518039226531982,
      0.17207667231559753,
      1.0616670846939087,
      1.7373604774475098,
      -1.1271196603775024,
      -0.5946487784385681,
      0.22965022921562195,
      2.4884774684906006,
      2.610281467437744,
      0.9548397660255432,
      -0.546150267124176,
      1.552406907081604,
      -0.8687549829483032,
      -0.021561220288276672,
      1.248497486114502,
      -1.160088300704956,
      0.9402500987052917,
      0.15473616123199463,
      0.16094744205474854,
      -0.264339804649353,
      0.03551149368286133,
      0.27996620535850525,
      -0.013035320676863194,
      -0.49434971809387207,
      2.739219903945923,
      0.22485700249671936,
      -0.6145740747451782,
      -0.48357412219047546,
      -0.19850094616413116,
      1.9344518184661865,
      1.042014241218567,
      -0.3680441677570343,
      -0.1742422878742218,
      1.2570441961288452,
      1.2843126058578491,
      1.4358850717544556,
      0.16491186618804932,
      -0.2064705789089203,
      0.26260584592819214,
      0.5841787457466125,
      -0.2731704115867615,
      -1.007845401763916,
      0.8367406129837036,
      -0.8218000531196594,
      0.7604609131813049,
      -0.360332190990448,
      0.5707184672355652,
      -0.2868209481239319,
      -0.42086678743362427,
      -0.002636701101437211,
      -0.8200595378875732,
      0.1488911509513855,
      -1.5599290132522583,
      2.0257387161254883,
      0.3466428518295288,
      -0.032484568655490875,
      -0.6843084692955017,
      0.21860407292842865,
      -0.3873750567436218,
      0.6526676416397095,
      0.7915767431259155,
      0.26193100214004517,
      -1.0817867517471313,
      1.4160757064819336,
      -0.9221691489219666,
      0.14022670686244965,
      0.619097113609314,
      -1.9959256649017334,
      0.9685855507850647,
      0.020944854244589806,
      0.0013950001448392868,
      -0.4358330965042114,
      -0.3816196620464325,
      -0.010449729859828949,
      -0.3502502143383026,
      -0.04305220767855644,
      2.421627998352051,
      0.7869173884391785,
      -2.476651906967163,
      0.07380662858486176,
      1.5442397594451904,
      0.87287437915802,
      -0.4032727777957916,
      1.1342449188232422,
      0.6740349531173706,
      0.44368574023246765,
      2.807178258895874,
      2.006481647491455,
      -0.9175311326980591,
      1.4326139688491821,
      -0.7488237023353577,
      0.31800755858421326,
      1.4788495302200317,
      -1.2064045667648315,
      0.5074642896652222,
      0.4604514539241791,
      -1.6293550729751587,
      -0.37996718287467957,
      -0.29819223284721375,
      -0.40989670157432556,
      -0.50575852394104,
      -0.23470060527324677,
      2.888353109359741,
      1.5878578424453735,
      -1.4510999917984009,
      -0.6100013852119446,
      0.9948676824569702,
      0.4242669641971588,
      -0.10451347380876541,
      -1.323108434677124,
      1.6224554777145386,
      0.6815806031227112,
      0.34147968888282776,
      -0.059877436608076096,
      -0.6830914616584778,
      0.8723976016044617,
      -2.3858351707458496,
      -0.20406940579414368,
      1.3640340566635132,
      -0.07167419791221619,
      0.5319272875785828,
      -1.0417218208312988,
      -1.932786464691162,
      -0.47983014583587646,
      -0.46634671092033386,
      1.1913440227508545,
      1.1535110473632812,
      0.6950197815895081,
      0.6921136379241943,
      -0.33224913477897644,
      0.28243476152420044,
      -1.2114430665969849,
      0.5473078489303589,
      -1.956154227256775,
      0.8861450552940369,
      -0.050960805267095566,
      2.035942554473877,
      1.2192163467407227,
      1.403555989265442,
      1.705025315284729,
      -1.6407825946807861,
      2.074963092803955,
      -1.6889166831970215,
      0.9872680306434631,
      -0.009178418666124344,
      -2.6662609577178955,
      2.130941867828369,
      0.44779685139656067,
      -0.13874593377113342,
      0.2845025360584259,
      0.4720126986503601,
      -0.7684247493743896,
      0.281045138835907,
      -1.547658920288086,
      0.9811864495277405,
      0.9154478311538696,
      0.4942862093448639,
      -0.5691664814949036,
      -0.1339275985956192,
      -1.1706007719039917,
      0.222853884100914,
      0.11091245710849762,
      1.2738165855407715,
      -0.07167428731918335,
      0.40806859731674194,
      0.03748319298028946,
      -0.8138887286186218,
      0.9522602558135986,
      -0.3500247001647949,
      0.4972703456878662,
      -0.19107381999492645,
      -1.7315489053726196,
      0.7219252586364746,
      -0.11410350352525711,
      -0.6128764152526855,
      1.0462592840194702,
      1.5674991607666016,
      -0.8900471329689026,
      0.7704318761825562,
      -0.4959409534931183,
      -1.7802331447601318,
      -1.8491673469543457,
      -0.26389697194099426,
      -0.00026918412186205387,
      0.4127918779850006,
      0.6751353740692139,
      0.738787829875946,
      0.47761741280555725,
      0.21111923456192017,
      -0.6861706972122192,
      -0.4403337240219116,
      2.7863359451293945,
      0.2577480673789978,
      0.6856234669685364,
      -0.2670079469680786,
      -0.18144884705543518,
      -0.15355834364891052,
      -2.2350471019744873,
      0.3447157144546509,
      0.3123753070831299,
      1.0243711471557617,
      1.3789217472076416,
      0.49962612986564636,
      0.3401015102863312,
      -0.47330883145332336,
      -1.0018607378005981,
      -1.7316218614578247,
      -0.33768999576568604,
      -1.846984624862671,
      1.8781375885009766,
      0.5365974307060242,
      -0.20588679611682892,
      1.6857353448867798,
      0.29824313521385193,
      2.0868518352508545,
      -0.8649686574935913,
      1.703668475151062,
      3.854151487350464,
      0.12537486851215363,
      0.24432656168937683,
      -2.4888103008270264,
      0.7852987051010132,
      -0.46737784147262573,
      -2.1362836360931396,
      -0.6003836989402771,
      0.701752781867981,
      0.14266438782215118,
      2.261423349380493,
      0.6722149848937988,
      0.10546720027923584,
      -1.010455846786499,
      -0.9581360816955566,
      -0.8078380227088928,
      0.12809966504573822,
      -1.865340232849121,
      1.6444438695907593,
      -1.7601253986358643,
      0.18686148524284363,
      0.8009247779846191,
      -0.9640237092971802,
      -1.5514671802520752,
      0.8123725056648254,
      -1.2253844738006592,
      -2.258901357650757,
      -1.2494152784347534,
      -1.9529776573181152,
      3.2629449367523193,
      1.6315269470214844,
      0.5808358192443848,
      -0.684538722038269,
      -0.9269940853118896,
      1.237293004989624,
      0.2947272062301636,
      1.0021342039108276,
      1.8647971153259277,
      -0.3987071216106415,
      -1.2718164920806885,
      1.0887868404388428,
      -3.137103319168091,
      -2.63014554977417,
      -1.044447422027588,
      -0.14245988428592682,
      -2.0093255043029785,
      2.9987974166870117,
      3.4594790935516357,
      -0.30835720896720886,
      1.0482203960418701,
      -0.660827100276947,
      1.3764183521270752,
      0.7872176766395569,
      0.9423767924308777,
      1.0668652057647705,
      0.8957709074020386,
      1.245417833328247,
      -1.3234450817108154,
      -2.4542059898376465,
      -0.6375811696052551,
      -1.0769466161727905,
      0.22424864768981934,
      1.3135135173797607,
      2.4168286323547363,
      -0.8244590759277344,
      -1.6106113195419312,
      -1.6146353483200073,
      -1.0972033739089966,
      -0.2877923250198364,
      -2.525463342666626,
      -0.5284335017204285,
      1.1859805583953857,
      2.6123197078704834,
      1.4017505645751953,
      -1.3579380512237549,
      0.9742844700813293,
      1.601784348487854,
      1.1735846996307373,
      3.1617751121520996,
      1.0051889419555664,
      -0.5300894379615784,
      1.7340210676193237,
      0.14783817529678345,
      1.013512372970581,
      0.02335657738149166,
      1.4618792533874512,
      -0.3840470314025879,
      -3.1008729934692383,
      0.3670100271701813,
      1.6021097898483276,
      -1.6007773876190186,
      -1.7655218839645386,
      1.9325865507125854,
      -1.834542155265808,
      -1.0488619804382324,
      -0.2754550576210022,
      0.7634211182594299,
      -2.668109893798828,
      0.5026382803916931,
      -4.0360541343688965,
      2.0154006481170654,
      6.990086078643799,
      -0.6436262130737305,
      0.23090969026088715,
      -3.0525150299072266,
      1.3277937173843384,
      -6.925661087036133,
      2.672950029373169,
      -3.8137435913085938,
      1.7442841529846191,
      -5.109142303466797,
      0.38669732213020325,
      -0.08715352416038513,
      3.2716963291168213,
      4.714131832122803,
      -3.0009925365448,
      -2.0021071434020996,
      4.539040565490723,
      1.6031349897384644,
      -1.4898462295532227,
      -0.6705833077430725,
      -6.1539506912231445,
      2.3580448627471924,
      -1.1710233688354492,
      0.6230353116989136,
      0.9736169576644897,
      -0.26291969418525696,
      1.2009565830230713,
      -0.9732716679573059,
      0.09180618077516556,
      -0.35939085483551025,
      -0.09440139681100845,
      0.22183185815811157,
      0.9045934677124023,
      -0.3510274887084961,
      -0.4045560657978058,
      -1.6843819618225098,
      0.6573899388313293,
      -0.0706871896982193,
      0.19801169633865356,
      1.0664570331573486,
      1.8288989067077637,
      -0.14327411353588104,
      -0.3148964047431946,
      -1.1297277212142944,
      -1.3877999782562256,
      0.18044413626194,
      1.7228385210037231,
      1.6019313335418701,
      -2.5029804706573486,
      0.4549544155597687,
      -0.7992258071899414,
      1.1588947772979736,
      -0.5484304428100586,
      -0.8175972104072571,
      -0.8812130689620972,
      -1.858256220817566,
      -0.34364572167396545,
      -1.700398564338684,
      2.2981860637664795,
      -1.4628366231918335,
      0.6755268573760986,
      -1.8470051288604736,
      -0.13362063467502594,
      0.1411331593990326,
      -1.659037470817566,
      0.06901341676712036,
      -1.1704835891723633,
      -2.3228209018707275,
      0.0829758420586586,
      -0.9215673208236694,
      -1.1969866752624512,
      -3.1933534145355225,
      -0.3015303909778595,
      1.3778072595596313,
      -0.8176237940788269,
      0.7688302397727966,
      0.652298092842102,
      -0.1503141075372696,
      0.49565598368644714,
      -1.0101922750473022,
      0.5487348437309265,
      0.7135103940963745,
      -0.06053495779633522,
      0.6378669142723083,
      0.39235737919807434,
      -0.9363673329353333,
      0.7220107316970825,
      -1.6411606073379517,
      -0.636656641960144,
      -1.126908302307129,
      0.8954559564590454,
      -0.2752111256122589,
      0.6625759601593018,
      -0.7163393497467041,
      -0.798102617263794,
      -0.9818095564842224,
      -2.0506935119628906,
      -1.163672924041748,
      -1.1850794553756714,
      0.7286630868911743,
      -0.4068646728992462,
      0.29411667585372925,
      -0.4078690707683563,
      -1.6962116956710815,
      -0.6694991588592529,
      -0.2241201549768448,
      0.07763278484344482,
      0.8877874612808228,
      -0.07208046317100525,
      0.22540444135665894,
      0.8173944354057312,
      0.3543951213359833,
      0.33644604682922363,
      -1.255698800086975,
      0.0892345979809761,
      -1.0363636016845703,
      0.7425663471221924,
      -0.3181164264678955,
      0.15226194262504578,
      1.0413888692855835,
      -1.0640519857406616,
      -0.8692097663879395,
      -2.207369804382324,
      -0.29205620288848877,
      -0.6709750294685364,
      0.2555079162120819,
      -1.6125574111938477,
      1.4633461236953735,
      0.3556041419506073,
      -0.09533769637346268,
      -0.8617352843284607,
      -0.4914611876010895,
      -0.4953392446041107,
      -1.2608792781829834,
      -0.003037685062736273,
      -1.0073769092559814,
      2.537611961364746,
      0.15812820196151733,
      0.3742765784263611,
      -1.531679630279541,
      -0.26220667362213135,
      0.15786737203598022,
      1.0393564701080322,
      0.7510491609573364,
      1.6925703287124634,
      -0.8199299573898315,
      -0.41379407048225403,
      -0.8647019863128662,
      -3.3675739765167236,
      -0.4394950866699219,
      1.396077275276184,
      0.6514818072319031,
      -0.44769564270973206,
      -0.5426849722862244,
      0.9271569848060608,
      -0.008173036389052868,
      0.05764833465218544,
      0.1736365407705307,
      0.19790837168693542,
      -0.6132258772850037,
      -0.42707887291908264,
      -1.9817321300506592,
      -0.6967824101448059,
      1.8114582300186157,
      1.5163291692733765,
      -3.760883092880249,
      0.06448914855718613,
      -0.8387694358825684,
      -2.2717108726501465,
      0.07149536907672882,
      0.3337098956108093,
      0.5959435701370239,
      -0.6769957542419434,
      0.7617242932319641,
      -2.8375518321990967,
      -0.1444632112979889,
      -0.9340165257453918,
      -0.3460918962955475,
      -0.8256943821907043,
      -2.8741183280944824,
      0.8789565563201904,
      -1.8193869590759277,
      0.8474668264389038,
      2.0422205924987793,
      1.0719444751739502,
      1.7556676864624023,
      1.0209596157073975,
      -2.3601677417755127,
      2.263214588165283,
      1.4329055547714233,
      -2.4521172046661377,
      -0.5809455513954163,
      -3.609968423843384,
      -0.3846852481365204,
      0.6384437680244446,
      -2.0684304237365723,
      2.284539222717285,
      -0.49561744928359985,
      -3.258396625518799,
      -0.37833425402641296,
      2.6109237670898438,
      0.39647147059440613,
      -0.09261482208967209,
      0.6275659799575806,
      0.41163644194602966,
      0.32656604051589966,
      0.3901762068271637,
      -1.7308281660079956,
      0.7922491431236267,
      -0.4757704734802246,
      3.481006622314453,
      -1.0264892578125,
      1.8066160678863525,
      0.259047269821167,
      1.3486158847808838,
      -0.21825864911079407,
      -0.4941125512123108,
      0.7272229790687561,
      -0.5090161561965942,
      0.7415981292724609,
      0.784463107585907,
      -1.411300778388977,
      2.9792263507843018,
      -0.4392719566822052,
      -1.89500892162323,
      1.0780344009399414,
      -0.3029981255531311,
      -0.44791945815086365,
      1.0126144886016846,
      0.9336901307106018,
      -3.173038959503174,
      0.26040399074554443,
      1.8681299686431885,
      -2.500279188156128,
      1.931064248085022,
      -0.2884463667869568,
      -1.9886744022369385,
      2.7484984397888184,
      2.44875168800354,
      1.2076284885406494,
      3.4547557830810547,
      2.3247592449188232,
      1.1026208400726318,
      1.167350172996521,
      -1.5490522384643555,
      -0.10426685959100723,
      1.2557767629623413,
      0.1296505630016327,
      0.3564430773258209,
      2.874084711074829,
      -1.0160154104232788,
      -0.46449869871139526,
      -2.47482967376709,
      -0.18021553754806519,
      4.551107883453369,
      1.6091769933700562,
      -0.0003373274812474847,
      0.00014941697008907795,
      0.0001381921028951183,
      -0.00020502366533037275,
      -0.00018062123854178935,
      -0.00020969219622202218,
      -0.000022092201106715947,
      -0.000126307611935772,
      0.00020149213378317654,
      0.000034900491300504655,
      0.00007761998858768493,
      -0.0002163568715332076,
      0.0002049914764938876,
      0.0001860966585809365,
      0.0003089128585997969,
      0.0000822678703116253,
      0.00010160531383007765,
      0.00011309517140034586,
      0.00011027736763935536,
      0.00019758078269660473,
      0.00011372505105100572,
      -0.00025371203082613647,
      -0.00015204009832814336,
      -0.0001564173580845818,
      0.00021445497986860573,
      -0.00023708253866061568
    ]
  },
  "hiddenLayers": [
    {
      "inputMatrix": {
        "rows": 20,
        "columns": 26,
        "weights": [
          0.2535940408706665,
          -0.22691017389297485,
          -0.2998366355895996,
          0.11353479325771332,
          0.3816159963607788,
          -0.02817007340490818,
          0.3823447823524475,
          -0.06423833966255188,
          0.34889429807662964,
          -0.3190542757511139,
          0.13630461692810059,
          0.4861808121204376,
          0.001794163603335619,
          -0.029379453510046005,
          -0.281507283449173,
          0.3925386369228363,
          -0.47263219952583313,
          -0.009824806824326515,
          0.1037260890007019,
          0.4929194748401642,
          0.10392102599143982,
          -0.3366108238697052,
          0.023363767191767693,
          -0.3643117845058441,
          -0.10368151217699051,
          -0.32438233494758606,
          0.5746344923973083,
          0.41912055015563965,
          0.5928873419761658,
          0.6924293041229248,
          0.13045550882816315,
          -0.38036400079727173,
          0.7450057864189148,
          -0.27837011218070984,
          -0.6202302575111389,
          -0.09034863859415054,
          0.08625956624746323,
          -0.03247066214680672,
          0.5623490810394287,
          -0.11520794779062271,
          -0.3107079863548279,
          -0.15848921239376068,
          -0.44293344020843506,
          -0.015320814214646816,
          -0.44919028878211975,
          -0.14468400180339813,
          0.23983612656593323,
          0.029521552845835686,
          -0.3491534888744354,
          -0.4487026631832123,
          -0.07396422326564789,
          0.36868196725845337,
          0.04911033436655998,
          -0.0979391410946846,
          -0.34294393658638,
          -0.10959391295909882,
          0.5839548707008362,
          0.014773529022932053,
          0.21148963272571564,
          0.1620703786611557,
          0.00077783566666767,
          0.17827296257019043,
          0.24001523852348328,
          0.2146224081516266,
          -0.40396201610565186,
          -0.49532032012939453,
          -0.18456625938415527,
          -0.1354341059923172,
          0.008382189087569714,
          0.37600842118263245,
          0.25415316224098206,
          0.2806254029273987,
          0.219600647687912,
          -0.12916511297225952,
          -0.043533798307180405,
          -0.502495527267456,
          0.14655464887619019,
          0.2513161897659302,
          0.8251961469650269,
          0.4628106355667114,
          -0.031465865671634674,
          -0.10582833737134933,
          0.13433487713336945,
          0.48372820019721985,
          -0.003257974050939083,
          0.0972287505865097,
          0.39030030369758606,
          -0.2780945897102356,
          -0.4304659962654114,
          0.2276102602481842,
          0.008385012857615948,
          -0.4860852360725403,
          0.11150198429822922,
          -0.5075328350067139,
          0.3524981141090393,
          0.5954070091247559,
          0.33958014845848083,
          0.29681771993637085,
          0.3860231041908264,
          -0.034954436123371124,
          -0.1361915022134781,
          0.01306995376944542,
          0.05559161305427551,
          -0.14252826571464539,
          0.42400121688842773,
          0.06021813303232193,
          -0.3098851144313812,
          0.4665844142436981,
          0.7220188975334167,
          -0.24608610570430756,
          -0.11832759529352188,
          0.2665287256240845,
          -0.04289606213569641,
          -0.028934992849826813,
          0.38703081011772156,
          0.6242713928222656,
          -0.27507057785987854,
          -0.40898922085762024,
          -0.14511777460575104,
          -0.631640613079071,
          -0.37324002385139465,
          0.5192363262176514,
          0.4615311920642853,
          -0.017695792019367218,
          0.12982232868671417,
          -0.10954216122627258,
          -0.19947345554828644,
          -0.1304907649755478,
          -0.02836398035287857,
          -0.29313674569129944,
          -0.020594915375113487,
          0.26235389709472656,
          -0.07953951507806778,
          -0.20966607332229614,
          -0.255300372838974,
          0.02170131541788578,
          -0.04909353703260422,
          -0.018300438299775124,
          -0.256808876991272,
          0.1266910582780838,
          -0.42074671387672424,
          -0.1769043654203415,
          0.5834237337112427,
          -0.4911195635795593,
          -0.013546227477490902,
          0.4709826111793518,
          0.15437421202659607,
          0.0033183845225721598,
          -0.2632242441177368,
          -0.7821432948112488,
          -0.3978680968284607,
          -0.35127222537994385,
          -0.15266521275043488,
          -0.28046151995658875,
          0.2694811224937439,
          0.337934672832489,
          0.17994576692581177,
          -0.008943180553615093,
          0.17300045490264893,
          0.10907484591007233,
          0.12388657033443451,
          -0.5272404551506042,
          0.29251131415367126,
          0.03882678970694542,
          -0.15742260217666626,
          -0.3805437684059143,
          0.13188278675079346,
          0.13366900384426117,
          0.2201872169971466,
          -0.42073050141334534,
          -0.1525246948003769,
          0.1659603714942932,
          -0.10516975075006485,
          -0.08914035558700562,
          -0.41579189896583557,
          0.15288785099983215,
          -0.2626856863498688,
          -0.2115749567747116,
          -0.041965462267398834,
          -0.008263807743787766,
          -0.5475679636001587,
          -0.17208509147167206,
          0.3178907632827759,
          0.01817796565592289,
          -0.2337423712015152,
          -0.01064439956098795,
          -0.08140359073877335,
          0.22838111221790314,
          0.3140368163585663,
          -0.18569359183311462,
          0.09688129276037216,
          0.041762348264455795,
          0.0005357518093660474,
          0.7747465968132019,
          -0.058696042746305466,
          0.16335250437259674,
          0.13057729601860046,
          -0.15669146180152893,
          0.09960221499204636,
          0.2348816692829132,
          0.6138277649879456,
          0.41700977087020874,
          0.1759410947561264,
          -0.11160547286272049,
          -0.19128543138504028,
          -0.2249782681465149,
          -0.032612111419439316,
          0.144265815615654,
          -0.046847712248563766,
          0.04940628260374069,
          -0.3089126646518707,
          0.21800145506858826,
          0.08956953138113022,
          0.3626985251903534,
          0.5836385488510132,
          -0.05196704715490341,
          0.1930554062128067,
          -0.10533938556909561,
          0.11129386723041534,
          0.1666414886713028,
          0.39176174998283386,
          0.007994488812983036,
          -0.026450442150235176,
          0.3205466866493225,
          -0.07795778661966324,
          -0.3547002971172333,
          0.20503780245780945,
          0.20812179148197174,
          -0.4427649676799774,
          -0.6098378300666809,
          0.26155737042427063,
          0.09518001973628998,
          0.2767559885978699,
          -0.18867924809455872,
          0.4553917944431305,
          0.03933318704366684,
          0.12050618976354599,
          -0.35754063725471497,
          0.37210068106651306,
          -0.0005164850153960288,
          0.3200647532939911,
          0.33853983879089355,
          -0.036766622215509415,
          -0.0038296631537377834,
          0.007964443415403366,
          0.17885860800743103,
          0.035818178206682205,
          -0.3651013672351837,
          0.1791745275259018,
          -0.011916806921362877,
          -0.10898417979478836,
          0.020612267777323723,
          0.25164681673049927,
          -0.0469294898211956,
          -0.13552412390708923,
          0.14496831595897675,
          -0.00044953255564905703,
          0.07694028317928314,
          -0.25827518105506897,
          0.20605194568634033,
          -0.3163551986217499,
          0.5084701776504517,
          -0.2585316300392151,
          0.40138497948646545,
          -0.2237534075975418,
          0.13406559824943542,
          -0.07437458634376526,
          0.08021324872970581,
          -0.09415536373853683,
          -0.5236573815345764,
          -0.21699416637420654,
          0.35707518458366394,
          -0.07641647011041641,
          -0.09659521281719208,
          0.48089638352394104,
          0.5558342337608337,
          0.06821838766336441,
          -0.3295305371284485,
          0.03480098396539688,
          -0.490489661693573,
          0.05579175055027008,
          -0.23389092087745667,
          -0.034269604831933975,
          -0.18805532157421112,
          -0.11765164881944656,
          -0.04116768389940262,
          0.01904403232038021,
          -0.2157544493675232,
          0.19307540357112885,
          0.01888311095535755,
          0.015242304652929306,
          -0.6109114289283752,
          -0.06695131212472916,
          0.2618583142757416,
          -0.16479119658470154,
          -0.25356748700141907,
          0.20963330566883087,
          0.3483905494213104,
          -0.03241845965385437,
          -0.3447960615158081,
          0.03848391771316528,
          -0.12943853437900543,
          -0.01947610452771187,
          0.24349121749401093,
          0.2659795582294464,
          -0.07094766199588776,
          -0.4833604693412781,
          -0.07721713930368423,
          0.05963297560811043,
          -0.07892105728387833,
          -0.1433342546224594,
          0.18159426748752594,
          0.4559169411659241,
          0.09518946707248688,
          -0.2585201561450958,
          0.14744329452514648,
          0.3103409707546234,
          -0.10519612580537796,
          0.5212191939353943,
          0.10927800089120865,
          -0.1900329291820526,
          0.3717440664768219,
          -0.009857959114015102,
          0.3394795358181,
          0.2589804232120514,
          -0.4771071672439575,
          0.4253625273704529,
          -0.234026238322258,
          0.3979419767856598,
          0.056962739676237106,
          -0.22098363935947418,
          0.19192253053188324,
          -0.17089447379112244,
          -0.04386328533291817,
          -0.0066054631024599075,
          0.18562351167201996,
          0.3793396055698395,
          0.6122197508811951,
          0.1948241889476776,
          -0.41185444593429565,
          0.1033148467540741,
          0.46140897274017334,
          -0.07046304643154144,
          -0.014959038235247135,
          0.3022405207157135,
          0.17561721801757812,
          -0.16306769847869873,
          -0.5804633498191833,
          0.13933135569095612,
          -0.25533053278923035,
          0.3679400384426117,
          0.09452603757381439,
          0.13752171397209167,
          0.09821290522813797,
          -0.051277969032526016,
          -0.2549578547477722,
          -0.17315132915973663,
          -1.1123207807540894,
          0.19085653126239777,
          -0.28150874376296997,
          -0.0922665148973465,
          -0.16951777040958405,
          -0.4894212484359741,
          -0.34589558839797974,
          0.2149275243282318,
          -0.07030072063207626,
          0.38855448365211487,
          -0.06695211678743362,
          -0.057923201471567154,
          -0.31660163402557373,
          -0.14327549934387207,
          0.36825472116470337,
          -0.10979880392551422,
          -0.20281365513801575,
          -0.08088650554418564,
          0.48660874366760254,
          -0.05057573318481445,
          -0.46438223123550415,
          0.19438743591308594,
          -0.32277578115463257,
          0.3472371995449066,
          0.2272937297821045,
          0.5153546929359436,
          -0.043036170303821564,
          -0.24581319093704224,
          0.69742351770401,
          0.20379126071929932,
          -0.3199174702167511,
          -0.014850260689854622,
          0.2855422794818878,
          0.07477054744958878,
          -0.4533705413341522,
          0.06516017764806747,
          -0.2780589163303375,
          0.22343014180660248,
          -0.1962948739528656,
          -0.07072366774082184,
          0.3122423589229584,
          0.22398912906646729,
          -0.24507801234722137,
          -0.23634999990463257,
          -0.0238371379673481,
          -0.05339539051055908,
          -0.24450655281543732,
          0.31004709005355835,
          0.1841738075017929,
          -0.2611851096153259,
          -0.402558296918869,
          -0.07031100988388062,
          -0.5783624649047852,
          -0.18974514305591583,
          -0.189493790268898,
          0.09673422574996948,
          -0.5652327537536621,
          -0.08994393050670624,
          0.36670219898223877,
          -0.45554119348526,
          -0.07876970618963242,
          -0.2606838643550873,
          -0.05292969569563866,
          0.3568623661994934,
          0.2835317552089691,
          -0.5435039401054382,
          0.3048534095287323,
          -0.7752202153205872,
          0.20826701819896698,
          0.07356386631727219,
          0.03061375394463539,
          -0.23136106133460999,
          0.1348017305135727,
          0.6527812480926514,
          0.0773792564868927,
          0.13019245862960815,
          0.19986899197101593,
          0.08248666673898697,
          -0.0903330072760582,
          -0.127305269241333,
          0.14825427532196045,
          0.18636029958724976,
          -0.07263042777776718,
          0.26645445823669434,
          0.19376473128795624,
          0.17990656197071075,
          0.18093369901180267,
          -0.3984333276748657,
          -0.29975953698158264,
          0.20648321509361267,
          -0.08147987723350525,
          -0.06715784221887589,
          -0.07356748729944229,
          0.058143939822912216,
          -0.19255317747592926,
          0.02346707507967949,
          -0.05399971082806587,
          0.18017375469207764,
          -0.2096700817346573,
          -0.1322174370288849,
          -0.047264888882637024,
          -0.46739116311073303,
          -0.47381725907325745,
          -0.5060141086578369,
          -0.020966501906514168,
          -0.6241176724433899,
          0.028478235006332397,
          0.3383191227912903,
          0.02002626471221447,
          0.07167771458625793,
          -0.1407080888748169,
          0.388958215713501,
          -0.17565017938613892,
          0.5608901977539062,
          -0.16425290703773499,
          -0.014312473125755787,
          0.01920405402779579,
          0.10860437154769897,
          -0.22025784850120544,
          -0.15353772044181824,
          -0.3306341767311096,
          -0.04609626531600952,
          0.5010257959365845,
          0.38592275977134705,
          -0.291456013917923,
          0.12419090420007706,
          -0.44959527254104614,
          -0.017009885981678963,
          0.22609713673591614,
          -0.1448947638273239,
          -0.2823318541049957,
          0.027707839384675026,
          -0.08789371699094772,
          -0.06106323376297951,
          -0.31792187690734863,
          -0.015942668542265892,
          0.2573521137237549,
          0.1895182728767395,
          0.04659131169319153,
          -0.01471803616732359,
          0.4109237790107727,
          -0.3745557963848114,
          -0.06049453094601631,
          0.2798534035682678,
          -0.213101327419281,
          0.09542533755302429,
          0.06930325925350189,
          0.13142400979995728,
          0.1635218858718872,
          0.19075794517993927,
          -0.19157136976718903,
          0.08234839141368866,
          -0.13144564628601074,
          0.01844623312354088,
          -0.12908099591732025,
          0.07093268632888794,
          0.2514520287513733,
          -0.02422238141298294,
          -0.48034968972206116,
          -0.1232229620218277,
          -0.01019278634339571,
          -0.041401151567697525,
          0.00826460774987936
        ]
      },
      "inputHidden": {
        "rows": 20,
        "columns": 20,
        "weights": [
          0.041939783841371536,
          -0.7703197002410889,
          0.1356070339679718,
          0.3159399628639221,
          -0.558922529220581,
          0.05610368400812149,
          0.4347090721130371,
          -0.0034153081942349672,
          -0.02851935289800167,
          -0.2563081681728363,
          0.3013762831687927,
          -0.8341186046600342,
          0.2080991268157959,
          0.48170533776283264,
          -0.346677303314209,
          0.5983098149299622,
          1.6233201026916504,
          -0.1195320412516594,
          0.2574115991592407,
          0.6932703852653503,
          0.40744227170944214,
          0.07326198369264603,
          -0.4563576579093933,
          -0.9073125720024109,
          -0.4857957661151886,
          0.40811648964881897,
          -0.34493309259414673,
          0.11616764217615128,
          -0.4848080277442932,
          -0.1944676637649536,
          0.3776908218860626,
          -0.3286497890949249,
          -0.35581880807876587,
          0.06831202656030655,
          0.05363106727600098,
          -0.09803854674100876,
          0.24120496213436127,
          0.6325557231903076,
          0.28151705861091614,
          -0.26767751574516296,
          -0.38512715697288513,
          0.07353809475898743,
          -1.1564083099365234,
          0.09473399817943573,
          0.13183781504631042,
          0.09719792753458023,
          0.7708029747009277,
          0.36611515283584595,
          0.0904620960354805,
          -0.24195332825183868,
          -0.31480979919433594,
          -1.0548382997512817,
          -0.24227310717105865,
          -0.0293062012642622,
          -0.376013845205307,
          -0.29775169491767883,
          -0.5806663632392883,
          -0.7783260345458984,
          0.649029552936554,
          -0.5539881587028503,
          0.10364663600921631,
          0.1460741013288498,
          0.006506215315312147,
          0.3875146508216858,
          0.837855339050293,
          -0.1282312572002411,
          -0.8047506213188171,
          -0.38864976167678833,
          -0.45313557982444763,
          0.6759015917778015,
          0.46045222878456116,
          -0.336852490901947,
          0.1455545723438263,
          -0.7183877825737,
          -0.8077766299247742,
          0.20210833847522736,
          -0.2790410816669464,
          -0.022127114236354828,
          -0.08614437282085419,
          -0.13692407310009003,
          -0.02324856072664261,
          -0.6110684275627136,
          0.11997441947460175,
          -0.18026812374591827,
          -0.032738037407398224,
          -0.30009162425994873,
          0.18361368775367737,
          -0.7929772138595581,
          -0.8099748492240906,
          -0.000007691662176512182,
          -0.3352269232273102,
          -0.39855632185935974,
          -0.03378599137067795,
          -0.668750524520874,
          -0.13128894567489624,
          0.3655845522880554,
          0.9929158687591553,
          -0.8206726312637329,
          0.30340564250946045,
          0.0759124755859375,
          -0.16068245470523834,
          0.0583726204931736,
          0.03015378676354885,
          0.32291534543037415,
          0.06368397921323776,
          -1.2763707637786865,
          0.4846988916397095,
          -0.32087740302085876,
          -0.3994896113872528,
          0.5167810320854187,
          -0.09370063245296478,
          -0.3565060496330261,
          -0.0606750026345253,
          -0.8125319480895996,
          -0.13715429604053497,
          -0.7069686055183411,
          -0.09675423800945282,
          -1.1327606439590454,
          -0.3555595278739929,
          0.2833505868911743,
          0.2538333535194397,
          -0.09969295561313629,
          -0.2114371359348297,
          -1.2701317071914673,
          -0.03838971257209778,
          -0.05754823237657547,
          -0.36876532435417175,
          -0.33672812581062317,
          -0.4400208592414856,
          -0.6088167428970337,
          0.39733362197875977,
          0.006890028715133667,
          -0.1417178064584732,
          -0.01616889238357544,
          -0.55406254529953,
          -1.1134902238845825,
          0.7495282292366028,
          -0.5197147727012634,
          -0.14404265582561493,
          0.21695564687252045,
          0.24961087107658386,
          -0.31174221634864807,
          -0.588124692440033,
          -0.4119740426540375,
          0.4296681582927704,
          0.18208155035972595,
          -0.4384296238422394,
          -0.7635747194290161,
          -0.8252033591270447,
          -0.27700310945510864,
          -0.08822639286518097,
          0.5302467346191406,
          0.09271261841058731,
          -0.24408063292503357,
          -0.06239604204893112,
          -0.8342593908309937,
          -0.6645142436027527,
          0.1942978948354721,
          -0.5030359625816345,
          -0.5596246719360352,
          0.30330419540405273,
          -0.37004831433296204,
          -1.6705234050750732,
          -0.23365499079227448,
          0.708172619342804,
          0.3477393686771393,
          0.44514000415802,
          0.09470359981060028,
          -0.5415747761726379,
          -1.0466591119766235,
          -0.1750088781118393,
          -1.5779951810836792,
          0.042255762964487076,
          0.6141273379325867,
          0.17906790971755981,
          -0.06147448346018791,
          0.3511907756328583,
          0.339140921831131,
          0.241366907954216,
          0.27939295768737793,
          0.46456775069236755,
          -1.3193776607513428,
          -0.9198341369628906,
          -0.04500454664230347,
          -0.21380485594272614,
          -0.44753631949424744,
          0.2137332558631897,
          -2.2210440635681152,
          -0.43994832038879395,
          -0.5584137439727783,
          0.2240191102027893,
          0.01563192531466484,
          0.007499805185943842,
          -0.2802325487136841,
          -0.01045011356472969,
          -0.5695755481719971,
          0.05705587565898895,
          -0.583345353603363,
          0.4952576458454132,
          -0.26864808797836304,
          0.38521257042884827,
          -0.953303337097168,
          -0.9361445307731628,
          0.00827828049659729,
          0.2952437400817871,
          0.12826478481292725,
          -0.34859076142311096,
          -0.32831960916519165,
          0.06885913014411926,
          -0.6195694804191589,
          0.3806619644165039,
          -0.15918664634227753,
          -0.11313322186470032,
          0.4915351867675781,
          0.5209944248199463,
          -0.4264273941516876,
          -0.03949064761400223,
          0.030065080150961876,
          0.11768127232789993,
          0.24338261783123016,
          0.48670050501823425,
          -1.303362488746643,
          -0.7289280891418457,
          -0.3008885979652405,
          0.12221765518188477,
          -0.3085627853870392,
          -0.2880595028400421,
          0.15072551369667053,
          -0.938140332698822,
          -0.2733546197414398,
          -0.5957679748535156,
          0.0388324074447155,
          -0.16198866069316864,
          -0.788608729839325,
          0.8988673686981201,
          -0.11856169998645782,
          -0.060737766325473785,
          -0.6818886995315552,
          0.11687110364437103,
          -0.2547939121723175,
          0.39566975831985474,
          0.14320532977581024,
          -0.3838269114494324,
          -0.12390818446874619,
          -0.21440193057060242,
          -0.14049667119979858,
          -0.05628691986203194,
          -0.19013671576976776,
          0.4120086431503296,
          -0.35425397753715515,
          0.15686558187007904,
          -0.8785260915756226,
          -0.15396429598331451,
          -0.2319057136774063,
          -0.009147543460130692,
          -0.48842230439186096,
          0.024217616766691208,
          0.2803882360458374,
          0.29135453701019287,
          0.2407943457365036,
          0.14934632182121277,
          0.1574159413576126,
          -0.19045297801494598,
          0.05941116437315941,
          0.6603065729141235,
          -0.08334986865520477,
          -0.14982883632183075,
          -1.2146661281585693,
          -0.19501833617687225,
          0.2348601371049881,
          0.5727427005767822,
          -0.5727607011795044,
          0.34875476360321045,
          -0.10746125876903534,
          -0.04390573501586914,
          -0.7125639319419861,
          0.17095746099948883,
          -0.5496214628219604,
          -0.22101959586143494,
          -0.07114037871360779,
          -0.27494630217552185,
          -0.27576103806495667,
          0.347870796918869,
          0.3746473491191864,
          0.6396201848983765,
          -0.40240034461021423,
          0.3600308895111084,
          -0.236074298620224,
          0.2030784636735916,
          -0.3329474925994873,
          -0.2569679021835327,
          -0.5221041440963745,
          0.6487924456596375,
          0.23081699013710022,
          -0.24210624396800995,
          0.13808868825435638,
          0.47022342681884766,
          -0.5010495781898499,
          0.3966120779514313,
          -0.06899087131023407,
          0.5664514899253845,
          -1.0943431854248047,
          -2.271134853363037,
          -0.358979195356369,
          0.19015458226203918,
          -0.3400172293186188,
          0.6416924595832825,
          0.10223543643951416,
          -0.4420223832130432,
          -0.06988081336021423,
          -0.5519077181816101,
          -0.4234483242034912,
          0.5483096241950989,
          0.7020476460456848,
          0.17362745106220245,
          -0.3853716254234314,
          -0.5140907764434814,
          -0.04990723356604576,
          0.37555238604545593,
          0.3044761121273041,
          0.4328228831291199,
          -0.5066654086112976,
          -0.9257122874259949,
          0.08697356283664703,
          1.1679507493972778,
          -0.6006835103034973,
          0.231394425034523,
          -0.4195610582828522,
          0.39897778630256653,
          -0.3342927396297455,
          0.5911539196968079,
          -0.1604287177324295,
          -0.7819445729255676,
          0.11233261227607727,
          1.2194732427597046,
          -0.4267123341560364,
          0.014422865584492683,
          0.9859588742256165,
          0.5073056817054749,
          -0.13692612946033478,
          -0.041968539357185364,
          -1.178479790687561,
          -0.24464856088161469,
          -0.0027653402648866177,
          -0.4337649941444397,
          -0.38858044147491455,
          1.0698184967041016,
          -0.0985417366027832,
          -0.1420404613018036,
          -0.7109388113021851,
          -0.1527763307094574,
          -0.5100014209747314,
          0.8201058506965637,
          0.10645067691802979,
          0.8819111585617065,
          -0.22344757616519928,
          -0.17442627251148224,
          0.3054446578025818,
          0.3846466839313507,
          -0.4404922425746918,
          -0.3303149938583374,
          -0.1550627052783966,
          -0.3636494576931,
          -0.8729222416877747,
          0.2677556574344635,
          0.3681444525718689,
          -0.05827635899186134,
          -0.30584344267845154,
          -0.7328801155090332,
          -0.15078194439411163,
          -0.2758162319660187,
          -0.0643133744597435,
          0.601427435874939,
          0.20388276875019073,
          -0.7062182426452637,
          0.2832992672920227,
          -0.018436577171087265,
          0.63823002576828,
          0.28324639797210693,
          -0.30443868041038513,
          -0.7333611845970154,
          -0.31909844279289246,
          -1.4456291198730469,
          0.17567066848278046,
          -0.10938145220279694,
          0.33226582407951355,
          -0.33077549934387207,
          -0.8296889066696167,
          -0.2535947263240814,
          -0.8004099130630493,
          -0.45624667406082153,
          -0.8212091326713562,
          0.5720561146736145,
          -0.36120736598968506,
          0.20337721705436707,
          -0.16088944673538208,
          0.1357349157333374,
          -0.4259871542453766,
          -0.012240053154528141,
          -0.6636943221092224
        ]
      },
      "inputBias": {
        "rows": 20,
        "columns": 1,
        "weights": [
          0.5250654220581055,
          -0.13065700232982635,
          -0.3923134207725525,
          0.8423610925674438,
          0.22606997191905975,
          0.6463462114334106,
          0.139959916472435,
          -0.14350442588329315,
          0.6579204201698303,
          -0.07935222238302231,
          1.10871422290802,
          0.23004795610904694,
          1.0723814964294434,
          1.0495742559432983,
          0.7507663369178772,
          0.5488824844360352,
          0.20334792137145996,
          0.3107483685016632,
          0.8551887273788452,
          0.5169938206672668
        ]
      },
      "forgetMatrix": {
        "rows": 20,
        "columns": 26,
        "weights": [
          0.43104374408721924,
          0.03627253323793411,
          0.3422899842262268,
          -0.19820915162563324,
          0.1734473556280136,
          0.091926209628582,
          0.08995161205530167,
          -0.2697279453277588,
          0.10954812914133072,
          0.18369095027446747,
          -0.4115030765533447,
          0.09529934823513031,
          -0.22269268333911896,
          -0.010256219655275345,
          0.0038575995713472366,
          -0.14125947654247284,
          0.3283262550830841,
          0.21956868469715118,
          -0.0431692935526371,
          0.1490565538406372,
          0.24744179844856262,
          0.08102662116289139,
          -0.017487743869423866,
          -0.3184035122394562,
          0.17636217176914215,
          0.1118469089269638,
          0.4702344238758087,
          0.1769779622554779,
          0.29016196727752686,
          -0.4870653450489044,
          -0.28607410192489624,
          0.25711625814437866,
          0.39561954140663147,
          -0.5018100738525391,
          0.19337394833564758,
          -0.3485645353794098,
          -0.4691111147403717,
          0.2065363973379135,
          -0.3130306005477905,
          -0.15753518044948578,
          0.29291778802871704,
          -0.2384382039308548,
          0.385143905878067,
          0.23228250443935394,
          -0.3717458248138428,
          -0.15655000507831573,
          0.19245928525924683,
          -0.22350458800792694,
          -0.2985512316226959,
          -0.40628957748413086,
          -0.2858559489250183,
          -0.01564737781882286,
          -0.05930669605731964,
          0.6177262663841248,
          -0.042863957583904266,
          0.24302628636360168,
          -0.011748235672712326,
          -0.13617068529129028,
          0.03538995981216431,
          -0.16523410379886627,
          -0.3755975067615509,
          0.35122305154800415,
          -0.06618831306695938,
          -0.26265162229537964,
          0.005048905033618212,
          -0.1566673368215561,
          -0.07732667028903961,
          -0.47808441519737244,
          -0.39298540353775024,
          -0.14332808554172516,
          -0.14209313690662384,
          0.12988878786563873,
          0.1052655354142189,
          0.015282011590898037,
          -0.059601664543151855,
          -0.04107142612338066,
          0.05167801305651665,
          0.196285218000412,
          -0.6904263496398926,
          -0.19944815337657928,
          -0.25452813506126404,
          -0.003898223862051964,
          0.2046549767255783,
          -0.1363442987203598,
          -0.06441590934991837,
          0.2751278877258301,
          -0.20036795735359192,
          0.06862986832857132,
          0.3677656650543213,
          -0.7713680863380432,
          0.36505645513534546,
          0.22949910163879395,
          0.28166884183883667,
          -0.42709359526634216,
          -0.10952448844909668,
          -0.3256799280643463,
          -0.1565118283033371,
          -0.36800849437713623,
          -0.26861247420310974,
          0.2729526162147522,
          0.023836180567741394,
          0.30872082710266113,
          -0.17821480333805084,
          0.31958672404289246,
          0.06634392589330673,
          -0.39804452657699585,
          0.09448182582855225,
          -0.357727587223053,
          0.1968695968389511,
          0.43786635994911194,
          -0.32826992869377136,
          0.3692150115966797,
          -0.14132411777973175,
          -0.5849196314811707,
          -0.3406071662902832,
          -0.0630108043551445,
          0.015490912832319736,
          0.2135751098394394,
          0.12267173081636429,
          -0.39597612619400024,
          0.24358907341957092,
          0.5357975363731384,
          0.43061381578445435,
          -0.3494977056980133,
          0.13806743919849396,
          0.4045008718967438,
          -0.47028595209121704,
          -0.299139142036438,
          -0.15375842154026031,
          -0.2638449966907501,
          -0.19039864838123322,
          0.4220094382762909,
          -0.19220302999019623,
          -0.16446711122989655,
          -0.0680791437625885,
          0.3482697010040283,
          0.45757314562797546,
          -0.15181094408035278,
          0.29071345925331116,
          0.08389844000339508,
          0.23119674623012543,
          0.0971866101026535,
          -0.07135561108589172,
          0.07259690761566162,
          0.19802169501781464,
          0.12079017609357834,
          0.495606392621994,
          0.14803294837474823,
          -0.2573547065258026,
          0.49855703115463257,
          -0.2986353635787964,
          -0.46409788727760315,
          -0.1357056200504303,
          0.012655304744839668,
          -0.22032776474952698,
          0.041678931564092636,
          0.1277594417333603,
          -0.07757493853569031,
          0.37242117524147034,
          -0.18654097616672516,
          0.01300808135420084,
          -0.23629280924797058,
          -0.3390876352787018,
          0.04989884793758392,
          0.08206427097320557,
          -0.3172033429145813,
          -0.4267997145652771,
          -0.21300587058067322,
          0.1530880630016327,
          0.11146034300327301,
          -0.4187886118888855,
          0.011693479493260384,
          0.06542785465717316,
          -0.38629645109176636,
          -0.2508946359157562,
          -0.2065110206604004,
          0.021888434886932373,
          -0.0162495207041502,
          -0.15811777114868164,
          -0.100861556828022,
          0.035501476377248764,
          0.16486504673957825,
          0.17865590751171112,
          -0.2720734477043152,
          0.5189402103424072,
          -0.04561084881424904,
          -0.015660760924220085,
          -0.20097725093364716,
          -0.3984760642051697,
          -0.1979764848947525,
          -0.44821998476982117,
          -0.27443358302116394,
          0.1581074595451355,
          -0.13809119164943695,
          0.19879554212093353,
          -0.4042949378490448,
          -0.0027856065426021814,
          -0.10330870002508163,
          0.3515664041042328,
          0.2601621150970459,
          -0.37094762921333313,
          0.10903722047805786,
          0.3110713064670563,
          -0.012172788381576538,
          -0.08715557307004929,
          -0.2445688247680664,
          -0.028798814862966537,
          0.5271559357643127,
          0.5030912756919861,
          -0.15438129007816315,
          -0.5114590525627136,
          0.33318594098091125,
          -0.32374823093414307,
          0.36236369609832764,
          -0.25412943959236145,
          0.07049328088760376,
          0.18268436193466187,
          -0.4930727183818817,
          -0.16502292454242706,
          0.6652109026908875,
          -0.025876212865114212,
          0.039950255304574966,
          0.524062991142273,
          0.2535803020000458,
          -0.43359375,
          0.22699101269245148,
          0.2944338619709015,
          0.21662741899490356,
          0.7724498510360718,
          -0.26136231422424316,
          -0.1546493023633957,
          -0.01828601583838463,
          -0.3753069043159485,
          -0.38654378056526184,
          -0.013467654585838318,
          0.20432209968566895,
          0.004411289934068918,
          -0.5537210702896118,
          0.22289878129959106,
          0.15010087192058563,
          0.27653664350509644,
          0.34397441148757935,
          0.34605908393859863,
          -0.027347030118107796,
          0.029161056503653526,
          -0.1310821771621704,
          -0.7686871290206909,
          -0.007712678983807564,
          0.26666998863220215,
          -0.30186334252357483,
          0.01627197116613388,
          0.32924339175224304,
          -0.051392100751399994,
          -0.12194965034723282,
          -0.2946135699748993,
          0.3493117690086365,
          -0.13670071959495544,
          -0.09645184874534607,
          -0.34791484475135803,
          0.5203883051872253,
          0.15664207935333252,
          -0.01384614035487175,
          -0.33601900935173035,
          -0.15311771631240845,
          0.13589483499526978,
          0.11399276554584503,
          0.035389531403779984,
          0.039328861981630325,
          0.019373392686247826,
          0.29380497336387634,
          0.05323560908436775,
          -0.5733599066734314,
          0.022615641355514526,
          0.040241919457912445,
          -0.3484705984592438,
          -0.2995586395263672,
          -0.18196606636047363,
          -0.03909015282988548,
          -0.2700195908546448,
          0.09531542658805847,
          -0.1418890804052353,
          0.024843042716383934,
          0.19734792411327362,
          0.3930232524871826,
          0.04308420419692993,
          0.11589261144399643,
          -0.24528823792934418,
          0.1730557382106781,
          -0.012435860931873322,
          -0.1514875292778015,
          0.3716251254081726,
          -0.2408926635980606,
          0.4462604820728302,
          -0.10591913014650345,
          0.10411810129880905,
          0.3199368119239807,
          -0.11932283639907837,
          -0.02381107583642006,
          -0.015220066532492638,
          0.24964405596256256,
          -0.4988926649093628,
          -0.2633909285068512,
          -0.26606258749961853,
          -0.0897594466805458,
          0.07175604999065399,
          0.10153218358755112,
          -0.1217312142252922,
          -0.1801399141550064,
          0.06821327656507492,
          0.07102257758378983,
          -0.11089108884334564,
          0.19717547297477722,
          0.0818740501999855,
          -0.18234676122665405,
          -0.4087679088115692,
          0.21754494309425354,
          -0.23604020476341248,
          -0.06724056601524353,
          -0.06692985445261002,
          -0.18489602208137512,
          0.10990222543478012,
          0.05478319153189659,
          0.08550678193569183,
          -0.1350298672914505,
          -0.662356436252594,
          0.011743811890482903,
          0.06295713037252426,
          0.10821360349655151,
          -0.008510824292898178,
          -0.08747541904449463,
          -0.08016341924667358,
          0.1308782994747162,
          0.30852210521698,
          -0.14015601575374603,
          0.45011594891548157,
          -0.346310555934906,
          -0.0061309621669352055,
          0.09354274719953537,
          -0.14361155033111572,
          0.5876522660255432,
          -0.07665714621543884,
          -0.11431580036878586,
          0.0992414653301239,
          0.1597074717283249,
          -0.09799599647521973,
          -0.12010292708873749,
          0.22715358436107635,
          -0.015629824250936508,
          0.0825994610786438,
          -0.17219439148902893,
          0.1886860728263855,
          -0.6301738619804382,
          -0.45592519640922546,
          0.07745606452226639,
          -0.2986540198326111,
          0.4527553915977478,
          -0.48082366585731506,
          0.3887046277523041,
          -0.20690004527568817,
          0.17777001857757568,
          -0.2114323526620865,
          0.15624476969242096,
          0.05042392387986183,
          0.12178660929203033,
          0.5154280662536621,
          -0.02146415039896965,
          -0.3811454772949219,
          0.20955631136894226,
          0.018823612481355667,
          -0.019298508763313293,
          0.31426897644996643,
          -0.011014707386493683,
          0.5560601353645325,
          0.12642893195152283,
          -0.08679201453924179,
          0.6730676889419556,
          -0.33134838938713074,
          -0.21588459610939026,
          0.16577796638011932,
          0.2932751178741455,
          -0.22339178621768951,
          0.03801798075437546,
          0.364164799451828,
          0.03355546295642853,
          0.3604314923286438,
          -0.18403425812721252,
          -0.12754550576210022,
          -0.19156908988952637,
          -0.1583111435174942,
          -0.3392486572265625,
          0.04371531680226326,
          -0.27899807691574097,
          -0.7678032517433167,
          0.24828286468982697,
          -0.18286554515361786,
          0.18485666811466217,
          0.12068911641836166,
          -0.15884628891944885,
          -0.22757643461227417,
          0.11276154220104218,
          0.20029066503047943,
          0.28296414017677307,
          0.3425893485546112,
          0.08153584599494934,
          -0.10993507504463196,
          0.33700716495513916,
          -0.2855719327926636,
          0.12654531002044678,
          0.27815887331962585,
          0.30611592531204224,
          0.1810789853334427,
          -0.2841816842556,
          -0.030042286962270737,
          -0.3097743093967438,
          0.2702828347682953,
          -0.3055076599121094,
          -0.12760037183761597,
          0.27931123971939087,
          -0.4416234791278839,
          0.31774118542671204,
          0.49616628885269165,
          0.15928272902965546,
          -0.5488471984863281,
          0.007068815641105175,
          -0.06499449163675308,
          -0.12507900595664978,
          0.1437620222568512,
          0.060698252171278,
          -0.20837754011154175,
          0.24217826128005981,
          0.11653738468885422,
          0.29286685585975647,
          -0.3002733290195465,
          0.1329248696565628,
          0.35525912046432495,
          -0.5512791872024536,
          -0.3409634232521057,
          0.1716085970401764,
          0.1521461457014084,
          0.45105648040771484,
          -0.010047489777207375,
          -0.23139813542366028,
          0.5451155304908752,
          -0.11417414247989655,
          0.14695662260055542,
          0.393311470746994,
          -0.014062443748116493,
          0.5306111574172974,
          0.41880667209625244,
          0.17317244410514832,
          0.2174566388130188,
          -0.5757761001586914,
          0.24660921096801758,
          0.5941381454467773,
          0.40136247873306274,
          0.11360885947942734,
          0.2559645473957062,
          0.4929715096950531,
          -0.08604541420936584,
          0.23506727814674377,
          0.21825367212295532,
          0.17026688158512115,
          0.4652819037437439,
          0.29120302200317383,
          -0.2953687608242035,
          -0.41208940744400024,
          -0.1020641177892685,
          -0.09015658497810364,
          -0.02045060321688652,
          0.03264889493584633,
          0.13530677556991577,
          -0.12739726901054382,
          -0.16868966817855835,
          0.06630631536245346,
          -0.23756098747253418,
          0.23092183470726013,
          -0.24210599064826965,
          -0.17452256381511688,
          0.1999259889125824,
          0.36757606267929077,
          0.20017214119434357,
          0.012119857594370842,
          -0.08325867354869843,
          -0.30416139960289,
          0.303762286901474,
          0.31264424324035645,
          0.115505151450634,
          0.15582925081253052,
          -0.04375731945037842,
          0.5032137036323547,
          0.1120532974600792,
          -0.0847344920039177,
          -0.06611236184835434,
          -0.11938805133104324,
          -0.08124691247940063,
          0.40411150455474854,
          -0.12918420135974884,
          -0.18305142223834991,
          0.03990946337580681,
          -0.27709299325942993,
          0.3040337860584259,
          0.11984581500291824,
          0.08011679351329803,
          -0.17653848230838776,
          -0.06368084996938705,
          -0.24866217374801636,
          0.06200004369020462,
          0.25987187027931213,
          -0.024396687746047974,
          0.04168933257460594,
          -0.21594072878360748,
          0.01483931951224804,
          -0.14453724026679993,
          0.0973316878080368,
          -0.3136245608329773,
          -0.24050919711589813,
          0.3947300314903259,
          0.06025319546461105,
          -0.3662288188934326,
          0.027457496151328087
        ]
      },
      "forgetHidden": {
        "rows": 20,
        "columns": 20,
        "weights": [
          0.1259971559047699,
          0.8377980589866638,
          0.47449520230293274,
          -0.2844253182411194,
          -0.14027924835681915,
          -0.5698484778404236,
          -0.1954018473625183,
          -0.3046930730342865,
          -0.05861600488424301,
          -0.03533584997057915,
          -0.6243348717689514,
          0.38202542066574097,
          -0.6150760054588318,
          -0.5333492755889893,
          1.2523833513259888,
          -0.3115842640399933,
          0.03737768158316612,
          0.0707617923617363,
          0.057028837502002716,
          -0.3459218144416809,
          -0.2534259557723999,
          -0.3274495005607605,
          -0.21722212433815002,
          -0.987057089805603,
          0.10024719685316086,
          0.5146311521530151,
          0.03684435784816742,
          0.3305574655532837,
          -0.38953515887260437,
          0.030957628041505814,
          -0.0530087985098362,
          -0.6219703555107117,
          0.33456656336784363,
          -0.3050478398799896,
          0.43021920323371887,
          0.04320294409990311,
          0.012781854718923569,
          0.07919363677501678,
          -0.7078418135643005,
          0.041149843484163284,
          0.998114287853241,
          0.41486024856567383,
          -0.342477023601532,
          -0.7635654807090759,
          -0.4705870747566223,
          -1.1493453979492188,
          -0.08099836111068726,
          0.1590539664030075,
          -0.03903781622648239,
          -0.2242119461297989,
          0.051212433725595474,
          -0.022733235731720924,
          -0.5440372824668884,
          0.3623104393482208,
          0.697749674320221,
          -0.25694888830184937,
          0.2722761332988739,
          0.5746655464172363,
          0.3144216239452362,
          -0.051034849137067795,
          0.007062767632305622,
          -0.04935998097062111,
          -0.054336126893758774,
          -0.28927505016326904,
          -0.47713568806648254,
          0.25577160716056824,
          0.4191558361053467,
          -0.40697091817855835,
          -0.08907483518123627,
          -0.5822818279266357,
          0.005898205563426018,
          0.6699900031089783,
          -0.4368969798088074,
          0.04270798712968826,
          -0.0041493806056678295,
          -0.35167476534843445,
          0.03444574773311615,
          -0.11256621032953262,
          0.12131812423467636,
          -0.09246531128883362,
          0.08087162673473358,
          0.43821853399276733,
          -0.6312671899795532,
          0.31672242283821106,
          0.23396864533424377,
          0.2647896409034729,
          0.13983401656150818,
          -0.5765631198883057,
          -0.09480955451726913,
          -0.7474250197410583,
          0.6413866877555847,
          -0.2974965274333954,
          -0.5712103843688965,
          0.34079158306121826,
          0.7376675009727478,
          -0.7415527701377869,
          -0.14794647693634033,
          0.9207337498664856,
          -0.09889709204435349,
          -0.08297555893659592,
          0.14232271909713745,
          -0.06455419957637787,
          -0.7096966505050659,
          0.5178053379058838,
          0.34640222787857056,
          0.17089463770389557,
          -0.5073493719100952,
          -0.016201118007302284,
          0.6579803824424744,
          0.7105810642242432,
          -0.5717046856880188,
          -0.34383776783943176,
          0.6353195905685425,
          0.18710574507713318,
          -0.44190093874931335,
          0.4536435902118683,
          -0.02899276465177536,
          -0.6260300874710083,
          0.2256103754043579,
          0.36500635743141174,
          0.5947251319885254,
          -0.3706161379814148,
          -0.48308151960372925,
          -0.579986035823822,
          -0.18648821115493774,
          0.23710061609745026,
          0.7337517738342285,
          0.4616958796977997,
          -0.3139941096305847,
          0.4487511217594147,
          0.008960464969277382,
          -0.5633161067962646,
          0.09477853029966354,
          0.8144426345825195,
          -0.029500488191843033,
          -0.0011315151350572705,
          -0.9087270498275757,
          -0.15778329968452454,
          0.029704635962843895,
          -0.22520074248313904,
          -0.5083009600639343,
          -0.07885716110467911,
          0.0068687982857227325,
          0.1583210527896881,
          -0.7447245121002197,
          -0.31659558415412903,
          0.02158595249056816,
          -0.5621945858001709,
          0.07322912663221359,
          -0.22379092872142792,
          0.0771428644657135,
          0.3758941888809204,
          -0.5935243368148804,
          -1.0764237642288208,
          -0.216488778591156,
          -0.15093131363391876,
          0.11145179718732834,
          0.06740423291921616,
          1.6153671741485596,
          -0.48456037044525146,
          -0.361286997795105,
          0.586075484752655,
          0.6841292381286621,
          -0.07439682632684708,
          -0.751870334148407,
          -0.5846638679504395,
          0.05094125121831894,
          0.1039753407239914,
          -0.76047682762146,
          0.6542230844497681,
          0.1860717236995697,
          -0.14404140412807465,
          0.09746187180280685,
          -0.4731907546520233,
          -0.6365299820899963,
          -0.7262668013572693,
          -0.41614556312561035,
          -0.10950357466936111,
          -0.093023881316185,
          -0.4973146617412567,
          -0.5204585194587708,
          0.4546310305595398,
          0.08723463118076324,
          -0.5297390818595886,
          -0.4979138672351837,
          -0.345049113035202,
          0.8549861907958984,
          0.368757963180542,
          0.2975147068500519,
          -0.352014422416687,
          0.041972335427999496,
          0.10181063413619995,
          -0.7445046305656433,
          -0.09716080129146576,
          -0.6812819242477417,
          0.257999986410141,
          0.728316605091095,
          0.1389542669057846,
          0.6882807612419128,
          -0.1495496779680252,
          -0.14875927567481995,
          -0.12917840480804443,
          -0.22121955454349518,
          0.6469789743423462,
          0.23863370716571808,
          -0.20740073919296265,
          0.6779335141181946,
          -0.20612451434135437,
          0.10968077182769775,
          -0.015380307100713253,
          0.2751506268978119,
          0.1812535971403122,
          0.16525764763355255,
          -0.19961479306221008,
          0.00605883589014411,
          -0.4289754629135132,
          -0.5068166255950928,
          -0.40974748134613037,
          -0.004005736205726862,
          0.18970467150211334,
          -0.2465636134147644,
          0.016951337456703186,
          0.13387785851955414,
          0.08852884918451309,
          -0.3885002136230469,
          0.32493048906326294,
          -0.11723858118057251,
          -0.5039631128311157,
          0.1131509318947792,
          -0.3557337522506714,
          0.3791990876197815,
          -0.08283054828643799,
          -0.18900899589061737,
          0.3643891215324402,
          0.5049222111701965,
          0.4814744293689728,
          -0.5915062427520752,
          -0.0017391142901033163,
          0.0030128571670502424,
          0.03920632600784302,
          0.4192344844341278,
          -0.026704169809818268,
          -0.21579043567180634,
          -0.26304927468299866,
          0.21270518004894257,
          -0.18801924586296082,
          0.012228124774992466,
          -0.3646409213542938,
          -0.6514740586280823,
          -0.09011614322662354,
          -0.2311144471168518,
          -0.20137172937393188,
          0.33457115292549133,
          0.6781526207923889,
          -0.4569561779499054,
          0.5220390558242798,
          0.0867614671587944,
          -0.5310726761817932,
          -0.321851909160614,
          -0.27201977372169495,
          -0.012482753023505211,
          0.26298147439956665,
          -0.06672316044569016,
          0.20883266627788544,
          0.5643097758293152,
          -0.33934861421585083,
          -0.10499636083841324,
          -0.48332443833351135,
          -0.0025222934782505035,
          -0.27259448170661926,
          -0.9028335213661194,
          0.37412214279174805,
          -0.022410007193684578,
          -0.5501894950866699,
          -0.19630855321884155,
          0.42606908082962036,
          0.3559873402118683,
          0.15485331416130066,
          0.15478633344173431,
          0.6103799939155579,
          0.05229105427861214,
          -0.15354813635349274,
          -0.5972932577133179,
          0.10714329034090042,
          0.10824320465326309,
          -0.029009860008955002,
          -0.4671933054924011,
          -0.3251335024833679,
          -0.3506367802619934,
          0.12108862400054932,
          -0.43196728825569153,
          -0.7596015930175781,
          0.4739890694618225,
          0.04956402629613876,
          -0.15380984544754028,
          -0.1794968992471695,
          -1.0621610879898071,
          -0.0923440158367157,
          -0.04568450525403023,
          0.0957854613661766,
          0.05154585465788841,
          -1.0075697898864746,
          -0.35012567043304443,
          0.2663387060165405,
          -0.2417415976524353,
          0.7085656523704529,
          0.32604992389678955,
          -0.3683750331401825,
          0.06174755468964577,
          -0.7479996681213379,
          -0.34933072328567505,
          0.7179840803146362,
          0.3458218574523926,
          -0.42130863666534424,
          0.14047695696353912,
          -0.7665323615074158,
          -0.3506174683570862,
          0.07453881204128265,
          -0.4697366952896118,
          -0.7482458353042603,
          0.10589040070772171,
          0.3073374927043915,
          -0.29881176352500916,
          0.06142866611480713,
          -0.4140036404132843,
          0.038992296904325485,
          -1.0694222450256348,
          0.053450025618076324,
          -0.3513270616531372,
          0.24664044380187988,
          -0.012883271090686321,
          0.09436866641044617,
          0.45671504735946655,
          -0.26397615671157837,
          0.05981040745973587,
          -0.08947601914405823,
          -0.2593374252319336,
          -0.9377319812774658,
          -0.826933741569519,
          0.5116930603981018,
          0.3787592351436615,
          0.1517912745475769,
          -0.48541659116744995,
          -0.714316725730896,
          0.19497354328632355,
          -0.1542682945728302,
          -0.9620062112808228,
          -0.745028018951416,
          -0.035982683300971985,
          -0.045483507215976715,
          0.2399243414402008,
          1.1827118396759033,
          -1.097066879272461,
          -0.7849507331848145,
          -0.5979111194610596,
          0.614060640335083,
          -0.45530375838279724,
          -0.4691845178604126,
          -0.3463139533996582,
          0.09483887255191803,
          0.05931800603866577,
          -0.6712238788604736,
          -0.21081717312335968,
          0.4680144488811493,
          -0.689976155757904,
          -0.22343938052654266,
          0.18954087793827057,
          0.17416474223136902,
          0.06649262458086014,
          -0.33098986744880676,
          0.3192453980445862,
          -0.0835447683930397,
          -0.5675656795501709,
          -0.46928393840789795,
          0.37856340408325195,
          0.11599835008382797,
          -0.16458860039710999,
          -0.7827720642089844,
          0.42755773663520813,
          0.0424698181450367,
          0.6415608525276184,
          -0.5598089694976807,
          0.5573941469192505,
          -0.6973525881767273,
          -0.22809478640556335,
          0.28638359904289246,
          -0.1025499776005745,
          0.3009529411792755,
          -0.24094842374324799,
          -0.21197208762168884,
          0.028415624052286148,
          0.4068543016910553,
          -0.0755106583237648,
          -0.2890487015247345,
          -0.052264682948589325,
          0.13525748252868652,
          0.362458735704422,
          0.5375723242759705,
          0.05743600055575371,
          -0.43131783604621887
        ]
      },
      "forgetBias": {
        "rows": 20,
        "columns": 1,
        "weights": [
          0,
          0,
          0,
          0,
          0,
          0,
          0,
          0,
          0,
          0,
          0,
          0,
          0,
          0,
          0,
          0,
          0,
          0,
          0,
          0
        ]
      },
      "outputMatrix": {
        "rows": 20,
        "columns": 26,
        "weights": [
          -0.17574535310268402,
          0.3276386559009552,
          0.5029624700546265,
          0.07613078504800797,
          0.17476852238178253,
          -0.028427695855498314,
          0.5517385601997375,
          -0.20120841264724731,
          -0.1753033548593521,
          -0.46393096446990967,
          0.4433828294277191,
          0.5393174886703491,
          0.5576068162918091,
          -0.06713337451219559,
          -0.3434112071990967,
          -0.6862408518791199,
          -0.07809803634881973,
          0.1733551174402237,
          -0.189562126994133,
          0.016974199563264847,
          -0.043196067214012146,
          -0.006318475119769573,
          -0.26484453678131104,
          -0.2938225567340851,
          -0.20359942317008972,
          -0.039130862802267075,
          0.8495981097221375,
          0.09267768263816833,
          -0.23736944794654846,
          0.2642662525177002,
          0.05707159265875816,
          0.4135105311870575,
          0.4744754731655121,
          0.02518710121512413,
          0.3662748336791992,
          -0.35069751739501953,
          0.37581706047058105,
          0.4432876706123352,
          0.34418055415153503,
          -0.48852285742759705,
          0.3878726065158844,
          0.15372012555599213,
          -0.5086351633071899,
          0.17750777304172516,
          0.2987237870693207,
          0.0038490514270961285,
          0.5423546433448792,
          -0.26006415486335754,
          -0.27279600501060486,
          -0.12793655693531036,
          -0.3241509199142456,
          -0.12556113302707672,
          -0.3149535655975342,
          -0.26615840196609497,
          0.041349247097969055,
          -0.19666200876235962,
          0.4711087942123413,
          -0.21933487057685852,
          -0.07536344230175018,
          0.24914701282978058,
          -0.12104547023773193,
          0.1959729939699173,
          -0.3363281488418579,
          -0.008248881436884403,
          -0.49925196170806885,
          -0.19515599310398102,
          -0.012601339258253574,
          -0.04786638170480728,
          0.11481501907110214,
          -0.10211222618818283,
          0.12707480788230896,
          -0.6069643497467041,
          0.2252577841281891,
          0.1928110122680664,
          0.14078886806964874,
          -0.26775676012039185,
          -0.12628662586212158,
          0.4435234069824219,
          -0.21572747826576233,
          -0.22928723692893982,
          -0.05816991627216339,
          -0.39649641513824463,
          0.3312028646469116,
          -0.5004270672798157,
          -0.3762100040912628,
          0.8408690094947815,
          -0.34261009097099304,
          -0.5037673115730286,
          0.08578139543533325,
          0.30739134550094604,
          0.03398489952087402,
          -0.1233418881893158,
          0.026607265695929527,
          -0.1960238367319107,
          0.21668505668640137,
          0.5743069648742676,
          0.4915207326412201,
          -0.22861161828041077,
          -0.2767748534679413,
          0.27839332818984985,
          0.23011748492717743,
          -0.21773047745227814,
          -0.2507600784301758,
          -0.03883707895874977,
          0.8065147995948792,
          -0.27001410722732544,
          0.4662826657295227,
          0.07988978922367096,
          0.1499611884355545,
          -0.10800515115261078,
          0.04684629291296005,
          0.13917630910873413,
          0.09153696894645691,
          -0.6269643902778625,
          0.0851781889796257,
          0.023029714822769165,
          0.4069814682006836,
          -0.9921593070030212,
          0.26428571343421936,
          0.08597486466169357,
          -0.12588554620742798,
          0.5084756016731262,
          0.04149874299764633,
          -0.10759274661540985,
          0.1754954606294632,
          -0.0026799440383911133,
          0.2093600630760193,
          0.11251305788755417,
          -0.9596590399742126,
          -0.05492895096540451,
          0.07250875234603882,
          0.37457776069641113,
          -0.04990752413868904,
          -0.20394515991210938,
          0.6375475525856018,
          0.34257903695106506,
          0.4125087559223175,
          -0.04822587966918945,
          0.025749552994966507,
          0.05765356868505478,
          0.22181685268878937,
          0.21058054268360138,
          0.42015448212623596,
          -0.4548143744468689,
          -0.4819446802139282,
          0.6104114651679993,
          0.06433888524770737,
          -0.23157161474227905,
          -0.1687217354774475,
          -0.4653008282184601,
          -0.36768102645874023,
          -0.017782095819711685,
          0.14253662526607513,
          -0.4065510034561157,
          0.11758996546268463,
          0.09451870620250702,
          0.47221240401268005,
          -0.03002096153795719,
          -0.5067254900932312,
          -0.28642380237579346,
          0.3673066198825836,
          -0.06830862909555435,
          0.05530000478029251,
          -0.4067210555076599,
          -0.4224954843521118,
          -0.1061520129442215,
          -0.0762152224779129,
          0.3484804034233093,
          0.23687800765037537,
          -0.06405574083328247,
          0.05553080514073372,
          -0.6768711805343628,
          -0.7945719361305237,
          -0.30704525113105774,
          -0.21344785392284393,
          -0.0797092616558075,
          -0.5570130348205566,
          -0.5314856767654419,
          -0.11608971655368805,
          -0.4260154068470001,
          0.06224987283349037,
          -0.07229039072990417,
          0.32078996300697327,
          0.6198339462280273,
          -0.03671279177069664,
          -0.21129253506660461,
          0.3294735550880432,
          0.1556457281112671,
          0.835936963558197,
          0.14765454828739166,
          0.23335745930671692,
          -0.22651205956935883,
          0.3764010965824127,
          0.035802703350782394,
          0.23588675260543823,
          -0.3257581889629364,
          -0.1543942391872406,
          -0.14373071491718292,
          0.08045349270105362,
          -0.13731424510478973,
          -0.10483885556459427,
          -0.0006081260507926345,
          -0.6470724940299988,
          -0.29714706540107727,
          0.12085545808076859,
          0.053304240107536316,
          -0.11698298901319504,
          -0.0866650640964508,
          0.20285136997699738,
          -0.2763947546482086,
          0.3828476667404175,
          0.304590106010437,
          -0.14264065027236938,
          -0.34963473677635193,
          0.1912672072649002,
          0.05778108909726143,
          -0.11737760901451111,
          -0.5809804797172546,
          0.05289718136191368,
          0.6208827495574951,
          0.5058121085166931,
          -0.1914810687303543,
          0.9041195511817932,
          0.10326246917247772,
          0.003745370777323842,
          0.08242574334144592,
          -0.3538077175617218,
          0.22328300774097443,
          -0.12496431916952133,
          -0.02933325245976448,
          -0.15384717285633087,
          -0.5108778476715088,
          -0.031677767634391785,
          -0.13876360654830933,
          -0.06681954115629196,
          0.8690637946128845,
          -0.6107221245765686,
          -0.274893581867218,
          0.5363034009933472,
          0.40495532751083374,
          0.03131459653377533,
          -0.08811840415000916,
          -0.5157381892204285,
          -0.06427665054798126,
          0.6204033493995667,
          0.0356888584792614,
          0.49600645899772644,
          -0.04487016797065735,
          -0.5017827153205872,
          -0.5834713578224182,
          -0.352857381105423,
          0.27053385972976685,
          0.24857142567634583,
          0.023310186341404915,
          0.37194955348968506,
          -0.09938864409923553,
          -0.36633241176605225,
          -0.13209767639636993,
          -0.45968523621559143,
          -0.2506070137023926,
          0.051004406064748764,
          0.042900849133729935,
          -0.21952547132968903,
          0.49047407507896423,
          0.04850045219063759,
          -0.3292641341686249,
          -0.08444681018590927,
          0.013872207142412663,
          -0.15653400123119354,
          -0.12952403724193573,
          0.40581589937210083,
          0.13125623762607574,
          0.434238076210022,
          -0.39842262864112854,
          0.07160311937332153,
          0.6160805225372314,
          -0.3227261006832123,
          -0.3672640025615692,
          -0.21123608946800232,
          -0.2264925241470337,
          -0.430666983127594,
          -0.9431909322738647,
          0.2617177665233612,
          -0.10680469125509262,
          0.21814598143100739,
          -0.09024115651845932,
          0.09765897691249847,
          -0.017268437892198563,
          -0.4413837790489197,
          0.04240794479846954,
          0.029458951205015182,
          -0.16351403295993805,
          0.31525588035583496,
          0.3645000457763672,
          0.38200604915618896,
          -0.23866930603981018,
          0.07651308923959732,
          -0.011192401871085167,
          -0.0793646052479744,
          -0.12447842210531235,
          0.6339262127876282,
          0.43874672055244446,
          -0.47254353761672974,
          -0.5595099925994873,
          0.2717733383178711,
          -0.7431297898292542,
          -0.034367695450782776,
          -0.36114802956581116,
          -0.09512481838464737,
          -0.3977651596069336,
          -0.031384557485580444,
          0.4463875889778137,
          -0.13286767899990082,
          0.24396944046020508,
          0.24850760400295258,
          0.059967041015625,
          0.5776888132095337,
          -0.09692725539207458,
          0.10387233644723892,
          -0.13930222392082214,
          -0.29957762360572815,
          -0.2903120815753937,
          0.6549019813537598,
          0.23679061233997345,
          0.3886381983757019,
          -0.05288344994187355,
          -0.03622439503669739,
          -1.0036274194717407,
          -0.16952623426914215,
          -0.18271155655384064,
          -0.18682105839252472,
          -0.2339337170124054,
          -0.1353198140859604,
          0.005408447235822678,
          -0.2956441342830658,
          0.11485127359628677,
          -0.19752968847751617,
          -0.09913736581802368,
          0.1968008428812027,
