{
  "type": "LSTM",
  "options": {
    "inputSize": 27,
    "inputRange": 27,
    "hiddenLayers": [
      20,
      20
    ],
    "outputSize": 27,
    "decayRate": 0.999,
    "smoothEps": 1e-8,
    "regc": 0.000001,
    "clipval": 5,
    "maxPredictionLength": 100,
    "dataFormatter": {
      "indexTable": {
        "a": 0,
        "b": 1,
        "s": 2,
        "i": 3,
        "y": 4,
        "o": 5,
        "m": 6,
        "u": 7,
        "k": 8,
        "r": 9,
        "d": 10,
        "e": 11,
        "n": 12,
        "f": 13,
        "h": 14,
        "t": 15,
        "l": 16,
        "p": 17,
        "z": 18,
        "w": 19,
        "c": 20,
        "g": 21,
        "j": 22,
        "-": 23,
        "q": 24,
        " ": 25,
        "unrecognized": 26
      },
      "characterTable": {
        "0": "a",
        "1": "b",
        "2": "s",
        "3": "i",
        "4": "y",
        "5": "o",
        "6": "m",
        "7": "u",
        "8": "k",
        "9": "r",
        "10": "d",
        "11": "e",
        "12": "n",
        "13": "f",
        "14": "h",
        "15": "t",
        "16": "l",
        "17": "p",
        "18": "z",
        "19": "w",
        "20": "c",
        "21": "g",
        "22": "j",
        "23": "-",
        "24": "q",
        "25": " ",
        "26": null
      },
      "values": [
        "abasi",
        "abayomi",
        "abubakar",
        "adeben",
        "adio",
        "adofo",
        "adom",
        "akhenaten",
        "akiiki",
        "akil",
        "akins",
        "amen",
        "amenhotep",
        "amenophis",
        "ammon",
        "amsi",
        "amsu",
        "amun",
        "anpu",
        "anubis",
        "anum",
        "anzety",
        "apis",
        "asim",
        "astennu",
        "aswad",
        "ata",
        "atemu",
        "aten",
        "atsu",
        "atum",
        "ausar",
        "azibo",
        "azizi",
        "baba",
        "babafemi",
        "babu",
        "badru",
        "bakari",
        "baniti",
        "bastet",
        "beb",
        "bebti",
        "bes",
        "bomani",
        "chafulumisa",
        "chaths",
        "chatuluka",
        "chenzira",
        "cheops",
        "chibale",
        "chigaru",
        "chike",
        "chisisi",
        "chuma",
        "dakarai",
        "darius",
        "darwishi",
        "djoser",
        "donkor",
        "ebo",
        "edfu",
        "fadil",
        "fenuku",
        "fenyang",
        "funsani",
        "gahiji",
        "garai",
        "geb",
        "gyasi",
        "haji",
        "hakizimana",
        "hamadi",
        "hanbal",
        "hanif",
        "hapi",
        "hapu",
        "harakhty",
        "hasani",
        "heh",
        "heru",
        "hondo",
        "horemheb",
        "horus",
        "hu",
        "husani",
        "idogbe",
        "ini-herit",
        "ishaq",
        "issa",
        "jabari",
        "jafari",
        "jahi",
        "jibade",
        "jumoke",
        "kafele",
        "kamuzu",
        "kaphiri",
        "kasiya",
        "kazemde",
        "kek",
        "khafra",
        "khaldun",
        "khalfani",
        "khalid",
        "khentimentiu",
        "khnemu",
        "khnurn",
        "khons",
        "khufu",
        "kontar",
        "kosey",
        "lateef",
        "lisimba",
        "lukman",
        "luzige",
        "madu",
        "makalani",
        "manu",
        "maskini",
        "masud",
        "matsimela",
        "mbizi",
        "mempbis",
        "menes",
        "menkaura",
        "mensah",
        "min",
        "minkabh",
        "month",
        "mosegi",
        "moses",
        "moshe",
        "mosi",
        "moss",
        "moswen",
        "msamaki",
        "msrah",
        "mudads",
        "mukhwsna",
        "musa",
        "musim",
        "naeem",
        "narmer",
        "nassor",
        "neb er tcher",
        "nefertum",
        "ngozi",
        "niu",
        "nizsm",
        "nkosi",
        "nkrumsh",
        "nkuku",
        "nun",
        "nuru",
        "oba",
        "odion",
        "okpara",
        "omari",
        "onuris",
        "osahar",
        "osaze",
        "osiris",
        "ottah",
        "oubastet",
        "paki",
        "pili",
        "psamtic",
        "psusennes",
        "ptah",
        "ptolemy",
        "qeb",
        "quasshie",
        "ra",
        "radames",
        "ramses",
        "rashidi",
        "re",
        "rsmses",
        "runihura",
        "saa",
        "sabola",
        "sadiki",
        "salih",
        "seb",
        "sebak",
        "sefu",
        "sekani",
        "senusnet",
        "serapis",
        "set",
        "seth",
        "sethos",
        "shabaka",
        "shakir",
        "shu",
        "sneferu",
        "sobk",
        "sudi",
        "sutekh",
        "tarik",
        "tau",
        "tehuti",
        "teremun",
        "thabit",
        "thoth",
        "thutmose",
        "tor",
        "tsekani",
        "tum",
        "tumaini",
        "tutankhamun",
        "ubaid",
        "ufa",
        "umi",
        "un nefer",
        "ur",
        "ur atum",
        "usi",
        "uthman",
        "wamukota",
        "yafeu",
        "yahya",
        "zahur",
        "zaid",
        "ziyad",
        "zuberi"
      ],
      "characters": [
        "a",
        "b",
        "s",
        "i",
        "y",
        "o",
        "m",
        "u",
        "k",
        "r",
        "d",
        "e",
        "n",
        "f",
        "h",
        "t",
        "l",
        "p",
        "z",
        "w",
        "c",
        "g",
        "j",
        "-",
        "q",
        " ",
        "unrecognized"
      ],
      "specialIndexes": [
        26
      ]
    },
    "activation": "tanh"
  },
  "trainOpts": {
    "iterations": "20000",
    "errorThresh": "0.03",
    "log": false,
    "logPeriod": 1,
    "learningRate": "0.0001",
    "callbackPeriod": 1,
    "timeout": "Infinity"
  },
  "input": {
    "rows": 28,
    "columns": 27,
    "weights": [
      -0.8135236501693726,
      -0.36571502685546875,
      -0.5889919996261597,
      -0.007465046364814043,
      -0.3124850392341614,
      -0.15666663646697998,
      1.6209455728530884,
      -0.004054986406117678,
      0.6642799377441406,
      0.13682755827903748,
      0.36445289850234985,
      -0.3121395707130432,
      -0.1696309596300125,
      -0.546039342880249,
      0.8043870329856873,
      0.13347619771957397,
      -0.42620185017585754,
      -0.18389958143234253,
      0.6508256793022156,
      0.16805866360664368,
      -0.4707386791706085,
      -0.3476489782333374,
      0.2509032189846039,
      -0.43988093733787537,
      0.3330498933792114,
      -0.5676141381263733,
      0.6134347915649414,
      -0.8926255702972412,
      1.2099568843841553,
      -0.01638452708721161,
      -0.6718120574951172,
      1.4672045707702637,
      -0.5246296525001526,
      -0.4297175109386444,
      1.7622216939926147,
      -0.3074330985546112,
      -0.031942106783390045,
      0.7921178340911865,
      0.6923407912254333,
      0.28141310811042786,
      0.7415671944618225,
      -0.7227143049240112,
      -0.12601900100708008,
      1.5914533138275146,
      -0.03708459064364433,
      0.8438988924026489,
      0.5659053325653076,
      -1.2999457120895386,
      0.35160478949546814,
      0.6543053984642029,
      1.2427963018417358,
      0.7018409371376038,
      -0.29987114667892456,
      -0.7912486791610718,
      -1.0650522708892822,
      -2.5982677936553955,
      -1.306341528892517,
      1.779963493347168,
      0.25185006856918335,
      1.2653093338012695,
      4.905109882354736,
      0.9287774562835693,
      0.4316655695438385,
      3.635638952255249,
      -0.6309436559677124,
      -0.7649825811386108,
      1.1418555974960327,
      -1.9650683403015137,
      1.1492745876312256,
      -0.5943489670753479,
      1.609144687652588,
      2.6743321418762207,
      -0.9675959348678589,
      -1.1537877321243286,
      -0.4284306466579437,
      -0.22410127520561218,
      0.730307936668396,
      0.7467632293701172,
      0.5441524982452393,
      -1.9434231519699097,
      0.6905032396316528,
      -1.00999116897583,
      0.6096899509429932,
      -1.4971239566802979,
      -1.9860422611236572,
      4.755362510681152,
      0.7419810891151428,
      4.705533981323242,
      -2.0311214923858643,
      -2.9027514457702637,
      -1.764272928237915,
      -0.09666408598423004,
      -1.7540396451950073,
      2.0406157970428467,
      0.4030608534812927,
      -0.14913947880268097,
      0.8404755592346191,
      2.636528491973877,
      0.37331560254096985,
      -0.40102821588516235,
      -0.3998650908470154,
      0.18987266719341278,
      -0.6132946014404297,
      1.3448160886764526,
      1.2687675952911377,
      -0.9913561940193176,
      -2.140732765197754,
      0.8594451546669006,
      -1.0261515378952026,
      0.8928176164627075,
      0.2741289436817169,
      -0.20134073495864868,
      1.0600111484527588,
      -0.14642611145973206,
      -0.3495975136756897,
      1.9860467910766602,
      0.08070839196443558,
      -1.4414844512939453,
      0.19891174137592316,
      -0.2076406478881836,
      0.7043238878250122,
      0.6487298011779785,
      1.4911853075027466,
      -0.028246458619832993,
      0.6009649038314819,
      1.06303071975708,
      0.9637600183486938,
      0.4189877212047577,
      -0.5171448588371277,
      -0.5187303423881531,
      -1.8255261182785034,
      -1.079830288887024,
      1.8948886394500732,
      -1.0773602724075317,
      0.4288160502910614,
      -0.3507463037967682,
      -0.5464305877685547,
      -1.622045874595642,
      -0.28937599062919617,
      2.6367669105529785,
      -0.5065118670463562,
      -0.15648145973682404,
      1.9524213075637817,
      0.375872403383255,
      1.7674131393432617,
      0.7236593961715698,
      -2.129533290863037,
      1.582248330116272,
      -1.5832079648971558,
      0.5641973614692688,
      -1.4596316814422607,
      -3.385181188583374,
      -0.5500589609146118,
      1.5752865076065063,
      1.0037440061569214,
      -2.3187291622161865,
      -0.45352903008461,
      1.3596644401550293,
      -3.765947103500366,
      0.5742050409317017,
      0.6791345477104187,
      1.0122812986373901,
      -0.8183172941207886,
      0.69649738073349,
      1.5177764892578125,
      -0.4943936765193939,
      1.2504583597183228,
      -0.30072444677352905,
      -3.263979434967041,
      0.8944122195243835,
      0.19571861624717712,
      1.4824625253677368,
      -0.8807776570320129,
      2.867528200149536,
      0.05901738256216049,
      -1.2414509057998657,
      0.7580843567848206,
      -0.17840850353240967,
      -0.12588466703891754,
      -1.6830496788024902,
      2.4948058128356934,
      1.5681437253952026,
      -0.8058346509933472,
      1.515764594078064,
      -0.9467513561248779,
      2.325890064239502,
      1.8321233987808228,
      -0.5048685073852539,
      -0.4567241370677948,
      -0.5037104487419128,
      1.252386450767517,
      -0.39386141300201416,
      0.8715073466300964,
      0.6935122013092041,
      0.22169840335845947,
      3.4715383052825928,
      -0.7167759537696838,
      0.10709913820028305,
      -0.4822885990142822,
      2.0841751098632812,
      1.9968914985656738,
      -1.445400595664978,
      -1.5358576774597168,
      -1.6104438304901123,
      0.3413381576538086,
      -0.20326894521713257,
      -0.6712571382522583,
      0.9855012893676758,
      -0.1568397432565689,
      -1.0824847221374512,
      2.5475425720214844,
      -2.0351736545562744,
      -1.4321743249893188,
      -0.9955348372459412,
      -1.7928723096847534,
      0.20685070753097534,
      -0.11050141602754593,
      1.4724940061569214,
      0.9032289385795593,
      -0.9729317426681519,
      0.3732585906982422,
      -0.12741035223007202,
      -4.634526252746582,
      3.3179407119750977,
      0.5910269021987915,
      -0.35855409502983093,
      1.3609392642974854,
      1.040980577468872,
      2.15000057220459,
      1.412941813468933,
      -0.8703488707542419,
      0.147110715508461,
      -0.3785519003868103,
      -2.4984641075134277,
      1.7665141820907593,
      0.38645389676094055,
      -0.39707306027412415,
      -0.13046087324619293,
      -0.6071504950523376,
      -0.676064133644104,
      2.2782812118530273,
      -2.0669100284576416,
      -0.8275503516197205,
      -0.7470606565475464,
      0.6423128843307495,
      -1.6783682107925415,
      -0.42545387148857117,
      3.3857109546661377,
      -0.5719433426856995,
      2.3014442920684814,
      0.0738854706287384,
      -0.6877349019050598,
      -0.043004248291254044,
      2.5873334407806396,
      0.6198702454566956,
      0.9443420171737671,
      -0.34045252203941345,
      -0.5798045992851257,
      -1.2019824981689453,
      -0.07234527915716171,
      -2.1582248210906982,
      -0.17874865233898163,
      -0.11311113834381104,
      -2.40731143951416,
      0.24084357917308807,
      -1.5181694030761719,
      -3.6510112285614014,
      2.544703245162964,
      -2.0567424297332764,
      -2.182931900024414,
      -0.2891373038291931,
      1.9297752380371094,
      -1.1558178663253784,
      1.534180998802185,
      1.7154046297073364,
      1.377485752105713,
      2.643995761871338,
      0.2522125244140625,
      0.8410253524780273,
      0.4374314546585083,
      3.597428798675537,
      1.0857257843017578,
      -1.7095897197723389,
      -1.5682802200317383,
      -2.0294277667999268,
      -1.6750280857086182,
      0.02566748857498169,
      -0.8357752561569214,
      0.1489584892988205,
      -1.0452232360839844,
      -2.649182081222534,
      0.9538654685020447,
      0.742534339427948,
      -3.4320790767669678,
      -0.5724672675132751,
      0.5362697243690491,
      -1.636462688446045,
      -0.5807302594184875,
      0.7483657002449036,
      -0.30553412437438965,
      0.44762346148490906,
      1.8911644220352173,
      0.2662826180458069,
      1.6256242990493774,
      0.2611088752746582,
      0.47441092133522034,
      2.0978336334228516,
      1.153082013130188,
      0.6765137910842896,
      0.15039601922035217,
      -1.5478453636169434,
      -1.4252972602844238,
      -0.6639137864112854,
      -1.182521104812622,
      -0.06734605878591537,
      1.090531826019287,
      -1.2103893756866455,
      -1.8769384622573853,
      1.8411120176315308,
      -0.13638462126255035,
      -3.275836229324341,
      0.5301700234413147,
      -0.207497701048851,
      -1.0882608890533447,
      -1.3873802423477173,
      -0.11720582842826843,
      -0.2450411319732666,
      -0.8434007167816162,
      0.481792151927948,
      -1.4640512466430664,
      -3.338454008102417,
      3.462094783782959,
      2.203092336654663,
      1.1696268320083618,
      -0.13479897379875183,
      0.7417029142379761,
      -0.6785305738449097,
      -0.010584045201539993,
      -2.571561336517334,
      -2.1856942176818848,
      -0.5764914751052856,
      -1.3493925333023071,
      1.700917363166809,
      0.8961288332939148,
      -0.7126703858375549,
      0.13022461533546448,
      0.2850925624370575,
      -0.5355599522590637,
      1.4865432977676392,
      -0.48409736156463623,
      -1.841392159461975,
      -1.578134298324585,
      1.722440481185913,
      -0.24128876626491547,
      0.5247387886047363,
      -0.6863915324211121,
      -0.991669774055481,
      -1.4507068395614624,
      0.9513322710990906,
      1.2372733354568481,
      -0.7893973588943481,
      0.4661494493484497,
      0.3943198621273041,
      0.7960565686225891,
      0.16395895183086395,
      1.5077677965164185,
      0.9996057748794556,
      0.5238146185874939,
      -1.8641722202301025,
      1.8541580438613892,
      0.5245361328125,
      -0.4852254092693329,
      1.536720871925354,
      -0.43818631768226624,
      0.13492947816848755,
      0.5842887759208679,
      -0.8161806464195251,
      0.7038175463676453,
      -2.1744253635406494,
      0.1102689728140831,
      -1.08265221118927,
      -1.244611144065857,
      -3.692105531692505,
      1.7113254070281982,
      -1.0207713842391968,
      -1.7791128158569336,
      -0.7372986674308777,
      0.5866103768348694,
      -0.6941725611686707,
      -1.5313875675201416,
      -3.2386250495910645,
      1.7649383544921875,
      -2.7743892669677734,
      0.4470110535621643,
      0.3720300495624542,
      -2.019637107849121,
      3.1061456203460693,
      -1.8565795421600342,
      0.020598478615283966,
      -1.025852918624878,
      1.8127038478851318,
      -0.1912260800600052,
      1.113322377204895,
      -2.2709240913391113,
      -0.9429931044578552,
      -0.674152135848999,
      1.5765736103057861,
      1.0138506889343262,
      0.618518590927124,
      1.200787901878357,
      -1.0981303453445435,
      -0.7134112119674683,
      1.4586542844772339,
      -1.3446542024612427,
      -1.997696042060852,
      -0.18937291204929352,
      1.9480048418045044,
      0.45972174406051636,
      0.6909589767456055,
      -0.8051206469535828,
      0.15661250054836273,
      1.765292763710022,
      -0.7542241811752319,
      1.7017672061920166,
      -0.2383429855108261,
      -1.311225175857544,
      0.1694648116827011,
      1.04727041721344,
      0.7240137457847595,
      2.024479389190674,
      -2.212841033935547,
      -0.42581436038017273,
      -1.1974053382873535,
      1.4337210655212402,
      -0.8716595768928528,
      2.5547566413879395,
      -1.65483820438385,
      -0.9087455868721008,
      -1.548488736152649,
      -2.3042869567871094,
      1.6820474863052368,
      -2.757283926010132,
      -1.6108022928237915,
      -0.1303730010986328,
      -2.0182018280029297,
      -0.8469349145889282,
      2.418196678161621,
      -0.1698244959115982,
      -1.9692416191101074,
      1.914496898651123,
      2.179670810699463,
      1.513148546218872,
      -0.7016838192939758,
      1.2078499794006348,
      -5.57698392868042,
      -1.034833312034607,
      -0.473874568939209,
      -1.2252403497695923,
      0.9152300953865051,
      -1.6784113645553589,
      2.2830519676208496,
      -0.20674969255924225,
      1.1623624563217163,
      -1.5421113967895508,
      -1.3858498334884644,
      2.987868070602417,
      -0.4422960579395294,
      -0.13899236917495728,
      1.4847890138626099,
      2.1283047199249268,
      -0.8137430548667908,
      1.8246413469314575,
      -2.121685743331909,
      -0.3006330132484436,
      -0.4574050009250641,
      -1.1840991973876953,
      -0.7921313047409058,
      0.2782635986804962,
      0.8483687043190002,
      -0.7438571453094482,
      0.48467493057250977,
      -0.2290123701095581,
      -3.8681740760803223,
      2.65567946434021,
      -2.6820530891418457,
      -1.783227562904358,
      -1.2260091304779053,
      0.9385977387428284,
      -2.244892120361328,
      -0.745549201965332,
      2.885777473449707,
      -2.110044479370117,
      -1.5652683973312378,
      0.8056814074516296,
      -0.7231787443161011,
      -0.8351383209228516,
      -1.1399060487747192,
      -2.3807413578033447,
      -0.21974226832389832,
      0.011042937636375427,
      -0.794282078742981,
      0.10914946347475052,
      0.2247830480337143,
      -0.9588068723678589,
      1.5906352996826172,
      0.008165626786649227,
      -1.7460798025131226,
      0.7415034174919128,
      2.3093185424804688,
      -0.38067832589149475,
      -1.3815219402313232,
      1.7107716798782349,
      0.3100512623786926,
      -0.6000103950500488,
      1.2744861841201782,
      0.5484609007835388,
      0.3605176508426666,
      0.03093857131898403,
      -0.21474765241146088,
      0.9891879558563232,
      -2.3995742797851562,
      2.813967704772949,
      0.423448771238327,
      2.951756477355957,
      4.847761154174805,
      -1.7882730960845947,
      -3.218538522720337,
      0.2997017204761505,
      0.139133483171463,
      -0.23398883640766144,
      -2.1813690662384033,
      -1.4289909601211548,
      -0.6065926551818848,
      -1.1696515083312988,
      0.7499775886535645,
      -2.4250426292419434,
      -1.6482101678848267,
      0.6656754016876221,
      -3.059581995010376,
      -3.5247063636779785,
      -1.1770739555358887,
      -0.3567037582397461,
      1.4689210653305054,
      -0.7213447093963623,
      0.6772174835205078,
      0.04498952627182007,
      4.921847820281982,
      3.099968194961548,
      -2.0147202014923096,
      -2.0466339588165283,
      -0.6601662635803223,
      -0.6688506007194519,
      3.7581188678741455,
      -1.3685293197631836,
      0.2920266091823578,
      -0.021080264821648598,
      0.2090398669242859,
      -0.9565189480781555,
      -0.5022237300872803,
      1.1424003839492798,
      -1.2536122798919678,
      0.9306198954582214,
      2.118894577026367,
      -3.8966493606567383,
      -0.8470959067344666,
      -0.1692173182964325,
      -2.041346311569214,
      -4.101477146148682,
      2.1142003536224365,
      0.60377436876297,
      -2.664762258529663,
      3.5574488639831543,
      -2.175457000732422,
      -4.186931610107422,
      2.937049388885498,
      -0.4629114270210266,
      2.1787147521972656,
      0.7504571676254272,
      1.577244758605957,
      0.22178727388381958,
      1.9183306694030762,
      -0.5958885550498962,
      0.25412601232528687,
      1.4597183465957642,
      -2.7869110107421875,
      2.7451956272125244,
      0.5595207810401917,
      -2.0144147872924805,
      0.3226779103279114,
      2.3662381172180176,
      -2.4375739097595215,
      0.9794507026672363,
      0.06090438365936279,
      -1.9983136653900146,
      -1.3757489919662476,
      0.714665949344635,
      1.5745885372161865,
      0.5168196558952332,
      0.571359395980835,
      0.6779090166091919,
      -4.031824588775635,
      3.8881537914276123,
      1.097508192062378,
      1.4693711996078491,
      0.832362711429596,
      2.132246732711792,
      1.184024691581726,
      -1.5993281602859497,
      -0.666409969329834,
      -1.3166062831878662,
      -1.0803825855255127,
      0.9142588376998901,
      1.2212764024734497,
      0.2212236225605011,
      -0.7455397844314575,
      -2.1923327445983887,
      -2.694410800933838,
      -2.0842771530151367,
      3.1190261840820312,
      -1.9469411373138428,
      -0.17277002334594727,
      -1.8015151023864746,
      1.4708874225616455,
      0.22250069677829742,
      2.088636636734009,
      -2.8688242435455322,
      1.2341938018798828,
      3.140347719192505,
      -0.10240351408720016,
      0.6791782379150391,
      -1.5132129192352295,
      0.5544887185096741,
      -0.9193161129951477,
      -3.0370242595672607,
      -1.6117459535598755,
      -0.48975029587745667,
      0.2873939573764801,
      0.5506713390350342,
      0.2904767394065857,
      2.6153366565704346,
      -0.5334202647209167,
      -3.828126907348633,
      1.4507310390472412,
      3.2871363162994385,
      -1.267054557800293,
      -1.7424248456954956,
      -0.5275577902793884,
      0.3142397403717041,
      -5.399204730987549,
      -3.929340124130249,
      -3.4968292713165283,
      4.610457420349121,
      2.829685926437378,
      -3.0344491004943848,
      1.8503566980361938,
      3.4239463806152344,
      1.4378985166549683,
      -0.6708698868751526,
      3.2275478839874268,
      -2.8796164989471436,
      0.6918395757675171,
      -2.1593925952911377,
      1.1285470724105835,
      -3.093040704727173,
      -0.46911150217056274,
      -1.336620807647705,
      -1.1249406337738037,
      2.4762678146362305,
      -6.020003795623779,
      1.4421743154525757,
      1.3828328847885132,
      -6.822574138641357,
      -2.366716146469116,
      -2.6357336044311523,
      1.6013643741607666,
      -3.8772928714752197,
      -0.9328835010528564,
      -1.431279182434082,
      -1.3791871070861816,
      -3.550997018814087,
      -2.0320351123809814,
      0.5442613363265991,
      -1.2199745178222656,
      -0.10098371654748917,
      -2.250584363937378,
      1.7185471057891846,
      -2.6899900436401367,
      0.2247844636440277,
      -1.5632693767547607,
      4.712735652923584,
      3.0790867805480957,
      1.9903489351272583,
      1.1857759952545166,
      1.9801297187805176,
      1.7387720346450806,
      3.7431042194366455,
      2.4111595153808594,
      1.0265611410140991,
      2.842277765274048,
      -0.6970389485359192,
      -0.8876029849052429,
      3.525449514389038,
      -1.7400195598602295,
      1.6772457361221313,
      -1.3457008600234985,
      1.6828926801681519,
      -2.0062248706817627,
      -1.015512228012085,
      1.6108158826828003,
      0.00878054741770029,
      1.1855602264404297,
      -2.345935583114624,
      4.515976905822754,
      0.7473421096801758,
      -0.5035322308540344,
      -0.5794808268547058,
      -0.2076473832130432,
      -0.6320186853408813,
      2.285524368286133,
      -2.285653591156006,
      2.327942132949829,
      -0.7410947680473328,
      -2.361157178878784,
      2.1920228004455566,
      -0.7316918969154358,
      -0.7891413569450378,
      -1.8452999591827393,
      -4.691434383392334,
      -0.3116021454334259,
      0.0007141276146285236,
      0.0005051190382800996,
      0.0008374524768441916,
      0.000010025850315287244,
      0.00009743222472025082,
      0.00016611629689577967,
      -0.00020227566710673273,
      0.00024015107192099094,
      0.0004080830840393901,
      0.0005025651771575212,
      0.0006894408143125474,
      0.0003775982477236539,
      0.0001087250784621574,
      -0.0000035166451652912656,
      -0.00009196412429446355,
      -0.0005525260348804295,
      -0.0005464238347485662,
      0.0005452571786008775,
      -0.0006529362290166318,
      0.0006414994713850319,
      -0.0007998007349669933,
      -0.000653246243018657,
      -0.0004231189377605915,
      0.00019918024190701544,
      0.0007179921958595514,
      -0.00019795072148554027,
      0.00040073416312225163
    ]
  },
  "hiddenLayers": [
    {
      "inputMatrix": {
        "rows": 20,
        "columns": 27,
        "weights": [
          -0.03408115729689598,
          -0.5827804207801819,
          0.18205903470516205,
          0.09280779957771301,
          0.5513026118278503,
          0.4353484511375427,
          0.102828748524189,
          -0.045616265386343,
          0.3425704836845398,
          -0.45502451062202454,
          0.32185330986976624,
          -0.12194395810365677,
          -0.17090775072574615,
          0.08360733836889267,
          0.2797470986843109,
          0.01624191924929619,
          0.3446972668170929,
          -0.2849726676940918,
          -0.28366389870643616,
          0.26889467239379883,
          0.08085040003061295,
          0.8563222289085388,
          -0.1405983865261078,
          0.28390926122665405,
          -0.0008888097363524139,
          -0.4783261716365814,
          0.375284880399704,
          -0.3514079749584198,
          -0.2842141389846802,
          -0.26114606857299805,
          -0.08400952070951462,
          0.2645546793937683,
          -0.13549548387527466,
          0.09693041443824768,
          0.3871084153652191,
          0.2887353301048279,
          -0.6763712763786316,
          0.14139674603939056,
          0.03887272626161575,
          -0.006650709547102451,
          -0.3019208312034607,
          -0.17487506568431854,
          -0.03659812733530998,
          -0.5293777585029602,
          -0.4444785416126251,
          0.4433625638484955,
          0.288980633020401,
          0.24455863237380981,
          -0.29103848338127136,
          0.04881855100393295,
          0.10669486969709396,
          -0.004008584655821323,
          0.06189046800136566,
          0.11037200689315796,
          -0.2636396586894989,
          -0.4499853551387787,
          -0.5245466828346252,
          0.4941343069076538,
          0.318848192691803,
          0.02999400906264782,
          -0.07162044942378998,
          0.04229841008782387,
          0.5311005711555481,
          0.04708726704120636,
          0.08617695420980453,
          -0.002816476160660386,
          0.12136806547641754,
          -0.02025153860449791,
          -0.2320941686630249,
          -0.09057942777872086,
          0.25769680738449097,
          -0.6620408296585083,
          0.7053200006484985,
          0.34295275807380676,
          -0.17296692728996277,
          0.371694952249527,
          0.14260509610176086,
          0.4596909284591675,
          0.09335458278656006,
          -0.09968246519565582,
          0.017506452277302742,
          0.018309161067008972,
          -0.30365583300590515,
          0.24752718210220337,
          0.30920276045799255,
          0.06236035004258156,
          -0.11627533286809921,
          0.46255961060523987,
          -0.3268984258174896,
          0.046159204095602036,
          0.0899534747004509,
          0.3279402256011963,
          0.14360696077346802,
          -0.14952874183654785,
          -0.514643132686615,
          0.14771175384521484,
          -0.3432692885398865,
          0.25156283378601074,
          -0.36099591851234436,
          -0.08197076618671417,
          0.3001130521297455,
          -0.45383360981941223,
          0.47736188769340515,
          -0.18260857462882996,
          0.3595220446586609,
          0.07268352061510086,
          -0.20349933207035065,
          -0.007603294216096401,
          -0.22783096134662628,
          -0.3624477982521057,
          -0.3157428801059723,
          0.3771181106567383,
          0.33134031295776367,
          0.42637136578559875,
          0.15773053467273712,
          -0.06583338230848312,
          0.4980551302433014,
          -0.02909523993730545,
          0.09349940717220306,
          -0.4390123188495636,
          -0.7535387277603149,
          -0.08891510218381882,
          -0.25041818618774414,
          0.29681283235549927,
          0.6290872097015381,
          0.15914325416088104,
          0.13182559609413147,
          0.09300951659679413,
          -0.272604763507843,
          -0.09891842305660248,
          0.32987546920776367,
          -0.515497088432312,
          0.8897219300270081,
          -0.271678626537323,
          -0.0071600982919335365,
          0.013618485070765018,
          0.11539636552333832,
          -0.35364440083503723,
          -0.11745492368936539,
          0.40049853920936584,
          -0.10436388850212097,
          -0.01403859443962574,
          0.19809257984161377,
          0.38827279210090637,
          -0.19133144617080688,
          -0.04011893644928932,
          0.016505716368556023,
          0.28497081995010376,
          -0.08098912239074707,
          0.2401755005121231,
          0.5302731394767761,
          -0.37560415267944336,
          -0.21038955450057983,
          0.34887513518333435,
          0.1940639317035675,
          0.2592323124408722,
          -0.42444226145744324,
          0.20446793735027313,
          -0.5993655323982239,
          0.24750249087810516,
          0.12698912620544434,
          0.11139275878667831,
          -0.061862263828516006,
          -0.21650056540966034,
          0.2815159857273102,
          -0.23299762606620789,
          0.10902556777000427,
          -0.49444952607154846,
          -0.14884626865386963,
          -0.16009637713432312,
          0.1874265968799591,
          -0.07530545443296432,
          -0.05222616344690323,
          -0.18484100699424744,
          -0.006732183508574963,
          -0.013812091201543808,
          -0.26709893345832825,
          0.10049477219581604,
          -0.018859216943383217,
          0.6423312425613403,
          0.26328015327453613,
          -0.6297499537467957,
          0.09405691921710968,
          0.0914631113409996,
          -0.07814588397741318,
          -0.000028707045203191228,
          0.058429256081581116,
          -0.028874704614281654,
          -0.17123357951641083,
          0.2923279106616974,
          -0.23943306505680084,
          0.08135773986577988,
          0.3229900598526001,
          0.433498740196228,
          0.18257832527160645,
          0.1744011640548706,
          -0.1466687172651291,
          0.17723673582077026,
          0.2242591679096222,
          0.024372205138206482,
          0.13884371519088745,
          0.3095179796218872,
          0.0364052839577198,
          -0.3381078541278839,
          0.11447007209062576,
          -0.017527418211102486,
          -0.5868106484413147,
          0.03720886632800102,
          0.3457721471786499,
          -0.6239606738090515,
          0.5296249389648438,
          -0.41831791400909424,
          0.11640823632478714,
          -0.1143074780702591,
          0.048844799399375916,
          -0.11079350113868713,
          -0.04109063372015953,
          0.5921348333358765,
          -0.47656410932540894,
          -0.2400059551000595,
          -0.5143636465072632,
          0.3116871118545532,
          -0.06235380470752716,
          0.456088662147522,
          -0.006198892369866371,
          0.24858438968658447,
          0.16283395886421204,
          0.031570035964250565,
          -0.15243074297904968,
          -0.2883915305137634,
          -0.0034074513241648674,
          0.0809788629412651,
          -0.01352926529943943,
          0.30814144015312195,
          -0.4807007312774658,
          0.3241305351257324,
          0.019701046869158745,
          -0.1908063292503357,
          -0.12762469053268433,
          -0.12098024785518646,
          -0.29305580258369446,
          -0.809501051902771,
          -0.06134837493300438,
          -0.11448884010314941,
          -0.10416777431964874,
          -0.19094282388687134,
          0.6145808696746826,
          0.16031472384929657,
          -0.24146999418735504,
          0.03391685709357262,
          0.014051493257284164,
          0.2893390655517578,
          0.0195867158472538,
          0.0017297235317528248,
          -0.010655151680111885,
          -0.1563483029603958,
          -0.34903520345687866,
          -0.10039272159337997,
          0.06359107792377472,
          0.06260082125663757,
          0.09290947020053864,
          -0.23608288168907166,
          -0.11363384127616882,
          -0.1452920138835907,
          -0.2205721139907837,
          -0.2516893446445465,
          -0.22933612763881683,
          0.389006108045578,
          -0.6535347700119019,
          0.47330808639526367,
          -0.18759457767009735,
          0.00671999529004097,
          -0.12024212628602982,
          0.14485307037830353,
          -0.08871163427829742,
          0.17837724089622498,
          0.09650839865207672,
          0.34412670135498047,
          -0.01594635657966137,
          -0.23318935930728912,
          0.5526429414749146,
          0.020076068118214607,
          -0.3320847451686859,
          -0.305952250957489,
          0.25254446268081665,
          0.09831643849611282,
          -0.3524862825870514,
          0.05111224576830864,
          0.49291878938674927,
          -0.04807216301560402,
          0.40325236320495605,
          -0.2293732762336731,
          0.14819705486297607,
          -0.010044446215033531,
          0.4821697771549225,
          0.037448883056640625,
          -0.05310811102390289,
          -0.10272511839866638,
          0.29406309127807617,
          0.059915412217378616,
          0.012311643920838833,
          0.03736935555934906,
          0.10409369319677353,
          0.0789967030286789,
          0.09571696817874908,
          -0.027250532060861588,
          0.020761586725711823,
          0.4377385973930359,
          -0.08928380906581879,
          0.04833519458770752,
          0.02813982218503952,
          0.42331430315971375,
          -0.29265663027763367,
          -0.32046839594841003,
          0.24897192418575287,
          0.215268075466156,
          0.07706151157617569,
          0.01458469033241272,
          -0.35313189029693604,
          -0.19601884484291077,
          0.20219025015830994,
          -0.09644276648759842,
          -0.33245763182640076,
          0.04848306253552437,
          -0.1559479534626007,
          -0.21952304244041443,
          0.0864766389131546,
          -0.03577606752514839,
          -0.2347218543291092,
          -0.06640379875898361,
          0.1866910755634308,
          -0.01825127750635147,
          0.1847458779811859,
          -0.15177775919437408,
          0.38525819778442383,
          0.01203405112028122,
          -0.06492548435926437,
          -0.17486229538917542,
          0.4115530848503113,
          0.10352344065904617,
          0.008802949450910091,
          0.4004049599170685,
          0.15587010979652405,
          -0.5584794878959656,
          0.2923433184623718,
          0.04915677011013031,
          0.184308722615242,
          -0.14942994713783264,
          -0.10228131711483002,
          -0.1690250188112259,
          0.281538724899292,
          -0.43649300932884216,
          0.2020478993654251,
          -0.055126629769802094,
          -0.4175957143306732,
          -0.08282270282506943,
          0.36764949560165405,
          -0.1789754033088684,
          0.4067018926143646,
          -0.12540574371814728,
          0.27807629108428955,
          0.0517265722155571,
          0.2593362629413605,
          0.01821109652519226,
          -0.07400286942720413,
          0.1662483960390091,
          0.3656817674636841,
          -0.10698780417442322,
          0.4670844078063965,
          -0.054767731577157974,
          0.0402509905397892,
          0.06428419053554535,
          -0.3687736392021179,
          -0.2909812927246094,
          0.20651942491531372,
          -0.23643788695335388,
          -0.09025663882493973,
          -0.13763713836669922,
          0.48468515276908875,
          -0.09631171822547913,
          -0.1642615795135498,
          -0.15303689241409302,
          0.025278933346271515,
          0.058726247400045395,
          0.011143114417791367,
          -0.004088949877768755,
          -0.12435539811849594,
          0.05459804832935333,
          0.07089646905660629,
          0.0731780081987381,
          0.08462261408567429,
          -0.33980700373649597,
          -0.3472917973995209,
          -0.16018562018871307,
          -0.4460582137107849,
          0.42705708742141724,
          0.3434337079524994,
          -0.42817550897598267,
          0.15878796577453613,
          -0.33381569385528564,
          -0.1260855495929718,
          -0.0009179231710731983,
          0.002203652635216713,
          -0.09120605140924454,
          0.43856343626976013,
          0.3864704370498657,
          0.16091948747634888,
          0.15215690433979034,
          0.1935402750968933,
          -0.02016097493469715,
          -0.6756253242492676,
          -0.07113143801689148,
          -0.2820867598056793,
          -0.06542143225669861,
          0.11775346845388412,
          0.17236337065696716,
          -0.43216344714164734,
          -0.494783878326416,
          -0.578818142414093,
          -0.12442517280578613,
          -0.04807818681001663,
          -0.19258305430412292,
          0.06746761500835419,
          0.07959859818220139,
          -0.14594832062721252,
          0.10149896144866943,
          -0.5516504049301147,
          -0.27722546458244324,
          0.2655353844165802,
          0.4138340950012207,
          -0.18244019150733948,
          0.3563048243522644,
          -0.3436622619628906,
          -0.11656223237514496,
          -0.02372237853705883,
          0.018659187480807304,
          0.17605340480804443,
          -0.22422665357589722,
          0.1528269201517105,
          0.1235116645693779,
          0.04491501674056053,
          -0.11516261845827103,
          -0.06926373392343521,
          -0.274275004863739,
          0.3534684479236603,
          -0.43036648631095886,
          0.4783993065357208,
          0.45946556329727173,
          -0.5029047131538391,
          -0.1238299310207367,
          0.189501091837883,
          0.48686501383781433,
          -0.2907738983631134,
          -0.044707756489515305,
          -0.20900346338748932,
          -0.47424226999282837,
          0.44716766476631165,
          -0.3240315616130829,
          0.05255495756864548,
          -0.029531169682741165,
          0.10220402479171753,
          0.21971432864665985,
          -0.05950136110186577,
          0.23158575594425201,
          0.0036795358173549175,
          -0.27270883321762085,
          0.2646879255771637,
          0.19461406767368317,
          -0.11352760344743729,
          -0.09982406347990036,
          0.430419385433197,
          0.3913538157939911,
          0.06332553923130035,
          -0.1291237771511078,
          -0.04431196674704552,
          -0.23587095737457275,
          0.10063812136650085,
          -0.13833749294281006,
          0.31858953833580017,
          -0.15380820631980896,
          0.21409983932971954,
          -0.32001563906669617,
          -0.3379763960838318,
          -0.30581793189048767,
          0.14589563012123108,
          -0.10937278717756271,
          -0.35206976532936096,
          0.6082595586776733,
          -0.4215857982635498,
          0.07371922582387924,
          -0.28279298543930054,
          -0.058164600282907486,
          -0.08365082740783691,
          0.1568581908941269,
          -0.17777006328105927,
          -0.07692798972129822,
          0.1574002206325531,
          -0.08169926702976227,
          -0.2107640504837036,
          -0.46302902698516846,
          -0.16119468212127686,
          -0.15592363476753235,
          -0.038016512989997864,
          0.16185221076011658,
          -0.2431679666042328,
          0.30385494232177734,
          -0.24569933116436005,
          -0.18556350469589233,
          -0.049722835421562195,
          0.1426093578338623,
          -0.12417059391736984,
          -0.6487451195716858,
          -0.054090313613414764,
          0.09906000643968582,
          0.06361138820648193,
          0.1239871010184288,
          -0.28770214319229126,
          0.16967272758483887,
          -0.03853320702910423,
          0.23072318732738495,
          0.23584145307540894,
          -0.10223747044801712,
          -0.03177310898900032,
          0.4198879897594452,
          -0.31883859634399414,
          -0.20901332795619965,
          -0.13482773303985596,
          -0.10805921256542206,
          -0.32051193714141846,
          -0.20201414823532104,
          0.2531801462173462,
          0.4280124604701996,
          -0.2602420449256897,
          0.23791614174842834,
          -0.3103785514831543,
          0.16060374677181244,
          -0.26073119044303894,
          0.14121438562870026,
          0.22577479481697083,
          0.016592668369412422
        ]
      },
      "inputHidden": {
        "rows": 20,
        "columns": 20,
        "weights": [
          0.7711751461029053,
          0.3547166585922241,
          -0.5184686183929443,
          0.24799473583698273,
          0.30491986870765686,
          0.46712732315063477,
          -0.961908221244812,
          -0.37218400835990906,
          0.0057296850718557835,
          1.0237421989440918,
          0.43475258350372314,
          0.3589208424091339,
          0.05978855490684509,
          -0.3044010400772095,
          0.29838231205940247,
          0.32458850741386414,
          0.6218355298042297,
          -1.3293848037719727,
          -0.434458464384079,
          -0.7334243655204773,
          0.8492105603218079,
          0.09812423586845398,
          -0.0691690444946289,
          -0.5614044070243835,
          0.06456471979618073,
          0.19392946362495422,
          -0.1284671574831009,
          -0.192386656999588,
          0.17326654493808746,
          -0.40782859921455383,
          0.12251673638820648,
          0.6377217173576355,
          0.4167214334011078,
          -0.09941291064023972,
          0.714806318283081,
          0.6982942819595337,
          -0.47687116265296936,
          -0.5208266377449036,
          -1.0181692838668823,
          0.2645418345928192,
          0.4532410800457001,
          -0.23193047940731049,
          -1.2371337413787842,
          0.04462934657931328,
          -2.3030717372894287,
          0.4481348395347595,
          0.21343256533145905,
          1.5247101783752441,
          0.2421560287475586,
          0.5843386054039001,
          -0.31016847491264343,
          -0.11573953181505203,
          0.16538184881210327,
          -0.31014102697372437,
          -0.5756859183311462,
          0.1971236616373062,
          -0.708380937576294,
          -0.09288299083709717,
          -0.6921387314796448,
          -1.08860182762146,
          0.2486283928155899,
          -0.33053353428840637,
          -1.364434003829956,
          0.22796683013439178,
          0.7843773365020752,
          -0.44051241874694824,
          -1.3144878149032593,
          -0.008183494210243225,
          -0.4037744402885437,
          0.6521220803260803,
          -0.1978452503681183,
          -0.18060186505317688,
          -0.12232926487922668,
          -0.3260580003261566,
          0.4111500382423401,
          0.11372543126344681,
          -0.7385725378990173,
          1.1967830657958984,
          -0.8448087573051453,
          -0.028336869552731514,
          -0.21800898015499115,
          0.7558248043060303,
          -0.38178911805152893,
          0.1688331961631775,
          0.44846677780151367,
          0.3811410069465637,
          -0.3049928545951843,
          -1.2903110980987549,
          -0.3029671609401703,
          -0.02304266020655632,
          -0.6456743478775024,
          0.27905020117759705,
          -0.27309828996658325,
          0.06466486304998398,
          -0.07571080327033997,
          -0.24663874506950378,
          -0.49690741300582886,
          -0.7481545805931091,
          0.0806453749537468,
          -0.39946767687797546,
          0.3283373713493347,
          0.6122362017631531,
          -0.2490295022726059,
          0.8395736813545227,
          -0.10937465727329254,
          -0.16372400522232056,
          -0.5220051407814026,
          0.4626988470554352,
          0.2827543020248413,
          1.4287071228027344,
          -0.049460332840681076,
          0.42836320400238037,
          -0.6653242707252502,
          0.4179283678531647,
          -0.37831783294677734,
          0.384133905172348,
          0.12826520204544067,
          0.16674336791038513,
          0.25610068440437317,
          0.13453073799610138,
          0.05378316342830658,
          0.27589190006256104,
          -0.0046357945539057255,
          -0.3234720826148987,
          0.09458284825086594,
          0.09668082743883133,
          0.3322908282279968,
          -0.15090972185134888,
          0.7673870325088501,
          0.05431859940290451,
          0.3742991089820862,
          -0.029395816847682,
          -0.720120906829834,
          1.5455877780914307,
          1.0643203258514404,
          0.622848629951477,
          0.09550928324460983,
          -0.8928321599960327,
          1.4921650886535645,
          0.5419727563858032,
          0.27972525358200073,
          -0.543107807636261,
          -0.48097658157348633,
          -0.07056022435426712,
          0.12313470989465714,
          0.09926372021436691,
          0.11389296501874924,
          0.17229194939136505,
          0.3654111921787262,
          0.5823041796684265,
          0.025690089911222458,
          -0.20245592296123505,
          -0.948907732963562,
          0.8191470503807068,
          0.09244342148303986,
          -0.16292151808738708,
          0.16573499143123627,
          -0.2694445848464966,
          0.34883832931518555,
          -0.030314018949866295,
          1.1537189483642578,
          0.07030211389064789,
          -0.4180828034877777,
          -0.06678511947393417,
          0.34344393014907837,
          0.5444658398628235,
          1.1786190271377563,
          0.7694051265716553,
          0.563785970211029,
          -0.010859119705855846,
          -0.8751552700996399,
          -0.7415627837181091,
          -0.503567636013031,
          0.8801845908164978,
          0.9183900952339172,
          0.5581424832344055,
          -0.009952458553016186,
          -0.13696585595607758,
          -0.0423952080309391,
          0.46905916929244995,
          -0.0184408500790596,
          -0.08823467791080475,
          0.14627599716186523,
          -0.9585533738136292,
          -0.5760983228683472,
          0.42548808455467224,
          -1.0223065614700317,
          -1.0443376302719116,
          -0.8534439206123352,
          -0.791097104549408,
          0.43229803442955017,
          0.11690368503332138,
          1.074676513671875,
          1.0325894355773926,
          1.28030264377594,
          -1.231884241104126,
          -0.6140851974487305,
          0.13419972360134125,
          -0.4779941737651825,
          -0.16518543660640717,
          0.5991097688674927,
          0.7626523375511169,
          0.24066157639026642,
          -1.1959623098373413,
          0.20443442463874817,
          -1.4579936265945435,
          -0.36066877841949463,
          -0.671556293964386,
          1.071982979774475,
          -0.10297840088605881,
          1.4430972337722778,
          0.5505171418190002,
          0.02445017173886299,
          0.32788729667663574,
          1.1197879314422607,
          0.6934195160865784,
          0.7006153464317322,
          0.7596321702003479,
          0.1317245066165924,
          -0.2976926565170288,
          0.13456514477729797,
          -0.057047903537750244,
          -0.6232070922851562,
          0.060788679867982864,
          0.3275953531265259,
          -0.46995553374290466,
          1.4861814975738525,
          0.3538292348384857,
          -0.1085667759180069,
          0.6766037940979004,
          -0.19162921607494354,
          -0.0099301403388381,
          -0.4945259988307953,
          0.6425328850746155,
          -0.32673341035842896,
          0.2825525999069214,
          0.16879768669605255,
          -1.0718941688537598,
          0.3570846915245056,
          -0.4931485652923584,
          0.27036499977111816,
          0.4586837887763977,
          -0.04538288712501526,
          -0.12175595760345459,
          0.054884348064661026,
          -0.5317244529724121,
          0.3482903838157654,
          -1.208631992340088,
          -0.2095048725605011,
          0.6696500182151794,
          0.12060441076755524,
          0.3913915157318115,
          -0.602209746837616,
          0.4047950506210327,
          -0.6196391582489014,
          0.09474026411771774,
          0.16197778284549713,
          -0.7626570463180542,
          0.0659005269408226,
          0.19588395953178406,
          1.5233443975448608,
          -0.42669668793678284,
          0.04312122240662575,
          0.43037182092666626,
          -0.2107243537902832,
          -0.14232240617275238,
          0.8253173232078552,
          -0.1870017796754837,
          0.44794073700904846,
          0.6165341138839722,
          0.3726917505264282,
          0.4133090674877167,
          -0.6119087934494019,
          0.698768138885498,
          -0.18027262389659882,
          -0.24293901026248932,
          0.0349905826151371,
          -0.2899615466594696,
          0.05275683104991913,
          0.3155229091644287,
          0.6955720782279968,
          -0.21548739075660706,
          0.06585071980953217,
          -0.36748120188713074,
          0.28912413120269775,
          -0.16258132457733154,
          0.7140735983848572,
          -0.5614004135131836,
          2.1232359409332275,
          0.7019085884094238,
          -0.17154668271541595,
          0.16817571222782135,
          -0.49312734603881836,
          -0.13081353902816772,
          0.8194223642349243,
          -0.27312859892845154,
          0.2662835419178009,
          0.9054928421974182,
          0.017190642654895782,
          0.19904112815856934,
          0.011042551137506962,
          0.7184825539588928,
          0.7692388296127319,
          -0.10618440806865692,
          -0.9048595428466797,
          -0.37933674454689026,
          -0.4870660901069641,
          -1.1892863512039185,
          -0.4177526831626892,
          0.043072231113910675,
          0.314608097076416,
          0.6170547008514404,
          1.0963413715362549,
          -0.5952561497688293,
          0.7191900610923767,
          1.019487738609314,
          0.199176624417305,
          -0.8112632632255554,
          0.06582625210285187,
          0.2649209797382355,
          0.754808247089386,
          -1.1234101057052612,
          -0.3319171369075775,
          -0.22437016665935516,
          -1.0659278631210327,
          0.7794814705848694,
          1.0958435535430908,
          0.18284712731838226,
          0.3294128179550171,
          0.9252563118934631,
          -0.6492730379104614,
          0.3879212737083435,
          0.1962510198354721,
          0.3588038980960846,
          0.5801397562026978,
          -0.5102553963661194,
          0.4340396821498871,
          -0.757259726524353,
          -0.12879334390163422,
          -0.2295135110616684,
          0.6557953357696533,
          1.0940465927124023,
          -0.16168656945228577,
          -0.06845664978027344,
          -0.6174178719520569,
          -0.2034030556678772,
          0.9616395235061646,
          -0.48165443539619446,
          -0.31660380959510803,
          0.8254247903823853,
          -0.5895671248435974,
          0.5507110357284546,
          0.02617957629263401,
          1.4968149662017822,
          0.48275500535964966,
          0.046661097556352615,
          -0.15965871512889862,
          -0.5126609206199646,
          -0.4757671654224396,
          -0.1989581137895584,
          0.37092500925064087,
          -0.7155132293701172,
          0.13539429008960724,
          -0.5594504475593567,
          -1.2556413412094116,
          -1.4344056844711304,
          0.036070313304662704,
          -0.38340452313423157,
          0.7789692878723145,
          -0.32714182138442993,
          1.06368887424469,
          -0.04253736138343811,
          -0.7170014977455139,
          0.5463908910751343,
          -0.19651450216770172,
          -0.39233043789863586,
          0.7377800345420837,
          0.5398766398429871,
          0.7031087279319763,
          0.010232863947749138,
          0.9801677465438843,
          1.5366857051849365,
          0.022747928276658058,
          0.362673819065094,
          -0.0904344916343689,
          -0.8157264590263367,
          -0.1905684918165207,
          0.8162838220596313,
          0.45633843541145325,
          0.1853310614824295,
          0.35547715425491333,
          0.032860055565834045,
          0.3239497244358063,
          0.5347057580947876,
          0.12951421737670898,
          -0.2813152074813843,
          -0.9707976579666138,
          -0.4019092917442322,
          0.14504201710224152,
          0.6636408567428589
        ]
      },
      "inputBias": {
        "rows": 20,
        "columns": 1,
        "weights": [
          0.4638964831829071,
          0.37639930844306946,
          0.44263219833374023,
          1.1834405660629272,
          0.6561732888221741,
          0.4427335858345032,
          0.31771397590637207,
          -0.32230663299560547,
          1.0091307163238525,
          0.5001968741416931,
          0.6802012920379639,
          0.6059744358062744,
          0.8207770586013794,
          0.4902213215827942,
          1.2768771648406982,
          0.8746703863143921,
          0.1152004599571228,
          -0.07623220235109329,
          0.47434529662132263,
          0.7681238651275635
        ]
      },
      "forgetMatrix": {
        "rows": 20,
        "columns": 27,
        "weights": [
          0.12177374213933945,
          -0.4493333399295807,
          0.1196068674325943,
          -0.15457823872566223,
          0.37820369005203247,
          0.3416619896888733,
          -0.14169108867645264,
          -0.057173389941453934,
          -0.013066151179373264,
          0.054803915321826935,
          -0.0788576528429985,
          -0.018791820853948593,
          0.25601041316986084,
          0.29171717166900635,
          -0.027470842003822327,
          0.04933634400367737,
          -0.038418058305978775,
          -0.23116974532604218,
          -0.31947061419487,
          0.31784069538116455,
          0.021447788923978806,
          0.5210772156715393,
          -0.047606248408555984,
          0.4460954964160919,
          -0.19526419043540955,
          0.1033957377076149,
          0.10437122732400894,
          0.3395375907421112,
          0.16012899577617645,
          0.07042054831981659,
          -0.08144775778055191,
          -0.3963659405708313,
          -0.07143473625183105,
          -0.14873458445072174,
          -0.12052884697914124,
          -0.28633609414100647,
          0.5106329917907715,
          -0.1291216015815735,
          0.3026033639907837,
          -0.027835413813591003,
          -0.015744218602776527,
          -0.039752297103405,
          0.13385948538780212,
          -0.5074302554130554,
          0.16361892223358154,
          0.6934443712234497,
          0.38474854826927185,
          -0.05342504009604454,
          -0.121697336435318,
          -0.027858424931764603,
          0.39993613958358765,
          0.2898615002632141,
          -0.3014160096645355,
          -0.36154255270957947,
          0.07150445133447647,
          0.17136533558368683,
          0.11898059397935867,
          -0.06111184507608414,
          -0.1359822005033493,
          0.024426091462373734,
          -0.19414786994457245,
          -0.16775664687156677,
          -0.056237563490867615,
          -0.06026115640997887,
          0.235518217086792,
          0.3112480938434601,
          0.23620392382144928,
          0.5629149675369263,
          -0.028317611664533615,
          -0.15507780015468597,
          0.0959450975060463,
          0.03411993384361267,
          0.043860092759132385,
          -0.4181075990200043,
          0.3352086544036865,
          0.48754656314849854,
          0.048389285802841187,
          0.2912166714668274,
          -0.3379010260105133,
          0.25873643159866333,
          0.15286631882190704,
          0.31590625643730164,
          0.3553185760974884,
          0.0008007518481463194,
          0.11544759571552277,
          -0.16570553183555603,
          0.5829886794090271,
          0.14858265221118927,
          0.08163781464099884,
          -0.1257479190826416,
          -0.3673865795135498,
          0.5280661582946777,
          -0.1275321990251541,
          -0.16618375480175018,
          0.10543910413980484,
          -0.35259199142456055,
          -0.08318237960338593,
          0.2309592068195343,
          -0.0036713462322950363,
          -0.15535396337509155,
          0.36562657356262207,
          -0.2830701470375061,
          0.04146641492843628,
          -0.10611338913440704,
          -0.3790063261985779,
          -0.393308162689209,
          0.021877551451325417,
          -0.14425843954086304,
          -0.23494566977024078,
          0.2801576554775238,
          -0.36046141386032104,
          -0.14923293888568878,
          0.17986679077148438,
          0.024525100365281105,
          0.06323648244142532,
          0.4393210709095001,
          -0.38109850883483887,
          -0.022772548720240593,
          -0.10651557892560959,
          -0.03370581194758415,
          0.7004037499427795,
          0.04665060341358185,
          0.6172011494636536,
          0.27188462018966675,
          -0.5502347350120544,
          -0.5250346660614014,
          -0.035637788474559784,
          0.1511433869600296,
          -0.0583987720310688,
          -0.19658219814300537,
          -0.14347945153713226,
          -0.09380663931369781,
          -0.05456569045782089,
          0.17746517062187195,
          0.2957717478275299,
          0.687813401222229,
          -0.07438144832849503,
          0.6784701943397522,
          -0.4520834684371948,
          0.05780808627605438,
          -0.09260348975658417,
          -0.12306506186723709,
          -0.37330102920532227,
          0.10282983630895615,
          0.09081869572401047,
          -0.10020523518323898,
          -0.39194491505622864,
          -0.20708610117435455,
          0.01489247102290392,
          0.09105148166418076,
          0.7406815886497498,
          -0.11194005608558655,
          0.5377992987632751,
          0.6115375757217407,
          -0.2507656216621399,
          0.23741582036018372,
          0.08321595191955566,
          -0.09750662744045258,
          -0.43649131059646606,
          0.23033519089221954,
          -0.2844531536102295,
          -0.3085584342479706,
          0.2737935781478882,
          1.4642523527145386,
          -0.0988871157169342,
          -0.2877817749977112,
          -0.47021904587745667,
          0.10836347192525864,
          -0.3504536747932434,
          0.3061026632785797,
          0.06734131276607513,
          -0.22784730792045593,
          0.2141501009464264,
          -0.2161448895931244,
          -0.2643459439277649,
          0.2200852334499359,
          0.11651215702295303,
          -0.06444259732961655,
          0.08029237389564514,
          0.1237141489982605,
          -0.4882563352584839,
          0.3624074161052704,
          -0.5787537097930908,
          0.13374124467372894,
          0.5061676502227783,
          -0.34281226992607117,
          -0.271320104598999,
          0.3580758571624756,
          0.34702399373054504,
          0.4121449291706085,
          0.30194276571273804,
          0.09280291944742203,
          -0.9151893258094788,
          0.08217740058898926,
          -0.14277499914169312,
          0.009082071483135223,
          0.2908742129802704,
          0.30716124176979065,
          0.18706543743610382,
          0.1275249719619751,
          -0.23207297921180725,
          0.25799795985221863,
          0.4920569956302643,
          0.07446783781051636,
          -0.18257007002830505,
          0.10902717709541321,
          -0.12210482358932495,
          0.24559304118156433,
          -0.047406911849975586,
          0.28756004571914673,
          -0.12067055702209473,
          -0.02383810095489025,
          0.08469627797603607,
          -0.5128798484802246,
          0.4028783440589905,
          0.1766173243522644,
          -0.12488065659999847,
          -0.2767637073993683,
          -0.6071184873580933,
          0.7368051409721375,
          0.2530030906200409,
          0.04817059636116028,
          -0.13653548061847687,
          0.24455100297927856,
          0.010484021157026291,
          -0.6409308314323425,
          0.04754012078046799,
          -0.10081081092357635,
          -0.08621720969676971,
          -0.21975450217723846,
          -0.21413175761699677,
          0.16573470830917358,
          -0.016869425773620605,
          -0.340197890996933,
          -0.32533276081085205,
          0.04817520081996918,
          0.5059686303138733,
          0.17845915257930756,
          -0.07968790084123611,
          0.165072962641716,
          0.36385396122932434,
          0.030142081901431084,
          0.07460007816553116,
          -0.699515700340271,
          0.170179545879364,
          -0.2703416049480438,
          -0.25062787532806396,
          -0.2382550984621048,
          -0.0376710407435894,
          -0.059084899723529816,
          0.41065099835395813,
          -0.3407447040081024,
          -0.20597539842128754,
          -0.43532076478004456,
          0.04413587227463722,
          0.5026350021362305,
          -0.0778549388051033,
          -0.1520383656024933,
          0.12912151217460632,
          -0.5420510768890381,
          0.03627576678991318,
          -0.06285884976387024,
          -0.15453718602657318,
          0.40132105350494385,
          -0.28238818049430847,
          0.09501466900110245,
          0.36613401770591736,
          -0.11810749769210815,
          0.1342436522245407,
          -0.03475334495306015,
          0.08339163661003113,
          -0.5162603855133057,
          0.22498059272766113,
          0.4569910764694214,
          0.6580948233604431,
          0.11223843693733215,
          -0.09701891243457794,
          -0.24020887911319733,
          -0.01783875934779644,
          -0.3464691936969757,
          0.3747235834598541,
          -0.14438825845718384,
          -0.17669792473316193,
          -0.1949576586484909,
          -0.13514810800552368,
          -0.4412364363670349,
          0.10065606236457825,
          -0.07450997084379196,
          -0.08216878026723862,
          0.0660056620836258,
          0.28486961126327515,
          0.2792004644870758,
          0.04055701196193695,
          0.04595509171485901,
          0.22517244517803192,
          0.013001108542084694,
          0.10762297362089157,
          0.22959698736667633,
          0.2552946209907532,
          0.1066882312297821,
          0.06981552392244339,
          -0.06355796009302139,
          0.2842561602592468,
          -0.09417110681533813,
          0.1694624274969101,
          0.08830264210700989,
          0.1526242345571518,
          0.5479141473770142,
          0.10478519648313522,
          0.021078383550047874,
          0.01917332038283348,
          -0.06643198430538177,
          -0.38746508955955505,
          -0.20386159420013428,
          0.04993482306599617,
          0.0158640518784523,
          0.26118552684783936,
          -0.09195788949728012,
          0.007928484119474888,
          -0.06774673610925674,
          0.2617202699184418,
          -0.0919220894575119,
          -0.2273847460746765,
          -0.050047919154167175,
          0.17686903476715088,
          0.24540646374225616,
          0.025430571287870407,
          0.15742161870002747,
          -0.11161080002784729,
          0.016442278400063515,
          -0.09019716084003448,
          0.20841693878173828,
          -0.054037969559431076,
          -0.006784151773899794,
          -0.028693022206425667,
          0.015169474296271801,
          -0.04132404923439026,
          0.17404772341251373,
          -0.2770875096321106,
          0.24950964748859406,
          0.2694254517555237,
          -0.7087306380271912,
          0.028433071449398994,
          0.5891782641410828,
          -0.35140517354011536,
          -0.11037001758813858,
          -0.2934257686138153,
          0.4574595093727112,
          0.05703895911574364,
          -0.1487630158662796,
          -0.2830324172973633,
          -0.13771222531795502,
          -0.1631421595811844,
          0.1580410897731781,
          0.6520119309425354,
          0.21424244344234467,
          -0.27834948897361755,
          0.24593117833137512,
          -0.014522054232656956,
          0.30067282915115356,
          -0.11777392774820328,
          -0.16317158937454224,
          0.14037106931209564,
          -0.2771286368370056,
          -0.6304097175598145,
          0.0051370165310800076,
          0.24317191541194916,
          0.09033505618572235,
          0.019902357831597328,
          0.39106807112693787,
          0.45611605048179626,
          0.11162826418876648,
          0.13401652872562408,
          0.04147566109895706,
          0.2918432652950287,
          0.34157732129096985,
          0.03755565732717514,
          -0.7222404479980469,
          -0.3154151737689972,
          -0.24695616960525513,
          -0.21510395407676697,
          0.28603872656822205,
          -0.03811116889119148,
          0.39998385310173035,
          0.4038872718811035,
          -0.018003594130277634,
          -0.2296515256166458,
          -0.011198299936950207,
          0.006043701432645321,
          0.4312562346458435,
          -0.036562804132699966,
          0.3172262907028198,
          0.09739939868450165,
          0.17895959317684174,
          0.18569320440292358,
          -0.7332360148429871,
          -0.13480550050735474,
          0.22423812747001648,
          -0.22161656618118286,
          0.15433724224567413,
          0.1589476615190506,
          -0.029923036694526672,
          0.02059786207973957,
          -0.02061864547431469,
          0.08025303483009338,
          -0.15596380829811096,
          -0.06654581427574158,
          -0.47028371691703796,
          0.31926605105400085,
          0.00824469979852438,
          0.30383777618408203,
          0.3793801963329315,
          0.04399222508072853,
          0.7549718022346497,
          0.08232169598340988,
          0.131498783826828,
          -0.018404778093099594,
          0.4686706066131592,
          0.15832029283046722,
          0.11543869227170944,
          0.1345692127943039,
          0.3936142325401306,
          0.1801539659500122,
          0.6728841662406921,
          0.32679811120033264,
          -0.3235304653644562,
          0.29441383481025696,
          0.19746269285678864,
          -0.09855148941278458,
          -0.13605496287345886,
          -0.2545906901359558,
          -0.29083433747291565,
          0.47602614760398865,
          0.32035917043685913,
          0.5390769839286804,
          0.366706520318985,
          0.19162385165691376,
          0.4285639226436615,
          0.25925710797309875,
          0.0038094937335699797,
          0.042053449898958206,
          0.1376398205757141,
          0.3706044852733612,
          0.2194736897945404,
          -0.4057239592075348,
          -0.2713126540184021,
          -0.01926586963236332,
          -0.009425368160009384,
          0.1498308628797531,
          0.14165103435516357,
          0.3574105501174927,
          0.4345928430557251,
          -0.3703404664993286,
          0.47094792127609253,
          -0.5609988570213318,
          0.016328271478414536,
          0.29945313930511475,
          -0.0198257677257061,
          -0.41117191314697266,
          -0.1392476111650467,
          -0.12155193090438843,
          -0.16507627069950104,
          -0.15070728957653046,
          0.10458611696958542,
          0.061950281262397766,
          -0.1706991046667099,
          -0.23905901610851288,
          0.1457858830690384,
          -0.00915473885834217,
          -0.05085701867938042,
          -0.11544555425643921,
          -0.27245068550109863,
          -0.19306088984012604,
          0.23507867753505707,
          0.5188215970993042,
          -0.26042670011520386,
          -0.12458761781454086,
          0.31914249062538147,
          -0.25018540024757385,
          0.33644646406173706,
          -0.43938305974006653,
          0.1508123278617859,
          0.028938302770256996,
          0.6780877113342285,
          -0.2932281792163849,
          -0.2838537096977234,
          -0.24743281304836273,
          -0.42929157614707947,
          0.41912952065467834,
          -0.2398616224527359,
          -0.31261005997657776,
          0.08663640916347504,
          0.16303910315036774,
          0.10812254995107651,
          -0.007670171093195677,
          0.13104817271232605,
          -0.12268426269292831,
          0.6183818578720093,
          0.10869500786066055,
          0.6508957743644714,
          0.5437154769897461,
          -0.4157957136631012,
          0.049261100590229034,
          0.09988607466220856,
          -0.16438107192516327,
          0.20065581798553467,
          -0.28634944558143616,
          -0.2222367376089096,
          0.3190995454788208,
          -0.021804790943861008,
          0.250823974609375,
          0.19407431781291962,
          0.38655033707618713,
          -0.6814026832580566,
          0.05177878960967064,
          -0.24332819879055023,
          -0.0066489605233073235,
          -0.004361061379313469,
          0.16855305433273315,
          0.023648081347346306,
          0.08665596693754196,
          -0.06818445771932602,
          -0.2625789940357208,
          0.1221172884106636,
          -0.07969817519187927,
          -0.00535961939021945,
          0.358796626329422,
          0.32071763277053833,
          0.12479165941476822,
          -0.16440606117248535,
          -0.07087964564561844,
          0.23752380907535553,
          0.11080517619848251,
          0.2075291872024536,
          0.3764322102069855,
          -0.18149255216121674,
          0.16157501935958862,
          0.234889954328537,
          -0.27431803941726685,
          0.18846148252487183
        ]
      },
      "forgetHidden": {
        "rows": 20,
        "columns": 20,
        "weights": [
          0.3014634847640991,
          -0.31483739614486694,
          -0.29464417695999146,
          -0.4761902391910553,
          0.004909838549792767,
          0.01683206297457218,
          0.3315991759300232,
          0.19965770840644836,
          0.17057384550571442,
          0.02454710379242897,
          0.13422220945358276,
          0.6011228561401367,
          1.2623471021652222,
          0.12893246114253998,
          1.3373326063156128,
          -0.416542112827301,
          0.06808454543352127,
          0.1729656159877777,
          -1.5449751615524292,
          -0.24085360765457153,
          0.14626093208789825,
          0.595498263835907,
          0.17912574112415314,
          -0.12038380652666092,
          0.37901613116264343,
          -0.2654610276222229,
          0.3020595610141754,
          0.3218691945075989,
          0.1129293367266655,
          -0.051634788513183594,
          0.4544266164302826,
          0.13487325608730316,
          -0.23515480756759644,
          -0.3393382132053375,
          -0.49389275908470154,
          0.10444894433021545,
          -0.24881413578987122,
          -0.19322627782821655,
          0.804572582244873,
          0.35412144660949707,
          -0.13734525442123413,
          0.4996328353881836,
          -0.41819292306900024,
          -0.9038891792297363,
          -0.07623883336782455,
          -0.10359247773885727,
          -0.08497116714715958,
          -1.0392388105392456,
          0.7376152873039246,
          0.3926480710506439,
          0.013871402479708195,
          0.4824388921260834,
          0.4268164038658142,
          -0.40572959184646606,
          0.6683804392814636,
          0.033400531858205795,
          0.3286608159542084,
          0.8418294191360474,
          -0.007223139517009258,
          0.4900468587875366,
          0.22772622108459473,
          0.0009748510783538222,
          0.230513796210289,
          -0.4056711792945862,
          -0.45009467005729675,
          -0.07175984233617783,
          -0.3244380056858063,
          -0.20421341061592102,
          -0.015389113686978817,
          -0.20578086376190186,
          -0.21628333628177643,
          -0.04146793484687805,
          -0.81512850522995,
          -0.03158525004982948,
          0.573043167591095,
          0.16448308527469635,
          0.22317740321159363,
          -0.4400085508823395,
          1.624760389328003,
          0.06548194587230682,
          -0.050057604908943176,
          -0.018397707492113113,
          0.4600895941257477,
          -0.1378762423992157,
          -0.09649363160133362,
          -0.028922468423843384,
          0.12818604707717896,
          -0.5398107767105103,
          0.0017845508409664035,
          -0.6039469838142395,
          -0.4945567548274994,
          0.5822359323501587,
          -0.0911208763718605,
          -0.3085399270057678,
          0.24352127313613892,
          0.0035636115353554487,
          -0.28899216651916504,
          -1.4731698036193848,
          -0.16804289817810059,
          -0.4786926209926605,
          0.27407026290893555,
          0.7683417797088623,
          -0.07602713257074356,
          0.17354199290275574,
          -0.6686196327209473,
          -0.26996180415153503,
          -0.03329983726143837,
          -0.7112439870834351,
          -0.42096269130706787,
          1.1712039709091187,
          -0.06394723057746887,
          -0.21467210352420807,
          -0.25777438282966614,
          0.20219412446022034,
          -0.20896238088607788,
          -0.10608113557100296,
          0.04034462571144104,
          -0.3987395167350769,
          -0.28578251600265503,
          -0.4545839726924896,
          -0.06286562979221344,
          0.5678845643997192,
          -0.11927060037851334,
          -0.4622393548488617,
          -0.18311594426631927,
          -0.4614790678024292,
          -0.050431422889232635,
          0.4181855320930481,
          0.2344874143600464,
          -0.7164741158485413,
          0.14550895988941193,
          -0.270306259393692,
          -0.18932530283927917,
          0.7202860116958618,
          0.03816242888569832,
          -0.43591222167015076,
          -1.3635871410369873,
          -0.09878294914960861,
          -0.3993701934814453,
          -0.05913848057389259,
          0.4201439321041107,
          0.7096465229988098,
          -0.1758410930633545,
          0.3159988224506378,
          -0.39109164476394653,
          -0.016023118048906326,
          -0.8862382769584656,
          -0.2570272982120514,
          -0.2534274458885193,
          0.6168271899223328,
          -0.1001492366194725,
          0.3791840076446533,
          -0.1542506366968155,
          0.6385902762413025,
          -0.6420896053314209,
          -0.1410050094127655,
          -0.42756709456443787,
          0.1947271078824997,
          0.05740520358085632,
          0.8481785655021667,
          -0.6661056876182556,
          -0.1662379801273346,
          -0.21009601652622223,
          0.31863102316856384,
          0.42659932374954224,
          0.45462286472320557,
          -0.19540084898471832,
          0.24733825027942657,
          0.37896794080734253,
          -0.6030086874961853,
          0.06118476763367653,
          -0.28437677025794983,
          0.13702012598514557,
          -0.5733129978179932,
          0.0031194929033517838,
          0.18732760846614838,
          -0.5344046950340271,
          -0.23013953864574432,
          -0.2537134289741516,
          -0.23004066944122314,
          0.4906383752822876,
          -0.052561383694410324,
          -0.442834734916687,
          -0.5344026684761047,
          0.41002601385116577,
          0.0016436988953500986,
          0.36945661902427673,
          0.17367318272590637,
          -0.25864338874816895,
          0.871201753616333,
          0.33226969838142395,
          -0.43863895535469055,
          -0.46701720356941223,
          0.5644629001617432,
          0.03511587902903557,
          -0.2827324867248535,
          0.005292471498250961,
          0.8487642407417297,
          -0.6965031623840332,
          0.5554140210151672,
          -0.4088980555534363,
          0.1909480094909668,
          0.052759770303964615,
          -0.2471032440662384,
          0.3031708598136902,
          -0.44003963470458984,
          0.1661757528781891,
          0.6636951565742493,
          0.1958426535129547,
          -0.06425745785236359,
          0.23240768909454346,
          -0.30212292075157166,
          -0.03524674475193024,
          -0.2560894787311554,
          -0.7279054522514343,
          -0.3532249331474304,
          -0.2038179188966751,
          -0.09404191374778748,
          0.08309799432754517,
          -0.9962009191513062,
          0.19702306389808655,
          0.5062298774719238,
          -0.8265007734298706,
          0.09488282352685928,
          0.09839215129613876,
          -0.2538243532180786,
          -0.45916107296943665,
          0.634209156036377,
          -0.1820865273475647,
          -0.1491314023733139,
          -0.2689271569252014,
          0.18736174702644348,
          0.02509542927145958,
          -0.08647802472114563,
          -0.5802116394042969,
          0.12105032056570053,
          -0.5088687539100647,
          -1.7153960466384888,
          0.5510408282279968,
          -0.4828234910964966,
          0.19853226840496063,
          -0.18101562559604645,
          -0.23588719964027405,
          0.17009961605072021,
          -0.2021162360906601,
          0.22669251263141632,
          -1.0166937112808228,
          -1.0677603483200073,
          -0.15000250935554504,
          0.23498301208019257,
          -0.26734277606010437,
          -0.009637241251766682,
          -0.28440678119659424,
          0.4977099895477295,
          0.3347281813621521,
          0.01789097860455513,
          0.3783698081970215,
          0.3255828320980072,
          0.16269037127494812,
          0.28679731488227844,
          -0.1319577395915985,
          -0.6926850080490112,
          -0.2112918496131897,
          -0.8070102334022522,
          0.06840239465236664,
          1.1456636190414429,
          -0.26944631338119507,
          0.3055468499660492,
          0.24942253530025482,
          -0.011916490271687508,
          -0.5984418988227844,
          -0.016560742631554604,
          0.4693131744861603,
          0.6701158285140991,
          0.35382094979286194,
          -0.7541466951370239,
          0.5374306440353394,
          -0.13653574883937836,
          0.756064236164093,
          -0.01215596217662096,
          -0.17713648080825806,
          0.75648432970047,
          -0.15344524383544922,
          0.39075276255607605,
          0.8927193284034729,
          -0.30409276485443115,
          -0.6769142150878906,
          0.5330847501754761,
          0.19860602915287018,
          0.28686630725860596,
          -0.16548840701580048,
          0.3578779995441437,
          -0.5041252374649048,
          0.31980273127555847,
          0.6174423098564148,
          0.5780113339424133,
          0.5311647057533264,
          -0.1277918517589569,
          0.9579934477806091,
          -0.6277007460594177,
          0.3801974952220917,
          -0.23161226511001587,
          -0.2956215441226959,
          0.6916747689247131,
          0.5964196920394897,
          0.3479783833026886,
          -0.11518313735723495,
          -0.7384946346282959,
          -0.13331671059131622,
          -0.17745941877365112,
          -0.01483011245727539,
          0.5426971912384033,
          -0.3854784071445465,
          -0.07151634246110916,
          0.1907864660024643,
          -0.47714555263519287,
          -0.10555959492921829,
          -1.3986496925354004,
          -0.3706704080104828,
          -0.7033248543739319,
          -0.08821453154087067,
          0.41496741771698,
          -0.17329943180084229,
          -0.5041843056678772,
          0.7451971173286438,
          0.07179846614599228,
          -0.6068612933158875,
          0.46061158180236816,
          -0.1825328916311264,
          0.034068696200847626,
          0.20520851016044617,
          -0.43643808364868164,
          0.83928382396698,
          -0.7782057523727417,
          -0.20921845734119415,
          0.8718681931495667,
          0.1001555547118187,
          -0.5980514883995056,
          0.061511144042015076,
          -0.2358296513557434,
          -0.508343517780304,
          0.17876006662845612,
          -0.5997399687767029,
          0.25950440764427185,
          0.2618938684463501,
          -0.12142311781644821,
          0.13571284711360931,
          0.18773707747459412,
          1.2771704196929932,
          -1.360077142715454,
          1.1844234466552734,
          0.35079535841941833,
          0.1597318947315216,
          0.04788295552134514,
          -0.051829300820827484,
          -0.6907410621643066,
          0.06965722888708115,
          -0.13193504512310028,
          0.5801246762275696,
          0.5750298500061035,
          -0.2694261968135834,
          0.74655681848526,
          -0.3961755335330963,
          -0.1137256771326065,
          -0.205570787191391,
          -0.3020652234554291,
          -0.3200896978378296,
          0.49063733220100403,
          0.013777781277894974,
          0.35379064083099365,
          -0.04965321719646454,
          0.9160342216491699,
          0.47741881012916565,
          0.24759961664676666,
          -0.8790310025215149,
          0.5352569222450256,
          -0.3216751515865326,
          -0.42611759901046753,
          0.19165419042110443,
          0.12475048005580902,
          -0.5780138969421387,
          -0.1854988932609558,
          -0.07166214287281036,
          -0.2081865668296814,
          0.400213360786438,
          -0.4241237938404083,
          -0.5161058902740479,
          -0.13309229910373688,
          -0.22912438213825226,
          -0.5380550026893616,
          0.36601439118385315,
          -0.21463532745838165,
          0.07451002299785614,
          -0.8501827120780945,
          -0.2692614197731018,
          -0.2918873131275177,
          -0.057789113372564316,
          -0.6123213768005371,
          0.505477786064148,
          -0.3509954512119293
        ]
      },
      "forgetBias": {
        "rows": 20,
        "columns": 1,
        "weights": [
          0,
          0,
          0,
          0,
          0,
          0,
          0,
          0,
          0,
          0,
          0,
          0,
          0,
          0,
          0,
          0,
          0,
          0,
          0,
          0
        ]
      },
      "outputMatrix": {
        "rows": 20,
        "columns": 27,
        "weights": [
          -0.3286439776420593,
          -0.37502071261405945,
          -0.48811063170433044,
          -0.16425321996212006,
          -0.16297468543052673,
          0.27771490812301636,
          0.03243790566921234,
          0.13767987489700317,
          0.3240010142326355,
          -0.016618313267827034,
          -0.1754843145608902,
          -0.1053791418671608,
          -0.3648211359977722,
          -0.5835354924201965,
          -0.5239964127540588,
          -0.6633105874061584,
          0.22074736654758453,
          0.3823215067386627,
          0.30550962686538696,
          0.08885098248720169,
          0.042490147054195404,
          -0.31463131308555603,
          0.2101491540670395,
          -0.3240630328655243,
          0.7298309206962585,
          -0.42248132824897766,
          -0.21319186687469482,
          -0.21842440962791443,
          0.25769782066345215,
          -0.4785754084587097,
          -0.049474988132715225,
          0.29230380058288574,
          0.22333300113677979,
          0.22099855542182922,
          0.12516406178474426,
          0.3456789553165436,
          0.01890837587416172,
          0.2656991481781006,
          -0.07281378656625748,
          0.5683791041374207,
          -0.013537745922803879,
          0.1666698455810547,
          0.5283582806587219,
          0.08946135640144348,
          -0.41522347927093506,
          0.329386442899704,
          0.16114690899848938,
          -0.4780406355857849,
          -0.14725327491760254,
          -0.407024085521698,
          -0.7487518787384033,
          0.054516926407814026,
          -0.3100810945034027,
          0.22430181503295898,
          -0.05857056379318237,
          -0.12892679870128632,
          -0.35462236404418945,
          -0.2926756739616394,
          -0.14238221943378448,
          -0.030782073736190796,
          -0.20557500422000885,
          0.04013289883732796,
          0.2643600404262543,
          -0.41115930676460266,
          -0.10667168349027634,
          -0.043782707303762436,
          0.040159616619348526,
          0.05369914323091507,
          0.08027634024620056,
          0.05546536669135094,
          -0.06710021197795868,
          0.3189883232116699,
          0.19562047719955444,
          0.0023965430445969105,
          0.34194082021713257,
          -0.4784538447856903,
          0.4651457965373993,
          -0.1190248653292656,
          -0.020465906709432602,
          -0.016129905357956886,
          -0.5616675019264221,
          -0.10054052621126175,
          -0.23222948610782623,
          0.0634024366736412,
          0.08276025205850601,
          0.31716325879096985,
          0.1586076021194458,
          0.2710164487361908,
          -0.22812099754810333,
          0.328592985868454,
          -0.32231131196022034,
          0.184872567653656,
          -0.027697881683707237,
          0.05550588667392731,
          0.3826013505458832,
          0.32276904582977295,
          0.1730893850326538,
          0.3438592851161957,
          -0.6243972778320312,
          -0.22688980400562286,
          0.006839972920715809,
          -0.10309889912605286,
          -0.038170211017131805,
          -0.27868878841400146,
          0.03652188181877136,
          0.3053876459598541,
          -0.51957106590271,
          0.6734675765037537,
          -0.43993183970451355,
          -0.423099547624588,
          -0.04468595236539841,
          -0.10885366052389145,
          0.24602438509464264,
          -0.31548455357551575,
          0.14316174387931824,
          -0.0969986617565155,
          0.5830404758453369,
          -0.1629517823457718,
          0.16999779641628265,
          -0.33668771386146545,
          -0.4484576880931854,
          -0.19210347533226013,
          -0.4716397821903229,
          -0.1433231681585312,
          0.4359184205532074,
          0.16911661624908447,
          -0.12049289047718048,
          -0.08840090036392212,
          -0.4014497399330139,
          0.06577461957931519,
          -0.027524584904313087,
          -0.17182426154613495,
          0.1397019773721695,
          -0.4654156565666199,
          0.08136942982673645,
          -0.23572035133838654,
          0.04766803979873657,
          -0.04226783663034439,
          0.441447377204895,
          0.3786642849445343,
          -0.013659484684467316,
          0.45950353145599365,
          0.1891964077949524,
          0.07169956713914871,
          -0.26544955372810364,
          0.08487141132354736,
          0.18198969960212708,
          0.00885430071502924,
          0.13564838469028473,
          0.05956161022186279,
          0.006743123754858971,
          0.2557666599750519,
          -0.3836885988712311,
          -0.10435046255588531,
          0.06353790313005447,
          -0.6194568276405334,
          0.06218999996781349,
          0.023851005360484123,
          -0.23568260669708252,
          0.15777061879634857,
          0.113465815782547,
          0.03786217421293259,
          0.16166000068187714,
          -0.06443623453378677,
          -0.0744902491569519,
          0.27854979038238525,
          0.003832053393125534,
          0.10442337393760681,
          0.0778999924659729,
          -0.04738978296518326,
          0.13370561599731445,
          -0.24870595335960388,
          -0.13503605127334595,
          -0.3876677453517914,
          -0.09825869649648666,
          0.0024376942310482264,
          -0.1765163242816925,
          0.3056907057762146,
          -0.09212970733642578,
          -0.5053237676620483,
          -0.11775132268667221,
          0.24331623315811157,
          0.1431061029434204,
          0.022245701402425766,
          -0.06655215471982956,
          0.2984854280948639,
          0.3411056399345398,
          0.11796128749847412,
          -0.03523083031177521,
          -0.332271933555603,
          -0.040877435356378555,
          -0.5045687556266785,
          0.14517360925674438,
          -0.03290025144815445,
          0.2592379152774811,
          -0.005607128608971834,
          0.3498128652572632,
          0.078411765396595,
          0.2892727255821228,
          -0.1950305700302124,
          0.1768810749053955,
          0.044702209532260895,
          -0.08212752640247345,
          -0.07280268520116806,
          0.22423678636550903,
          0.05436038225889206,
          -0.5168525576591492,
          0.37099650502204895,
          0.4251885414123535,
          -0.348532497882843,
          -0.04777734354138374,
          -0.095415860414505,
          0.28929874300956726,
          -0.1419476866722107,
          -0.22010014951229095,
          -0.3457924425601959,
          0.03906254470348358,
          0.10663048177957535,
          0.33070164918899536,
          -0.2271578460931778,
          -0.18691207468509674,
          0.16220466792583466,
          0.3150588870048523,
          0.06568509340286255,
          -0.06279651075601578,
          -0.03710568696260452,
          0.794374406337738,
          0.1991623342037201,
          0.5010876059532166,
          0.6314095854759216,
          0.4803832471370697,
          -0.5434367060661316,
          -0.3518195152282715,
          0.3476339280605316,
          -0.3488655090332031,
          0.12636761367321014,
          -0.07738815993070602,
          -0.1711312085390091,
          -0.30179569125175476,
          0.0052288854494690895,
          0.035336244851350784,
          0.009747986681759357,
          0.8178859353065491,
          -0.3140040338039398,
          -0.3024861216545105,
          -0.4326895773410797,
          0.14242452383041382,
          0.2768944203853607,
          0.03473642095923424,
          0.027084683999419212,
          0.09151551127433777,
          0.3634025752544403,
          -0.02564128115773201,
          0.06892774254083633,
          -0.16615939140319824,
          0.08817028254270554,
          -0.06830879300832748,
          -0.2306280881166458,
          0.23371082544326782,
          -0.4296037256717682,
          -0.5413392782211304,
          0.6915602684020996,
          0.4686260521411896,
          0.23597319424152374,
          0.29132378101348877,
          -0.15734931826591492,
          0.12071593850851059,
          0.3640073537826538,
          -0.41635245084762573,
          0.16010619699954987,
          -0.3869237005710602,
          -0.6296217441558838,
          -0.0794304758310318,
          0.8075243830680847,
          0.6980294585227966,
          -0.34000515937805176,
          0.34168484807014465,
          -0.1595298796892166,
          0.5477768182754517,
          0.06995980441570282,
          -0.11927106976509094,
          -0.2864709198474884,
          -0.7208307981491089,
          -0.3581155836582184,
          -0.20629864931106567,
          0.6891285181045532,
          0.04256421700119972,
          -1.0053938627243042,
          0.09135350584983826,
          0.041516996920108795,
          -0.30545860528945923,
          0.07799617946147919,
          0.07331808656454086,
          0.28703057765960693,
          0.4361947774887085,
          -0.37508198618888855,
          0.20851317048072815,
          0.1791413128376007,
          -0.6707144379615784,
          -0.1108560785651207,
          -0.25789201259613037,
          0.41696587204933167,
          0.230725958943367,
          0.2916683852672577,
          0.3159577250480652,
          0.4693734645843506,
          -0.0883176326751709,
          -0.3092270791530609,
          -0.1910749226808548,
          -0.10469937324523926,
          0.07026320695877075,
          -0.10073161125183105,
          0.5568437576293945,
          -0.15940947830677032,
          -0.9035775065422058,
          0.3080546259880066,
          0.28951969742774963,
          0.11612306535243988,
          0.13583429157733917,
          -0.3618822395801544,
          -0.25852474570274353,
          0.4331193268299103,
          0.08842683583498001,
          0.5486833453178406,
          -0.48225459456443787,
          -0.32135286927223206,
          -0.49438369274139404,
          -0.09570281952619553,
          -0.18945075571537018,
          -0.25537875294685364,
          0.08647185564041138,
          0.11350886523723602,
          0.6340571641921997,
          -0.22437283396720886,
          0.18176507949829102,
          0.14988698065280914,
          -0.006419711280614138,
          0.078277088701725,
          0.03980197757482529,
          -0.22404271364212036,
          0.02031412161886692,
          -0.5586878657341003,
          -0.32365572452545166,
          0.19788719713687897,
          -0.43225282430648804,
          -0.6178880929946899,
          0.9470748901367188,
          -0.23109781742095947,
          0.029788393527269363,
          -0.0504208542406559,
          0.002958448603749275,
          -0.16733592748641968,
          0.19358602166175842,
          0.2688543498516083,
          -0.007932692766189575,
          0.014245806261897087,
          0.01737973466515541,
          0.17711953818798065,
          -0.08516121655702591,
          -0.2360536754131317,
          -0.5118725299835205,
          0.29274609684944153,
          0.01090220920741558,
          0.25681543350219727,
          0.4547939598560333,
          0.6457769274711609,
          -0.07948097586631775,
          -0.09832257777452469,
          0.11235843598842621,
          -0.10137411206960678,
          0.42109692096710205,
          -0.27396339178085327,
          0.22451211512088776,
          -0.10957174748182297,
          -0.053154222667217255,
          0.19621162116527557,
          -0.29861199855804443,
          0.2038532942533493,
          -0.47947147488594055,
          -0.1430225819349289,
          -0.2486162781715393,
          -0.3384651839733124,
          0.3842288851737976,
          0.5180433392524719,
          0.15498432517051697,
          0.4560098648071289,
          0.4337798058986664,
          0.4195682108402252,
          0.46439477801322937,
          -0.06502757221460342,
          0.4845693111419678,
          0.10687510669231415,
          0.5332322716712952,
          -0.06335211545228958,
          -0.3141496479511261,
          -0.20944534242153168,
          0.6126949191093445,
          0.018244199454784393,
          0.17543670535087585,
          -0.5656541585922241,
          -0.19577927887439728,
          0.11146646738052368,
          -0.025351865217089653,
          -0.058611974120140076,
          -0.22957441210746765,
          -0.33778759837150574,
          -0.22448454797267914,
          0.4535582959651947,
          0.20847636461257935,
          -0.0012439764104783535,
          0.14365963637828827,
          0.5492790937423706,
          -0.21367338299751282,
          -0.029815765097737312,
          -0.13070189952850342,
          0.09482339769601822,
          0.05047423020005226,
          0.05877168849110603,
          0.11029163002967834,
          0.20427866280078888,
          -0.38676297664642334,
          0.3060258626937866,
          0.3369567096233368,
          0.20138518512248993,
          -0.317680686712265,
          -0.3630581200122833,
          0.6472360491752625,
          0.12027522921562195,
          -0.18595090508460999,
          0.042827509343624115,
          -0.17103391885757446,
          0.33253851532936096,
          0.004602818749845028,
          0.06414350867271423,
          0.1280117779970169,
          -0.25941377878189087,
          -0.08642996102571487,
          -0.453743040561676,
          -0.153968945145607,
          -0.10073645412921906,
          0.21247075498104095,
