{
  "type": "LSTM",
  "options": {
    "inputSize": 28,
    "inputRange": 28,
    "hiddenLayers": [
      20,
      20
    ],
    "outputSize": 28,
    "decayRate": 0.999,
    "smoothEps": 1e-8,
    "regc": 0.000001,
    "clipval": 5,
    "maxPredictionLength": 100,
    "dataFormatter": {
      "indexTable": {
        "a": 0,
        "b": 1,
        "i": 2,
        "g": 3,
        "l": 4,
        "d": 5,
        "e": 6,
        "r": 7,
        "n": 8,
        "o": 9,
        "t": 10,
        "h": 11,
        "s": 12,
        "m": 13,
        "x": 14,
        "c": 15,
        "y": 16,
        "-": 17,
        "p": 18,
        "w": 19,
        "u": 20,
        "v": 21,
        "k": 22,
        "q": 23,
        "z": 24,
        "f": 25,
        "j": 26,
        "unrecognized": 27
      },
      "characterTable": {
        "0": "a",
        "1": "b",
        "2": "i",
        "3": "g",
        "4": "l",
        "5": "d",
        "6": "e",
        "7": "r",
        "8": "n",
        "9": "o",
        "10": "t",
        "11": "h",
        "12": "s",
        "13": "m",
        "14": "x",
        "15": "c",
        "16": "y",
        "17": "-",
        "18": "p",
        "19": "w",
        "20": "u",
        "21": "v",
        "22": "k",
        "23": "q",
        "24": "z",
        "25": "f",
        "26": "j",
        "27": null
      },
      "values": [
        "abigail",
        "ada",
        "adelaide",
        "adriana",
        "adrienne",
        "aeron",
        "agatha",
        "agnes",
        "aileen",
        "aimee",
        "aisha",
        "alana",
        "alanna",
        "alexandra",
        "alexis",
        "alice",
        "alicia",
        "alina",
        "alis",
        "alisha",
        "alison",
        "alissa",
        "allison",
        "alma",
        "alyssa",
        "amanda",
        "amber",
        "amelia",
        "amy",
        "anabel",
        "andrea",
        "angela",
        "angelina",
        "angeline",
        "angharad",
        "ann",
        "anna",
        "annabel",
        "annabelle",
        "anne",
        "anne-marie",
        "anne-sophie",
        "annette",
        "anwen",
        "anya",
        "april",
        "ariana",
        "arleen",
        "arwen",
        "ashleigh",
        "ashley",
        "ashton",
        "astrid",
        "audrey",
        "bailey",
        "barbara",
        "beatrice",
        "beca",
        "belinda",
        "bernice",
        "beryl",
        "bethan",
        "bethany",
        "beverley",
        "beverly",
        "bianca",
        "blair",
        "bonnie",
        "branwen",
        "brenda",
        "briana",
        "bridget",
        "brigid",
        "brittany",
        "brittney",
        "brogan",
        "bronwen",
        "bronwyn",
        "brooke",
        "bryony",
        "caitlin",
        "cameron",
        "camille",
        "candace",
        "candice",
        "cara",
        "cari",
        "carla",
        "carly",
        "carmen",
        "caroline",
        "carolyn",
        "caron",
        "carrie",
        "caryl",
        "caryn",
        "carys",
        "casey",
        "catherine",
        "cathleen",
        "cathryn",
        "catrin",
        "ceinwen",
        "celine",
        "ceri",
        "cerian",
        "ceridwen",
        "cerys",
        "chantelle",
        "charity",
        "charlene",
        "charley",
        "charlie",
        "charlotte",
        "chelsea",
        "cherise",
        "cheryl",
        "chloe",
        "christina",
        "christine",
        "ciara",
        "claire",
        "clara",
        "clarice",
        "clarissa",
        "claudia",
        "coleen",
        "colleen",
        "constance",
        "corinne",
        "courtney",
        "crystal",
        "cynthia",
        "daisy",
        "daniella",
        "danielle",
        "daphne",
        "darlene",
        "dawn",
        "deborah",
        "deirdre",
        "delilah",
        "delyth",
        "demi",
        "denise",
        "deryn",
        "diana",
        "diane",
        "dilys",
        "dominique",
        "dona",
        "dora",
        "doreen",
        "doris",
        "eda",
        "edith",
        "eileen",
        "eilidh",
        "eira",
        "eirian",
        "eirlys",
        "eirwen",
        "elaine",
        "elan",
        "eleanor",
        "elen",
        "elena",
        "eleri",
        "elin",
        "elinor",
        "elisabeth",
        "elise",
        "elizabeth",
        "ellen",
        "eloise",
        "eluned",
        "emeline",
        "emily",
        "emma",
        "erika",
        "erin",
        "eryn",
        "estelle",
        "esther",
        "eunice",
        "eva",
        "eve",
        "evelyn",
        "faith",
        "fawn",
        "faye",
        "felicia",
        "felicity",
        "fenella",
        "fern",
        "ffion",
        "fiona",
        "flora",
        "frances",
        "francine",
        "freya",
        "gabriella",
        "gabrielle",
        "gaenor",
        "gaynor",
        "gemma",
        "georgette",
        "georgia",
        "georgiana",
        "georgina",
        "geraldine",
        "germaine",
        "gertrude",
        "gilda",
        "gillian",
        "gladys",
        "glenda",
        "glenys",
        "glesni",
        "gloria",
        "glynis",
        "glynnis",
        "grace",
        "guinevere",
        "gwawr",
        "gwen",
        "gwendoline",
        "gwendolyn",
        "gwenllian",
        "gwyneth",
        "hailey",
        "haley",
        "hanna",
        "hannah",
        "harley",
        "harmony",
        "harriet",
        "harriett",
        "hayley",
        "hazel",
        "heather",
        "heidi",
        "helen",
        "helena",
        "henrietta",
        "hilda",
        "holly",
        "hope",
        "ida",
        "idelle",
        "imogen",
        "ina",
        "ingrid",
        "iola",
        "iona",
        "irene",
        "iris",
        "isabel",
        "isabella",
        "isabelle",
        "isla",
        "isobel",
        "ivy",
        "jac",
        "jacqueline",
        "jade",
        "jamie",
        "jane",
        "janet",
        "janice",
        "jasmine",
        "jeanne",
        "jennifer",
        "jessica",
        "jillian",
        "joan",
        "joanna",
        "joanne",
        "jocelyn",
        "jodi",
        "jodie",
        "jolene",
        "jordan",
        "josephine",
        "joy",
        "joyce",
        "judith",
        "julia",
        "juliana",
        "julie",
        "juliet",
        "june",
        "justine",
        "kacey",
        "kara",
        "karen",
        "karyn",
        "kasey",
        "kate",
        "katherine",
        "kathleen",
        "kathlyn",
        "kathryn",
        "katrina",
        "kay",
        "kayla",
        "kayleigh",
        "keira",
        "kelly",
        "kelly-ann",
        "kelsey",
        "kendra",
        "kerri",
        "kerry",
        "kiera",
        "kimberley",
        "kimberly",
        "kirsten",
        "kirstin",
        "kirsty",
        "kirstyn",
        "kristen",
        "kristin",
        "kristine",
        "kyla",
        "kyra",
        "lacey",
        "lane",
        "lara",
        "larissa",
        "laura",
        "laureen",
        "lauren",
        "layla",
        "lea",
        "leah",
        "leanne",
        "lee",
        "leigh",
        "lesley",
        "leslie",
        "leticia",
        "lillian",
        "lilly",
        "lily",
        "linda",
        "lindsay",
        "livia",
        "llinos",
        "lois",
        "loralie",
        "lorena",
        "lorna",
        "lorraine",
        "louise",
        "lowri",
        "lucille",
        "lucy",
        "lydia",
        "lyn",
        "lynn",
        "lynne",
        "mabel",
        "maddison",
        "madeleine",
        "madeline",
        "madison",
        "magdalene",
        "maia",
        "mair",
        "maisie",
        "mali",
        "manon",
        "marcia",
        "margaret",
        "margot",
        "mari",
        "maria",
        "marian",
        "marianne",
        "marilyn",
        "marina",
        "marissa",
        "marjorie",
        "martha",
        "mary",
        "matilda",
        "maureen",
        "maxine",
        "maya",
        "megan",
        "meghan",
        "meinir",
        "melanie",
        "melany",
        "melinda",
        "melissa",
        "melody",
        "mercy",
        "meredith",
        "merle",
        "mia",
        "michaela",
        "michelle",
        "mildred",
        "mirabelle",
        "miranda",
        "miriam",
        "moira",
        "molly",
        "monica",
        "monique",
        "morgan",
        "muriel",
        "myfanwy",
        "myra",
        "nadia",
        "nadine",
        "nancy",
        "naomi",
        "natalie",
        "natasha",
        "nerys",
        "nesta",
        "nia",
        "niamh",
        "nicola",
        "nicole",
        "nina",
        "noelle",
        "non",
        "nora",
        "noreen",
        "norine",
        "norma",
        "odette",
        "olga",
        "olivia",
        "olwen",
        "orla",
        "page",
        "paige",
        "pamela",
        "patricia",
        "paula",
        "paulette",
        "pearl",
        "penelope",
        "phoebe",
        "phyllis",
        "poppy",
        "priscilla",
        "prudence",
        "rachael",
        "rachel",
        "rebecca",
        "rebekah",
        "renata",
        "renee",
        "rhea",
        "rhian",
        "rhianna",
        "rhiannon",
        "rhoda",
        "rhona",
        "rhonda",
        "rian",
        "rita",
        "roberta",
        "robin",
        "robyn",
        "rochelle",
        "rosalie",
        "rosanne",
        "rose",
        "roseanna",
        "rosemary",
        "rosie",
        "rowan",
        "roxanne",
        "ruby",
        "ruth",
        "sabine",
        "sabrina",
        "saffron",
        "samantha",
        "sandra",
        "sara",
        "sarah",
        "sasha",
        "saskia",
        "savannah",
        "scarlett",
        "seren",
        "serena",
        "shannon",
        "sharon",
        "shauna",
        "sheila",
        "shelby",
        "shelley",
        "shirley",
        "sian",
        "sibyl",
        "sidney",
        "simone",
        "sinead",
        "siobhan",
        "sioned",
        "siwan",
        "skye",
        "sonia",
        "sonya",
        "sophia",
        "sophie",
        "stacey",
        "stacy",
        "stephanie",
        "susan",
        "susanna",
        "susannah",
        "susanne",
        "sybil",
        "sydney",
        "sylvia",
        "tabitha",
        "tamara",
        "tanya",
        "tara",
        "tayla",
        "taylor",
        "tegan",
        "teresa",
        "thalia",
        "thelma",
        "theresa",
        "tia",
        "tiffany",
        "tracey",
        "tracy",
        "trista",
        "valerie",
        "vanessa",
        "vera",
        "veronica",
        "victoria",
        "violet",
        "virginia",
        "vivian",
        "vivianne",
        "wanda",
        "wendy",
        "willow",
        "yasmin",
        "yasmine",
        "yvonne",
        "zara",
        "zoe",
        "zoey"
      ],
      "characters": [
        "a",
        "b",
        "i",
        "g",
        "l",
        "d",
        "e",
        "r",
        "n",
        "o",
        "t",
        "h",
        "s",
        "m",
        "x",
        "c",
        "y",
        "-",
        "p",
        "w",
        "u",
        "v",
        "k",
        "q",
        "z",
        "f",
        "j",
        "unrecognized"
      ],
      "specialIndexes": [
        27
      ]
    }
  },
  "trainOpts": {
    "iterations": "20000",
    "errorThresh": "0.03",
    "log": false,
    "logPeriod": 1,
    "learningRate": "0.0001",
    "callbackPeriod": 1,
    "timeout": "Infinity",
    "activation": "tanh"
  },
  "input": {
    "rows": 29,
    "columns": 28,
    "weights": [
      0.38427913188934326,
      0.2525993585586548,
      0.049465179443359375,
      -0.27168789505958557,
      0.13299141824245453,
      0.8524776697158813,
      0.23542551696300507,
      0.4428543150424957,
      0.24754244089126587,
      -0.5636863708496094,
      -0.24080993235111237,
      -0.6130478382110596,
      0.046202123165130615,
      -0.24859125912189484,
      -0.2196018546819687,
      0.2910824716091156,
      -0.5477030873298645,
      0.5111472010612488,
      -0.03626935929059982,
      -0.2655704915523529,
      0.13467514514923096,
      -0.21434597671031952,
      -0.008567755110561848,
      -0.056905653327703476,
      -0.16044528782367706,
      0.21876205503940582,
      0.4053596556186676,
      -0.46019917726516724,
      0.1161312386393547,
      -0.29104137420654297,
      0.2715561091899872,
      -0.4254399538040161,
      -0.30292457342147827,
      0.43818584084510803,
      -0.43958887457847595,
      0.8246504068374634,
      -0.007099712733179331,
      -0.08431211113929749,
      1.042239785194397,
      0.8348749876022339,
      -0.6064684987068176,
      -1.781740665435791,
      -1.0817413330078125,
      0.017122885212302208,
      -0.6083678007125854,
      -1.2427794933319092,
      0.5456424951553345,
      1.1457713842391968,
      -0.8402536511421204,
      -0.18799735605716705,
      -1.3698168992996216,
      0.4917827844619751,
      0.3749151825904846,
      -0.06391223520040512,
      -0.016775544732809067,
      -1.2422754764556885,
      0.5780635476112366,
      -2.4061572551727295,
      -0.6849959492683411,
      1.427526831626892,
      -2.215939998626709,
      -0.9760675430297852,
      -0.8090882897377014,
      3.382314920425415,
      4.499614715576172,
      5.349630832672119,
      0.37289735674858093,
      -0.5143885612487793,
      1.9177918434143066,
      -3.3555748462677,
      -3.174471378326416,
      -0.42340487241744995,
      1.0291045904159546,
      -1.7144018411636353,
      0.010360583662986755,
      0.6945404410362244,
      -1.3542475700378418,
      0.9598081707954407,
      -0.7319689989089966,
      -0.028901362791657448,
      3.497769594192505,
      -1.0237784385681152,
      -4.472612380981445,
      -3.457451820373535,
      -1.0027265548706055,
      -1.3883095979690552,
      -1.1013526916503906,
      -0.754417359828949,
      -0.21012566983699799,
      -0.6826498508453369,
      -0.9053809642791748,
      0.09864506125450134,
      -0.2983032166957855,
      -0.32343634963035583,
      1.0077056884765625,
      0.7186324596405029,
      -1.626083254814148,
      -0.6168301105499268,
      -0.7735140323638916,
      -0.11108747869729996,
      0.3162960112094879,
      -0.6538504362106323,
      1.064136028289795,
      0.8962616324424744,
      0.9954348802566528,
      -0.9288166165351868,
      -0.31672054529190063,
      -1.2648018598556519,
      -0.012432284653186798,
      0.6167705655097961,
      -0.572372317314148,
      -0.4014185667037964,
      2.7535901069641113,
      -0.3801577091217041,
      0.3702375590801239,
      -1.9361257553100586,
      -0.665510892868042,
      2.059959650039673,
      0.5898997783660889,
      2.3135905265808105,
      -1.6158339977264404,
      0.24637733399868011,
      -0.2737237513065338,
      2.4769906997680664,
      0.5941392779350281,
      -1.7377164363861084,
      -3.196432590484619,
      0.2429969757795334,
      1.0751670598983765,
      -0.6328445672988892,
      0.45436668395996094,
      0.5211890339851379,
      0.6290673613548279,
      0.011993019841611385,
      -0.8624149560928345,
      -0.12397494912147522,
      -1.6523499488830566,
      0.1763594150543213,
      2.5274293422698975,
      -1.3472412824630737,
      -0.08908636122941971,
      -0.4817126393318176,
      0.6945462822914124,
      -0.5455739498138428,
      -0.5685364603996277,
      -0.5779935121536255,
      -1.2604764699935913,
      -0.1003185510635376,
      -1.1458864212036133,
      -0.41930800676345825,
      -0.47631415724754333,
      -0.2594013810157776,
      1.023550033569336,
      -1.7668384313583374,
      -1.6709016561508179,
      0.29597926139831543,
      1.1205050945281982,
      -2.171424627304077,
      0.7522560954093933,
      -0.533108651638031,
      -1.0526405572891235,
      0.2015577107667923,
      -0.8740825653076172,
      0.3558555841445923,
      0.6757103204727173,
      1.2289116382598877,
      0.9284080862998962,
      -0.5093637108802795,
      -1.8220083713531494,
      -0.6580357551574707,
      3.2576584815979004,
      -2.1849591732025146,
      0.5207374095916748,
      -2.5517096519470215,
      -1.4994014501571655,
      2.113941192626953,
      -0.6542742848396301,
      0.8336920738220215,
      0.4448004961013794,
      1.0395179986953735,
      -0.8176561594009399,
      -2.4485890865325928,
      -0.6317979693412781,
      0.45688396692276,
      0.4341239631175995,
      -4.5463480949401855,
      1.3056257963180542,
      1.7854446172714233,
      0.4866408407688141,
      1.461029052734375,
      -3.364946126937866,
      1.6821954250335693,
      2.532292127609253,
      0.5525219440460205,
      -0.12539169192314148,
      -0.713405191898346,
      -0.2742869257926941,
      -0.694987416267395,
      -0.4096935987472534,
      -0.8855805993080139,
      0.1057247444987297,
      -1.719389796257019,
      -1.30332612991333,
      1.0859860181808472,
      0.5602568984031677,
      1.4613486528396606,
      0.8219121694564819,
      0.8028682470321655,
      -1.0736095905303955,
      -1.6917380094528198,
      -0.6540462374687195,
      -0.5536491870880127,
      1.162216067314148,
      -0.44042202830314636,
      0.7203149795532227,
      0.7951614260673523,
      -0.12519550323486328,
      -1.0723873376846313,
      -0.6965177655220032,
      -0.5103536248207092,
      0.9840237498283386,
      -0.07259101420640945,
      -0.8200972080230713,
      -0.8513917922973633,
      0.07791741192340851,
      -0.6568751335144043,
      0.26840418577194214,
      -0.4696803092956543,
      0.5121524333953857,
      -1.4319227933883667,
      -1.6307401657104492,
      0.8274911046028137,
      -0.05682032182812691,
      0.5004189014434814,
      0.5261927843093872,
      0.9489941596984863,
      -2.1265225410461426,
      -0.3899837136268616,
      -0.6545017957687378,
      -0.5819066166877747,
      0.240120530128479,
      -1.912296175956726,
      0.09454168379306793,
      0.5743265151977539,
      0.014304643496870995,
      -0.16419172286987305,
      -1.7643760442733765,
      0.10049916058778763,
      1.8801980018615723,
      0.2927030026912689,
      1.32276451587677,
      -1.8640241622924805,
      -1.3195064067840576,
      0.0644979253411293,
      1.291506290435791,
      0.9695173501968384,
      -0.7579113245010376,
      -0.14220188558101654,
      -0.10003367811441422,
      -0.4074952006340027,
      -1.3865609169006348,
      1.048089623451233,
      -0.7929732799530029,
      1.4933818578720093,
      1.788490653038025,
      -0.5609561800956726,
      -1.4320067167282104,
      0.1220313087105751,
      0.07656382024288177,
      -0.25599491596221924,
      0.30552995204925537,
      0.14807459712028503,
      1.8403681516647339,
      -0.41329240798950195,
      -0.6959750652313232,
      0.779593825340271,
      -0.5348966121673584,
      1.7394200563430786,
      2.8144237995147705,
      -0.7177834510803223,
      -0.3776587247848511,
      -0.09586060047149658,
      2.943981885910034,
      0.6071915626525879,
      -0.8768978118896484,
      -0.9514589309692383,
      0.20455710589885712,
      0.5386636853218079,
      1.2202634811401367,
      1.1342434883117676,
      -0.01737779565155506,
      0.5157532095909119,
      1.5042794942855835,
      -0.8887497782707214,
      -2.5653395652770996,
      -0.486009418964386,
      -0.17114973068237305,
      -2.538872480392456,
      1.3099563121795654,
      0.18088699877262115,
      -1.9946478605270386,
      0.30362722277641296,
      -2.1800827980041504,
      0.8384177088737488,
      1.8213236331939697,
      0.8048529028892517,
      -0.030684761703014374,
      -2.1628739833831787,
      -2.2294559478759766,
      -1.1569427251815796,
      -0.4692542552947998,
      -0.770678699016571,
      -0.5644828677177429,
      1.5161199569702148,
      1.7909334897994995,
      2.913801431655884,
      -0.9586788415908813,
      -0.7547749876976013,
      1.1510426998138428,
      -0.4333477020263672,
      0.12161384522914886,
      0.5872738361358643,
      -1.3234533071517944,
      -0.5434973239898682,
      1.5242857933044434,
      -0.7445107698440552,
      0.7049488425254822,
      0.7932480573654175,
      -0.6171178221702576,
      1.381453037261963,
      -1.5369905233383179,
      1.2187150716781616,
      1.3620259761810303,
      0.308631032705307,
      1.0542194843292236,
      -2.8328335285186768,
      -0.8684403300285339,
      -0.29504236578941345,
      0.36876562237739563,
      -0.6410890221595764,
      -1.7095555067062378,
      -0.31169530749320984,
      0.8318495750427246,
      0.7068833708763123,
      -1.0729435682296753,
      0.9831541776657104,
      -0.1871359646320343,
      -0.15914376080036163,
      0.9336069226264954,
      -1.262027621269226,
      -1.150245189666748,
      -0.2186383754014969,
      0.6931151151657104,
      -1.6810295581817627,
      1.1061650514602661,
      0.36631301045417786,
      -0.983537495136261,
      -0.37951838970184326,
      -1.2594692707061768,
      0.27966442704200745,
      1.7009459733963013,
      0.8201937675476074,
      3.061735153198242,
      -1.862282156944275,
      0.0935290977358818,
      0.044030915945768356,
      -0.9708874821662903,
      0.6000432372093201,
      -1.0026339292526245,
      -1.1879603862762451,
      -0.8779568076133728,
      0.9976878762245178,
      0.35447511076927185,
      2.0929555892944336,
      1.5937345027923584,
      0.48721686005592346,
      -1.4693636894226074,
      -1.6853914260864258,
      -2.0151724815368652,
      -1.594390630722046,
      1.376292109489441,
      -0.06738452613353729,
      2.7715985774993896,
      0.9855809211730957,
      -0.6040856242179871,
      -1.3368233442306519,
      -1.0839729309082031,
      -1.0146422386169434,
      2.111589193344116,
      0.509519100189209,
      1.005420207977295,
      -2.173100709915161,
      0.8838127255439758,
      -1.6065551042556763,
      0.3189263939857483,
      -1.049250841140747,
      -0.337887704372406,
      0.7733731865882874,
      -1.6101124286651611,
      1.2181044816970825,
      -2.170222282409668,
      2.7666525840759277,
      0.45591357350349426,
      2.1168575286865234,
      1.9230104684829712,
      -2.1629886627197266,
      -3.2980923652648926,
      -0.3327232301235199,
      1.3433914184570312,
      0.9272177815437317,
      -0.4651966989040375,
      0.02398510091006756,
      0.5671396851539612,
      -0.4151099622249603,
      1.5733232498168945,
      -0.21635876595973969,
      -0.5347530245780945,
      0.5185232758522034,
      1.1558406352996826,
      2.0899088382720947,
      -0.16857556998729706,
      -1.3925793170928955,
      -0.478186696767807,
      1.9709765911102295,
      0.6826292276382446,
      -0.01540918555110693,
      1.9803880453109741,
      2.7169606685638428,
      3.9827237129211426,
      1.44724440574646,
      0.7892146706581116,
      -2.426811456680298,
      -0.5180608630180359,
      -3.279376983642578,
      -3.632498025894165,
      -0.15070047974586487,
      -1.5434670448303223,
      -1.853528618812561,
      -0.9012659192085266,
      0.6335236430168152,
      -3.8236329555511475,
      0.4497188627719879,
      -2.8711133003234863,
      3.673912525177002,
      4.877384662628174,
      -1.540109634399414,
      6.064537525177002,
      0.011952311731874943,
      -0.4056677222251892,
      1.8798222541809082,
      5.1062116622924805,
      1.8590134382247925,
      2.5536017417907715,
      0.9089837670326233,
      0.03650231286883354,
      -1.7625212669372559,
      1.5023400783538818,
      -0.711907684803009,
      -0.5803858637809753,
      -0.03169453144073486,
      1.2737168073654175,
      -3.636345624923706,
      0.35112011432647705,
      -0.4306304454803467,
      -1.541733741760254,
      -3.9455885887145996,
      -3.8517091274261475,
      1.2963098287582397,
      1.4102239608764648,
      -2.254612445831299,
      -4.666838645935059,
      1.544487476348877,
      0.773491382598877,
      -0.13730555772781372,
      1.8288310766220093,
      0.6187582015991211,
      -0.07778686285018921,
      0.8673955202102661,
      -2.110060691833496,
      -0.7715519070625305,
      -0.9604774713516235,
      0.6751675605773926,
      1.866635799407959,
      1.2469751834869385,
      -0.40690699219703674,
      1.3995267152786255,
      -0.45052987337112427,
      -1.2595345973968506,
      2.3737308979034424,
      -0.7900791764259338,
      -0.18498176336288452,
      0.49629971385002136,
      -0.10057441890239716,
      -1.7248594760894775,
      0.5681806206703186,
      -1.6818994283676147,
      0.448728084564209,
      -0.7206056118011475,
      0.9177506566047668,
      0.9237119555473328,
      1.9644588232040405,
      0.395267128944397,
      -0.5622308254241943,
      -1.1937874555587769,
      0.952490508556366,
      3.074936628341675,
      -1.753173828125,
      -0.4981142282485962,
      0.6327870488166809,
      -3.526089668273926,
      -2.127617359161377,
      1.3275550603866577,
      -0.0025857125874608755,
      2.1836559772491455,
      1.9075688123703003,
      1.8360203504562378,
      1.5225907564163208,
      -5.010008335113525,
      -2.5682742595672607,
      -2.3137481212615967,
      -0.8349580764770508,
      2.4831323623657227,
      1.6773470640182495,
      -2.3276445865631104,
      1.6614476442337036,
      0.20900291204452515,
      0.5453395843505859,
      -0.7359074950218201,
      3.0628349781036377,
      1.2760913372039795,
      -3.6617074012756348,
      -0.5555561780929565,
      -0.0016745245084166527,
      -0.8721860647201538,
      1.4815400838851929,
      -0.6016382575035095,
      -0.8357790112495422,
      0.17642377316951752,
      4.013823509216309,
      -0.4993157684803009,
      2.166969060897827,
      -1.6926813125610352,
      -0.4363119900226593,
      -0.4496394395828247,
      1.4802114963531494,
      -3.679039239883423,
      -1.39144766330719,
      0.42956796288490295,
      1.958709716796875,
      1.3409669399261475,
      1.7768309116363525,
      -1.4065265655517578,
      2.8886168003082275,
      -1.2400580644607544,
      0.2538495361804962,
      -0.9192814826965332,
      -1.3752442598342896,
      1.6221250295639038,
      -3.2745089530944824,
      -1.6085470914840698,
      -0.7216416001319885,
      -0.14642685651779175,
      1.0424448251724243,
      0.038291700184345245,
      0.22770187258720398,
      -0.3034762740135193,
      -0.3993259370326996,
      1.3816683292388916,
      1.195196509361267,
      -0.6462429165840149,
      2.9644858837127686,
      1.6904704570770264,
      -1.6419329643249512,
      -1.684416651725769,
      -2.4175615310668945,
      -0.1226378008723259,
      0.09077811241149902,
      -0.34990519285202026,
      0.40678271651268005,
      2.5206382274627686,
      -0.19461995363235474,
      0.3480291962623596,
      -1.2183082103729248,
      1.2878994941711426,
      0.10403793305158615,
      0.06339506804943085,
      -0.6299800276756287,
      -3.3146533966064453,
      0.937164843082428,
      -0.24224339425563812,
      0.5517481565475464,
      -1.2666558027267456,
      -1.111504316329956,
      0.3401877284049988,
      -0.43427151441574097,
      1.1461424827575684,
      -3.0456671714782715,
      3.5325541496276855,
      4.201999187469482,
      1.428496241569519,
      -0.6276109218597412,
      -3.796380043029785,
      -0.07882755994796753,
      -2.610349655151367,
      0.8923292756080627,
      -0.7587668299674988,
      2.228123664855957,
      2.217859983444214,
      -0.5364334583282471,
      -0.22608591616153717,
      -2.0701732635498047,
      0.9755921363830566,
      3.125288486480713,
      1.9912729263305664,
      3.662287712097168,
      -2.1403396129608154,
      -0.747020959854126,
      -0.26650452613830566,
      0.20343425869941711,
      0.941145658493042,
      -3.5825071334838867,
      1.7044658660888672,
      -1.769436240196228,
      -0.2874866724014282,
      -0.30606454610824585,
      2.7281577587127686,
      -0.6928952932357788,
      0.11820228397846222,
      3.9364876747131348,
      -3.7453505992889404,
      -2.639510154724121,
      -0.14575862884521484,
      -1.6090742349624634,
      -3.9450039863586426,
      0.6867026686668396,
      2.3439249992370605,
      -3.7293291091918945,
      0.27436715364456177,
      3.273916006088257,
      1.3482612371444702,
      -2.0233914852142334,
      -1.5172452926635742,
      0.4273515045642853,
      1.7070834636688232,
      -1.469950795173645,
      -1.2658398151397705,
      -0.06492646038532257,
      4.324192523956299,
      -2.1047303676605225,
      2.88922119140625,
      -0.8614464402198792,
      3.48823618888855,
      1.9328263998031616,
      3.681074380874634,
      1.0985232591629028,
      -3.0754780769348145,
      1.0143128633499146,
      1.3621207475662231,
      -3.639554977416992,
      4.744199752807617,
      -0.8880820870399475,
      2.2814278602600098,
      -3.3554470539093018,
      -1.6692291498184204,
      0.7317992448806763,
      -1.6326881647109985,
      2.9673359394073486,
      2.824394941329956,
      -0.1826891452074051,
      -0.5684821605682373,
      -2.0393035411834717,
      0.8341560959815979,
      1.9933950901031494,
      3.1117804050445557,
      -0.39748528599739075,
      1.209161639213562,
      -0.604827344417572,
      -1.870012879371643,
      -0.8726679086685181,
      7.663342475891113,
      2.4377598762512207,
      -0.6226012110710144,
      -2.1514742374420166,
      -6.100734710693359,
      -4.758289337158203,
      -3.791033983230591,
      -3.1385040283203125,
      -3.8524069786071777,
      3.470994234085083,
      -2.3899123668670654,
      1.3177120685577393,
      -1.5266505479812622,
      -6.595200061798096,
      -6.601296901702881,
      -2.156581401824951,
      -1.0849430561065674,
      2.0845324993133545,
      8.55827522277832,
      -2.7917473316192627,
      -0.44285550713539124,
      1.6753915548324585,
      1.387646198272705,
      0.24523508548736572,
      -0.5941551327705383,
      -0.9793771505355835,
      -0.639477014541626,
      -0.5534261465072632,
      0.8499614596366882,
      -2.2153027057647705,
      -0.01799585670232773,
      -0.1913928985595703,
      1.1222468614578247,
      2.213038682937622,
      -4.137475967407227,
      0.45075303316116333,
      -1.5807406902313232,
      -0.8974801898002625,
      -1.402174949645996,
      3.0738351345062256,
      0.3552151918411255,
      -4.298529624938965,
      -0.807651937007904,
      0.3257332146167755,
      0.32066693902015686,
      0.07966996729373932,
      1.0869061946868896,
      5.155956745147705,
      0.5162448287010193,
      -1.5403850078582764,
      2.236161708831787,
      0.23169349133968353,
      0.5416605472564697,
      -0.1797911524772644,
      0.13364233076572418,
      -0.3401241600513458,
      2.424053907394409,
      -0.9049830436706543,
      2.560263156890869,
      1.5097413063049316,
      -0.5256107449531555,
      -2.1462409496307373,
      -1.909287691116333,
      -1.0150262117385864,
      -0.3621044456958771,
      0.46172046661376953,
      -0.06485560536384583,
      0.9476481080055237,
      -2.522641181945801,
      -1.9573310613632202,
      -0.7658984661102295,
      -2.3288333415985107,
      1.0593745708465576,
      -1.105232834815979,
      2.0461533069610596,
      1.6699429750442505,
      -3.2879929542541504,
      -0.8180931210517883,
      -0.5317183136940002,
      -1.5726559162139893,
      -2.1379380226135254,
      -0.4167746305465698,
      1.4195765256881714,
      -4.330575466156006,
      3.936035394668579,
      -0.10497293621301651,
      0.12603148818016052,
      1.1889668703079224,
      -0.4797011911869049,
      -0.24502426385879517,
      -4.306650161743164,
      -3.8132312297821045,
      -0.7679372429847717,
      1.9850760698318481,
      0.2003130167722702,
      -3.0831995010375977,
      -1.126763105392456,
      -0.5901750326156616,
      1.063518762588501,
      -1.302030324935913,
      1.1325398683547974,
      -0.5717025995254517,
      0.13067275285720825,
      -0.23692257702350616,
      -3.0889182090759277,
      7.419932899210835e-7,
      -3.9210803493006097e-8,
      -7.852323733459343e-7,
      9.312568636232754e-7,
      3.531271488554921e-7,
      9.210428970618523e-7,
      -5.619637022391544e-7,
      7.080356567712442e-7,
      0.0000010479307093191892,
      7.935946086945478e-7,
      4.729100737677072e-7,
      9.639985592002631e-7,
      -1.0910650161122248e-8,
      5.173635031496815e-7,
      -0.000001111537812903407,
      5.518501211554394e-7,
      -2.5179460294566525e-7,
      -2.0349011720099952e-7,
      5.517578074432095e-7,
      5.764845809608232e-7,
      -2.3504976809363143e-7,
      -6.581273623851303e-7,
      6.170142228256736e-7,
      2.7286205295240507e-7,
      -9.328102805739036e-7,
      -5.8042779471634276e-8,
      -6.097341156419134e-7,
      9.984871667256812e-7
    ]
  },
  "hiddenLayers": [
    {
      "inputMatrix": {
        "rows": 20,
        "columns": 28,
        "weights": [
          0.25328540802001953,
          0.5317870378494263,
          -0.015672018751502037,
          -0.6154395341873169,
          0.5191901922225952,
          0.5194244980812073,
          -0.1434522271156311,
          -0.07518650591373444,
          0.26950985193252563,
          0.041366223245859146,
          -0.039661604911088943,
          -0.2566353976726532,
          0.1894657462835312,
          0.2946782112121582,
          -0.6844207048416138,
          0.6535203456878662,
          -0.226954847574234,
          -0.18422117829322815,
          0.7372217178344727,
          0.054050445556640625,
          -0.3711175322532654,
          0.16647915542125702,
          -0.3688651919364929,
          -0.9000552892684937,
          0.18202626705169678,
          -0.047951243817806244,
          0.1485784947872162,
          0.2946392595767975,
          0.3962675631046295,
          0.4949635863304138,
          -0.25895723700523376,
          -0.3003509044647217,
          -0.3462286591529846,
          -0.031397800892591476,
          -0.7204552888870239,
          0.4135240614414215,
          -0.17096881568431854,
          0.4083515405654907,
          -0.15316466987133026,
          0.19158935546875,
          -0.12745477259159088,
          0.5133654475212097,
          0.5088934898376465,
          0.2637777030467987,
          -0.14960533380508423,
          0.15322676301002502,
          -0.589590311050415,
          -0.2752842307090759,
          -0.5837733149528503,
          -0.2898644208908081,
          0.5364139080047607,
          -0.17440487444400787,
          0.1089060977101326,
          0.43436306715011597,
          0.10779642313718796,
          -0.5645194053649902,
          0.2375738024711609,
          -0.3426802456378937,
          0.11985345929861069,
          0.43774688243865967,
          -0.04464644566178322,
          0.42387011647224426,
          -0.09929615259170532,
          0.16697637736797333,
          -0.4659695327281952,
          -0.495023250579834,
          -0.1633559614419937,
          -0.2816272974014282,
          0.26983776688575745,
          0.21021440625190735,
          0.006233920343220234,
          -0.12350960075855255,
          -0.213734433054924,
          -0.4686722755432129,
          0.1966131180524826,
          -0.23989306390285492,
          1.0337660312652588,
          0.14143134653568268,
          -0.4731496572494507,
          0.47528186440467834,
          0.1823541224002838,
          -0.02984432503581047,
          -0.23053030669689178,
          -0.558487594127655,
          -0.5894374847412109,
          0.1924569457769394,
          0.31271129846572876,
          0.31030815839767456,
          -0.05779051035642624,
          -0.1866086721420288,
          0.20819514989852905,
          -0.2755206227302551,
          -0.5353405475616455,
          -0.08929704874753952,
          0.6745573878288269,
          0.21550993621349335,
          -0.7257932424545288,
          -0.3771798014640808,
          -0.07996200770139694,
          -0.2494048774242401,
          -0.03926098719239235,
          -0.16744492948055267,
          0.187856987118721,
          -0.3546794056892395,
          -0.4928484559059143,
          -0.6185142993927002,
          -0.0029080649837851524,
          0.22829468548297882,
          0.22537122666835785,
          -0.13346339762210846,
          -0.014907545410096645,
          -0.12903760373592377,
          0.11195977032184601,
          0.8194828033447266,
          -0.19944146275520325,
          -0.06456433981657028,
          0.2972905933856964,
          0.3066941201686859,
          0.29221439361572266,
          -0.0318877287209034,
          -0.2207232415676117,
          -0.05379876866936684,
          0.4849717915058136,
          -0.23586589097976685,
          -0.5531139373779297,
          -0.2341575175523758,
          -0.3458840548992157,
          0.3609373867511749,
          -0.1598966419696808,
          -0.20783516764640808,
          -0.27904510498046875,
          0.020321201533079147,
          0.18530112504959106,
          -0.25679734349250793,
          -0.49446940422058105,
          0.2547415494918823,
          -0.04173116013407707,
          0.008345681242644787,
          0.01646128110587597,
          0.009524136781692505,
          -0.3411560356616974,
          0.1853317767381668,
          -0.1361771672964096,
          0.0004726709157694131,
          -0.0057225399650633335,
          0.19552631676197052,
          -0.2802788317203522,
          -0.12008582055568695,
          -0.3792931139469147,
          0.23268501460552216,
          0.09628231078386307,
          -0.17892515659332275,
          0.463824599981308,
          -0.759758710861206,
          -0.7123578786849976,
          0.6072225570678711,
          0.145657479763031,
          -0.020542901009321213,
          0.02305258996784687,
          -0.2993854284286499,
          0.24192680418491364,
          -0.3251642882823944,
          0.22516843676567078,
          0.2793785035610199,
          -0.08640167862176895,
          0.09051194041967392,
          0.23699942231178284,
          0.23864474892616272,
          -0.3012489378452301,
          0.24103569984436035,
          0.00999521929770708,
          0.37305429577827454,
          0.25528594851493835,
          -0.11990977078676224,
          0.41183537244796753,
          0.07041075825691223,
          0.22988034784793854,
          0.11719967424869537,
          0.3509099781513214,
          -0.14107029139995575,
          0.11829923093318939,
          -0.236421138048172,
          0.1337602585554123,
          -0.013807789422571659,
          0.05394493415951729,
          0.3041147291660309,
          0.22758910059928894,
          -0.587658166885376,
          -0.17418019473552704,
          -0.5950667858123779,
          -0.017727123573422432,
          0.509562611579895,
          -0.03171401098370552,
          -0.21658065915107727,
          0.1382518857717514,
          -0.07884819060564041,
          0.46095502376556396,
          -0.02550557255744934,
          0.293425589799881,
          -0.07024001330137253,
          -0.01400363352149725,
          0.607131838798523,
          -0.4139242470264435,
          0.4456140697002411,
          0.21546688675880432,
          0.5029474496841431,
          0.28739508986473083,
          -0.08983275294303894,
          -0.43647265434265137,
          -0.39258989691734314,
          -0.4798177182674408,
          0.41423648595809937,
          -0.5289114713668823,
          0.231656014919281,
          0.18950524926185608,
          -0.24796901643276215,
          -0.05596042424440384,
          0.00844480935484171,
          -0.22269780933856964,
          -0.5301366448402405,
          0.0014101871056482196,
          -0.16415219008922577,
          -0.014835461974143982,
          -0.3232133388519287,
          -0.25095993280410767,
          0.5433787107467651,
          -0.36422866582870483,
          -0.2525253891944885,
          0.29741814732551575,
          0.23517173528671265,
          -0.14719036221504211,
          -0.2885831296443939,
          0.03725115954875946,
          0.26210665702819824,
          0.1582372635602951,
          -0.11180305480957031,
          -0.20762714743614197,
          -0.5662130117416382,
          0.0044676680117845535,
          0.1391211301088333,
          -0.02765178121626377,
          0.1525769978761673,
          -0.04630473628640175,
          -0.0387103371322155,
          -0.4568138122558594,
          -0.5482869744300842,
          -0.10809356719255447,
          0.16311177611351013,
          -0.16919158399105072,
          0.0839938074350357,
          -0.11001527309417725,
          -0.03620044142007828,
          0.17695868015289307,
          0.09757810831069946,
          -0.20458996295928955,
          -0.23830945789813995,
          0.1041855588555336,
          0.17108875513076782,
          -0.15404407680034637,
          -0.11040685325860977,
          0.09655611962080002,
          0.11348562687635422,
          0.5402364134788513,
          -0.32624971866607666,
          -0.3953813910484314,
          -0.08816934376955032,
          -0.2850807011127472,
          0.6636897325515747,
          -0.4779956042766571,
          0.017430497333407402,
          -0.0836760476231575,
          -0.32509058713912964,
          -0.28530120849609375,
          -0.23633167147636414,
          0.026451505720615387,
          -0.08286526799201965,
          0.0861188992857933,
          0.02584259584546089,
          -0.16874848306179047,
          -0.12370216846466064,
          0.34175288677215576,
          0.18511098623275757,
          0.23255394399166107,
          -0.15148423612117767,
          -0.36267247796058655,
          -0.25109440088272095,
          -0.23410944640636444,
          -0.01572919823229313,
          -0.2718700170516968,
          0.03263262286782265,
          -0.4457865059375763,
          -0.11584587395191193,
          -0.03962123394012451,
          -0.09759566932916641,
          0.19368883967399597,
          -0.06764096021652222,
          -0.40325069427490234,
          -0.02883286401629448,
          0.13336783647537231,
          -0.4763846695423126,
          0.11828592419624329,
          -0.9047827124595642,
          0.11918556690216064,
          -0.21003642678260803,
          0.05867963656783104,
          -0.1515386998653412,
          -0.048480257391929626,
          -1.1688848733901978,
          0.39061251282691956,
          0.23704379796981812,
          -0.31637823581695557,
          -0.007992574945092201,
          0.055353254079818726,
          0.6013496518135071,
          -0.9413260221481323,
          -0.015102648176252842,
          0.4850950837135315,
          -0.3304640054702759,
          -0.292961448431015,
          -0.10534410923719406,
          0.02272900566458702,
          -0.47165465354919434,
          -0.13600696623325348,
          0.1902933269739151,
          -0.32663410902023315,
          -0.4511716961860657,
          0.4556092917919159,
          0.15283045172691345,
          -0.26020652055740356,
          -0.10513316094875336,
          0.09569751471281052,
          -0.6202659010887146,
          0.42554065585136414,
          0.18400348722934723,
          0.03226254880428314,
          0.23784169554710388,
          0.11620727181434631,
          -0.10755261033773422,
          0.15275168418884277,
          0.4463783800601959,
          0.16517797112464905,
          -0.11445806175470352,
          -0.3555050194263458,
          -0.059977561235427856,
          0.1052018404006958,
          0.15498320758342743,
          -0.6739975214004517,
          -0.5722548961639404,
          0.1978563517332077,
          -0.0004292581870686263,
          -0.7401016354560852,
          -0.16745644807815552,
          -0.7204223871231079,
          0.13269123435020447,
          -0.049932293593883514,
          0.0034341553691774607,
          -0.02116396650671959,
          -0.13178588449954987,
          -0.20267292857170105,
          0.2559742331504822,
          -0.23907117545604706,
          -0.2579498887062073,
          -0.20075267553329468,
          0.1043793112039566,
          0.2508186101913452,
          0.5125782489776611,
          0.006293766666203737,
          0.24318693578243256,
          0.04634325951337814,
          0.17163752019405365,
          -0.7083896994590759,
          -0.06307964771986008,
          -0.2221975177526474,
          -0.2722811698913574,
          -0.24432970583438873,
          -0.8923811316490173,
          0.1642787605524063,
          0.14318819344043732,
          -0.15002518892288208,
          -0.076644167304039,
          -0.47850918769836426,
          -0.4622904360294342,
          0.07969114184379578,
          0.06880669295787811,
          -0.015130369924008846,
          -0.1947401911020279,
          0.47665828466415405,
          -0.05555884912610054,
          -0.1366117000579834,
          -0.06878850609064102,
          -0.20351916551589966,
          -0.4213119447231293,
          0.44998449087142944,
          0.12271477282047272,
          -0.010197358205914497,
          0.26706570386886597,
          0.0001297003764193505,
          0.23368516564369202,
          0.11795216798782349,
          0.5560175776481628,
          -0.04396946728229523,
          0.028394024819135666,
          0.4222222566604614,
          -0.3210411071777344,
          -0.06587782502174377,
          -0.26497548818588257,
          -0.0011320579797029495,
          -0.19106681644916534,
          -0.09551357477903366,
          -0.06500750780105591,
          0.3524646759033203,
          -0.12594236433506012,
          -0.13123884797096252,
          0.00008155238174367696,
          -0.2848965525627136,
          0.48954352736473083,
          -0.03712470084428787,
          -0.19391614198684692,
          0.19694721698760986,
          -0.5103186368942261,
          0.27334415912628174,
          0.04383658245205879,
          0.007620674092322588,
          -0.24981726706027985,
          0.7076590061187744,
          -0.004169052001088858,
          -0.7448561787605286,
          0.4016910493373871,
          0.1166679859161377,
          0.17413738369941711,
          -0.06177874282002449,
          -0.34012818336486816,
          0.8692352771759033,
          0.3481583893299103,
          -0.2716478407382965,
          -0.7022517323493958,
          0.16927441954612732,
          -0.21034936606884003,
          -0.13240483403205872,
          -0.16763423383235931,
          0.19580984115600586,
          -0.2624540328979492,
          0.48208358883857727,
          0.35730990767478943,
          -0.31087788939476013,
          -0.12936937808990479,
          0.26796460151672363,
          -0.31671270728111267,
          0.31899896264076233,
          0.07460600882768631,
          0.28208792209625244,
          -0.5125249624252319,
          0.8909961581230164,
          0.2943601608276367,
          -0.7718437910079956,
          0.2584666311740875,
          0.3897745609283447,
          -0.7037059664726257,
          0.03326157480478287,
          0.1610792875289917,
          1.1866587400436401,
          -0.1758565902709961,
          0.07445495575666428,
          -0.022687342017889023,
          -0.24881774187088013,
          0.35113710165023804,
          -0.29124534130096436,
          0.8098580241203308,
          -0.021281061694025993,
          -0.24977539479732513,
          -0.6473354697227478,
          0.12842582166194916,
          0.4184431731700897,
          0.06791702657938004,
          0.027318662032485008,
          0.15600602328777313,
          0.45023128390312195,
          -0.011250150389969349,
          0.3911932706832886,
          -0.23141835629940033,
          0.5489577054977417,
          0.04988498613238335,
          -0.603436291217804,
          0.7086544036865234,
          -0.2760326862335205,
          0.018348881974816322,
          0.6377583742141724,
          0.01662966050207615,
          0.5148691534996033,
          0.44335511326789856,
          -0.3657366931438446,
          0.04821827635169029,
          -0.6313974857330322,
          -0.5783671736717224,
          -0.004055764526128769,
          0.10571138560771942,
          0.35400456190109253,
          0.3623918890953064,
          -0.05309252440929413,
          -0.17109443247318268,
          0.23825043439865112,
          0.398586243391037,
          -0.19266076385974884,
          -0.11042056232690811,
          0.13054369390010834,
          0.4471493065357208,
          -0.0709034875035286,
          -0.09671878814697266,
          -0.04379599168896675,
          0.1369033008813858,
          0.07701987773180008,
          0.16707926988601685,
          -0.1461503952741623,
          -0.3633213937282562,
          -0.3755430281162262,
          -0.13828060030937195,
          -0.6588543653488159,
          0.1843252331018448,
          0.10237856209278107,
          -0.20146052539348602,
          0.1313706785440445,
          -0.00812743604183197,
          0.0085842814296484,
          -0.21550992131233215,
          0.18894615769386292,
          -0.11061960458755493,
          0.3870207667350769,
          -0.3372329771518707,
          -0.0673346295952797,
          0.002640426391735673,
          -0.2152368128299713,
          -0.48462560772895813,
          0.6945751905441284,
          0.18496951460838318,
          0.3473559617996216,
          -0.2049153745174408,
          -0.12795040011405945,
          -0.07138188928365707,
          -0.2708635926246643,
          -0.3401610553264618,
          0.19352437555789948,
          -0.0862673670053482,
          -0.24703848361968994,
          -0.3918086886405945,
          0.029393605887889862,
          -0.045432645827531815,
          -0.20378053188323975,
          0.5279226899147034,
          0.0688948854804039,
          -0.32168322801589966,
          0.6013891696929932,
          0.004488244187086821,
          0.29642677307128906,
          0.055792830884456635,
          0.08105732500553131,
          -0.17881940305233002,
          0.011036507785320282,
          0.11505420506000519,
          0.23933760821819305,
          0.01315664779394865
        ]
      },
      "inputHidden": {
        "rows": 20,
        "columns": 20,
        "weights": [
          -0.04676174744963646,
          -0.5003436207771301,
          -0.5443224310874939,
          0.6412181854248047,
          0.3367224335670471,
          -0.11440528929233551,
          0.4991077482700348,
          1.2759039402008057,
          0.3847026824951172,
          0.26964613795280457,
          -0.05589471012353897,
          -0.07960935682058334,
          -0.09747027605772018,
          0.09353023767471313,
          -0.4967111647129059,
          0.44031238555908203,
          -0.35662785172462463,
          -0.026453007012605667,
          -0.13362841308116913,
          -0.4551297128200531,
          -0.17836764454841614,
          0.7836940288543701,
          0.3140632212162018,
          0.3305921256542206,
          -0.32869237661361694,
          0.5007336139678955,
          -0.5913660526275635,
          -1.107810378074646,
          0.19316847622394562,
          0.31241074204444885,
          -1.2943226099014282,
          0.40357640385627747,
          0.3081114590167999,
          0.07710430771112442,
          -0.1882064789533615,
          -0.29743269085884094,
          0.10363923013210297,
          0.027674047276377678,
          0.8724294900894165,
          -0.05127687007188797,
          0.7493410706520081,
          1.6710954904556274,
          0.6485481858253479,
          0.17634297907352448,
          -0.4237244427204132,
          -0.04754555970430374,
          0.12350203841924667,
          0.19702672958374023,
          0.8223075866699219,
          -0.34990647435188293,
          0.16371330618858337,
          0.16904830932617188,
          0.1842803657054901,
          0.16884247958660126,
          0.3246161937713623,
          0.2016826719045639,
          0.36976358294487,
          -0.13007763028144836,
          0.6828539371490479,
          -0.1736116111278534,
          0.07742761820554733,
          0.06966306269168854,
          0.48027974367141724,
          0.3744144141674042,
          -0.03593142703175545,
          -0.10657256096601486,
          0.005185037851333618,
          0.8346010446548462,
          0.5639356970787048,
          0.05557342991232872,
          0.5523734092712402,
          0.054827217012643814,
          -0.07084231823682785,
          -0.12023355066776276,
          -0.08276218920946121,
          0.10239138454198837,
          0.4308118224143982,
          -0.6050267815589905,
          0.05546797811985016,
          -0.2615996301174164,
          0.022577079012989998,
          0.2400365024805069,
          -0.25529414415359497,
          0.5939242243766785,
          -0.057823073118925095,
          0.28511056303977966,
          -0.004898681305348873,
          0.2098417729139328,
          0.11741846799850464,
          0.19171996414661407,
          -1.0736188888549805,
          0.4846028983592987,
          0.5880060195922852,
          0.3495449125766754,
          0.504535436630249,
          -0.16534528136253357,
          -0.735676109790802,
          -0.2579316198825836,
          0.36522167921066284,
          0.18490880727767944,
          0.11763645708560944,
          0.21943052113056183,
          1.6445703506469727,
          1.2914272546768188,
          -0.013839094899594784,
          0.000679392775055021,
          -0.2913135290145874,
          0.7827305197715759,
          0.4887520670890808,
          -1.1475058794021606,
          -0.00200968561694026,
          0.150547057390213,
          0.3573075234889984,
          -0.5252043008804321,
          -0.15257304906845093,
          -0.9145650267601013,
          0.01926981657743454,
          0.3019075095653534,
          0.8591334223747253,
          -0.3091525137424469,
          0.5054206252098083,
          -0.6610541343688965,
          -0.3008614182472229,
          -0.6397503614425659,
          0.5373185873031616,
          -0.4819272458553314,
          -0.24851912260055542,
          0.3644782304763794,
          0.768444299697876,
          -0.8660118579864502,
          0.1026124507188797,
          -0.14255821704864502,
          -0.04847453534603119,
          -0.6151460409164429,
          0.360678493976593,
          -0.130579873919487,
          0.23512515425682068,
          -0.32637399435043335,
          -0.033458199352025986,
          -1.9524871110916138,
          -0.023995228111743927,
          0.5661050081253052,
          0.19090808928012848,
          0.9225230813026428,
          0.5744882822036743,
          -0.08832936733961105,
          0.6169419288635254,
          0.11055509746074677,
          0.1279093623161316,
          -0.3435346484184265,
          0.12855921685695648,
          0.3050086200237274,
          -0.5722904801368713,
          0.2149208039045334,
          -0.183322012424469,
          -0.13789691030979156,
          0.32287293672561646,
          -0.5897982120513916,
          0.27564728260040283,
          -1.1142280101776123,
          1.0697482824325562,
          0.39709219336509705,
          -0.3068118989467621,
          0.9503291249275208,
          0.2609652280807495,
          0.7475913763046265,
          -0.26399117708206177,
          0.2195533961057663,
          0.34135013818740845,
          0.3271401524543762,
          0.6485947370529175,
          0.2831433415412903,
          0.26991763710975647,
          -0.26980912685394287,
          0.20574426651000977,
          0.18753081560134888,
          0.007791747804731131,
          -0.38537904620170593,
          1.902600646018982,
          -0.10937228053808212,
          1.0177056789398193,
          0.6015459895133972,
          -0.7265810966491699,
          -0.2714442312717438,
          -0.869765043258667,
          -0.5637853145599365,
          0.14591719210147858,
          -0.01733136735856533,
          0.11185818165540695,
          0.2614382803440094,
          0.5715532302856445,
          -0.14159215986728668,
          0.4541040360927582,
          0.12985438108444214,
          1.0076735019683838,
          0.5821290016174316,
          0.04080095887184143,
          -0.1828356683254242,
          0.3411753177642822,
          0.5801161527633667,
          0.41775980591773987,
          0.03889499604701996,
          0.04010623320937157,
          0.13847839832305908,
          -0.4657047688961029,
          -0.8479432463645935,
          -0.288363516330719,
          0.3184410333633423,
          0.2518051862716675,
          -0.13392722606658936,
          -0.2355213761329651,
          0.19315285980701447,
          0.2289532721042633,
          -1.2848050594329834,
          0.311906635761261,
          -0.8329335451126099,
          0.5482052564620972,
          -0.7857032418251038,
          0.3955530524253845,
          0.03912629932165146,
          -0.7844778895378113,
          1.231166124343872,
          0.41058388352394104,
          1.2141724824905396,
          0.10215635597705841,
          -0.33818554878234863,
          -0.3609427213668823,
          0.4189477860927582,
          0.6787986159324646,
          -0.06338860094547272,
          0.06941927969455719,
          0.4034748077392578,
          -0.45427513122558594,
          0.12523460388183594,
          0.18878410756587982,
          0.5694030523300171,
          0.5310145020484924,
          -0.22349585592746735,
          -0.046827565878629684,
          -0.4860517680644989,
          0.18832451105117798,
          1.64841628074646,
          0.6770894527435303,
          0.12289071828126907,
          0.6074519753456116,
          0.09872233122587204,
          1.2016586065292358,
          -0.05106941983103752,
          -0.45847445726394653,
          -0.4012608528137207,
          -0.06564595550298691,
          -0.1513959765434265,
          0.5460025072097778,
          -0.015946131199598312,
          0.600648045539856,
          -0.6470537781715393,
          0.4328455924987793,
          -1.0712811946868896,
          0.4273698925971985,
          0.7277910113334656,
          -0.14752011001110077,
          1.9216678142547607,
          0.7008328437805176,
          0.3078445792198181,
          -0.8867242932319641,
          -0.07461079210042953,
          -0.061389192938804626,
          0.14137910306453705,
          -0.09029921889305115,
          0.7962788343429565,
          -0.8520476222038269,
          -0.16747669875621796,
          0.5003427863121033,
          0.2831660211086273,
          0.8332685232162476,
          -0.9573258757591248,
          -0.1956380307674408,
          -0.1908228099346161,
          -0.11623401939868927,
          -0.2125961184501648,
          2.0927772521972656,
          -1.3807659149169922,
          0.4897628426551819,
          -0.3767046630382538,
          -0.5628930330276489,
          0.5016708374023438,
          0.21763643622398376,
          0.676622211933136,
          -0.1931174099445343,
          -0.7156322598457336,
          -0.4557017683982849,
          -0.6449398994445801,
          -0.1730375438928604,
          0.7408400774002075,
          0.8295016288757324,
          -0.3443416655063629,
          0.5086716413497925,
          0.1879541128873825,
          0.9733408093452454,
          0.24727527797222137,
          0.28428295254707336,
          0.2883613705635071,
          -0.4759584367275238,
          1.5888949632644653,
          -0.33531880378723145,
          -0.6538801789283752,
          -0.06428173929452896,
          0.32817503809928894,
          -0.19435006380081177,
          0.5084071159362793,
          0.1473487913608551,
          0.6511813998222351,
          0.8053290843963623,
          -1.078788161277771,
          -1.0424604415893555,
          0.8102818727493286,
          0.019483724609017372,
          -0.330030620098114,
          -0.5747399926185608,
          -0.49461042881011963,
          0.3840523660182953,
          0.4576788544654846,
          -0.10131236910820007,
          -0.6090706586837769,
          -1.6531180143356323,
          0.5843906402587891,
          -0.08706139028072357,
          -0.4823184907436371,
          0.016596922650933266,
          0.38528668880462646,
          -0.9425821304321289,
          0.169641375541687,
          -0.38385215401649475,
          -0.784512996673584,
          0.2361779808998108,
          -0.19880762696266174,
          0.49205002188682556,
          -0.48421141505241394,
          0.17228932678699493,
          -0.4794151782989502,
          0.7221772074699402,
          -0.7404711842536926,
          0.714568018913269,
          -0.05183585733175278,
          -1.0320148468017578,
          0.237619087100029,
          0.02560531720519066,
          1.1841824054718018,
          0.8383747339248657,
          -0.25524377822875977,
          -1.0679668188095093,
          0.2648535966873169,
          0.21383421123027802,
          -0.7846640348434448,
          -0.6218507289886475,
          0.14128947257995605,
          -0.7411191463470459,
          0.5644412636756897,
          0.11430981010198593,
          -0.03598074987530708,
          -0.2134632170200348,
          0.06506400555372238,
          0.26307597756385803,
          0.6658850312232971,
          -0.1338902711868286,
          0.5390467643737793,
          0.08281298726797104,
          0.662956714630127,
          1.8359054327011108,
          -0.11425770074129105,
          0.3605011999607086,
          0.2203885167837143,
          0.6744685173034668,
          1.0647391080856323,
          -0.010562712326645851,
          -0.18884414434432983,
          0.14504121243953705,
          -1.01371431350708,
          0.1352979838848114,
          -0.6666130423545837,
          -0.6942072510719299,
          -0.6889646649360657,
          0.21935957670211792,
          0.13104180991649628,
          0.14910057187080383,
          -0.10138198733329773,
          -0.7912127375602722,
          -0.46818992495536804,
          0.5744329690933228,
          -1.6990305185317993,
          0.9623207449913025,
          -0.37277060747146606,
          0.15545499324798584,
          0.13999155163764954,
          0.20170855522155762,
          -1.7084394693374634,
          0.04651394858956337,
          -0.956696629524231,
          0.4119388163089752,
          -0.3463508188724518
        ]
      },
      "inputBias": {
        "rows": 20,
        "columns": 1,
        "weights": [
          1.4450181722640991,
          1.0761293172836304,
          0.3550879657268524,
          0.6451526880264282,
          0.3597034811973572,
          0.09929414093494415,
          1.1832911968231201,
          0.3811195492744446,
          0.27511903643608093,
          0.8348298668861389,
          -0.14384479820728302,
          0.590148389339447,
          0.7425968050956726,
          1.1993074417114258,
          1.2173120975494385,
          1.1067957878112793,
          0.7877175807952881,
          0.7431397438049316,
          1.0474594831466675,
          0.6204365491867065
        ]
      },
      "forgetMatrix": {
        "rows": 20,
        "columns": 28,
        "weights": [
          -0.5104194283485413,
          -0.03939149156212807,
          -0.12838870286941528,
          0.3367864489555359,
          -0.3890969455242157,
          -0.16646628081798553,
          -0.6107877492904663,
          -0.3231557607650757,
          -0.08321763575077057,
          -0.20835404098033905,
          0.05387546494603157,
          0.22147291898727417,
          0.037679947912693024,
          -0.0018489827634766698,
          -0.19347672164440155,
          -0.3528929352760315,
          -0.35359418392181396,
          -0.38149821758270264,
          -0.3254256546497345,
          0.6101092100143433,
          0.3879190683364868,
          -0.16257400810718536,
          0.6929826140403748,
          -0.027911808341741562,
          0.0869528204202652,
          0.22195710241794586,
          0.2757246792316437,
          0.46255096793174744,
          -0.11741732805967331,
          -0.24696902930736542,
          -0.14070972800254822,
          0.01889633946120739,
          -0.5188119411468506,
          0.44159314036369324,
          -0.2882513999938965,
          0.3477645814418793,
          -0.14877700805664062,
          -0.26851963996887207,
          0.12825854122638702,
          0.3377509117126465,
          -0.3348206877708435,
          -0.08775514364242554,
          -0.5136837363243103,
          0.05851472169160843,
          0.27522966265678406,
          -0.1372409164905548,
          -0.06923343986272812,
          0.10989400744438171,
          -0.12037747353315353,
          -0.2941114008426666,
          0.2227526754140854,
          -0.6331521272659302,
          0.21686220169067383,
          0.26824963092803955,
          0.1746441125869751,
          0.15783022344112396,
          0.23799361288547516,
          0.16104091703891754,
          0.13111111521720886,
          -0.3248196840286255,
          0.03257032111287117,
          0.006342920940369368,
          -0.33093008399009705,
          0.20734474062919617,
          -0.2124173492193222,
          0.012429622001945972,
          -0.3677905797958374,
          0.18939346075057983,
          0.3452874422073364,
          0.25985583662986755,
          -0.2650521397590637,
          -0.33741140365600586,
          0.0796850249171257,
          0.19140012562274933,
          -0.08259695023298264,
          -0.11524345725774765,
          0.23936933279037476,
          0.2561891973018646,
          0.4079512357711792,
          -0.6029539108276367,
          0.6004505753517151,
          0.4486057460308075,
          -0.15397927165031433,
          0.24391688406467438,
          -0.27884620428085327,
          -0.008205447345972061,
          0.24942998588085175,
          0.41530752182006836,
          0.10343225300312042,
          -0.14682069420814514,
          0.13632085919380188,
          0.18080540001392365,
          -0.03819872811436653,
          -0.14218388497829437,
          -0.06457187235355377,
          -0.1567869633436203,
          -0.13544221222400665,
          -0.03745821863412857,
          -0.07780997455120087,
          -0.3323071300983429,
          -0.07074405997991562,
          0.21900805830955505,
          0.057135824114084244,
          -0.29553714394569397,
          0.3711630702018738,
          -0.18102633953094482,
          0.0940227061510086,
          0.19298548996448517,
          0.305795818567276,
          0.20045457780361176,
          -0.2483634203672409,
          -0.12656418979167938,
          -0.09352930635213852,
          0.12817035615444183,
          0.05381927639245987,
          -0.10772693902254105,
          -0.1743042916059494,
          -0.23988904058933258,
          -0.1046164259314537,
          0.0050841146148741245,
          -0.10643171519041061,
          0.37699082493782043,
          0.23264563083648682,
          0.18635724484920502,
          -0.48882704973220825,
          -0.3139752149581909,
          0.015266149304807186,
          -0.5557098388671875,
          -0.46181416511535645,
          -0.014653664082288742,
          0.14097845554351807,
          -0.2976524829864502,
          -0.35388773679733276,
          -0.4307476282119751,
          0.3126605749130249,
          -0.20492935180664062,
          0.5279518365859985,
          -0.022195974364876747,
          -0.08918330818414688,
          0.08601789176464081,
          -0.19491736590862274,
          -0.07354863733053207,
          0.009132171981036663,
          0.32061994075775146,
          -0.6006385087966919,
          -0.37483400106430054,
          -0.09844409674406052,
          -0.28069356083869934,
          -0.2287551313638687,
          0.13272932171821594,
          -0.04849231243133545,
          -0.29479995369911194,
          -0.38653361797332764,
          -0.009782787412405014,
          0.2168138474225998,
          -0.016182120889425278,
          -0.3974137604236603,
          0.1849474310874939,
          0.0529635027050972,
          -0.26435983180999756,
          -0.5014436841011047,
          0.05864079296588898,
          0.6224823594093323,
          -0.3066824674606323,
          0.14504913985729218,
          0.34095510840415955,
          0.2659838795661926,
          -0.0628814771771431,
          -0.15194883942604065,
          0.06360384076833725,
          0.033459149301052094,
          0.06754802167415619,
          0.08632498234510422,
          -0.10773792117834091,
          -0.22257696092128754,
          0.12737011909484863,
          0.0323433093726635,
          -0.02264101803302765,
          0.08257263898849487,
          -0.13139626383781433,
          -0.007248191628605127,
          0.2401255965232849,
          -0.056313227862119675,
          0.2762165367603302,
          0.04292302206158638,
          0.01604236662387848,
          0.34109729528427124,
          -0.16535811126232147,
          0.02427526004612446,
          0.3596755564212799,
          0.09585785865783691,
          -0.18510690331459045,
          0.00026743178023025393,
          0.11318166553974152,
          -0.21590299904346466,
          0.07541508227586746,
          -0.4293699860572815,
          -0.15207910537719727,
          -0.1412409245967865,
          -0.047458961606025696,
          -0.14113518595695496,
          -0.17409548163414001,
          -0.0618877075612545,
          -0.2948668599128723,
          -0.11394776403903961,
          -0.6694900989532471,
          -0.49281054735183716,
          0.21120214462280273,
          0.012368742376565933,
          0.09442564845085144,
          0.41614001989364624,
          -0.9662617444992065,
          0.044443972408771515,
          0.025204339995980263,
          -0.252183735370636,
          0.608037531375885,
          0.03279069438576698,
          -0.3612714111804962,
          0.168630450963974,
          0.24597743153572083,
          0.08047027885913849,
          -0.014580848626792431,
          -0.2678905725479126,
          -0.03487781435251236,
          0.04272807016968727,
          0.2360938936471939,
          0.5888654589653015,
          -0.21020784974098206,
          -0.3139289617538452,
          -0.04796043783426285,
          -0.7349383234977722,
          0.10878075659275055,
          -0.22765281796455383,
          -0.0693173035979271,
          -0.9986677765846252,
          0.43910855054855347,
          0.1279176026582718,
          0.3146880269050598,
          0.310672789812088,
          -0.44074562191963196,
          -0.08797497302293777,
          -0.19724972546100616,
          0.21441541612148285,
          0.04397973045706749,
          0.24965469539165497,
          0.0763704851269722,
          0.1335018426179886,
          -0.07400286197662354,
          0.27334603667259216,
          0.15882210433483124,
          0.03646421059966087,
          -0.7962799072265625,
          -0.24561752378940582,
          -0.04924905300140381,
          0.8878834843635559,
          -0.28843724727630615,
          0.10802605003118515,
          -0.16734665632247925,
          -0.42965713143348694,
          -0.02495434135198593,
          0.24135176837444305,
          -0.4675763249397278,
          -0.6228577494621277,
          0.21079322695732117,
          0.4873194396495819,
          -0.28247010707855225,
          0.22004541754722595,
          -0.3917367458343506,
          -0.23634538054466248,
          -0.038254205137491226,
          0.2501979172229767,
          -0.00971903745085001,
          0.1552131175994873,
          0.14372462034225464,
          0.5109401941299438,
          -0.24677349627017975,
          0.2501640319824219,
          -0.4934001863002777,
          0.30084723234176636,
          -0.37638989090919495,
          -0.1044517308473587,
          0.5536776185035706,
          0.08436770737171173,
          -0.14450816810131073,
          0.24845394492149353,
          0.21688148379325867,
          0.6663305163383484,
          -0.35986828804016113,
          0.03570324555039406,
          0.43511196970939636,
          0.5029290318489075,
          0.19966907799243927,
          -0.053247544914484024,
          -0.025862473994493484,
          -0.08131702244281769,
          0.4617304801940918,
          0.4757993221282959,
          -0.09587172418832779,
          0.05396067723631859,
          -0.0470404289662838,
          0.480289489030838,
          -0.10118813067674637,
          -0.47638189792633057,
          0.24820275604724884,
          0.14880017936229706,
          -0.0026422098744660616,
          -0.35515376925468445,
          0.42655250430107117,
          -0.16180770099163055,
          0.26068902015686035,
          0.3477315306663513,
          -0.4101523756980896,
          0.7574189901351929,
          0.007151240017265081,
          -0.17936645448207855,
          0.2597380578517914,
          -0.07517945021390915,
          -0.07395729422569275,
          0.37544316053390503,
          -0.2938290238380432,
          0.27046680450439453,
          0.3776916563510895,
          -0.03220492973923683,
          -0.5359389781951904,
          -0.017229104414582253,
          -0.46111539006233215,
          -0.4256339371204376,
          0.29257288575172424,
          0.31299617886543274,
          0.2382974624633789,
          -0.34172385931015015,
          -0.01704329438507557,
          -0.16121873259544373,
          -0.04276932403445244,
          -0.08561632037162781,
          0.17773260176181793,
          -0.13933630287647247,
          -0.18048794567584991,
          0.38781341910362244,
          0.4502267837524414,
          -0.40200406312942505,
          -0.26099953055381775,
          -0.15770907700061798,
          -0.2660607695579529,
          -0.11970992386341095,
          -0.3612908720970154,
          -0.5627589821815491,
          -0.28477081656455994,
          0.016747983172535896,
          -0.45166078209877014,
          -0.3612050414085388,
          -0.4553077816963196,
          0.14460955560207367,
          -0.1489424854516983,
          0.3462500274181366,
          -0.20498047769069672,
          0.05479821190237999,
          0.17604480683803558,
          0.4963383674621582,
          0.18987207114696503,
          -0.11138936132192612,
          -0.4508146047592163,
          0.17345717549324036,
          -0.08328960090875626,
          -0.059523217380046844,
          0.0994686484336853,
          -0.26883241534233093,
          -0.2543969452381134,
          0.23646920919418335,
          -0.002868907293304801,
          0.13435517251491547,
          -0.26624053716659546,
          0.06900079548358917,
          -0.02272006683051586,
          0.18720275163650513,
          -0.37895551323890686,
          -0.20728369057178497,
          -0.03922748938202858,
          0.09070660173892975,
          0.11152289807796478,
          0.05551919341087341,
          0.1058468222618103,
          -0.12429780513048172,
          0.08743063360452652,
          -0.13037212193012238,
          -0.26182639598846436,
          0.02642199583351612,
          0.3111312985420227,
          -0.06001972034573555,
          -0.2523127496242523,
          -0.011456389911472797,
          -0.23415984213352203,
          0.6408707499504089,
          -0.5554677844047546,
          0.1993556022644043,
          -0.16640926897525787,
          0.35976171493530273,
          0.08488117903470993,
          0.4162404239177704,
          0.17249934375286102,
          0.0015516468556597829,
          -0.2319427877664566,
          0.465681791305542,
          -0.17444828152656555,
          0.17151540517807007,
          0.546290934085846,
          0.1955357789993286,
          0.5313872694969177,
          -0.166220024228096,
          0.14925630390644073,
          0.3458479642868042,
          -0.3748159110546112,
          -0.2566733956336975,
          0.12837789952754974,
          -0.10121767222881317,
          -0.48834899067878723,
          -0.20863617956638336,
          0.18801194429397583,
          -0.08937082439661026,
          -0.09084376692771912,
          -0.20419025421142578,
          -0.14427000284194946,
          0.14670200645923615,
          0.5502405762672424,
          -0.8867101073265076,
          -0.15863677859306335,
          0.18164916336536407,
          -0.2323540896177292,
          -0.42815032601356506,
          -0.16856278479099274,
          0.6357422471046448,
          -0.1359168142080307,
          -0.6959699392318726,
          -0.10533751547336578,
          -0.0641469731926918,
          0.7773156762123108,
          -0.48816385865211487,
          -0.13415834307670593,
          0.2245122492313385,
          -0.09045474231243134,
          -0.03404112160205841,
          0.43038061261177063,
          -0.4145975410938263,
          -0.02439338155090809,
          -0.04201246798038483,
          0.44092705845832825,
          -0.5232371091842651,
          0.18026410043239594,
          -0.3498908579349518,
          -0.17720258235931396,
          -0.6763204336166382,
          0.2716852128505707,
          0.04940633103251457,
          -0.46719324588775635,
          0.11446142941713333,
          -0.43170878291130066,
          -0.027185698971152306,
          0.06511006504297256,
          0.6514734625816345,
          -0.19346566498279572,
          0.015627585351467133,
          -0.17467792332172394,
          -0.3619871437549591,
          0.18900953233242035,
          -0.41584137082099915,
          0.026870625093579292,
          0.36674657464027405,
          0.21695448458194733,
          0.1864538937807083,
          -0.31795021891593933,
          -0.7445515990257263,
          0.6760578751564026,
          -0.1411520093679428,
          0.04810554161667824,
          0.05475183576345444,
          0.49787023663520813,
          0.9831480979919434,
          0.15627911686897278,
          -0.14262190461158752,
          0.05907413363456726,
          0.3931056559085846,
          -0.3220096528530121,
          0.0158840361982584,
          0.09173426032066345,
          0.12006495147943497,
          0.455412894487381,
          0.3193169832229614,
          0.623453676700592,
          0.05905608832836151,
          0.21293796598911285,
          -0.6886796355247498,
          0.13614852726459503,
          0.06010296940803528,
          -0.04619905352592468,
          -0.553010106086731,
          0.5169790387153625,
          0.1415347456932068,
          0.017029061913490295,
          -0.1365620344877243,
          0.015704307705163956,
          0.29684633016586304,
          0.14817774295806885,
          0.18766014277935028,
          0.12161806970834732,
          -0.3069055378437042,
          -0.05985816568136215,
          0.3109719753265381,
          -0.33486583828926086,
          0.33119726181030273,
          0.1813461184501648,
          -0.4288088083267212,
          -0.13205015659332275,
          0.19841641187667847,
          0.03637999668717384,
          0.4127321243286133,
          -0.019244087859988213,
          0.4826737344264984,
          -0.08113641291856766,
          -0.16231276094913483,
          -0.10350831598043442,
          -0.6483465433120728,
          -0.2030637264251709,
          -0.18130084872245789,
          0.43685439229011536,
          -0.1539825052022934,
          0.07211032509803772,
          -0.14560163021087646,
          0.0340469628572464,
          -0.020935911685228348,
          -0.2864214777946472,
          0.03101878985762596,
          0.010666286572813988,
          -0.05121031031012535,
          0.3584426939487457,
          -0.4462902247905731,
          -0.08914981037378311,
          0.05385722219944,
          -0.17589668929576874,
          -0.34674450755119324,
          0.08274193853139877,
          -0.16041691601276398,
          -0.13239610195159912,
          -0.16901186108589172,
          -0.05682783201336861,
          0.15207983553409576,
          -0.052910029888153076,
          0.08226006478071213,
          -0.2592830955982208,
          0.0009852924849838018,
          -0.2934473156929016,
          -0.40293607115745544,
          0.5378313064575195,
          -0.4731360673904419,
          -0.05582622438669205,
          0.3566038906574249,
          0.336780309677124,
          -0.242039293050766,
          -0.33112403750419617,
          0.25175535678863525,
          -0.2123388946056366
        ]
      },
      "forgetHidden": {
        "rows": 20,
        "columns": 20,
        "weights": [
          0.7742862701416016,
          0.13571211695671082,
          -0.5969278812408447,
          -0.34529468417167664,
          0.4169583320617676,
          0.2840223014354706,
          -0.012008609250187874,
          0.5469364523887634,
          0.38329771161079407,
          -0.9360819458961487,
          0.06708892434835434,
          0.4071453809738159,
          0.08682957291603088,
          -0.2623961269855499,
          0.28883102536201477,
          0.430326908826828,
          -0.8489313721656799,
          0.035728782415390015,
          0.31736165285110474,
          0.21863387525081635,
          0.6778624057769775,
          -0.39046603441238403,
          0.33680516481399536,
          -0.8291670083999634,
          0.11450904607772827,
          0.3340151906013489,
          -0.20549561083316803,
          0.6956229209899902,
          -1.3516415357589722,
          0.5543374419212341,
          -0.2779577672481537,
          0.006565801799297333,
          0.24739710986614227,
          -0.3420259654521942,
          -0.8156593441963196,
          -0.31878939270973206,
          -0.6456161737442017,
          0.2997324466705322,
          0.2616286277770996,
          0.0715327188372612,
          -0.7195583581924438,
          -0.25839483737945557,
          0.0008702802006155252,
          0.47436898946762085,
          -0.524852454662323,
          -0.6459327936172485,
          0.22229330241680145,
          0.5456218123435974,
          0.48058709502220154,
          -0.45982614159584045,
          -0.8026962876319885,
          -0.5152269005775452,
          0.5697567462921143,
          -0.7686989903450012,
          -0.36810556054115295,
          -0.48863205313682556,
          0.4880116879940033,
          0.11729849129915237,
          0.1635056883096695,
          -0.40204522013664246,
          0.32766270637512207,
          -0.10832419991493225,
          0.3769409954547882,
          0.2704152464866638,
          -0.5252425074577332,
          0.43164384365081787,
          -0.30076372623443604,
          -0.6542768478393555,
          0.43977391719818115,
          -0.2745768129825592,
          -0.4235864281654358,
          0.4761967658996582,
          -0.5903746485710144,
          0.2839657664299011,
          1.1794934272766113,
          -0.2235158234834671,
          -0.18287678062915802,
          -0.2874114513397217,
          0.013377228751778603,
          1.1715312004089355,
          0.2292710393667221,
          0.24885177612304688,
          -0.028477324172854424,
          -1.0378351211547852,
          -1.0163357257843018,
          0.10169531404972076,
          0.08380322903394699,
          0.12499219924211502,
          0.20512452721595764,
          0.4881972670555115,
          -0.43204158544540405,
          -0.2650424838066101,
          -0.5212106108665466,
          -0.6136112213134766,
          0.4633181691169739,
          0.666657030582428,
          0.08395456522703171,
          -0.3557203412055969,
          0.238246351480484,
          0.7543277144432068,
          0.9139165282249451,
          0.24399524927139282,
          2.1028242111206055,
          0.0017157867550849915,
          -0.7104023098945618,
          -0.11200251430273056,
          -0.21419252455234528,
          0.22061055898666382,
          0.47597184777259827,
          -0.6470990777015686,
          -0.10618197917938232,
          -0.2673421800136566,
          0.2938794493675232,
          -0.04488017037510872,
          0.5283957719802856,
          0.9163028001785278,
          0.2056725025177002,
          -0.013227985240519047,
          -0.09623979032039642,
          0.3259947597980499,
          0.39684024453163147,
          0.38521307706832886,
          0.5422095060348511,
          0.4618891775608063,
          0.23909232020378113,
          0.0798659473657608,
          -0.28416481614112854,
          -0.8399292230606079,
          -0.650088906288147,
          0.4803451895713806,
          0.677473783493042,
          0.2947040796279907,
          -0.23048633337020874,
          -0.4092465043067932,
          -0.9968481063842773,
          0.7435244917869568,
          0.41723451018333435,
          -1.1152862310409546,
          -0.037056393921375275,
          -0.5156099200248718,
          -1.1501712799072266,
          0.2727994918823242,
          0.3597531318664551,
          0.38711750507354736,
          0.21079060435295105,
          0.974179744720459,
          0.4602541923522949,
          0.34912872314453125,
          0.4576054513454437,
          -0.25507068634033203,
          0.4972657859325409,
          -0.13575421273708344,
          0.7860952019691467,
          -0.5847598910331726,
          -0.026189643889665604,
          -0.6340251564979553,
          -0.45887213945388794,
          0.14746955037117004,
          -0.20789216458797455,
          -0.32728397846221924,
          -0.11586514115333557,
          0.05629156157374382,
          0.5846682190895081,
          0.3478601276874542,
          -0.17461520433425903,
          1.0139018297195435,
          0.19822753965854645,
          0.7239099144935608,
          0.848019540309906,
          0.35489511489868164,
          0.07384683936834335,
          0.27607080340385437,
          -0.5930474996566772,
          0.28660616278648376,
          0.16127552092075348,
          0.2952894866466522,
          -0.9677721261978149,
          0.1350390613079071,
          0.18003277480602264,
          0.05908767879009247,
          -0.24718603491783142,
          0.015117769129574299,
          1.3500423431396484,
          -0.5374059677124023,
          0.3238619863986969,
          0.7318845391273499,
          -0.0226894523948431,
          -1.1587005853652954,
          0.29339686036109924,
          -0.23138833045959473,
          -0.5005012154579163,
          -0.036591824144124985,
          0.19723598659038544,
          0.3228452801704407,
          0.03589523211121559,
          0.2233896702528,
          -0.26414433121681213,
          -0.36624038219451904,
          0.7378606200218201,
          -0.27115195989608765,
          -1.4361143112182617,
          -0.5717479586601257,
          -0.3170245885848999,
          -0.6557730436325073,
          0.41231101751327515,
          0.045043352991342545,
          1.2279666662216187,
          0.06441202014684677,
          0.0031630222219973803,
          -0.09714717417955399,
          0.21921531856060028,
          0.27395933866500854,
          -0.4345622658729553,
          0.18714770674705505,
          -0.4658863842487335,
          0.48806944489479065,
          -0.49633198976516724,
          -0.6648512482643127,
          -0.24277542531490326,
          -0.34995973110198975,
          -0.35220450162887573,
          -0.7183862924575806,
          -0.05476224794983864,
          -0.08193988353013992,
          0.7244824171066284,
          0.33084335923194885,
          0.4256093502044678,
          -0.6014225482940674,
          0.15238048136234283,
          -1.6989243030548096,
          -0.3908739387989044,
          1.0846487283706665,
          0.5298091173171997,
          -1.0134865045547485,
          1.2765347957611084,
          0.8123071789741516,
          -0.4594794511795044,
          -0.5066590309143066,
          -0.09110140800476074,
          0.3014286458492279,
          0.09180931746959686,
          -0.7220581769943237,
          -0.6807856559753418,
          0.3294009268283844,
          -0.2308799773454666,
          -0.751828134059906,
          -0.5675061941146851,
          -0.2845344543457031,
          -0.09630876779556274,
          -0.052733227610588074,
          -0.4183332920074463,
          0.007485128473490477,
          0.6314892172813416,
          -0.38735121488571167,
          -1.1673073768615723,
          -0.05026377737522125,
          1.4795299768447876,
          -0.1663985699415207,
          0.18054267764091492,
          0.276801735162735,
          0.16029606759548187,
          0.7064773440361023,
          1.0693707466125488,
          0.17894309759140015,
          0.14618225395679474,
          0.6644512414932251,
          -0.33259129524230957,
          0.0030200439505279064,
          0.3846125304698944,
          -0.37062615156173706,
          -0.0028481711633503437,
          0.6877866983413696,
          -0.36195138096809387,
          0.5143676400184631,
          0.3396405279636383,
          -0.8596181869506836,
          -0.25775986909866333,
          -0.38085705041885376,
          1.6963084936141968,
          0.2575721740722656,
          0.09032544493675232,
          1.0241953134536743,
          0.7743319869041443,
          0.2585931420326233,
          -0.46448782086372375,
          -0.0784904882311821,
          0.08111954480409622,
          0.6927921772003174,
          0.09056653827428818,
          0.42980504035949707,
          0.0638103261590004,
          1.2256412506103516,
          -0.060687143355607986,
          0.12255149334669113,
          0.4445186257362366,
          -0.7722041010856628,
          -0.5821207761764526,
          -1.0506736040115356,
          -0.15083426237106323,
          0.01687878929078579,
          0.09377291798591614,
          -0.3273393511772156,
          0.47421950101852417,
          0.07559379935264587,
          0.49490872025489807,
          -0.8135778903961182,
          -0.592376172542572,
          -0.05957382544875145,
          -0.5235205292701721,
          0.0014781126519665122,
          -0.5053784847259521,
          -0.486542284488678,
          -0.6723045706748962,
          0.022806087508797646,
          -0.3737592101097107,
          0.3438481092453003,
          -0.4770039916038513,
          -0.09873219579458237,
          -0.40979474782943726,
          -0.6916025280952454,
          -0.13354328274726868,
          -0.37681087851524353,
          -0.3044945299625397,
          0.36751702427864075,
          -0.23237153887748718,
          0.320314884185791,
          0.3701089918613434,
          0.42040422558784485,
          -0.39059314131736755,
          0.5760664939880371,
          -0.2161109894514084,
          -0.207384392619133,
          -0.33309653401374817,
          -0.20226188004016876,
          0.3703271746635437,
          -0.8374848961830139,
          0.19846542179584503,
          0.8254523277282715,
          -0.08144238591194153,
          0.7403991222381592,
          -0.9323910474777222,
          0.7673742175102234,
          0.270718514919281,
          -0.3755626678466797,
          -0.1712435632944107,
          -0.3299543559551239,
          0.4638037085533142,
          0.46623849868774414,
          -0.28203725814819336,
          -0.2673046588897705,
          -0.956576406955719,
          -0.17317655682563782,
          0.044144559651613235,
          -0.6573795080184937,
          -0.3927920460700989,
          0.6919766664505005,
          -0.030509725213050842,
          -0.028316263109445572,
          0.29070237278938293,
          0.07909803837537766,
          0.021059919148683548,
          0.11492637544870377,
          -0.09638870507478714,
          0.28171342611312866,
          0.6896305084228516,
          -0.7232357263565063,
          0.10520418733358383,
          0.25832417607307434,
          0.13088169693946838,
          0.21943804621696472,
          -0.5676884055137634,
          -0.1723148077726364,
          -0.022851549088954926,
          0.03749389946460724,
          0.6503834128379822,
          -1.0100246667861938,
          -0.30323565006256104,
          0.4473552405834198,
          0.6987525820732117,
          -0.31614166498184204,
          -0.7651930451393127,
          0.26051339507102966,
          0.47834286093711853,
          0.07702450454235077,
          -0.007454780861735344,
          -0.26996326446533203,
          -0.17523075640201569,
          -0.34256789088249207,
          -0.8755167722702026,
          0.7986160516738892,
          -0.1115972101688385,
          -0.6484787464141846,
          0.11498195677995682,
          -0.5139933228492737,
          -0.5123215913772583,
          -0.4901796281337738,
          1.0464651584625244,
          0.48823440074920654,
          0.1681712418794632,
          -0.43524792790412903
        ]
      },
      "forgetBias": {
        "rows": 20,
        "columns": 1,
        "weights": [
          0,
          0,
          0,
          0,
          0,
          0,
          0,
          0,
          0,
          0,
          0,
          0,
          0,
          0,
          0,
          0,
          0,
          0,
          0,
          0
        ]
      },
      "outputMatrix": {
        "rows": 20,
        "columns": 28,
        "weights": [
          0.1028176099061966,
          0.029627250507473946,
          -0.20236802101135254,
          0.01714189164340496,
          0.3781645894050598,
          -0.3874218761920929,
          -0.19305911660194397,
          -0.09577630460262299,
          0.5616517066955566,
          -0.4146230220794678,
          0.36003774404525757,
          0.1571168750524521,
          0.27508988976478577,
          -0.4100440442562103,
          -0.9259107708930969,
          0.7355427742004395,
          -0.9988639950752258,
          0.23186253011226654,
          0.14177733659744263,
          0.21010343730449677,
          -0.082453154027462,
          0.12187409400939941,
          -0.3335730731487274,
          -0.9330350756645203,
          0.3640591502189636,
          0.4656727910041809,
          -0.004767595790326595,
          0.2769030034542084,
          0.05136436969041824,
          0.03118150867521763,
          0.34333765506744385,
          0.03886670619249344,
          0.7607241868972778,
          0.3337720036506653,
          -0.9277431964874268,
          0.22992920875549316,
          0.014002658426761627,
          -0.4141806364059448,
          -0.1547151356935501,
          0.16595017910003662,
          0.3891654908657074,
          -0.12818543612957,
          0.17789700627326965,
          -0.4558384418487549,
          -0.32564350962638855,
          0.27647680044174194,
          -0.17648473381996155,
          0.15114066004753113,
          -0.22410055994987488,
          0.39176589250564575,
          0.05205736681818962,
          -0.620215654373169,
          0.6797481179237366,
          0.2807108461856842,
          -0.03382812440395355,
          0.23531439900398254,
          0.04764343798160553,
          -0.3336821496486664,
          0.15748639404773712,
          0.3832569122314453,
          -0.3082802891731262,
          0.133170947432518,
          -0.2585604786872864,
          -0.06990579515695572,
          -0.17675623297691345,
          0.4426921606063843,
          0.35078591108322144,
          0.03642280399799347,
          -0.266055703163147,
          -0.21134644746780396,
          -0.01659938506782055,
          -0.10085546970367432,
          -0.6393309831619263,
          0.3820062577724457,
          0.1835760474205017,
          -0.7917762994766235,
          -0.19032788276672363,
          -0.580674409866333,
          -0.1345483362674713,
          0.12232150882482529,
          -0.22479501366615295,
          -0.09349518269300461,
          0.146336629986763,
          -0.5765239596366882,
          -0.22401702404022217,
          -0.22769296169281006,
          -0.17379584908485413,
          -0.02596287615597248,
          -0.022100703790783882,
          -0.0936008095741272,
          0.08101344853639603,
          -0.060541365295648575,
          -0.1043035238981247,
          0.15571154654026031,
          0.8822512030601501,
          0.005995671730488539,
          -0.46705058217048645,
          -0.26986679434776306,
          -0.7249351143836975,
          0.710273265838623,
          -0.26163873076438904,
          0.34970101714134216,
          0.15258271992206573,
          -0.45376044511795044,
          0.2684842050075531,
          -0.46428221464157104,
          -0.43973132967948914,
          0.6560416221618652,
          -0.21439960598945618,
          0.1180587187409401,
          -0.12310753017663956,
          0.19720029830932617,
          -0.04829757288098335,
          -0.11857082694768906,
          -0.11087556183338165,
          0.09051305055618286,
          -0.22486384212970734,
          0.3180203437805176,
          -0.27506348490715027,
          -0.24437843263149261,
          -0.49604561924934387,
          -0.14726227521896362,
          0.5019830465316772,
          -0.16021926701068878,
          0.11969364434480667,
          -0.2788977026939392,
          -1.0296635627746582,
          0.57566899061203,
          0.015759387984871864,
          0.08352658897638321,
          0.23906712234020233,
          -0.18250444531440735,
          0.4817448556423187,
          -0.06799237430095673,
          -0.1510840356349945,
          0.4087904095649719,
          -0.28053101897239685,
          0.7114558219909668,
          0.01550193503499031,
          0.15826468169689178,
          -0.1757747083902359,
          -0.3151479959487915,
          0.0763833299279213,
          -0.10069497674703598,
          0.5275934338569641,
          0.1452273726463318,
          -0.5108376741409302,
          -0.11784038692712784,
          -0.11440233141183853,
          -0.3076506555080414,
          0.5010384321212769,
          -0.41387271881103516,
          0.1484972983598709,
          -0.36447641253471375,
          -0.4156915843486786,
          0.24824857711791992,
          -0.28436970710754395,
          -0.3626761734485626,
