{
  "type": "LSTM",
  "options": {
    "inputSize": 28,
    "inputRange": 28,
    "hiddenLayers": [
      20,
      20
    ],
    "outputSize": 28,
    "decayRate": 0.999,
    "smoothEps": 1e-8,
    "regc": 0.000001,
    "clipval": 5,
    "maxPredictionLength": 100,
    "dataFormatter": {
      "indexTable": {
        "a": 0,
        "d": 1,
        "e": 2,
        "l": 3,
        "h": 4,
        "i": 5,
        "g": 6,
        "n": 7,
        "s": 8,
        "x": 9,
        "r": 10,
        "t": 11,
        "k": 12,
        "j": 13,
        "m": 14,
        "b": 15,
        "c": 16,
        "u": 17,
        "ä": 18,
        "o": 19,
        "f": 20,
        "v": 21,
        "-": 22,
        "y": 23,
        "z": 24,
        "w": 25,
        "p": 26,
        "unrecognized": 27
      },
      "characterTable": {
        "0": "a",
        "1": "d",
        "2": "e",
        "3": "l",
        "4": "h",
        "5": "i",
        "6": "g",
        "7": "n",
        "8": "s",
        "9": "x",
        "10": "r",
        "11": "t",
        "12": "k",
        "13": "j",
        "14": "m",
        "15": "b",
        "16": "c",
        "17": "u",
        "18": "ä",
        "19": "o",
        "20": "f",
        "21": "v",
        "22": "-",
        "23": "y",
        "24": "z",
        "25": "w",
        "26": "p",
        "27": null
      },
      "values": [
        "adelheid",
        "agnes",
        "alexandra",
        "andrea",
        "anette",
        "angela",
        "angelika",
        "anita",
        "anja",
        "anke",
        "anna",
        "anne",
        "annegret",
        "anneliese",
        "annemarie",
        "annett",
        "annette",
        "anni",
        "antje",
        "astrid",
        "barbara",
        "beate",
        "berta",
        "bettina",
        "bianca",
        "birgit",
        "brigitte",
        "britta",
        "brunhilde",
        "bärbel",
        "carmen",
        "carola",
        "charlotte",
        "christa",
        "christel",
        "christiane",
        "christina",
        "christine",
        "claudia",
        "corinna",
        "cornelia",
        "dagmar",
        "daniela",
        "diana",
        "dora",
        "doris",
        "dorothea",
        "dorothee",
        "edeltraud",
        "edith",
        "elena",
        "eleonore",
        "elfriede",
        "elisabeth",
        "elke",
        "ella",
        "ellen",
        "elli",
        "elsa",
        "elsbeth",
        "else",
        "elvira",
        "emma",
        "erika",
        "erna",
        "eva",
        "eva-maria",
        "evelyn",
        "franziska",
        "frieda",
        "gabi",
        "gabriele",
        "gaby",
        "gerda",
        "gerlinde",
        "gertraud",
        "gertrud",
        "gisela",
        "gudrun",
        "hanna",
        "hannelore",
        "hedwig",
        "heide",
        "heidemarie",
        "heidi",
        "heidrun",
        "heike",
        "helene",
        "helga",
        "herta",
        "hilde",
        "hildegard",
        "ida",
        "ilona",
        "ilse",
        "ina",
        "ines",
        "inge",
        "ingeborg",
        "ingrid",
        "irene",
        "irina",
        "iris",
        "irma",
        "irmgard",
        "isolde",
        "jana",
        "johanna",
        "josefine",
        "judith",
        "julia",
        "jutta",
        "karin",
        "karola",
        "katharina",
        "kathrin",
        "katja",
        "katrin",
        "kerstin",
        "kirsten",
        "klara",
        "kornelia",
        "käthe",
        "liane",
        "lieselotte",
        "lisa",
        "liselotte",
        "lore",
        "lotte",
        "luise",
        "lydia",
        "magdalena",
        "manuela",
        "marga",
        "margarete",
        "margit",
        "margot",
        "margret",
        "maria",
        "marianne",
        "marie",
        "marina",
        "marion",
        "marita",
        "marlene",
        "marlies",
        "martha",
        "martina",
        "mathilde",
        "mechthild",
        "melanie",
        "michaela",
        "monika",
        "nadine",
        "nicole",
        "nina",
        "olga",
        "paula",
        "petra",
        "ramona",
        "regina",
        "regine",
        "renate",
        "rita",
        "rosa",
        "rosemarie",
        "roswitha",
        "ruth",
        "sabine",
        "sabrina",
        "sandra",
        "sibylle",
        "sieglinde",
        "sigrid",
        "silke",
        "silvia",
        "simone",
        "sonja",
        "stefanie",
        "stephanie",
        "susanne",
        "sybille",
        "sylvia",
        "tanja",
        "tatjana",
        "thea",
        "therese",
        "theresia",
        "tina",
        "ulrike",
        "ursula",
        "uta",
        "ute",
        "vera",
        "verena",
        "veronika",
        "waltraud",
        "waltraut",
        "wilma",
        "yvonne"
      ],
      "characters": [
        "a",
        "d",
        "e",
        "l",
        "h",
        "i",
        "g",
        "n",
        "s",
        "x",
        "r",
        "t",
        "k",
        "j",
        "m",
        "b",
        "c",
        "u",
        "ä",
        "o",
        "f",
        "v",
        "-",
        "y",
        "z",
        "w",
        "p",
        "unrecognized"
      ],
      "specialIndexes": [
        27
      ]
    },
    "activation": "tanh"
  },
  "trainOpts": {
    "iterations": "10000",
    "errorThresh": "0.04",
    "log": false,
    "logPeriod": 1,
    "learningRate": "0.0001",
    "callbackPeriod": 1,
    "timeout": "Infinity"
  },
  "input": {
    "rows": 29,
    "columns": 28,
    "weights": [
      -0.5705443620681763,
      0.12520793080329895,
      -0.13587956130504608,
      0.004753591027110815,
      -0.5310564041137695,
      -0.3390986919403076,
      -0.027581874281167984,
      -0.5402319431304932,
      -0.08919026702642441,
      0.25854742527008057,
      0.3425949513912201,
      -0.09074466675519943,
      0.1657508909702301,
      -0.23568615317344666,
      0.9421995282173157,
      0.13336443901062012,
      -0.10669863224029541,
      -0.1832536906003952,
      0.4029640257358551,
      0.5682812929153442,
      -0.3912496864795685,
      -0.08240766078233719,
      0.4388916492462158,
      0.46383431553840637,
      -0.3162958025932312,
      -0.3323996365070343,
      -0.3460214138031006,
      -0.20976845920085907,
      0.864231526851654,
      0.7258188724517822,
      0.17288750410079956,
      -0.24945206940174103,
      0.8772485256195068,
      0.3454670310020447,
      -1.3790996074676514,
      0.8412948846817017,
      0.5196303129196167,
      0.48729777336120605,
      0.34488874673843384,
      -1.120082139968872,
      0.41435596346855164,
      0.5182181000709534,
      0.07145656645298004,
      0.21095111966133118,
      0.05150870606303215,
      -0.153853639960289,
      1.9156886339187622,
      0.8151069283485413,
      0.31883522868156433,
      0.27820882201194763,
      -0.580324649810791,
      -0.19530387222766876,
      -0.8890296816825867,
      0.15959201753139496,
      1.0250455141067505,
      0.3178580701351166,
      -1.804282307624817,
      2.132932662963867,
      -0.1390133500099182,
      -1.3676742315292358,
      -0.7113772630691528,
      0.7703832983970642,
      -0.11925774067640305,
      -1.1772068738937378,
      0.2620140016078949,
      0.6945367455482483,
      0.40133628249168396,
      1.3737244606018066,
      -3.093125581741333,
      2.4239912033081055,
      1.2684533596038818,
      1.1683958768844604,
      -2.456218719482422,
      -1.1072235107421875,
      2.2431800365448,
      -0.82770174741745,
      1.200782060623169,
      4.030940055847168,
      -1.1674742698669434,
      -0.849398136138916,
      -0.7032719254493713,
      1.6160987615585327,
      2.573957681655884,
      -1.148926019668579,
      0.3158511519432068,
      -1.6745623350143433,
      -0.5308603048324585,
      1.2303845882415771,
      -0.7077586650848389,
      -0.9792639017105103,
      1.3236700296401978,
      2.033836603164673,
      1.9771851301193237,
      -2.5516815185546875,
      0.14889319241046906,
      -0.04587438702583313,
      0.1458449363708496,
      0.5935637354850769,
      -2.48791241645813,
      -0.8395552635192871,
      -1.2797553539276123,
      0.7528886795043945,
      1.8058687448501587,
      -0.6022383570671082,
      -0.10630711913108826,
      0.7718357443809509,
      -1.4361075162887573,
      0.6295182108879089,
      -1.620052695274353,
      0.4255618453025818,
      -1.9578778743743896,
      1.1433031558990479,
      -2.4288277626037598,
      1.8291059732437134,
      2.2112877368927,
      0.05927044525742531,
      2.1047425270080566,
      0.6319276690483093,
      0.34625327587127686,
      -1.3084259033203125,
      1.96710205078125,
      -0.05248117074370384,
      2.0769991874694824,
      -0.4373440444469452,
      1.6431490182876587,
      -1.0360760688781738,
      -1.8207693099975586,
      3.021247386932373,
      0.9086081981658936,
      -1.1065776348114014,
      2.9372763633728027,
      -1.4043995141983032,
      1.4300693273544312,
      -1.3330427408218384,
      -0.4252232015132904,
      -0.6536687016487122,
      -0.08604343980550766,
      -1.954168677330017,
      2.2965786457061768,
      -2.0327186584472656,
      0.20279373228549957,
      3.5429742336273193,
      -0.4664100110530853,
      0.07353378087282181,
      0.25446659326553345,
      2.8403468132019043,
      0.37034156918525696,
      -0.6107014417648315,
      -1.5101302862167358,
      2.043461561203003,
      1.2130286693572998,
      -0.21383288502693176,
      2.4680368900299072,
      0.37953677773475647,
      1.513028860092163,
      1.9275987148284912,
      1.850043773651123,
      -1.1147159337997437,
      -2.4372570514678955,
      -1.1149362325668335,
      0.28503701090812683,
      0.471645712852478,
      1.095068335533142,
      -1.7779178619384766,
      0.7274278402328491,
      -1.5906370878219604,
      1.3278427124023438,
      -2.460714340209961,
      -0.22304794192314148,
      0.9461196660995483,
      -0.7546191811561584,
      -0.5852466821670532,
      0.05828434228897095,
      -1.0903394222259521,
      1.129475712776184,
      0.3629944324493408,
      3.0020031929016113,
      0.30420801043510437,
      -0.22679615020751953,
      0.32180172204971313,
      3.9578163623809814,
      0.20456023514270782,
      -1.1866943836212158,
      0.5326886177062988,
      -0.27527758479118347,
      0.946959376335144,
      -0.8720899224281311,
      -2.483954906463623,
      0.823779284954071,
      -0.08332428336143494,
      -1.087249755859375,
      -2.1348886489868164,
      0.1081867590546608,
      -1.8402090072631836,
      0.5459046959877014,
      -0.7834401726722717,
      -2.6552278995513916,
      1.5344079732894897,
      1.7565685510635376,
      -3.0048904418945312,
      1.7672123908996582,
      1.9703119993209839,
      0.96522456407547,
      -2.9348175525665283,
      6.751833915710449,
      2.403852939605713,
      -0.019498107954859734,
      0.3659393787384033,
      3.5784096717834473,
      -4.24616813659668,
      -2.7040040493011475,
      0.5232570767402649,
      -0.3592442274093628,
      0.8609028458595276,
      -3.446166753768921,
      -2.0679678916931152,
      3.565946578979492,
      -0.5541855096817017,
      -5.522367477416992,
      1.1050900220870972,
      -3.0866386890411377,
      5.489446640014648,
      2.7363250255584717,
      1.3312591314315796,
      -1.031594157218933,
      -0.18496918678283691,
      -1.2213231325149536,
      0.11347341537475586,
      0.3940548896789551,
      1.0481927394866943,
      -0.06603037565946579,
      0.5470743775367737,
      -0.12130334228277206,
      1.9193358421325684,
      -0.0005211163661442697,
      0.20928581058979034,
      0.2911168038845062,
      0.5394770503044128,
      -1.3688050508499146,
      0.5605541467666626,
      1.06391179561615,
      0.19289059937000275,
      -0.7484301328659058,
      -0.9178627729415894,
      1.1636157035827637,
      -1.663258671760559,
      -0.5493704676628113,
      -0.5851635336875916,
      -0.4447011351585388,
      -1.0879772901535034,
      1.0528322458267212,
      -1.2119958400726318,
      -0.775027334690094,
      1.7538589239120483,
      -2.3182692527770996,
      2.0724940299987793,
      -5.288570880889893,
      1.806196928024292,
      0.8335870504379272,
      0.9366896152496338,
      -0.2871236503124237,
      5.598713397979736,
      -1.2212187051773071,
      -0.6822349429130554,
      0.7308861613273621,
      0.22161854803562164,
      2.1888933181762695,
      3.72147274017334,
      1.3473801612854004,
      -0.08536719530820847,
      -0.44764119386672974,
      -1.9532514810562134,
      1.2331165075302124,
      0.010021071881055832,
      -1.6458896398544312,
      -2.5488052368164062,
      0.8878085613250732,
      -3.091597080230713,
      2.0088255405426025,
      -2.8219051361083984,
      1.2311201095581055,
      -2.358947992324829,
      -2.495105266571045,
      10.86220932006836,
      0.8432992696762085,
      -1.340306043624878,
      5.12812614440918,
      2.290937662124634,
      4.534453392028809,
      -1.5401932001113892,
      -9.162084579467773,
      0.6881030797958374,
      -9.214061737060547,
      0.3000728487968445,
      -0.009168102405965328,
      -4.791318893432617,
      9.386061668395996,
      3.217886209487915,
      5.596362590789795,
      -0.8257001042366028,
      4.931255340576172,
      3.886594295501709,
      4.66290283203125,
      -8.086237907409668,
      -8.151936531066895,
      1.843248724937439,
      9.533528327941895,
      -0.748081624507904,
      3.375300168991089,
      -1.5316554307937622,
      -0.34620392322540283,
      1.7506448030471802,
      -0.3259917199611664,
      -0.6639735102653503,
      0.3939315378665924,
      1.1822079420089722,
      0.5083617568016052,
      -4.418298244476318,
      -0.41808345913887024,
      1.1055412292480469,
      2.9882352352142334,
      1.7503730058670044,
      -3.373901605606079,
      -1.9188483953475952,
      -2.237149953842163,
      1.317832350730896,
      -2.1393189430236816,
      -2.622513771057129,
      1.749176263809204,
      0.5414037108421326,
      -0.9342194199562073,
      -1.0791867971420288,
      -1.200587272644043,
      0.9344598650932312,
      0.5431419610977173,
      0.9885844588279724,
      2.3453590869903564,
      0.9883150458335876,
      -0.5826156735420227,
      0.6169705986976624,
      1.104508399963379,
      1.0746995210647583,
      -1.3504939079284668,
      1.3042510747909546,
      0.2574206292629242,
      -0.4610808491706848,
      0.6134577989578247,
      -1.6468337774276733,
      2.597752094268799,
      0.9881389141082764,
      1.6351730823516846,
      -0.24654151499271393,
      0.3524287939071655,
      1.2206549644470215,
      1.8371624946594238,
      -1.4802802801132202,
      -0.5662557482719421,
      -1.249385118484497,
      -0.6798503398895264,
      -2.2664668560028076,
      -1.2824748754501343,
      2.6767940521240234,
      2.681016206741333,
      -0.5866730809211731,
      -2.515350341796875,
      0.857876718044281,
      -0.45875024795532227,
      -1.1001067161560059,
      0.9538289904594421,
      -1.279138445854187,
      0.5083285570144653,
      -0.4439865052700043,
      0.6575158834457397,
      -0.19755613803863525,
      0.9305052161216736,
      2.141888380050659,
      3.1028711795806885,
      0.4275372624397278,
      0.9439010620117188,
      -0.5614729523658752,
      -0.11445645242929459,
      0.4590507447719574,
      -1.2729085683822632,
      -1.8343535661697388,
      0.4933735728263855,
      1.7803694009780884,
      -1.1346232891082764,
      -2.3653571605682373,
      -0.057208456099033356,
      -1.1411739587783813,
      -1.7022370100021362,
      -3.1986961364746094,
      -0.30699920654296875,
      -3.308659315109253,
      0.17533214390277863,
      0.8693138360977173,
      0.8300201296806335,
      -1.1857653856277466,
      0.48280006647109985,
      1.7719742059707642,
      4.9378228187561035,
      -3.8415727615356445,
      1.8722878694534302,
      0.39338424801826477,
      1.8952924013137817,
      0.9311538934707642,
      -1.5838921070098877,
      -2.3914144039154053,
      -0.9512814879417419,
      1.82278311252594,
      -0.7406385540962219,
      -2.1998374462127686,
      -1.078101634979248,
      2.3432605266571045,
      -2.048758029937744,
      1.6407440900802612,
      -2.9234867095947266,
      1.8572146892547607,
      -4.253528118133545,
      1.3721809387207031,
      -0.4945192039012909,
      -2.407616376876831,
      1.9191330671310425,
      0.3113935589790344,
      2.115196704864502,
      2.509946346282959,
      1.221679925918579,
      0.48190292716026306,
      1.557663917541504,
      -3.7025198936462402,
      0.7857317328453064,
      -1.4518226385116577,
      -5.30855655670166,
      0.7108645439147949,
      0.9101360440254211,
      -2.8890085220336914,
      -2.1094746589660645,
      -2.5892891883850098,
      3.0615477561950684,
      0.5484633445739746,
      -0.6957687735557556,
      3.979285717010498,
      -1.3280837535858154,
      -2.576012134552002,
      -1.8151689767837524,
      3.5303170680999756,
      3.6800460815429688,
      2.4215056896209717,
      -1.3339812755584717,
      5.71013879776001,
      -1.543199062347412,
      -0.12646391987800598,
      -5.278176784515381,
      3.340622901916504,
      -2.3225016593933105,
      0.6547982692718506,
      -3.667344808578491,
      2.992056131362915,
      0.13945768773555756,
      3.1179215908050537,
      1.9866039752960205,
      -0.3402990996837616,
      4.871758460998535,
      1.7266749143600464,
      0.5277403593063354,
      -0.3774086833000183,
      -3.918264389038086,
      0.562926173210144,
      -0.5143473744392395,
      3.73464298248291,
      -0.38461798429489136,
      -2.1689586639404297,
      -0.3282555341720581,
      1.986203670501709,
      0.9676100611686707,
      -1.126451015472412,
      4.876613616943359,
      -1.587159276008606,
      3.3718461990356445,
      3.2085273265838623,
      -1.7343952655792236,
      1.2604198455810547,
      -0.49913957715034485,
      0.928142249584198,
      1.062379240989685,
      -1.2580516338348389,
      0.45338305830955505,
      1.1187187433242798,
      1.1563199758529663,
      -1.7066679000854492,
      0.9534264802932739,
      -1.5684584379196167,
      -4.408785343170166,
      0.852749764919281,
      -3.6931047439575195,
      -0.9631235003471375,
      3.9019999504089355,
      2.880385398864746,
      -2.2250924110412598,
      -2.5703229904174805,
      -1.1675750017166138,
      1.282108187675476,
      -0.8201158046722412,
      -1.432163953781128,
      -0.3669423758983612,
      3.0111114978790283,
      -0.3777632415294647,
      1.2739061117172241,
      1.28299880027771,
      0.9569454193115234,
      -0.8351742625236511,
      1.3627322912216187,
      -1.7596784830093384,
      1.9084866046905518,
      1.4005260467529297,
      0.3325235843658447,
      1.7464262247085571,
      1.6628952026367188,
      0.18820369243621826,
      -2.172328472137451,
      -1.6340296268463135,
      2.654923439025879,
      -1.5648821592330933,
      1.4414620399475098,
      0.15632809698581696,
      -0.7254835367202759,
      1.2843128442764282,
      0.6275303363800049,
      -2.6570897102355957,
      -1.5029293298721313,
      0.09367281198501587,
      3.2079060077667236,
      -3.4853017330169678,
      -0.3074311316013336,
      -0.695731520652771,
      4.3475751876831055,
      5.2095842361450195,
      3.2577946186065674,
      6.261946201324463,
      2.3609557151794434,
      2.4487357139587402,
      2.9707581996917725,
      2.1429283618927,
      0.8307012915611267,
      1.9233564138412476,
      3.5785458087921143,
      -0.11863482743501663,
      0.32038596272468567,
      -2.1175849437713623,
      6.998005390167236,
      1.7640376091003418,
      -4.252275466918945,
      5.132565498352051,
      -0.8166272044181824,
      -6.636072635650635,
      2.5691750049591064,
      0.30320608615875244,
      -4.553291320800781,
      2.4131782054901123,
      1.4268419742584229,
      1.5707179307937622,
      -1.506730556488037,
      -1.3014963865280151,
      1.872701644897461,
      0.04082629457116127,
      -0.8096781969070435,
      0.3949734568595886,
      1.4312832355499268,
      2.015362024307251,
      -0.21795408427715302,
      0.25358131527900696,
      -0.31032243371009827,
      1.4674631357192993,
      0.3912218511104584,
      -1.6390300989151,
      -1.1423044204711914,
      0.42315778136253357,
      2.3746225833892822,
      1.6006947755813599,
      0.24005773663520813,
      -0.8678479790687561,
      1.3818193674087524,
      -1.761145830154419,
      0.5879492163658142,
      -3.792970657348633,
      -0.5778583288192749,
      -2.6206037998199463,
      2.0037734508514404,
      2.4666004180908203,
      -6.92980432510376,
      4.423183441162109,
      3.364213466644287,
      1.5034246444702148,
      -1.396652102470398,
      2.5902085304260254,
      -2.100192070007324,
      4.03908634185791,
      -1.7177761793136597,
      1.2200337648391724,
      -2.06329083442688,
      -8.342768669128418,
      1.8476637601852417,
      8.341612815856934,
      1.1859161853790283,
      -3.7245447635650635,
      0.22000448405742645,
      -5.5005388259887695,
      2.367192268371582,
      1.0395286083221436,
      5.0465006828308105,
      -7.030795574188232,
      0.29541265964508057,
      -4.229001522064209,
      8.38276195526123,
      -5.207183361053467,
      6.771028518676758,
      -2.120725631713867,
      -6.8734025955200195,
      -0.7651244401931763,
      1.049306869506836,
      0.10298091173171997,
      0.8554216623306274,
      -0.5861818790435791,
      -3.7767579555511475,
      0.572002112865448,
      4.302760124206543,
      0.37525007128715515,
      -0.11529646068811417,
      -1.7769572734832764,
      0.4625715911388397,
      0.2670397460460663,
      3.658243417739868,
      1.4813623428344727,
      4.149914741516113,
      -1.4363117218017578,
      -0.824714183807373,
      -0.7128941416740417,
      0.7850861549377441,
      -2.0508873462677,
      1.3233072757720947,
      -3.9303483963012695,
      2.4025089740753174,
      -1.835516333580017,
      -2.74288010597229,
      -3.464402437210083,
      -2.4901976585388184,
      1.1464946269989014,
      -0.7283234596252441,
      -8.085189819335938,
      -6.299442768096924,
      -0.36660975217819214,
      -1.0707075595855713,
      5.643326282501221,
      -12.656983375549316,
      9.057169914245605,
      -0.31544771790504456,
      4.157388687133789,
      8.726265907287598,
      -1.2026677131652832,
      0.4034822881221771,
      -5.78909969329834,
      0.6461359858512878,
      4.545792102813721,
      6.001537322998047,
      -2.5154364109039307,
      3.071152448654175,
      -4.143161296844482,
      5.003339767456055,
      -7.209900379180908,
      -5.063909530639648,
      -7.946220874786377,
      -0.3260268270969391,
      2.2305996417999268,
      -3.9320285320281982,
      0.7568665742874146,
      -3.92386794090271,
      2.4212749004364014,
      -1.0283780097961426,
      -1.5466703176498413,
      -2.4897966384887695,
      1.4701505899429321,
      -2.8516132831573486,
      -1.761480689048767,
      3.393733501434326,
      2.369161367416382,
      0.31827351450920105,
      1.60774827003479,
      3.2598788738250732,
      -2.0775623321533203,
      1.1129485368728638,
      8.105517387390137,
      0.7606501579284668,
      -1.1155421733856201,
      2.3731729984283447,
      -0.39646151661872864,
      0.41372349858283997,
      0.1146538108587265,
      1.6890931129455566,
      -1.8161741495132446,
      -0.1716185361146927,
      11.211588859558105,
      -11.39302921295166,
      3.3712236881256104,
      4.441433906555176,
      1.0242857933044434,
      -6.782077312469482,
      1.1301701068878174,
      -3.199866533279419,
      -3.6331193447113037,
      -1.9149878025054932,
      5.400885105133057,
      -3.0305628776550293,
      -4.117769718170166,
      -5.469904899597168,
      -8.831629753112793,
      3.6713764667510986,
      2.8585734367370605,
      -7.0898118019104,
      8.751501083374023,
      2.950301170349121,
      -4.005154609680176,
      7.581444263458252,
      -0.5261245965957642,
      -10.445679664611816,
      -2.2022688388824463,
      7.5712080001831055,
      6.897975921630859,
      3.707653522491455,
      0.0278644897043705,
      -1.7214906215667725,
      0.2921990156173706,
      0.4864650368690491,
      2.498556613922119,
      -3.7173163890838623,
      -0.6671178936958313,
      0.98330157995224,
      0.7578518390655518,
      -3.4494001865386963,
      1.7302017211914062,
      0.49142879247665405,
      1.3157175779342651,
      -1.7671483755111694,
      -1.1068837642669678,
      5.659084320068359,
      1.6724820137023926,
      1.8020720481872559,
      8.832512855529785,
      -4.044921398162842,
      -3.141310453414917,
      0.9104395508766174,
      -1.837922215461731,
      0.31798893213272095,
      -0.8009138703346252,
      -1.8312389850616455,
      1.152362585067749,
      -1.5225858688354492,
      0.5435450077056885,
      2.267359972000122,
      1.520210862159729,
      3.3019802570343018,
      2.507477283477783,
      0.4426361620426178,
      1.3217694759368896,
      -1.4137837886810303,
      3.189364433288574,
      -3.6996586322784424,
      4.528628826141357,
      -3.24991512298584,
      0.504386842250824,
      3.2796645164489746,
      -1.501686930656433,
      2.7460670471191406,
      0.09279587864875793,
      -5.263357162475586,
      2.7532198429107666,
      -2.0481042861938477,
      2.321986675262451,
      1.9828205108642578,
      -5.20945930480957,
      4.552396297454834,
      1.6894139051437378,
      -5.406990051269531,
      0.5953980088233948,
      4.026182651519775,
      -0.0017191357910633087,
      0.010015458799898624,
      0.004357511643320322,
      0.0005348931881599128,
      -0.005008968990296125,
      0.0019328957423567772,
      -0.001477348618209362,
      0.0014305532677099109,
      0.00995238870382309,
      -0.004466596525162458,
      0.0031977719627320766,
      0.00008254552085418254,
      0.004859212785959244,
      -0.010762552730739117,
      0.0090830959379673,
      0.01049539539963007,
      -0.005249423906207085,
      0.00544823007658124,
      0.0055757188238203526,
      0.004527193494141102,
      0.0003522039914969355,
      -0.002510674763470888,
      0.002144136466085911,
      -0.008953244425356388,
      0.005901050753891468,
      0.0009142943890765309,
      -0.0076803890988230705,
      0.0097645353525877
    ]
  },
  "hiddenLayers": [
    {
      "inputMatrix": {
        "rows": 20,
        "columns": 28,
        "weights": [
          0.15098713338375092,
          0.14688555896282196,
          0.1229020357131958,
          0.2803806662559509,
          0.44955092668533325,
          0.10833527892827988,
          -0.5590006113052368,
          -0.20624612271785736,
          -0.0528278686106205,
          -0.023618293926119804,
          0.009937994182109833,
          0.24652794003486633,
          0.5065056681632996,
          0.06347621977329254,
          -0.17141884565353394,
          -0.3622366189956665,
          -0.383058100938797,
          0.7353220582008362,
          0.27104997634887695,
          -0.26918232440948486,
          0.18388748168945312,
          -0.1515953242778778,
          0.13608647882938385,
          -0.10401342809200287,
          -0.17901328206062317,
          -0.12352347373962402,
          -0.22786103188991547,
          -0.27428939938545227,
          -0.11896593868732452,
          -0.16400833427906036,
          -0.25421616435050964,
          0.13062067329883575,
          -0.11745890974998474,
          0.2125120460987091,
          -0.13518358767032623,
          0.17904187738895416,
          -0.10177001357078552,
          0.07776813209056854,
          -0.1387442946434021,
          -0.2206924557685852,
          -0.024071764200925827,
          -0.11001048237085342,
          -0.0014303302159532905,
          0.0029815188609063625,
          0.2579272985458374,
          0.024896956980228424,
          0.2362651526927948,
          0.03324970602989197,
          -0.06285540759563446,
          -0.1062484160065651,
          -0.09375658631324768,
          0.26954081654548645,
          0.0642649456858635,
          -0.21354460716247559,
          -0.03702041506767273,
          0.2541896402835846,
          0.03238002583384514,
          0.5158501267433167,
          -0.149755597114563,
          0.16847538948059082,
          -0.25420987606048584,
          0.08780775964260101,
          0.12421249598264694,
          0.28743723034858704,
          0.018292205408215523,
          -0.34381160140037537,
          0.4653927683830261,
          0.34505102038383484,
          0.10912693291902542,
          -0.3445805311203003,
          -0.07691602408885956,
          -0.03349383547902107,
          0.2361421287059784,
          0.28859278559684753,
          -0.004102836363017559,
          0.05213414877653122,
          -0.25686347484588623,
          -0.1712774634361267,
          -0.05091241002082825,
          -0.4364453852176666,
          -0.37961462140083313,
          0.0415944941341877,
          0.39774495363235474,
          -0.12825563549995422,
          0.03845157474279404,
          -0.1041562631726265,
          -0.5081382989883423,
          -0.06694932281970978,
          -0.2241198569536209,
          0.24453964829444885,
          0.2024652063846588,
          0.19479618966579437,
          0.1173485592007637,
          -0.36059120297431946,
          -0.005979815032333136,
          0.9216415882110596,
          -0.10073244571685791,
          -0.27599000930786133,
          0.12696091830730438,
          0.4413747489452362,
          -0.04219191148877144,
          -0.10525602847337723,
          0.14631061255931854,
          0.2106887847185135,
          0.39319199323654175,
          0.12542670965194702,
          0.220846027135849,
          0.10636649280786514,
          0.0887468233704567,
          0.1057446151971817,
          -0.11004593223333359,
          0.49788159132003784,
          0.21121735870838165,
          0.42987483739852905,
          -0.049355316907167435,
          0.3853941261768341,
          -0.05506687983870506,
          0.11765564233064651,
          0.15840068459510803,
          0.08808120340108871,
          0.5203933715820312,
          -0.4241017997264862,
          -0.06416106224060059,
          0.0505027212202549,
          -0.06811752915382385,
          -0.337985634803772,
          -0.20481033623218536,
          0.22227518260478973,
          -0.14681677520275116,
          -0.10142906755208969,
          0.11969875544309616,
          0.549186110496521,
          -0.2769794464111328,
          -0.05657540261745453,
          -0.645534098148346,
          0.18679960072040558,
          0.07850880920886993,
          -0.45016002655029297,
          -0.04306090250611305,
          -0.05050955340266228,
          0.20221813023090363,
          -0.19656254351139069,
          -0.5223485231399536,
          0.22155681252479553,
          0.21566890180110931,
          0.02826075255870819,
          0.04892228543758392,
          0.0022015844006091356,
          -0.11501353979110718,
          -0.15475571155548096,
          -0.21001721918582916,
          0.15526852011680603,
          -0.034030891954898834,
          0.30118972063064575,
          -0.029690483585000038,
          0.05080295354127884,
          -0.011636045761406422,
          -0.07578890025615692,
          -0.0834936872124672,
          0.27886441349983215,
          -0.014447559602558613,
          0.20914801955223083,
          -0.5391582250595093,
          0.2171352356672287,
          0.13755013048648834,
          -0.2877886891365051,
          -0.21641314029693604,
          -0.11654827743768692,
          0.09089379757642746,
          -0.15040373802185059,
          -0.1037471815943718,
          0.24792850017547607,
          -0.23746059834957123,
          0.1300586760044098,
          -0.06572871655225754,
          -0.1873856484889984,
          -0.20724138617515564,
          0.0789346843957901,
          0.31753599643707275,
          -0.020949741825461388,
          -0.14015011489391327,
          0.7010871171951294,
          0.09578408300876617,
          -0.11215702444314957,
          -0.17305301129817963,
          -0.22760024666786194,
          0.07626019418239594,
          -0.016371188685297966,
          -0.31524306535720825,
          -0.33830246329307556,
          -0.12026336044073105,
          0.04736319184303284,
          0.5532805919647217,
          0.00012292573228478432,
          0.16862285137176514,
          -0.6908871531486511,
          -0.1393042504787445,
          0.0254433061927557,
          -0.11305899173021317,
          -0.3313705027103424,
          0.04869147762656212,
          -0.16072680056095123,
          0.16177143156528473,
          -0.05930425599217415,
          0.23382237553596497,
          -0.020368244498968124,
          0.24043583869934082,
          0.30282431840896606,
          -0.07049201428890228,
          -0.619059145450592,
          0.1910293996334076,
          0.06635026633739471,
          -0.258880615234375,
          0.26348990201950073,
          0.07401977479457855,
          0.22092945873737335,
          0.06429417431354523,
          -0.032041627913713455,
          -0.380965918302536,
          -0.10902521014213562,
          -0.5340937376022339,
          -0.43539202213287354,
          -0.19251428544521332,
          0.06620318442583084,
          -0.24402189254760742,
          0.29117366671562195,
          -0.04531403258442879,
          -0.09836193919181824,
          -0.03594338521361351,
          -0.24661606550216675,
          0.31031638383865356,
          0.02782752551138401,
          -0.2146645039319992,
          0.10306621342897415,
          0.255896657705307,
          -0.3083554804325104,
          -0.10683497041463852,
          0.11691956222057343,
          0.24915537238121033,
          -0.13131631910800934,
          0.16134582459926605,
          -0.016758354380726814,
          -0.21988870203495026,
          -0.0522165447473526,
          -0.2458869218826294,
          0.03648534044623375,
          0.34599873423576355,
          -0.4038003087043762,
          0.15294237434864044,
          -0.10915875434875488,
          -0.3266623020172119,
          0.09871732443571091,
          -0.08639561384916306,
          -0.34081903100013733,
          -0.24824802577495575,
          0.2162478268146515,
          0.14155668020248413,
          0.4817659556865692,
          0.09086199104785919,
          -0.25375688076019287,
          0.06648336350917816,
          -0.22936947643756866,
          0.056385066360235214,
          0.4060171842575073,
          0.31073349714279175,
          -0.03494724631309509,
          0.04674847796559334,
          -0.06519843637943268,
          -0.2430124431848526,
          -0.03535270690917969,
          -0.1718609780073166,
          0.23793944716453552,
          0.2518046498298645,
          0.4121238589286804,
          -0.16260768473148346,
          0.5304485559463501,
          -0.19605740904808044,
          0.13674412667751312,
          -0.0720025971531868,
          0.01730356365442276,
          -0.38094329833984375,
          -0.053452055901288986,
          0.22845543920993805,
          0.9879988431930542,
          0.0863816887140274,
          0.1281951665878296,
          -0.34616512060165405,
          0.5151070356369019,
          0.27389585971832275,
          -0.47901710867881775,
          0.5324161648750305,
          -0.6034845113754272,
          0.11075752973556519,
          0.8124622702598572,
          0.05778778716921806,
          -0.27457690238952637,
          -0.06849798560142517,
          -0.0930170938372612,
          0.026613254100084305,
          0.8132660984992981,
          0.10577712208032608,
          -0.2710309624671936,
          -0.6190019845962524,
          0.5292708277702332,
          0.06601212173700333,
          -0.2589993178844452,
          -0.08306267857551575,
          -0.21444110572338104,
          0.14877301454544067,
          0.030582299456000328,
          0.10782600194215775,
          0.18579067289829254,
          0.17501680552959442,
          -0.10183531790971756,
          -0.14449991285800934,
          -0.2807858884334564,
          -0.0528133362531662,
          -0.20322299003601074,
          0.27331334352493286,
          0.395883709192276,
          0.03403552994132042,
          0.044255685061216354,
          0.0613289549946785,
          -0.1363273710012436,
          -0.4496074318885803,
          -0.2781573235988617,
          0.25597769021987915,
          -0.29303932189941406,
          0.09636129438877106,
          0.0015106883365660906,
          -0.027773281559348106,
          -0.26552310585975647,
          -0.2292739897966385,
          -0.22332315146923065,
          0.02388687990605831,
          -0.17125405371189117,
          0.2131102979183197,
          -0.23318013548851013,
          0.2068389356136322,
          0.42227986454963684,
          0.13570299744606018,
          -0.43690958619117737,
          -0.3567447364330292,
          0.07050933688879013,
          0.055280204862356186,
          0.2165537327528,
          0.8274285197257996,
          -0.30778491497039795,
          0.03380665183067322,
          0.14025698602199554,
          0.03207281976938248,
          0.4401242733001709,
          -0.035797324031591415,
          -0.2256052941083908,
          -0.04407142847776413,
          0.12305726110935211,
          0.054369088262319565,
          -0.10806301236152649,
          0.0904771089553833,
          -0.060229428112506866,
          -0.18480323255062103,
          -0.32596468925476074,
          0.3844655752182007,
          0.053063858300447464,
          0.012589000165462494,
          0.0017836348852142692,
          -0.7116528153419495,
          -0.05695132538676262,
          -0.08869851380586624,
          -0.26117026805877686,
          0.21545520424842834,
          0.10162573307752609,
          0.14075994491577148,
          -0.10185520350933075,
          0.33209487795829773,
          0.3886413872241974,
          0.10780493915081024,
          0.3467486500740051,
          0.28292667865753174,
          0.34838053584098816,
          -0.7195591330528259,
          0.03682684898376465,
          -0.10508448630571365,
          0.0273874681442976,
          -0.03352934494614601,
          0.12092217057943344,
          0.07041390240192413,
          -0.22444866597652435,
          0.07251930236816406,
          0.1962285339832306,
          0.4642223119735718,
          -0.28592705726623535,
          -0.3410530090332031,
          -0.09111351519823074,
          -0.28091973066329956,
          -0.2744565010070801,
          -0.21846763789653778,
          0.060194071382284164,
          -0.19552169740200043,
          -0.04441554471850395,
          0.4900071918964386,
          0.22600187361240387,
          0.15587764978408813,
          0.003086335025727749,
          0.032050132751464844,
          0.10653902590274811,
          0.028340721502900124,
          0.19674664735794067,
          0.09078037738800049,
          -0.5177979469299316,
          0.13914430141448975,
          0.5267763733863831,
          0.25880658626556396,
          0.501585841178894,
          0.08977443724870682,
          -0.03319034352898598,
          0.07981375604867935,
          0.2198028266429901,
          -0.223393052816391,
          -0.21670478582382202,
          0.05554420128464699,
          -0.2685278058052063,
          -0.2786550521850586,
          0.06097731366753578,
          -0.20470692217350006,
          -0.03034917265176773,
          0.03258441016077995,
          -0.11926990747451782,
          -0.06452479213476181,
          -0.21508947014808655,
          0.4048667550086975,
          0.13851815462112427,
          0.18498779833316803,
          -0.33939775824546814,
          -0.13835850358009338,
          -0.1433054506778717,
          -0.07976821810007095,
          -0.4900028705596924,
          0.051242437213659286,
          0.3367007076740265,
          -0.06599973142147064,
          -0.3244778513908386,
          -0.2366139441728592,
          0.16014553606510162,
          -0.10875880718231201,
          -0.36323800683021545,
          -0.20693951845169067,
          -0.05304039269685745,
          0.1970483362674713,
          0.34458523988723755,
          0.04641402140259743,
          -0.17706599831581116,
          -0.1217641681432724,
          0.014372951351106167,
          -0.04844627156853676,
          0.039374250918626785,
          -0.028622379526495934,
          0.06182694435119629,
          0.6919653415679932,
          -0.06099351495504379,
          0.551534116268158,
          0.24494627118110657,
          0.23824353516101837,
          0.040999095886945724,
          -0.003201339626684785,
          -0.3214391767978668,
          0.06803099066019058,
          0.04902036860585213,
          0.04732343554496765,
          0.03922450914978981,
          -0.11499085277318954,
          -0.14413373172283173,
          0.2266034632921219,
          0.3781508207321167,
          -0.0660790205001831,
          -0.19741655886173248,
          0.2958138883113861,
          0.2205236703157425,
          -0.4092770516872406,
          0.0849313884973526,
          0.32947951555252075,
          0.043567854911088943,
          -0.054840102791786194,
          0.17940114438533783,
          0.005751497577875853,
          -0.12533332407474518,
          -0.039578329771757126,
          0.0863429605960846,
          -0.30456897616386414,
          -0.16647887229919434,
          -0.007838893681764603,
          0.4852951765060425,
          -0.07511795312166214,
          0.307541161775589,
          -0.12355303764343262,
          -0.030806558206677437,
          0.11120868474245071,
          -0.31670618057250977,
          0.11568240821361542,
          -0.5078531503677368,
          0.04658428952097893,
          -0.0640266090631485,
          0.10432370007038116,
          0.23517853021621704,
          -0.042459823191165924,
          -0.27763423323631287,
          -0.20353063941001892,
          -0.11504991352558136,
          0.11798985302448273,
          -0.03194538876414299,
          -0.21706147491931915,
          -0.2593117356300354,
          0.28055140376091003,
          -0.11691892147064209,
          0.08389365673065186,
          -0.45569512248039246,
          0.31416258215904236,
          0.44643697142601013,
          0.23334330320358276,
          0.06414511799812317,
          0.19250579178333282,
          -0.24134039878845215,
          -0.29744672775268555,
          0.08646881580352783,
          0.17078189551830292,
          0.22986765205860138,
          -0.036358755081892014,
          0.31884926557540894,
          0.20805130898952484,
          0.3722776770591736,
          0.13227902352809906,
          -0.13470113277435303,
          -0.2664657235145569,
          0.07318632304668427,
          0.026789460331201553,
          -0.10817041248083115,
          0.013284743763506413,
          -0.3474685549736023,
          -0.16393430531024933,
          -0.006249864585697651,
          -0.19642013311386108,
          -0.22072522342205048,
          0.15107512474060059,
          -0.12558098137378693,
          -0.05657603219151497,
          -0.034966789186000824,
          0.4515695869922638,
          0.07111650705337524,
          0.5056818127632141,
          0.20041599869728088,
          -0.12207797169685364,
          -0.16033527255058289,
          0.00591280497610569,
          -0.07088779658079147,
          0.03715042397379875,
          -0.0160971786826849,
          0.02946152351796627,
          0.16229498386383057,
          0.07718243449926376,
          0.11051809787750244
        ]
      },
      "inputHidden": {
        "rows": 20,
        "columns": 20,
        "weights": [
          0.49441733956336975,
          -0.6317974925041199,
          -0.7978070378303528,
          0.20055575668811798,
          -0.9218147993087769,
          0.3362041711807251,
          0.4179837107658386,
          -0.6717075109481812,
          0.10038131475448608,
          0.646111249923706,
          0.29205048084259033,
          -1.1332018375396729,
          0.3865910768508911,
          -0.14734593033790588,
          0.018170157447457314,
          -0.663508951663971,
          0.20911692082881927,
          -0.8122192025184631,
          0.11699525266885757,
          0.59748774766922,
          -0.8213948011398315,
          0.19858133792877197,
          -0.5930989980697632,
          -0.5067802667617798,
          -0.2171516865491867,
          1.300698161125183,
          0.5436593890190125,
          -0.3798578977584839,
          1.0102038383483887,
          -0.7495893239974976,
          0.4349476099014282,
          0.5758824944496155,
          1.3790457248687744,
          -0.11278589814901352,
          0.35379090905189514,
          -0.42650386691093445,
          0.37454742193222046,
          -0.6144272089004517,
          -0.018243687227368355,
          0.46781307458877563,
          -0.34545260667800903,
          0.42397749423980713,
          -0.9494248032569885,
          0.4377882778644562,
          -0.41070449352264404,
          -0.6241217255592346,
          0.014147091656923294,
          0.4546772837638855,
          0.4896842837333679,
          -0.21054241061210632,
          -0.23811830580234528,
          0.5208999514579773,
          0.9386857748031616,
          -0.48440441489219666,
          -0.3038378953933716,
          0.03248514607548714,
          0.5800055861473083,
          0.40536776185035706,
          0.534063994884491,
          0.40678149461746216,
          0.3841761648654938,
          0.3756738603115082,
          -0.5214182734489441,
          -0.8072748184204102,
          -0.15574972331523895,
          0.5627783536911011,
          0.9464046359062195,
          -0.5688040256500244,
          -0.6462884545326233,
          -0.8570318222045898,
          0.23041807115077972,
          -0.3121770918369293,
          0.6954980492591858,
          0.15459300577640533,
          -0.015637975186109543,
          -0.22378009557724,
          0.5067079067230225,
          0.7538402080535889,
          0.24632498621940613,
          0.012087362818419933,
          0.8510274887084961,
          -0.9427947998046875,
          -0.8930226564407349,
          -0.04811127483844757,
          -1.2584949731826782,
          0.29878517985343933,
          -0.2269754260778427,
          0.679436206817627,
          0.3290630280971527,
          0.9256971478462219,
          0.37113437056541443,
          -0.6941566467285156,
          0.2828313410282135,
          -0.8899591565132141,
          -0.8100360631942749,
          -0.09759227186441422,
          0.3257672190666199,
          -1.080716848373413,
          0.39963260293006897,
          0.5835874080657959,
          -0.2816373109817505,
          0.5734781622886658,
          -1.0983638763427734,
          -0.3853760063648224,
          0.4324144423007965,
          0.30474379658699036,
          1.1203707456588745,
          0.0258327703922987,
          0.366179883480072,
          -1.0675400495529175,
          -0.5128926634788513,
          -0.6133867502212524,
          0.9204967021942139,
          -0.08331231027841568,
          -0.599831759929657,
          -0.11316200345754623,
          0.452242910861969,
          0.12484340369701385,
          0.2981249988079071,
          0.8279529213905334,
          1.0936733484268188,
          0.6538572311401367,
          -1.033008337020874,
          0.20247672498226166,
          0.11284522712230682,
          0.1772754043340683,
          0.17326977849006653,
          -0.4240223169326782,
          -0.1839321106672287,
          -0.9387078285217285,
          -0.6765930652618408,
          -0.976500391960144,
          0.011489578522741795,
          0.3453257977962494,
          -0.4665848910808563,
          -0.46991902589797974,
          -0.3798275887966156,
          0.21091876924037933,
          0.5289942026138306,
          -0.007181029301136732,
          -0.46909216046333313,
          0.06160476803779602,
          -0.10649537295103073,
          0.37624046206474304,
          -0.09445280581712723,
          0.14470714330673218,
          -0.11964795738458633,
          0.03293416649103165,
          0.18445861339569092,
          1.056962251663208,
          -0.18883924186229706,
          -0.1507435441017151,
          0.5195949673652649,
          -0.5920818448066711,
          -0.5224284529685974,
          -0.10947058349847794,
          0.35515785217285156,
          0.22864241898059845,
          1.0006648302078247,
          0.48823022842407227,
          0.11546003818511963,
          0.27779677510261536,
          -0.16188937425613403,
          -0.30372515320777893,
          0.11518552899360657,
          0.16235025227069855,
          -0.25139275193214417,
          -0.6797454953193665,
          -0.5415529608726501,
          0.16030514240264893,
          -0.3845726549625397,
          -0.4787807762622833,
          -0.1386389434337616,
          -0.32167840003967285,
          -0.5869888067245483,
          -0.5932354927062988,
          -0.4493892192840576,
          0.19651615619659424,
          -0.28967174887657166,
          0.24834522604942322,
          -2.292283296585083,
          0.03071019798517227,
          -0.6381345987319946,
          -0.1842924803495407,
          -0.8513498306274414,
          1.0717905759811401,
          0.16069385409355164,
          -0.04024956375360489,
          0.1213199645280838,
          0.06993962824344635,
          -0.06392382830381393,
          0.08886370807886124,
          -0.01674961857497692,
          0.11684296280145645,
          -0.7544913291931152,
          -0.29158133268356323,
          0.0284433513879776,
          -1.5873935222625732,
          -0.3744109570980072,
          -0.2622356414794922,
          -0.5246750116348267,
          0.8531694412231445,
          -0.1429728865623474,
          -0.9737205505371094,
          -1.4755913019180298,
          1.1449767351150513,
          -0.15262411534786224,
          -1.168270468711853,
          -0.34975752234458923,
          -0.45508939027786255,
          -0.460969477891922,
          0.10646848380565643,
          0.38792848587036133,
          -0.3411082327365875,
          -0.7499253153800964,
          -0.15410703420639038,
          0.7600200772285461,
          -0.3661492168903351,
          0.08930898457765579,
          0.09398943185806274,
          -0.22539514303207397,
          1.2842384576797485,
          -0.7124223709106445,
          0.5945929288864136,
          -0.6039772033691406,
          0.3404691219329834,
          0.10654057562351227,
          -0.15499569475650787,
          0.08141686022281647,
          0.14418697357177734,
          0.2756255567073822,
          -1.4123414754867554,
          0.5035864114761353,
          -0.3674503266811371,
          -0.5667263269424438,
          0.026143403723835945,
          0.7829208374023438,
          -0.05116420239210129,
          0.8065667748451233,
          0.37708863615989685,
          0.42304500937461853,
          0.2705133259296417,
          -0.19775480031967163,
          0.04132244735956192,
          -0.26775336265563965,
          0.1568133383989334,
          0.5818230509757996,
          0.4359261989593506,
          0.25412800908088684,
          0.06071093678474426,
          -0.3406375050544739,
          -0.26454147696495056,
          0.5068298578262329,
          0.1172923743724823,
          0.12208343297243118,
          -0.3960641920566559,
          -0.25337129831314087,
          0.10842464864253998,
          0.3680552542209625,
          0.2881169617176056,
          1.9913530349731445,
          0.45549795031547546,
          -0.5346320271492004,
          -0.3301919400691986,
          -0.2624668776988983,
          0.3080498278141022,
          -1.376893401145935,
          -0.12103419005870819,
          -0.1930912733078003,
          -0.8478621244430542,
          -0.4486512243747711,
          -2.0531070232391357,
          1.220048189163208,
          -0.33239614963531494,
          -0.5200836658477783,
          -0.4984123110771179,
          -0.4118732810020447,
          0.9646667838096619,
          0.2057378888130188,
          0.015390587039291859,
          -1.5846630334854126,
          0.14170192182064056,
          -0.14095011353492737,
          -0.14030730724334717,
          0.23643390834331512,
          0.3307800590991974,
          0.4074454605579376,
          -1.0031524896621704,
          0.33561834692955017,
          -1.8658051490783691,
          -0.27475130558013916,
          -0.6669777631759644,
          0.6132414937019348,
          -0.37363573908805847,
          -0.11887601763010025,
          0.13534605503082275,
          -0.7311183214187622,
          0.028592513874173164,
          -0.09147332608699799,
          -0.665046215057373,
          -0.606094241142273,
          0.024672869592905045,
          -0.38200995326042175,
          -0.6914555430412292,
          0.07954835891723633,
          0.0839989185333252,
          1.062379240989685,
          -1.394026279449463,
          1.1581999063491821,
          0.17413800954818726,
          -0.6092630624771118,
          -0.4140424430370331,
          1.1880134344100952,
          -0.3624700605869293,
          -0.4139381945133209,
          -0.2662314176559448,
          0.7628075480461121,
          -1.055530071258545,
          -0.4801286458969116,
          0.6141233444213867,
          0.12066922336816788,
          0.6606645584106445,
          -1.5443928241729736,
          0.3274194300174713,
          -0.6224592924118042,
          -0.32313594222068787,
          0.9712249040603638,
          0.061585232615470886,
          -0.02592754364013672,
          1.0467647314071655,
          -0.554176926612854,
          -1.737133502960205,
          0.05179760232567787,
          0.7549979090690613,
          0.16679875552654266,
          -0.7778509259223938,
          -0.09106462448835373,
          0.07585974037647247,
          -0.10642487555742264,
          0.3782865107059479,
          0.27957096695899963,
          -0.012872487306594849,
          -0.39606568217277527,
          0.2751617729663849,
          -0.2371746152639389,
          0.5160790681838989,
          0.5372281670570374,
          0.10017824172973633,
          0.2576066255569458,
          0.8816262483596802,
          -0.15544715523719788,
          -1.2105295658111572,
          -0.07430894672870636,
          0.23174388706684113,
          -1.2086405754089355,
          0.5425888299942017,
          -0.6151664853096008,
          0.23493358492851257,
          0.18336735665798187,
          0.4854046106338501,
          0.30911993980407715,
          -0.6983277201652527,
          -0.6895359754562378,
          -0.8701856136322021,
          -0.35853901505470276,
          -0.2843192219734192,
          0.9409667253494263,
          -0.028765639290213585,
          0.6493579149246216,
          0.23073376715183258,
          -0.9996929168701172,
          -0.10743051767349243,
          -0.3875230550765991,
          -0.35112372040748596,
          0.0799805223941803,
          -0.7030652761459351,
          1.6344510316848755,
          -1.0164120197296143,
          0.22648851573467255,
          -0.2858125567436218,
          -1.1864674091339111,
          -0.2389070689678192,
          -0.7280008792877197,
          -0.4179023802280426,
          -0.1661657840013504,
          0.040730930864810944,
          -0.22346220910549164,
          0.04213244840502739,
          1.133737325668335,
          0.44936656951904297,
          -0.9134408235549927,
          -0.5348117351531982,
          0.7054519057273865,
          -0.33047181367874146,
          0.03400319814682007,
          1.0088834762573242,
          0.6467071175575256,
          -0.2993738353252411,
          -0.3624095022678375,
          0.06812442094087601
        ]
      },
      "inputBias": {
        "rows": 20,
        "columns": 1,
        "weights": [
          -0.10492216795682907,
          0.639165997505188,
          -0.11980149894952774,
          0.30198022723197937,
          0.051515087485313416,
          -0.0829591229557991,
          1.2282768487930298,
          0.47939541935920715,
          1.3236923217773438,
          0.3048594892024994,
          1.1931332349777222,
          0.11849464476108551,
          0.932054340839386,
          0.2165611982345581,
          0.7114176154136658,
          0.4954736828804016,
          0.7038680911064148,
          -0.048209354281425476,
          0.8281388878822327,
          0.9719234704971313
        ]
      },
      "forgetMatrix": {
        "rows": 20,
        "columns": 28,
        "weights": [
          0.2757914066314697,
          -0.09419102221727371,
          -0.05452153459191322,
          0.12763899564743042,
          0.3455244302749634,
          -0.078484907746315,
          -0.8099031448364258,
          0.2946694493293762,
          -0.45060402154922485,
          0.37317028641700745,
          -0.07719624042510986,
          -0.30089840292930603,
          0.1324271708726883,
          0.33761200308799744,
          -0.07143985480070114,
          0.12284763902425766,
          0.10055713355541229,
          -0.1831805258989334,
          -0.3941143751144409,
          0.05177910625934601,
          -0.17682164907455444,
          -0.07894032448530197,
          0.26513227820396423,
          -0.21812179684638977,
          0.23525802791118622,
          0.2898867428302765,
          0.042127642780542374,
          0.0861358791589737,
          -0.017266009002923965,
          -0.45711538195610046,
          0.03102700226008892,
          -0.1393977403640747,
          -0.2543124258518219,
          0.0068395123817026615,
          -0.07116074860095978,
          0.09436284750699997,
          -0.04325290396809578,
          0.029647409915924072,
          0.19371992349624634,
          -0.04806568846106529,
          -0.23515401780605316,
          -0.20931270718574524,
          -0.21041494607925415,
          0.09509976953268051,
          0.3326767683029175,
          0.1710253804922104,
          -0.1914660781621933,
          -0.03570298105478287,
          0.19700102508068085,
          0.06658626347780228,
          -0.11975482106208801,
          -0.20094887912273407,
          0.07486943155527115,
          0.29296907782554626,
          0.22611042857170105,
          0.3681940734386444,
          0.1803169995546341,
          -0.24625816941261292,
          0.24893730878829956,
          -0.09711519628763199,
          0.22067034244537354,
          0.3082940876483917,
          -0.2465871423482895,
          -0.06939728558063507,
          0.008438131771981716,
          -0.42438045144081116,
          -0.004163649864494801,
          0.07074898481369019,
          -0.1360633671283722,
          0.06358946114778519,
          -0.12982456386089325,
          0.20590725541114807,
          0.3971523940563202,
          -0.16010285913944244,
          -0.04670436680316925,
          0.1329348236322403,
          0.5601178407669067,
          0.24339981377124786,
          -0.11067075282335281,
          -0.007894563488662243,
          0.15268665552139282,
          -0.43340837955474854,
          0.22114017605781555,
          0.09309135377407074,
          -0.0019650799222290516,
          0.24177463352680206,
          0.7329581379890442,
          0.15109360218048096,
          -0.1796945333480835,
          0.5438672304153442,
          0.04518026486039162,
          -0.08148585259914398,
          0.10052288323640823,
          0.005209780763834715,
          -0.17203636467456818,
          -0.7187402844429016,
          0.15236994624137878,
          -0.05033612251281738,
          0.36418405175209045,
          -0.13975025713443756,
          0.5854784846305847,
          0.12476205825805664,
          0.29376161098480225,
          0.4330276548862457,
          0.370432049036026,
          0.19340088963508606,
          -0.31670886278152466,
          0.3036283850669861,
          -0.1672825813293457,
          -0.1474510133266449,
          0.12961547076702118,
          -0.13096073269844055,
          0.1742406040430069,
          -0.12128289043903351,
          0.11207777261734009,
          0.030393365770578384,
          0.2852412760257721,
          -0.06760703027248383,
          0.15451647341251373,
          0.31514811515808105,
          -0.12616418302059174,
          -0.1372767984867096,
          0.2374933958053589,
          -0.15025392174720764,
          -0.46209317445755005,
          0.19284440577030182,
          -0.2267943173646927,
          0.08312200754880905,
          -0.17260579764842987,
          -0.04808635637164116,
          0.011005833745002747,
          0.06404757499694824,
          -0.2644256353378296,
          0.2427053302526474,
          -0.6726434230804443,
          0.41466155648231506,
          0.18880818784236908,
          0.06654226034879684,
          0.060170937329530716,
          -0.2816726863384247,
          -0.13757985830307007,
          -0.04140375554561615,
          -0.2509169280529022,
          -0.1267559677362442,
          0.3404584228992462,
          -0.512955904006958,
          -0.06503625214099884,
          -0.3563585579395294,
          0.16881361603736877,
          0.1711275428533554,
          0.6268997192382812,
          -0.11930444836616516,
          -0.1025533378124237,
          0.515021026134491,
          -0.26758578419685364,
          -0.24301627278327942,
          -0.33281973004341125,
          -0.44943568110466003,
          -0.25745853781700134,
          -0.3120984435081482,
          0.32244378328323364,
          -0.2776176631450653,
          0.6546140909194946,
          -0.22446827590465546,
          0.2971799373626709,
          -0.26899453997612,
          -0.1730959415435791,
          0.03479434549808502,
          0.06002820283174515,
          0.10942996293306351,
          0.09043343365192413,
          -0.1897771656513214,
          0.07304567098617554,
          -0.1224648579955101,
          -0.49496570229530334,
          0.3367263376712799,
          -0.13146845996379852,
          0.15570546686649323,
          0.04384094849228859,
          0.36573243141174316,
          -0.24210579693317413,
          -0.45136111974716187,
          -0.09443362802267075,
          0.5100431442260742,
          -0.04872622713446617,
          0.43218088150024414,
          0.3743826150894165,
          0.05499539524316788,
          0.6060560941696167,
          0.13946925103664398,
          0.033379919826984406,
          -0.42576634883880615,
          -0.2041165828704834,
          -0.04418819025158882,
          0.3476954996585846,
          0.5158807039260864,
          -0.19239656627178192,
          -0.1262955218553543,
          -0.48099303245544434,
          -0.038646891713142395,
          -0.3248104751110077,
          0.33572810888290405,
          0.3705979585647583,
          -0.42172113060951233,
          0.3874710500240326,
          -0.008240758441388607,
          0.25076764822006226,
          -0.379136323928833,
          0.04245312511920929,
          -0.24728848040103912,
          0.5705111622810364,
          0.14773988723754883,
          0.07325104624032974,
          0.050067219883203506,
          0.04951717332005501,
          -0.3084472715854645,
          0.24014003574848175,
          -0.13700880110263824,
          0.6937122941017151,
          -0.12850028276443481,
          0.4784442186355591,
          -0.3969283401966095,
          -0.10118875652551651,
          0.2334827482700348,
          0.19693835079669952,
          -0.23776568472385406,
          0.26894211769104004,
          0.175245463848114,
          0.19009943306446075,
          -0.344192773103714,
          -0.6274438500404358,
          0.36997610330581665,
          0.6747284531593323,
          0.13571710884571075,
          0.05386491119861603,
          -0.13023939728736877,
          0.021810397505760193,
          0.858428418636322,
          -0.2520049810409546,
          0.2503029406070709,
          0.20579750835895538,
          0.11358149349689484,
          0.02013254724442959,
          -0.16895578801631927,
          -0.04250682145357132,
          -0.0802118331193924,
          0.3793054521083832,
          -0.19672058522701263,
          0.2159223109483719,
          0.038173798471689224,
          0.1267492026090622,
          -0.09415619820356369,
          -0.235502228140831,
          0.0589764378964901,
          -0.32716649770736694,
          -0.5804188251495361,
          -0.11395268887281418,
          0.24147354066371918,
          0.10719266533851624,
          0.16019634902477264,
          0.14810115098953247,
          -0.36103299260139465,
          0.06800198554992676,
          0.35918113589286804,
          -0.24735912680625916,
          -0.19159264862537384,
          -0.043942615389823914,
          -0.08703088015317917,
          -0.5327274799346924,
          -0.430059552192688,
          0.5766682028770447,
          0.44032716751098633,
          0.5274012088775635,
          0.3528214991092682,
          -0.1057627871632576,
          -0.09229513257741928,
          0.14837393164634705,
          0.7018515467643738,
          -0.2882925570011139,
          -0.18044838309288025,
          0.09750402718782425,
          0.1739618182182312,
          0.2828367054462433,
          0.5222230553627014,
          0.023334547877311707,
          -0.007207758724689484,
          -0.3745489716529846,
          0.4106713533401489,
          0.31386706233024597,
          -0.20779454708099365,
          0.22843581438064575,
          -0.4820519685745239,
          0.02545858547091484,
          0.08161322772502899,
          -0.029466407373547554,
          0.03926914185285568,
          0.19169574975967407,
          -0.040579378604888916,
          0.2569088637828827,
          0.11091329902410507,
          0.19219863414764404,
          0.18241910636425018,
          -0.22517728805541992,
          0.16957995295524597,
          0.4294702410697937,
          -0.28517046570777893,
          0.31391671299934387,
          0.04475080966949463,
          -0.03398558124899864,
          0.3380279839038849,
          -0.6042272448539734,
          0.1606237292289734,
          0.04950018599629402,
          0.27328765392303467,
          0.3039429783821106,
          0.3738030791282654,
          -0.1972188800573349,
          -0.24325408041477203,
          0.20647482573986053,
          0.047719378024339676,
          -0.011976063251495361,
          0.23788616061210632,
          0.17560647428035736,
          0.18073230981826782,
          -0.13059751689434052,
          0.1291930079460144,
          -0.024901675060391426,
          0.007283574435859919,
          0.4054667055606842,
          0.3454119861125946,
          -0.19661401212215424,
          0.08314216881990433,
          0.18362955749034882,
          0.22467780113220215,
          0.23570166528224945,
          -0.07101015001535416,
          -0.03393413498997688,
          -0.01483046542853117,
          0.08945441991090775,
          -0.26886558532714844,
          0.09410735964775085,
          0.4465010166168213,
          -0.14477387070655823,
          -0.20085836946964264,
          0.3572676479816437,
          -0.2865191102027893,
          -0.4926922917366028,
          0.04736114293336868,
          0.32335567474365234,
          -0.18055425584316254,
          0.061756763607263565,
          -0.05327501893043518,
          0.4090438187122345,
          -0.05848538130521774,
          -0.13975228369235992,
          0.0010349461808800697,
          -0.1304367333650589,
          0.17936788499355316,
          0.03736267611384392,
          0.23965267837047577,
          0.0853397399187088,
          0.3013056814670563,
          -0.4433393180370331,
          -0.11455874890089035,
          -0.24923212826251984,
          0.426491916179657,
          0.4382133185863495,
          0.19196222722530365,
          0.14436332881450653,
          -0.29412177205085754,
          0.1419113129377365,
          0.18100081384181976,
          0.06266449391841888,
          -0.12450728565454483,
          0.023263830691576004,
          0.12585651874542236,
          -0.33729153871536255,
          0.18499134480953217,
          -0.1746753752231598,
          -0.388484925031662,
          0.7918305397033691,
          -0.15654189884662628,
          0.33938995003700256,
          0.3824554681777954,
          -0.18210111558437347,
          -0.14504627883434296,
          -0.15580062568187714,
          -0.034656912088394165,
          0.04298816993832588,
          -0.4560477137565613,
          -0.29296809434890747,
          -0.25751134753227234,
          0.03329692780971527,
          -0.4138067960739136,
          -0.17418183386325836,
          -0.05239662155508995,
          -0.026445288211107254,
          -0.19965238869190216,
          -0.4650527834892273,
          -0.36336395144462585,
          0.13568982481956482,
          0.16423307359218597,
          0.12125194817781448,
          -0.446761816740036,
          0.3524312376976013,
          0.4965851902961731,
          0.2596452236175537,
          0.260882705450058,
          0.36909613013267517,
          0.3749455213546753,
          -0.26514366269111633,
          -0.22143444418907166,
          -0.05276533216238022,
          0.2522927224636078,
          0.10330376029014587,
          -0.10884324461221695,
          0.14397214353084564,
          0.080936498939991,
          0.1394120752811432,
          0.02634066715836525,
          -0.44272381067276,
          0.18553964793682098,
          -0.03502189740538597,
          -0.03107510879635811,
          0.15637771785259247,
          -0.05519981309771538,
          0.3396601676940918,
          0.1850576251745224,
          0.3298472464084625,
          -0.05473754182457924,
          0.015942875295877457,
          0.00809241272509098,
          -0.19012576341629028,
          0.13283154368400574,
          -0.2880672812461853,
          0.14186348021030426,
          0.02355760708451271,
          -0.03597206994891167,
          0.09363054484128952,
          0.07851728796958923,
          0.5867933630943298,
          -0.44321608543395996,
          0.3326537609100342,
          -0.12214574217796326,
          0.07156290858983994,
          -0.09489127993583679,
          -0.1467599868774414,
          -0.01786692813038826,
          0.18250924348831177,
          -0.06342620402574539,
          -0.1997324377298355,
          0.4059223234653473,
          -0.1450122594833374,
          0.4487128257751465,
          -0.1167571097612381,
          0.04194334149360657,
          0.0757044181227684,
          -0.2860039174556732,
          0.24238154292106628,
          0.036049775779247284,
          0.1229151263833046,
          0.3792644143104553,
          -0.059142496436834335,
          0.06020933389663696,
          0.1060020700097084,
          -0.0541740246117115,
          -0.0649201050400734,
          0.1902160346508026,
          -0.38819482922554016,
          0.10936891287565231,
          -0.3458257019519806,
          0.33723050355911255,
          -0.0789775550365448,
          -0.20833368599414825,
          0.4098980128765106,
          -0.2218799889087677,
          -0.5066242814064026,
          0.0751611515879631,
          -0.16595198214054108,
          0.04519319161772728,
          -0.07372920215129852,
          -0.014639168977737427,
          0.14965751767158508,
          -0.1814144104719162,
          -0.20537565648555756,
          0.48745614290237427,
          -0.07154491543769836,
          -0.12458525598049164,
          -0.10043803602457047,
          0.31416910886764526,
          -0.21156106889247894,
          0.0968850776553154,
          -0.7171011567115784,
          -0.4131609797477722,
          0.09724318981170654,
          -0.13500410318374634,
          0.5454931855201721,
          0.12748391926288605,
          0.5674898624420166,
          0.026914462447166443,
          -0.001626625657081604,
          -0.2997654676437378,
          -0.5389959216117859,
          -0.10123644024133682,
          -0.04152336344122887,
          0.06627749651670456,
          -0.17223022878170013,
          -0.15714117884635925,
          -0.02303984947502613,
          -0.11572349816560745,
          0.11526044458150864,
          0.17961183190345764,
          -0.0586358867585659,
          0.006257334258407354,
          -0.3548867404460907,
          -0.15871188044548035,
          0.18536841869354248,
          0.3835934102535248,
          0.11775334179401398,
          0.35371533036231995,
          0.045627105981111526,
          -0.014822016470134258,
          -0.044974613934755325,
          -0.22035731375217438,
          0.3417213559150696,
          0.11346540600061417,
          -0.12264290452003479,
          0.35786089301109314,
          0.09213312715291977,
          0.46691685914993286,
          -0.08723603188991547,
          0.0028990288265049458,
          -0.21667665243148804,
          0.021183758974075317,
          -0.1401253193616867,
          0.15393608808517456,
          -0.29794538021087646,
          0.3592510521411896,
          0.3045174181461334,
          -0.00044200895354151726,
          0.281076043844223,
          -0.2326384037733078,
          0.21029675006866455,
          0.03263287991285324,
          -0.31920164823532104,
          -0.0663694366812706,
          -0.21032772958278656,
          -0.08901441842317581,
          -0.4545292556285858,
          -0.19559665024280548,
          -0.621740996837616,
          0.2764853239059448,
          -0.09464235603809357,
          -0.09042028337717056,
          0.16816918551921844,
          -0.09992311149835587,
          -0.06987430155277252,
          0.3289833664894104,
          0.2327851951122284,
          -0.48514917492866516
        ]
      },
      "forgetHidden": {
        "rows": 20,
        "columns": 20,
        "weights": [
          0.1253478229045868,
          0.9914566874504089,
          -0.17454850673675537,
          -0.5550618171691895,
          -0.1742781698703766,
          -0.29617011547088623,
          0.24256712198257446,
          1.243823766708374,
          -0.49011293053627014,
          -0.5353033542633057,
          0.6588712930679321,
          -0.18144360184669495,
          0.4554603695869446,
          -0.3671991229057312,
          -0.07008419930934906,
          -0.026409873738884926,
          -0.1701243668794632,
          0.016942035406827927,
          -0.5975046753883362,
          0.15089303255081177,
          -0.43914175033569336,
          -0.34656354784965515,
          -0.05203423276543617,
          0.367450088262558,
          -0.2258397340774536,
          0.1840418130159378,
          0.47515228390693665,
          0.7842435240745544,
          -0.22883422672748566,
          0.2584109902381897,
          -1.6573286056518555,
          0.46287423372268677,
          -0.17629970610141754,
          0.2840529978275299,
          -0.5870236158370972,
          -0.01053826604038477,
          -0.1008976474404335,
          -0.30972814559936523,
          -0.219757080078125,
          -0.20854656398296356,
          0.4668300747871399,
          0.7462018728256226,
          -0.4031031131744385,
          0.2533847689628601,
          -0.6983179450035095,
          -0.13635069131851196,
          -0.7980836033821106,
          0.8050970435142517,
          0.36597368121147156,
          0.00473344512283802,
          0.28743794560432434,
          -0.11463164538145065,
          0.5229089856147766,
          -0.3973800837993622,
          0.13193877041339874,
          0.01869378425180912,
          1.368812918663025,
          -0.27436891198158264,
          1.0252712965011597,
          0.3443329632282257,
          -0.27975228428840637,
          -0.6190662384033203,
          0.5115297436714172,
          0.44336017966270447,
          0.5249860286712646,
          -0.07099979370832443,
          -0.3191617727279663,
          -0.41746261715888977,
          -0.5063899159431458,
          -0.17118310928344727,
          -0.5877785086631775,
          0.7127665281295776,
          0.8367905020713806,
          0.6684486865997314,
          -0.1869199126958847,
          -0.44464996457099915,
          -1.2014127969741821,
          -0.9220277070999146,
          0.01308119110763073,
          -0.4978841543197632,
          -0.5795745849609375,
          0.53739333152771,
          -0.6705066561698914,
          0.08651827275753021,
          -0.34511083364486694,
          0.05877416953444481,
          -0.1640993058681488,
          0.3830599784851074,
          -0.887730062007904,
          0.42571282386779785,
          0.034664105623960495,
          0.04298403859138489,
          0.6270385980606079,
          -0.550223708152771,
          0.304775595664978,
          -0.04794309288263321,
          0.4542631208896637,
          0.3655257523059845,
          0.46605384349823,
          0.22054141759872437,
          -0.428313672542572,
          0.13685545325279236,
          -0.1331215351819992,
          -0.2032840996980667,
          -0.40756934881210327,
          0.19605061411857605,
          0.30904072523117065,
          0.13709208369255066,
          -0.4871160089969635,
          -1.4052008390426636,
          0.02469952590763569,
          -0.4778033196926117,
          0.9714652895927429,
          -0.1199495866894722,
          -0.2011130452156067,
          0.05380333214998245,
          0.31955182552337646,
          -0.10612626373767853,
          -0.22812271118164062,
          -0.46294355392456055,
          -1.4587254524230957,
          0.3870587944984436,
          0.35523951053619385,
          0.10332716256380081,
          -0.128342404961586,
          0.6081929206848145,
          0.2404276728630066,
          0.2974171042442322,
          -0.17200356721878052,
          0.0290999636054039,
          0.6131410002708435,
          -0.38968032598495483,
          -0.20762763917446136,
          0.002589436946436763,
          0.13933444023132324,
          -0.2137157917022705,
          0.7959030866622925,
          -0.008494166657328606,
          -0.3611876368522644,
          -0.027948055416345596,
          -0.16359040141105652,
          0.5135618448257446,
          0.06106562167406082,
          0.5072413086891174,
          -0.523337721824646,
          0.2773931324481964,
          -0.09592201560735703,
          -0.6287296414375305,
          -0.5186251997947693,
          -0.5560379028320312,
          0.4864961504936218,
          -0.7695274353027344,
          1.4944313764572144,
          0.32466524839401245,
          0.16979654133319855,
          -0.4448741674423218,
          -1.3113852739334106,
          -0.1105990782380104,
          -0.24382220208644867,
          0.8449999094009399,
          -0.6620320081710815,
          0.7016533613204956,
          -0.2003302425146103,
          0.5315777659416199,
          -0.004869899246841669,
          0.2813723087310791,
          0.44283828139305115,
          0.8977724313735962,
          0.30688756704330444,
          -0.07352786511182785,
          -0.5765088200569153,
          1.0342776775360107,
          -0.1010110080242157,
          -0.0006765783182345331,
          0.34253597259521484,
          0.49414464831352234,
          0.27256959676742554,
          -0.08108829706907272,
          0.08384376019239426,
          0.0015077448915690184,
          0.158199742436409,
          0.016234030947089195,
          0.08347426354885101,
          -0.39887556433677673,
          0.18817995488643646,
          0.023836379870772362,
          0.002864669542759657,
          0.7416762113571167,
          -0.6119537949562073,
          0.6316009163856506,
          0.3141727149486542,
          0.09827979654073715,
          0.1753581166267395,
          -0.4541654586791992,
          -0.23816470801830292,
          0.6401858925819397,
          -0.18468345701694489,
          0.10078946501016617,
          0.3874097764492035,
          0.1137356236577034,
          0.3357919156551361,
          -0.2906140983104706,
          0.8288015723228455,
          0.3280280530452728,
          0.8072741627693176,
          -1.0283548831939697,
          -0.15087279677391052,
          -0.30340275168418884,
          -0.029146244749426842,
          1.1894876956939697,
          -0.37117502093315125,
          0.3503703474998474,
          0.013675978407263756,
          0.059881001710891724,
          -0.41941559314727783,
          0.9518164396286011,
          -0.16168293356895447,
          0.7369871735572815,
          0.3634137213230133,
          0.3980018198490143,
          0.2966657876968384,
          -0.36802300810813904,
          -0.39609256386756897,
          0.7433138489723206,
          -0.10540822148323059,
          -0.0011257909936830401,
          1.1891793012619019,
          0.4801715612411499,
          0.37128597497940063,
          0.20259469747543335,
          0.7996301054954529,
          -0.6642634868621826,
          0.5207669138908386,
          0.06442423909902573,
          -1.5574036836624146,
          0.2587277889251709,
          -0.5164971947669983,
          -1.2579500675201416,
          1.1171460151672363,
          0.21819114685058594,
          0.12397729605436325,
          0.4775725305080414,
          -0.28256136178970337,
          0.47174161672592163,
          0.31548011302948,
          -0.3212590217590332,
          -0.08221800625324249,
          -0.583981990814209,
          0.554483950138092,
          0.7610819935798645,
          -0.5398105978965759,
          0.24982605874538422,
          0.28804662823677063,
          -1.001233458518982,
          -0.8285123705863953,
          0.3756107985973358,
          1.3375433683395386,
          -0.15690138936042786,
          0.35396578907966614,
          -0.3475331962108612,
          -0.6387243270874023,
          0.4844827651977539,
          -0.1044962927699089,
          -0.1451907455921173,
          -0.28948089480400085,
          0.35285684466362,
          0.4953242540359497,
          0.20786623656749725,
          0.03491293266415596,
          0.6022956371307373,
          0.12347821146249771,
          0.1542447805404663,
          -0.4354073405265808,
          -0.1538192480802536,
          0.8105826377868652,
          -0.4556523561477661,
          -0.15858855843544006,
          -0.8201356530189514,
          -0.324472576379776,
          -0.24916444718837738,
          0.11048822849988937,
          0.1959000527858734,
          0.16615548729896545,
          -0.018976490944623947,
          -0.05026843398809433,
          -0.05483954772353172,
          -0.006537020672112703,
          0.2695527970790863,
          -0.28700491786003113,
          0.25937655568122864,
          0.044337544590234756,
          0.7842798233032227,
          0.399929404258728,
          -0.2574663460254669,
          -0.1052413359284401,
          0.62796550989151,
          0.6962074041366577,
          0.04241606220602989,
          0.031837500631809235,
          -0.1791810244321823,
          0.4676966369152069,
          0.47437694668769836,
          -0.5401401519775391,
          0.36700335144996643,
          0.2315647006034851,
          -0.35717856884002686,
          -0.5059565305709839,
          0.8104150295257568,
          0.3324822783470154,
          -0.23100058734416962,
          0.22472107410430908,
          -0.0077635981142520905,
          -0.2301422655582428,
          0.33490490913391113,
          0.08584310114383698,
          0.1716385781764984,
          -0.6580885052680969,
          0.18571527302265167,
          0.4054550528526306,
          0.2559167444705963,
          -0.1658620685338974,
          -0.5975494384765625,
          0.2787315845489502,
          0.16858705878257751,
          0.1370248794555664,
          -0.1955241709947586,
          -0.7427818179130554,
          0.10099515318870544,
          -0.0844283476471901,
          -0.0314972810447216,
          0.939445972442627,
          -0.1358008235692978,
          1.3161954879760742,
          -0.05442656949162483,
          0.0011598600540310144,
          0.4744991660118103,
          0.002270545344799757,
          -0.03543420881032944,
          0.4004693031311035,
          -0.27165865898132324,
          -0.3201296031475067,
          -0.3447941839694977,
          -0.11755373328924179,
          -0.7661879658699036,
          -0.5217748880386353,
          0.08965064585208893,
          -0.5908241868019104,
          -1.3755218982696533,
          0.09988977760076523,
          -0.037488024681806564,
          0.14366723597049713,
          -0.1277480572462082,
          0.05496194213628769,
          -0.33207547664642334,
          -0.0630311593413353,
          -0.3646189570426941,
          0.26161298155784607,
          -0.030053822323679924,
          -0.26325148344039917,
          0.26156365871429443,
          -0.9109504818916321,
          0.2554033398628235,
          0.4354626536369324,
          0.45355600118637085,
          -1.1232506036758423,
          0.9405105710029602,
          -0.23791685700416565,
          0.2656896412372589,
          -0.17186656594276428,
          0.520287275314331,
          -0.4792577624320984,
          -0.4780789017677307,
          -0.09341205656528473,
          -0.7862226963043213,
          -0.7755925059318542,
          0.4409754276275635,
          0.06411397457122803,
          -0.0011572139337658882,
          -0.10334386676549911,
          -0.7678081393241882,
          0.44846871495246887,
          -0.17635194957256317,
          0.5025153756141663,
          -0.45290929079055786,
          -0.33704620599746704,
          -0.38893142342567444,
          1.0406532287597656,
          -0.6256613731384277,
          1.1062039136886597,
          0.4305172562599182,
          0.22683314979076385,
          0.19395609200000763,
          0.22134491801261902,
          -0.8555561900138855,
          -0.6069730520248413,
          -0.1624976098537445,
          0.3676593601703644,
          -0.3667777180671692,
          -0.21982114017009735,
          0.3139425218105316
        ]
      },
      "forgetBias": {
        "rows": 20,
        "columns": 1,
        "weights": [
          0,
          0,
          0,
          0,
          0,
          0,
          0,
          0,
          0,
          0,
          0,
          0,
          0,
          0,
          0,
          0,
          0,
          0,
          0,
          0
        ]
      },
      "outputMatrix": {
        "rows": 20,
        "columns": 28,
        "weights": [
          0.05574622005224228,
          0.19606998562812805,
          -0.4614126980304718,
          0.14632706344127655,
          0.036646466702222824,
          -0.42212310433387756,
          -0.44317716360092163,
          -0.07841726392507553,
          0.22008271515369415,
          0.150099977850914,
          0.1995202898979187,
          -0.17410890758037567,
          0.13582280278205872,
          0.7928483486175537,
          -0.04239147529006004,
          -0.015208207070827484,
          -0.7323498129844666,
          -0.1725340485572815,
          0.030252983793616295,
          -0.5170099139213562,
          -0.25080230832099915,
          -0.3815523684024811,
          -0.02577263116836548,
          -0.3559461832046509,
          0.03866135701537132,
          0.17234332859516144,
          0.10604563355445862,
          -0.0636964663863182,
          -0.3156766891479492,
          -0.5767999291419983,
          -0.43735039234161377,
          0.1786346584558487,
          -0.3946627080440521,
          -0.0762845054268837,
          0.04245256260037422,
          -0.11563191562891006,
          0.1450023353099823,
          0.033174190670251846,
          0.1880178153514862,
          0.09389226883649826,
          0.17798647284507751,
          0.19385075569152832,
          0.3440602719783783,
          0.16998155415058136,
          -0.2810037136077881,
          0.0955624133348465,
          -0.1429762840270996,
          0.3151352107524872,
          -0.2095869481563568,
          0.31339237093925476,
          -0.1388024389743805,
          0.030133847147226334,
          -0.005847277119755745,
          -0.4424031674861908,
          -0.2757958769798279,
          0.015989862382411957,
          0.18361490964889526,
          0.0807500034570694,
          -0.21658200025558472,
          -0.09863343089818954,
          -0.07674809545278549,
          -0.10745023936033249,
          0.04818514361977577,
          0.031280193477869034,
          0.16342516243457794,
          -0.10326127707958221,
          0.43021273612976074,
          0.48105159401893616,
          -0.19014257192611694,
          -0.28423941135406494,
          -0.09114082902669907,
          0.1459122747182846,
          -0.38400375843048096,
          0.04597637057304382,
          0.17567306756973267,
          0.09626984596252441,
          0.02156856097280979,
          0.4123961925506592,
          -0.527560293674469,
          0.006725176703184843,
          -0.4471752345561981,
          -0.23313657939434052,
          0.06497354805469513,
          0.05299173668026924,
          0.19067096710205078,
          -0.4939284026622772,
          0.16859985888004303,
          -0.030403021723031998,
          -0.0014014852931722999,
          -0.09796196222305298,
          -0.46732595562934875,
          -0.15471014380455017,
          0.3483971357345581,
          0.12691669166088104,
          0.35322561860084534,
          -0.19753409922122955,
          0.10737651586532593,
          0.5415797233581543,
          0.35138827562332153,
          0.24454954266548157,
          0.25737464427948,
          0.18842504918575287,
          -0.15919862687587738,
          0.06406285613775253,
          -0.3686336278915405,
          0.3620530366897583,
          -0.08097196370363235,
          -0.027212664484977722,
          0.24779930710792542,
          -0.003868628526106477,
          0.16915756464004517,
          -0.06986087560653687,
          -0.16015762090682983,
          -0.3553646206855774,
          -0.45006683468818665,
          -0.1657997965812683,
          0.17042776942253113,
          -0.3189454674720764,
          -0.0726231038570404,
          -0.07481410354375839,
          0.2933484613895416,
          0.2048468291759491,
          0.24332566559314728,
          0.271464079618454,
          -0.14221753180027008,
          0.07005111873149872,
          -0.0790228396654129,
          0.21432819962501526,
          -0.319447785615921,
          -0.1743423044681549,
          -0.08306727558374405,
          0.25659942626953125,
          0.08368874341249466,
          0.19405005872249603,
          0.20327194035053253,
          -0.29644036293029785,
          -0.005906595848500729,
          -0.029406346380710602,
          0.05258886143565178,
          -0.2666037976741791,
          -0.1305416077375412,
          0.4217037856578827,
          -0.3339501619338989,
          -0.16219571232795715,
          0.4236745238304138,
          -0.5038560032844543,
          0.2603265345096588,
          -0.11730935424566269,
          0.07893839478492737,
          -0.08267582952976227,
          -0.17842373251914978,
          -0.192921444773674,
          -0.14935176074504852,
          -0.12152200937271118,
          -0.1992604285478592,
          -0.04850347340106964,
          0.110407754778862,
          0.15032224357128143,
          0.014852329157292843,
          -0.026857376098632812,
          0.12142616510391235,
          -0.09702003002166748,
          0.32904037833213806,
          -0.3316299319267273,
          -0.1397634744644165,
          0.07922878116369247,
          -0.4438536763191223,
          -0.11025980859994888,
          0.12091902643442154,
          -0.5389662981033325,
          0.15197426080703735,
          0.10531748831272125,
          0.35975101590156555,
          -0.04648416489362717,
          -0.6735824942588806,
          -0.43684476613998413,
          0.06789277493953705,
          0.19414407014846802,
          0.4213046431541443,
          0.3141944706439972,
          0.23019680380821228,
          0.5645751953125,
          0.5385854244232178,
          -0.32506322860717773,
          0.13198748230934143,
          -0.04971839487552643,
          -0.2099025547504425,
          -0.25008323788642883,
          -0.49381783604621887,
          -0.00862235575914383,
          -0.004916669335216284,
          -0.2657639682292938,
          0.2070486694574356,
          -0.37036535143852234,
          0.1277700811624527,
          -0.05536647140979767,
          -0.12243448197841644,
          -0.09128187596797943,
          -0.49458131194114685,
          0.24592004716396332,
          0.03961591795086861,
          -0.23766350746154785,
          -0.4176892638206482,
          -0.030603554099798203,
          0.31069836020469666,
          -0.06892068684101105,
          -0.023157164454460144,
          -0.14607453346252441,
          0.38673174381256104,
          -0.3432674705982208,
          0.08445505052804947,
          0.18613339960575104,
          -0.3481583893299103,
          -0.06883743405342102,
          0.32196348905563354,
          0.2962958514690399,
          0.005854353774338961,
          0.19707784056663513,
          0.1815033257007599,
          -0.33203309774398804,
          -0.4139971137046814,
          -0.6393954157829285,
          -0.2329278588294983,
          0.2885230481624603,
          -0.0633687973022461,
          -0.3294275104999542,
          -0.17648759484291077,
          0.21121883392333984,
          -0.6197497844696045,
          0.03616567328572273,
          0.3449029326438904,
          -0.3026369512081146,
          0.23335909843444824,
          -0.48755037784576416,
          0.07384736090898514,
          0.8094128370285034,
          0.039308544248342514,
          -0.1853979080915451,
          0.5138927698135376,
          -0.011059780605137348,
          -0.558918297290802,
          0.16852432489395142,
          0.09680540859699249,
          -0.3901747763156891,
          -0.41935041546821594,
          -0.4406387507915497,
          0.18278734385967255,
          -0.09981273859739304,
          -0.1304897516965866,
          -0.20607352256774902,
          0.26929163932800293,
          -0.13954874873161316,
          -0.10034146904945374,
          -0.005161660257726908,
          -0.33910173177719116,
          0.28595197200775146,
          -0.06763128191232681,
          0.0012474041432142258,
          -0.047899436205625534,
          0.3153691291809082,
          0.03453360125422478,
          -0.16126005351543427,
          0.18543630838394165,
          0.1776180863380432,
          0.09454749524593353,
          0.21818353235721588,
          0.2815936505794525,
          -0.15827617049217224,
          0.02278709039092064,
          -0.1508985310792923,
          0.19285228848457336,
          0.5430036187171936,
          -0.17906178534030914,
          0.3530007302761078,
          -0.5923486948013306,
          0.22884902358055115,
          -0.5185738205909729,
          0.26830682158470154,
          0.01767355389893055,
          0.2307157963514328,
          0.13111871480941772,
          -0.6679903864860535,
          -0.5028887391090393,
          0.1044561117887497,
          -0.5116071105003357,
          0.07496257871389389,
          0.1536465436220169,
          -0.33951854705810547,
          0.3573552668094635,
          -0.47866618633270264,
          0.32650333642959595,
          0.7070015668869019,
          0.07838478684425354,
          -0.07718205451965332,
          0.38405105471611023,
          0.06405092030763626,
          -0.8416783809661865,
          0.11233273893594742,
          0.2538153827190399,
          -0.558253288269043,
          -0.7754583358764648,
          -0.5083816647529602,
          0.005473367404192686,
          -0.2378392219543457,
          0.17310945689678192,
          -0.2991560399532318,
          0.20155943930149078,
          -0.2288852334022522,
          0.06021496281027794,
          0.15438145399093628,
          -0.4118049442768097,
          -0.3912188708782196,
          -0.3767816722393036,
          -0.22816991806030273,
          0.35528889298439026,
          -0.39164721965789795,
          0.5500917434692383,
          0.056179631501436234,
          0.6284841299057007,
          0.11376892030239105,
          -0.4467160403728485,
          -0.0915604755282402,
          -0.2781660854816437,
          0.18260173499584198,
          -0.21054375171661377,
          0.07712928205728531,
          0.0390775203704834,
          0.44005492329597473,
          0.06837537884712219,
          -0.2393617182970047,
          0.11740563809871674,
          -0.46695998311042786,
          -0.745890200138092,
          -0.3729993999004364,
          -0.1795189082622528,
          0.03777630627155304,
          0.07001867145299911,
          -0.3132159411907196,
          -0.3897838592529297,
          0.30373725295066833,
          -0.07898513972759247,
          -0.3645130395889282,
          -0.8643426895141602,
          -0.07644665986299515,
          0.00026503545814193785,
          0.07341952621936798,
          0.06293556839227676,
          -0.017588749527931213,
          0.3652273118495941,
          -0.08892146497964859,
          0.4930271506309509,
          0.12511005997657776,
          -0.1034846231341362,
          0.37832269072532654,
          0.186920166015625,
          0.2806313633918762,
          -0.0981411263346672,
          0.1808464080095291,
          -0.13424564898014069,
          0.28454816341400146,
          -0.3835620880126953,
          0.20458991825580597,
          -0.03370635583996773,
          -0.06710217148065567,
          -0.17702807486057281,
          -0.020900746807456017,
          -0.37834665179252625,
          -0.03105969727039337,
          -0.1777135282754898,
