{
  "type": "LSTM",
  "options": {
    "inputSize": 29,
    "inputRange": 29,
    "hiddenLayers": [
      20,
      20
    ],
    "outputSize": 29,
    "decayRate": 0.999,
    "smoothEps": 1e-8,
    "regc": 0.000001,
    "clipval": 5,
    "maxPredictionLength": 100,
    "dataFormatter": {
      "indexTable": {
        "a": 0,
        "c": 1,
        "h": 2,
        "i": 3,
        "m": 4,
        "d": 5,
        "l": 6,
        "b": 7,
        "e": 8,
        "r": 9,
        "t": 10,
        "x": 11,
        "n": 12,
        "f": 13,
        "o": 14,
        "s": 15,
        "g": 16,
        "u": 17,
        "j": 18,
        "ö": 19,
        "k": 20,
        "p": 21,
        "v": 22,
        "w": 23,
        "z": 24,
        "-": 25,
        "ü": 26,
        "y": 27,
        "unrecognized": 28
      },
      "characterTable": {
        "0": "a",
        "1": "c",
        "2": "h",
        "3": "i",
        "4": "m",
        "5": "d",
        "6": "l",
        "7": "b",
        "8": "e",
        "9": "r",
        "10": "t",
        "11": "x",
        "12": "n",
        "13": "f",
        "14": "o",
        "15": "s",
        "16": "g",
        "17": "u",
        "18": "j",
        "19": "ö",
        "20": "k",
        "21": "p",
        "22": "v",
        "23": "w",
        "24": "z",
        "25": "-",
        "26": "ü",
        "27": "y",
        "28": null
      },
      "values": [
        "achim",
        "adam",
        "albert",
        "albrecht",
        "alexander",
        "alfons",
        "alfred",
        "alois",
        "andre",
        "andreas",
        "ansgar",
        "anton",
        "antonio",
        "armin",
        "arno",
        "arnold",
        "arthur",
        "artur",
        "august",
        "axel",
        "benjamin",
        "benno",
        "bernd",
        "bernhard",
        "berthold",
        "björn",
        "bodo",
        "bruno",
        "burkhard",
        "carsten",
        "christian",
        "christoph",
        "claus",
        "clemens",
        "daniel",
        "david",
        "dennis",
        "detlef",
        "detlev",
        "dieter",
        "dietmar",
        "dietrich",
        "dirk",
        "eberhard",
        "eckhard",
        "edgar",
        "edmund",
        "eduard",
        "edwin",
        "egon",
        "elmar",
        "emil",
        "engelbert",
        "erhard",
        "erich",
        "ernst",
        "erwin",
        "eugen",
        "ewald",
        "felix",
        "ferdinand",
        "florian",
        "frank",
        "franz",
        "franz-josef",
        "fred",
        "friedhelm",
        "friedrich",
        "fritz",
        "georg",
        "gerald",
        "gerd",
        "gerhard",
        "gert",
        "gottfried",
        "gregor",
        "guido",
        "gunter",
        "gustav",
        "günter",
        "günther",
        "hans",
        "hans-dieter",
        "hans-georg",
        "hans-joachim",
        "hans-jürgen",
        "hans-peter",
        "hans-werner",
        "harald",
        "harry",
        "hartmut",
        "heiko",
        "heiner",
        "heinrich",
        "heinz",
        "helmut",
        "henning",
        "henry",
        "herbert",
        "heribert",
        "hermann",
        "holger",
        "horst",
        "hubert",
        "hugo",
        "ingo",
        "jakob",
        "jan",
        "jens",
        "joachim",
        "jochen",
        "johann",
        "johannes",
        "josef",
        "jörg",
        "jürgen",
        "karl",
        "karl-heinz",
        "karlheinz",
        "karsten",
        "klaus",
        "klaus-dieter",
        "klaus-peter",
        "konrad",
        "kurt",
        "lars",
        "leo",
        "leonhard",
        "lorenz",
        "lothar",
        "ludger",
        "ludwig",
        "lutz",
        "maik",
        "manfred",
        "manuel",
        "marc",
        "marcel",
        "marco",
        "marcus",
        "mario",
        "mark",
        "markus",
        "martin",
        "mathias",
        "matthias",
        "max",
        "mehmet",
        "michael",
        "mike",
        "nikolaus",
        "norbert",
        "olaf",
        "oliver",
        "oskar",
        "oswald",
        "otto",
        "patrick",
        "paul",
        "peter",
        "philipp",
        "raimund",
        "rainer",
        "ralf",
        "ralph",
        "reiner",
        "reinhard",
        "reinhold",
        "rene",
        "richard",
        "robert",
        "roland",
        "rolf",
        "roman",
        "ronald",
        "ronny",
        "rudi",
        "rudolf",
        "rüdiger",
        "sebastian",
        "siegfried",
        "simon",
        "stefan",
        "steffen",
        "stephan",
        "sven",
        "theo",
        "theodor",
        "thomas",
        "thorsten",
        "timo",
        "tobias",
        "torsten",
        "udo",
        "ulf",
        "ulrich",
        "uwe",
        "viktor",
        "volker",
        "waldemar",
        "walter",
        "werner",
        "wilfried",
        "wilhelm",
        "willi",
        "willy",
        "winfried",
        "wolfgang",
        "wolfram"
      ],
      "characters": [
        "a",
        "c",
        "h",
        "i",
        "m",
        "d",
        "l",
        "b",
        "e",
        "r",
        "t",
        "x",
        "n",
        "f",
        "o",
        "s",
        "g",
        "u",
        "j",
        "ö",
        "k",
        "p",
        "v",
        "w",
        "z",
        "-",
        "ü",
        "y",
        "unrecognized"
      ],
      "specialIndexes": [
        28
      ]
    },
    "activation": "tanh"
  },
  "trainOpts": {
    "iterations": "10000",
    "errorThresh": "0.04",
    "log": false,
    "logPeriod": 1,
    "learningRate": "0.0001",
    "callbackPeriod": 1,
    "timeout": "Infinity"
  },
  "input": {
    "rows": 30,
    "columns": 29,
    "weights": [
      -0.30924445390701294,
      -0.06354426592588425,
      0.23453257977962494,
      -0.06220438331365585,
      0.1957879513502121,
      0.6721516251564026,
      -0.612258791923523,
      0.03516409173607826,
      0.28768500685691833,
      0.09995945543050766,
      0.22052882611751556,
      0.4274047613143921,
      -0.107294000685215,
      -0.1709705889225006,
      -0.39369872212409973,
      -0.2967450022697449,
      0.1847749948501587,
      0.25590968132019043,
      -0.372888445854187,
      -0.37564754486083984,
      -0.22613848745822906,
      -0.36055052280426025,
      -0.10495296120643616,
      0.19787846505641937,
      -0.09494137763977051,
      -0.06927978992462158,
      0.06302676349878311,
      0.026895027607679367,
      -0.4272153973579407,
      -0.2862878441810608,
      0.07790600508451462,
      0.7996366024017334,
      -0.7555637359619141,
      -0.911365807056427,
      0.6267309784889221,
      -0.23692336678504944,
      -1.177229404449463,
      1.3476859331130981,
      -1.819555640220642,
      0.7916781306266785,
      1.4538966417312622,
      -1.8341213464736938,
      -0.13409464061260223,
      -1.2473899126052856,
      0.33465108275413513,
      -0.2047613263130188,
      0.26311150193214417,
      0.4818297028541565,
      -1.1292239427566528,
      1.1963207721710205,
      -2.0213050842285156,
      0.5246164202690125,
      0.5058287382125854,
      -1.263037919998169,
      -1.9063438177108765,
      -0.7199937105178833,
      0.7344601154327393,
      -0.4442810118198395,
      -1.1007312536239624,
      2.5687789916992188,
      2.0320467948913574,
      2.031531810760498,
      -0.23564082384109497,
      -0.9750179052352905,
      0.3610973358154297,
      2.2289388179779053,
      -0.7661012411117554,
      -2.416539192199707,
      -2.9177000522613525,
      0.7249473333358765,
      -0.08003648370504379,
      5.87142276763916,
      -0.869849443435669,
      1.557918906211853,
      2.639477252960205,
      -0.1595248281955719,
      -1.1976314783096313,
      -0.7117502689361572,
      1.594503402709961,
      1.949957251548767,
      0.008417953737080097,
      -2.340207099914551,
      -1.1816645860671997,
      -2.921335220336914,
      1.3257259130477905,
      0.2355591505765915,
      1.8586797714233398,
      0.874499499797821,
      -1.645698070526123,
      0.530377209186554,
      -0.675177276134491,
      2.1716396808624268,
      -1.0265480279922485,
      0.34435826539993286,
      -1.779984474182129,
      2.0539281368255615,
      -0.5822001099586487,
      1.233351230621338,
      1.9225257635116577,
      -3.3595829010009766,
      0.09350128471851349,
      -0.9798747897148132,
      0.3514808714389801,
      0.33433833718299866,
      1.0615131855010986,
      0.01761886104941368,
      -0.30254894495010376,
      0.739128589630127,
      0.688280463218689,
      1.759264588356018,
      1.365351915359497,
      0.8184648752212524,
      0.38064366579055786,
      -1.6337096691131592,
      1.3621474504470825,
      -0.5768640637397766,
      -0.4836812913417816,
      0.526821494102478,
      1.2802435159683228,
      -2.023162603378296,
      -1.0798900127410889,
      -0.48804450035095215,
      -1.3126858472824097,
      1.011753797531128,
      -1.8801525831222534,
      -2.708077907562256,
      0.9978129267692566,
      0.7884103059768677,
      -1.445984125137329,
      0.7775958776473999,
      -2.565046787261963,
      -0.3645763099193573,
      -0.5470028519630432,
      -1.9628512859344482,
      0.2743031084537506,
      -2.3135902881622314,
      0.5294579267501831,
      -0.8265994191169739,
      -2.2831313610076904,
      -1.0971935987472534,
      -2.923076629638672,
      -1.6555659770965576,
      -1.468887448310852,
      1.2449747323989868,
      0.18288472294807434,
      -1.165406584739685,
      1.8140876293182373,
      -1.3760420083999634,
      -0.7179972529411316,
      -0.016186555847525597,
      1.2561756372451782,
      0.20162829756736755,
      -0.23025164008140564,
      -0.36830511689186096,
      -1.8621766567230225,
      -0.9833461046218872,
      2.0586464405059814,
      -3.1267642974853516,
      -1.8876444101333618,
      0.31218889355659485,
      -0.9468439817428589,
      -0.3054729402065277,
      0.6185301542282104,
      1.1189688444137573,
      -1.635614037513733,
      -0.8258503675460815,
      -0.060325391590595245,
      1.015596866607666,
      -0.6924305558204651,
      -0.5770362019538879,
      1.8893312215805054,
      -2.210486650466919,
      0.12313661724328995,
      -0.48279204964637756,
      -3.0003960132598877,
      -0.12604181468486786,
      -0.7345061302185059,
      -0.2868196368217468,
      -0.29377350211143494,
      0.9792552590370178,
      -0.5951648354530334,
      -0.13193123042583466,
      1.0373419523239136,
      0.1772208958864212,
      -1.0145704746246338,
      0.09789703786373138,
      -1.9083589315414429,
      -3.6757094860076904,
      -0.37236151099205017,
      -1.7611786127090454,
      -0.24136604368686676,
      2.0841448307037354,
      0.47219714522361755,
      -2.2858822345733643,
      0.20287926495075226,
      2.3564395904541016,
      1.5428839921951294,
      0.811302125453949,
      0.12859021127223969,
      1.470354676246643,
      -1.017174243927002,
      0.31397804617881775,
      -1.0882129669189453,
      -1.3800746202468872,
      1.4352710247039795,
      -1.7371433973312378,
      1.7176481485366821,
      -0.8969905972480774,
      -0.11562711000442505,
      -0.9411710500717163,
      0.9377560019493103,
      1.9999046325683594,
      -1.0494567155838013,
      -1.9318560361862183,
      -0.36296048760414124,
      -2.5742902755737305,
      -1.677947759628296,
      -0.69781893491745,
      2.148402214050293,
      -0.07920067012310028,
      2.9503445625305176,
      1.5412691831588745,
      -1.7927021980285645,
      -3.2183806896209717,
      1.519142746925354,
      0.8393868803977966,
      -0.2063547670841217,
      0.5340888500213623,
      -1.7011054754257202,
      -1.1950066089630127,
      -0.6458279490470886,
      -2.098825454711914,
      -1.4273451566696167,
      0.36555686593055725,
      -0.9486210346221924,
      2.148087501525879,
      1.531538724899292,
      -0.14090698957443237,
      -0.8591749668121338,
      0.49647361040115356,
      2.1034440994262695,
      -3.494410753250122,
      1.3835318088531494,
      -1.3750773668289185,
      -1.2503207921981812,
      -1.7314320802688599,
      2.6042327880859375,
      0.8645792007446289,
      -1.744458794593811,
      1.5255696773529053,
      1.4449031352996826,
      -1.428276777267456,
      -3.9251465797424316,
      -0.5683221817016602,
      0.7458833456039429,
      2.727971315383911,
      -1.1523030996322632,
      -0.7769162058830261,
      2.4557394981384277,
      3.195955276489258,
      -1.6644245386123657,
      1.3834086656570435,
      0.8500575423240662,
      1.6069217920303345,
      -1.9356863498687744,
      0.17743408679962158,
      0.6246782541275024,
      1.6283752918243408,
      0.5463142395019531,
      -3.667196750640869,
      -3.0917341709136963,
      1.5258196592330933,
      1.6497185230255127,
      0.3303055465221405,
      3.0161261558532715,
      -1.7922379970550537,
      1.067407488822937,
      -0.3176531493663788,
      -0.3037757873535156,
      1.902565360069275,
      -2.1805193424224854,
      1.1707316637039185,
      -2.9431934356689453,
      -1.0296223163604736,
      -1.6861978769302368,
      -3.133333206176758,
      -0.04386904463171959,
      0.9462713003158569,
      0.8650764226913452,
      0.313668817281723,
      0.7685223817825317,
      -0.04827403277158737,
      -0.8615292310714722,
      0.5139625072479248,
      0.1435145139694214,
      0.422143816947937,
      -0.0034445752389729023,
      -0.7279455661773682,
      1.4636551141738892,
      0.30879655480384827,
      0.04090056195855141,
      0.4183136820793152,
      -1.251646637916565,
      -3.1248767375946045,
      -0.34526655077934265,
      -1.1540868282318115,
      0.1104411706328392,
      -0.7384501099586487,
      0.897842526435852,
      -0.6638941764831543,
      0.2824271619319916,
      -0.8894011974334717,
      1.0551785230636597,
      0.5640629529953003,
      0.43143483996391296,
      1.4583271741867065,
      0.31294015049934387,
      0.005262731574475765,
      -0.8491590023040771,
      -2.9790897369384766,
      0.2231813669204712,
      0.4335372745990753,
      -1.1803224086761475,
      -1.475725531578064,
      1.0591305494308472,
      -0.9583477973937988,
      -1.4572789669036865,
      1.9738843441009521,
      1.0527647733688354,
      -1.69222891330719,
      -0.6236031651496887,
      -2.2914648056030273,
      -3.3151323795318604,
      -2.029797315597534,
      0.9269400835037231,
      -1.5743550062179565,
      1.7702056169509888,
      0.5427530407905579,
      -3.4560844898223877,
      0.23363101482391357,
      0.7439448237419128,
      0.8793227672576904,
      0.37705835700035095,
      -0.4459551274776459,
      0.3714107275009155,
      -1.049875259399414,
      -0.6309532523155212,
      -1.3119302988052368,
      -3.4365742206573486,
      -1.6946483850479126,
      -1.6235640048980713,
      0.5138785243034363,
      2.6462864875793457,
      4.252554416656494,
      -3.3084959983825684,
      -1.4641046524047852,
      -1.197405457496643,
      13.816924095153809,
      -3.742291212081909,
      -1.068047046661377,
      0.2813474237918854,
      0.0671382024884224,
      -0.6540919542312622,
      -8.036428451538086,
      -10.442317962646484,
      -1.6965516805648804,
      -5.3663105964660645,
      2.2227773666381836,
      0.4253695011138916,
      0.030809594318270683,
      -1.085882306098938,
      -0.9202322363853455,
      1.9064772129058838,
      -7.190891742706299,
      -0.671636164188385,
      1.3353919982910156,
      1.7609665393829346,
      -2.1580991744995117,
      0.3215688169002533,
      0.08317694813013077,
      -0.41955244541168213,
      -0.4018973112106323,
      -0.7875709533691406,
      -0.7745332717895508,
      -1.26209557056427,
      2.008531332015991,
      -0.07945036143064499,
      -1.6900705099105835,
      -0.12928804755210876,
      -2.388263702392578,
      -1.2403162717819214,
      -1.0862901210784912,
      -1.1227953433990479,
      -0.09060108661651611,
      1.1917215585708618,
      0.08378948271274567,
      -3.6064605712890625,
      0.23511479794979095,
      0.2853616178035736,
      1.289778232574463,
      0.5248348116874695,
      -0.28129851818084717,
      -0.2921476662158966,
      -1.5227437019348145,
      0.9226804971694946,
      -1.503545880317688,
      -2.5266835689544678,
      -2.496805191040039,
      -0.10643339157104492,
      -1.3820399045944214,
      1.3630073070526123,
      -0.9319897890090942,
      1.764389991760254,
      -0.922733724117279,
      -0.5926190614700317,
      -1.6510322093963623,
      -3.7638511657714844,
      0.343839168548584,
      -1.940664529800415,
      7.582495212554932,
      -0.34190496802330017,
      -0.6852496862411499,
      10.762327194213867,
      -1.6660321950912476,
      0.9579753875732422,
      -0.4716462194919586,
      -2.2425012588500977,
      1.1554101705551147,
      -1.0810950994491577,
      -0.16376200318336487,
      -1.4891455173492432,
      -4.914941787719727,
      -6.913684368133545,
      3.3360636234283447,
      -1.7777824401855469,
      0.8485650420188904,
      -0.7835280895233154,
      2.637141704559326,
      -1.136522650718689,
      -0.32369911670684814,
      -0.6155099868774414,
      0.2453916370868683,
      -0.927889883518219,
      1.7914209365844727,
      -0.8862297534942627,
      2.098991870880127,
      2.2344820499420166,
      -1.0987046957015991,
      0.20347809791564941,
      -1.3600633144378662,
      0.7603725790977478,
      -0.12937268614768982,
      -0.7697136402130127,
      1.3184170722961426,
      -0.33354008197784424,
      2.2919063568115234,
      -4.380006313323975,
      0.18638889491558075,
      0.2460530698299408,
      -1.5790915489196777,
      -0.01169348694384098,
      -2.841522455215454,
      1.1049765348434448,
      -0.2128598988056183,
      3.419252872467041,
      2.274256944656372,
      -2.2860333919525146,
      2.248687744140625,
      1.431359887123108,
      -1.8843413591384888,
      0.5103486180305481,
      0.6773704886436462,
      -1.7683169841766357,
      -3.893730878829956,
      0.5100988149642944,
      2.743924140930176,
      -4.400549411773682,
      -3.058595657348633,
      -0.1466669887304306,
      -2.3186075687408447,
      -1.2744942903518677,
      -1.8291723728179932,
      -0.8848453760147095,
      -2.501772165298462,
      -0.4711223244667053,
      2.7845115661621094,
      -0.8483690023422241,
      -2.061152935028076,
      -1.1001242399215698,
      4.528208255767822,
      -1.417715311050415,
      2.1065685749053955,
      2.315764904022217,
      -1.168188214302063,
      -1.0848287343978882,
      -1.7168742418289185,
      0.13128362596035004,
      0.5297160744667053,
      -0.8606390357017517,
      -0.6695165038108826,
      -0.984521210193634,
      1.909082293510437,
      1.8954665660858154,
      -1.1832349300384521,
      0.9977928400039673,
      -1.889489769935608,
      -3.5709304809570312,
      -1.4148584604263306,
      0.07778596878051758,
      -0.13330216705799103,
      1.8654139041900635,
      0.8985531330108643,
      -2.144164800643921,
      1.4216830730438232,
      1.1458467245101929,
      0.4906645119190216,
      0.10700979828834534,
      0.3256679177284241,
      1.7780689001083374,
      -1.246063232421875,
      0.2830889821052551,
      -0.5356683135032654,
      2.3203651905059814,
      2.905951738357544,
      0.5074570178985596,
      -0.9832361340522766,
      1.9920976161956787,
      -1.155013918876648,
      -1.537734866142273,
      1.1682530641555786,
      -6.140051364898682,
      -2.984504222869873,
      1.2418369054794312,
      0.6372886300086975,
      -1.7535873651504517,
      6.065684795379639,
      -4.436980724334717,
      0.15334796905517578,
      1.973865032196045,
      2.1285886764526367,
      2.511101484298706,
      -3.5055668354034424,
      -0.8497281670570374,
      -1.8743666410446167,
      -2.7729034423828125,
      -2.076425552368164,
      -4.728309154510498,
      0.1728363335132599,
      -5.674217224121094,
      1.5223805904388428,
      0.5054032206535339,
      -2.3539819717407227,
      -1.1983870267868042,
      -3.319340944290161,
      0.6396545767784119,
      2.023036479949951,
      1.2682563066482544,
      -2.4422178268432617,
      0.8398373126983643,
      1.354540467262268,
      -0.09854695200920105,
      -2.2529680728912354,
      0.6106096506118774,
      -5.021906852722168,
      -7.3858208656311035,
      -2.2630326747894287,
      0.1429305523633957,
      0.9341100454330444,
      0.9567573666572571,
      -0.3687676191329956,
      -2.9592080116271973,
      -3.2993454933166504,
      1.8796324729919434,
      -0.208646759390831,
      3.445047378540039,
      -2.649844169616699,
      -1.28995943069458,
      -5.355485439300537,
      0.7297849655151367,
      -2.4824414253234863,
      1.6855581998825073,
      3.748562812805176,
      5.896186828613281,
      -2.0110549926757812,
      -0.4577391743659973,
      -0.7040805220603943,
      1.2758588790893555,
      -2.6288909912109375,
      4.17302131652832,
      -6.297740459442139,
      3.919776201248169,
      -1.503061056137085,
      -6.68264102935791,
      8.67273235321045,
      -1.359188199043274,
      5.450937747955322,
      5.054245948791504,
      -4.694276809692383,
      1.9491689205169678,
      -1.8303583860397339,
      -2.2855663299560547,
      -6.660989761352539,
      0.8099749088287354,
      1.5033018589019775,
      -7.169615268707275,
      -3.056831121444702,
      -5.940341472625732,
      2.584348440170288,
      -3.184138298034668,
      -1.7822757959365845,
      0.8799176812171936,
      1.2978988885879517,
      2.0788257122039795,
      -0.1485430747270584,
      -0.4673588275909424,
      1.5551129579544067,
      -0.20125356316566467,
      2.0823986530303955,
      -0.49015116691589355,
      0.3163202702999115,
      -1.7120260000228882,
      -2.2995920181274414,
      -1.081053614616394,
      -0.8148077726364136,
      2.1053240299224854,
      -2.0213780403137207,
      2.097524881362915,
      -1.5719099044799805,
      -2.504009246826172,
      -2.0723493099212646,
      -0.6438230872154236,
      1.6810210943222046,
      1.8549855947494507,
      -1.0214052200317383,
      -2.5980472564697266,
      -0.9385644197463989,
      0.3234044313430786,
      -2.3358845710754395,
      -3.825406789779663,
      1.0646214485168457,
      -0.621472179889679,
      -0.5359017252922058,
      0.5008530020713806,
      1.5722697973251343,
      -3.662733793258667,
      1.3061448335647583,
      -3.238579511642456,
      -0.6403573155403137,
      -2.8418352603912354,
      5.004687786102295,
      -6.563752174377441,
      -4.560253620147705,
      -0.7797497510910034,
      1.2162631750106812,
      -2.3733603954315186,
      7.266716957092285,
      -4.335932731628418,
      0.46642953157424927,
      -0.18828418850898743,
      1.7049773931503296,
      0.1426001638174057,
      -1.623349666595459,
      -0.8454276919364929,
      4.706649303436279,
      -2.221885919570923,
      0.5796748995780945,
      -0.27781346440315247,
      -0.839930534362793,
      -0.4076773226261139,
      -2.762345552444458,
      -0.48895174264907837,
      1.1383923292160034,
      0.594584584236145,
      -1.0195491313934326,
      0.37374380230903625,
      0.7146516442298889,
      -3.993490219116211,
      0.2506153881549835,
      -0.3275321424007416,
      -1.159203290939331,
      0.46844789385795593,
      -2.267594337463379,
      0.21817120909690857,
      2.9974896907806396,
      0.0238322876393795,
      0.42856523394584656,
      1.3049606084823608,
      -2.863776445388794,
      -1.2928555011749268,
      0.2830905616283417,
      0.8511112928390503,
      -0.40559837222099304,
      1.0457029342651367,
      -0.3532004952430725,
      2.711076021194458,
      -4.373150825500488,
      -1.1540961265563965,
      -0.5517635941505432,
      0.6695303320884705,
      1.2326734066009521,
      -0.934779703617096,
      0.4135541021823883,
      -2.8307440280914307,
      -0.37648481130599976,
      2.14748215675354,
      -1.153489112854004,
      1.8059563636779785,
      2.1590616703033447,
      -5.126309871673584,
      2.4104650020599365,
      0.20303146541118622,
      -1.4275165796279907,
      -1.817006230354309,
      0.8044798970222473,
      -0.5355557799339294,
      0.06751982867717743,
      2.9305977821350098,
      -0.8139402866363525,
      1.0126056671142578,
      0.390890896320343,
      -2.513331651687622,
      -3.8935632705688477,
      2.979606866836548,
      -0.37504222989082336,
      -2.1250975131988525,
      -0.6994096636772156,
      -0.5447712540626526,
      -0.6233540177345276,
      1.7523164749145508,
      1.3541114330291748,
      1.7133315801620483,
      -0.4433963894844055,
      -0.40529078245162964,
      -0.04274527356028557,
      5.408450603485107,
      1.5686085224151611,
      0.6964266300201416,
      -1.011862874031067,
      -2.0957627296447754,
      -0.13168807327747345,
      -1.443118691444397,
      -2.0522103309631348,
      -0.5298756957054138,
      0.611940860748291,
      -1.5814288854599,
      3.638362407684326,
      0.6469255089759827,
      -1.3197273015975952,
      1.870596170425415,
      0.15841829776763916,
      3.4053425788879395,
      -1.526840329170227,
      0.6708650588989258,
      0.05311265587806702,
      4.253481864929199,
      -0.8662978410720825,
      -1.081013560295105,
      -2.390403985977173,
      5.574646472930908,
      1.9856137037277222,
      -4.614409446716309,
      -2.0879223346710205,
      0.2297608107328415,
      -3.4961702823638916,
      -6.322303771972656,
      7.649044990539551,
      -14.169842720031738,
      -15.067639350891113,
      -3.152273178100586,
      6.913632869720459,
      -7.4107208251953125,
      -2.0496630668640137,
      -4.722223281860352,
      -7.331419467926025,
      -2.4839742183685303,
      0.12091225385665894,
      -0.6065573692321777,
      -0.7986351847648621,
      3.880662679672241,
      5.101232528686523,
      -9.36551570892334,
      7.273468017578125,
      1.7187755107879639,
      -0.915721595287323,
      0.9902130961418152,
      2.365814447402954,
      0.3302643299102783,
      -4.462670803070068,
      0.7696865797042847,
      2.137524127960205,
      -1.1724661588668823,
      -0.45773664116859436,
      -7.313867092132568,
      -0.3993368446826935,
      5.915264129638672,
      -6.168478965759277,
      4.346912384033203,
      -6.2434983253479,
      -4.281343460083008,
      8.022645950317383,
      2.3663926124572754,
      4.0097479820251465,
      -0.4462359547615051,
      -0.3258468508720398,
      0.9087828993797302,
      3.6789066791534424,
      -4.206392765045166,
      0.06134116277098656,
      -0.42739471793174744,
      -3.1227526664733887,
      3.3039472103118896,
      0.44668853282928467,
      -1.9289700984954834,
      -1.88262939453125,
      -0.37983688712120056,
      -3.429171562194824,
      1.6518208980560303,
      0.9979371428489685,
      -2.105656862258911,
      -1.4578949213027954,
      0.7812180519104004,
      -1.6570539474487305,
      -0.6300243735313416,
      -1.472259759902954,
      0.12781496345996857,
      1.3872209787368774,
      0.6180977821350098,
      -2.096745491027832,
      -1.1688674688339233,
      -0.14255715906620026,
      -1.2384204864501953,
      -0.06441240012645721,
      0.5258322358131409,
      -0.3774527311325073,
      -0.5107780694961548,
      1.8074660301208496,
      -1.194326639175415,
      -1.3184794187545776,
      -1.4133390188217163,
      1.2756459712982178,
      -0.964063286781311,
      0.008198846131563187,
      0.007131835911422968,
      0.006458412855863571,
      0.000038962542021181434,
      -0.0024677321780472994,
      0.007622734643518925,
      -0.006711682304739952,
      0.005446454044431448,
      0.004128333646804094,
      0.009179556742310524,
      0.0013358904980123043,
      -0.007417942397296429,
      0.006928343325853348,
      -0.008303086273372173,
      -0.006912856362760067,
      -0.0032806394156068563,
      0.0061888983473181725,
      0.0007417135057039559,
      -0.008805891498923302,
      -0.006420238874852657,
      0.008715602569282055,
      0.003415819024667144,
      0.000052603529184125364,
      0.0053476328030228615,
      0.005613973829895258,
      0.005049798637628555,
      -0.004777871072292328,
      0.006358860060572624,
      -0.0005029046442359686
    ]
  },
  "hiddenLayers": [
    {
      "inputMatrix": {
        "rows": 20,
        "columns": 29,
        "weights": [
          -0.007100180722773075,
          -0.28091663122177124,
          -0.4790625274181366,
          0.0591571107506752,
          -0.33437591791152954,
          -0.1650838851928711,
          -0.21985973417758942,
          -0.1173771321773529,
          0.055840883404016495,
          -0.03376690670847893,
          0.07363470643758774,
          0.12787608802318573,
          0.1689515858888626,
          0.09673473984003067,
          0.15297751128673553,
          0.08890804648399353,
          0.03929805010557175,
          0.07692880183458328,
          -0.6677766442298889,
          0.046802472323179245,
          -0.03343795984983444,
          -0.23418718576431274,
          -0.09489107131958008,
          -0.22830729186534882,
          -0.37918511033058167,
          0.007969748228788376,
          0.143052339553833,
          0.6248363256454468,
          -0.1565321981906891,
          -0.21856622397899628,
          -0.4209558665752411,
          -0.020853979513049126,
          0.018677428364753723,
          -0.2474282681941986,
          -0.5440197587013245,
          -0.2496866136789322,
          -0.24725888669490814,
          0.2200404554605484,
          -0.7336000204086304,
          -0.045372720807790756,
          -0.40310388803482056,
          0.1332881897687912,
          -0.14044512808322906,
          0.11158107966184616,
          0.28278255462646484,
          -0.056033164262771606,
          0.10348892956972122,
          -0.14134451746940613,
          -0.12008694559335709,
          0.36175331473350525,
          0.037339746952056885,
          -0.2753792405128479,
          -0.4136609137058258,
          -0.14478380978107452,
          -0.09330084174871445,
          0.13979940116405487,
          0.27785298228263855,
          0.0753297433257103,
          0.0970633253455162,
          -0.20222684741020203,
          0.7043899297714233,
          -0.014617963694036007,
          -0.5311344265937805,
          -0.09978079050779343,
          -0.1797817051410675,
          -0.4377901256084442,
          -0.1932174265384674,
          0.24414479732513428,
          0.506437361240387,
          0.09529472887516022,
          -0.29527395963668823,
          -0.04712023213505745,
          0.36702093482017517,
          -0.14924953877925873,
          -0.09697965532541275,
          0.4041142165660858,
          -0.5232709646224976,
          -0.34934306144714355,
          -0.10465610772371292,
          -0.17937831580638885,
          -0.18410469591617584,
          0.01211639679968357,
          0.39295944571495056,
          0.1160820797085762,
          -0.16175560653209686,
          0.42491769790649414,
          0.0021959017030894756,
          -0.5356513857841492,
          0.3064832389354706,
          0.1935391128063202,
          -0.2640766501426697,
          0.5038149356842041,
          0.5244771838188171,
          -0.1411164551973343,
          0.35194915533065796,
          0.152656689286232,
          0.3077377676963806,
          0.060663431882858276,
          0.2364412397146225,
          -0.16491475701332092,
          -0.00647739740088582,
          0.018091261386871338,
          -0.4031108319759369,
          0.14354285597801208,
          -0.02289842814207077,
          0.11804189532995224,
          -0.3806242346763611,
          0.19067718088626862,
          -0.11268433183431625,
          -0.07551150023937225,
          0.43923038244247437,
          -0.012283778749406338,
          0.022725246846675873,
          -0.057554442435503006,
          0.4322206974029541,
          -0.1449832022190094,
          0.07187406718730927,
          -0.15061363577842712,
          0.011341115459799767,
          -0.10066044330596924,
          -0.4102180004119873,
          -0.12221817672252655,
          -0.09492737799882889,
          -0.2527260184288025,
          0.02788371592760086,
          -0.2015729546546936,
          -0.3872951567173004,
          0.1741742193698883,
          -0.4493972063064575,
          0.09163477271795273,
          0.14166104793548584,
          -0.2347407042980194,
          -0.2974066734313965,
          0.06854768842458725,
          0.07765443623065948,
          -0.12327300012111664,
          0.05728001892566681,
          -0.2399442493915558,
          -0.2858659029006958,
          0.2573144733905792,
          0.19977369904518127,
          0.11192066222429276,
          -0.37287697196006775,
          -0.12787756323814392,
          -0.21207401156425476,
          0.3282795548439026,
          -0.1292456090450287,
          -0.7713208198547363,
          -0.2094757854938507,
          0.07895056903362274,
          -0.2095889300107956,
          0.10624184459447861,
          -0.13757070899009705,
          -0.13633006811141968,
          -0.43121492862701416,
          0.03204650059342384,
          0.27499550580978394,
          0.10652478784322739,
          0.28323444724082947,
          -0.2122470885515213,
          0.010582253336906433,
          0.00007306948100449517,
          0.10309456288814545,
          -0.24724826216697693,
          -0.011949253268539906,
          0.05759360268712044,
          0.02819729968905449,
          0.050610315054655075,
          -0.1370653361082077,
          -0.31391873955726624,
          -0.05256522819399834,
          0.22094185650348663,
          0.32709988951683044,
          0.24507072567939758,
          0.18184499442577362,
          -0.1856210082769394,
          0.5706847906112671,
          0.2770879566669464,
          -0.1964293122291565,
          0.08797716349363327,
          -0.11060940474271774,
          -0.10314764082431793,
          0.31406378746032715,
          0.2827568054199219,
          -0.037617407739162445,
          -0.1113196313381195,
          0.07701238244771957,
          0.10590599477291107,
          0.07157918810844421,
          -0.11171352863311768,
          0.22655661404132843,
          -0.279613733291626,
          -0.14743857085704803,
          -0.31173211336135864,
          0.11320055276155472,
          -0.14690057933330536,
          -0.09492088109254837,
          -0.10189177095890045,
          0.035371627658605576,
          0.04692239686846733,
          -0.20028840005397797,
          0.08120907098054886,
          0.43584325909614563,
          0.5950586795806885,
          0.39829936623573303,
          0.18836568295955658,
          -0.08165092021226883,
          0.696295976638794,
          0.2749338448047638,
          -0.2796420753002167,
          -0.046506382524967194,
          0.024742508307099342,
          -0.05813897028565407,
          -0.15751323103904724,
          -0.11540056020021439,
          0.5059123039245605,
          -0.02365352399647236,
          -0.12217207252979279,
          -0.2868099510669708,
          0.31035172939300537,
          -0.1517585813999176,
          0.15582101047039032,
          -0.6703701019287109,
          -0.4746302664279938,
          0.06839857995510101,
          0.06717179715633392,
          0.3893868327140808,
          -0.1453055590391159,
          0.0003784553555306047,
          -0.5089447498321533,
          0.2546202838420868,
          -0.6476960182189941,
          0.3183528184890747,
          0.1361408233642578,
          -0.3727551996707916,
          -0.11873123049736023,
          -0.22615765035152435,
          -0.307959645986557,
          0.1274847835302353,
          0.2396547943353653,
          -0.1126231998205185,
          -0.3145533800125122,
          0.08161892741918564,
          0.13234898447990417,
          -0.139600932598114,
          0.014446605928242207,
          -0.1557273119688034,
          -0.039328452199697495,
          -0.01456331368535757,
          0.07913283258676529,
          0.14581990242004395,
          0.06016426160931587,
          0.04189051687717438,
          -0.06936527043581009,
          0.43072056770324707,
          -0.026808297261595726,
          0.0572163462638855,
          -0.10929732769727707,
          -0.03568795695900917,
          0.1466628909111023,
          0.019792858511209488,
          -0.00866774469614029,
          0.08532508462667465,
          0.23998193442821503,
          -0.15440750122070312,
          0.1379667967557907,
          0.22652225196361542,
          -0.3269522786140442,
          0.06188717857003212,
          0.24418598413467407,
          -0.2661353349685669,
          0.44220951199531555,
          0.037246834486722946,
          -0.1751435101032257,
          -0.1856899857521057,
          -0.508286714553833,
          -0.27297553420066833,
          0.4851159155368805,
          0.068201944231987,
          -0.11310209333896637,
          -0.304134726524353,
          -0.007636225316673517,
          -0.28175419569015503,
          0.1454329490661621,
          0.4207412600517273,
          -0.22066573798656464,
          0.01724785566329956,
          0.10788676887750626,
          0.3937508165836334,
          0.07852529734373093,
          0.06865816563367844,
          -0.2583393156528473,
          0.6776221394538879,
          -0.12893065810203552,
          -0.050301168113946915,
          0.3132096529006958,
          -0.148018479347229,
          -0.3236750662326813,
          0.2181556671857834,
          0.1871040165424347,
          0.14292456209659576,
          0.3548486828804016,
          -0.2799347937107086,
          -0.07107815891504288,
          0.12123829126358032,
          -0.5289230942726135,
          0.03224318474531174,
          -0.05114191398024559,
          -0.24124135076999664,
          -0.048519037663936615,
          -0.7078858017921448,
          0.10675061494112015,
          -0.05748889967799187,
          -0.10420367866754532,
          0.20828777551651,
          0.3755786418914795,
          -0.14798790216445923,
          0.21306663751602173,
          -0.7360087633132935,
          -0.06735501438379288,
          -0.1512238085269928,
          0.16201435029506683,
          0.04025731235742569,
          0.8537663817405701,
          0.46903401613235474,
          -0.0613921694457531,
          0.2382429540157318,
          0.18919260799884796,
          0.03970107063651085,
          -0.2007865458726883,
          0.28432080149650574,
          -0.09283733367919922,
          0.1916893869638443,
          -0.364605188369751,
          -0.06316228210926056,
          0.0584540069103241,
          -0.03748222067952156,
          0.004026728682219982,
          0.09843380004167557,
          -0.20690318942070007,
          0.012790495529770851,
          0.10269846767187119,
          0.059312306344509125,
          -0.22542358934879303,
          0.22978152334690094,
          -0.1403033435344696,
          -0.7154939770698547,
          -0.3228096663951874,
          0.007868966087698936,
          -0.3459797203540802,
          0.011284423992037773,
          -0.11517243832349777,
          0.06622043997049332,
          0.02890060283243656,
          -0.35306596755981445,
          -0.05245655030012131,
          0.39961177110671997,
          -0.25669392943382263,
          -0.11795412749052048,
          -0.008305331692099571,
          -0.17592352628707886,
          0.25390252470970154,
          -0.20931510627269745,
          0.45816999673843384,
          0.3120414912700653,
          -0.18142668902873993,
          0.240631103515625,
          -0.20070338249206543,
          0.1145707219839096,
          -0.22256417572498322,
          0.1617661565542221,
          0.0038744572084397078,
          -0.08276774734258652,
          -0.20394964516162872,
          0.016850702464580536,
          -0.3973422050476074,
          -0.6340121030807495,
          -0.03449278697371483,
          -0.4620581865310669,
          0.4275533854961395,
          -0.4615136682987213,
          0.04732911288738251,
          0.04976293444633484,
          -0.5494899153709412,
          -0.5421313643455505,
          -0.5422137975692749,
          0.023380327969789505,
          -0.2317168116569519,
          0.10602516680955887,
          -0.06960910558700562,
          -0.4196731746196747,
          -0.25267964601516724,
          -0.15678398311138153,
          -0.5333883166313171,
          0.5342384576797485,
          0.3528054654598236,
          -0.0682801678776741,
          -0.017947306856513023,
          -0.013982899487018585,
          0.21008221805095673,
          -0.13724280893802643,
          -0.06501634418964386,
          0.1791793256998062,
          0.20723234117031097,
          -0.21199555695056915,
          0.22437068819999695,
          -0.012808594852685928,
          0.5171132683753967,
          0.06000131368637085,
          -0.1573408991098404,
          0.5664750337600708,
          0.17009738087654114,
          -0.033681247383356094,
          -0.18112683296203613,
          0.28438112139701843,
          -0.20787248015403748,
          0.3825516402721405,
          -0.03676920011639595,
          -0.02291007898747921,
          -0.224468395113945,
          0.19165033102035522,
          0.3084288239479065,
          -0.01702537015080452,
          0.42824140191078186,
          0.09594617784023285,
          -0.1634255200624466,
          0.17398443818092346,
          0.224826842546463,
          0.4871191680431366,
          0.06911537051200867,
          0.04257204383611679,
          -0.10415108501911163,
          0.3299846351146698,
          -0.015095699578523636,
          -0.5560681223869324,
          -0.44987770915031433,
          -0.36822715401649475,
          0.38623395562171936,
          0.42497843503952026,
          0.3987778425216675,
          0.7473299503326416,
          -0.31750887632369995,
          0.33510029315948486,
          0.07922479510307312,
          -0.4291526675224304,
          -0.21149271726608276,
          0.3448067903518677,
          0.10889267176389694,
          0.12060297280550003,
          0.18712382018566132,
          -0.14233562350273132,
          0.016580980271100998,
          -0.18653684854507446,
          -0.4447943866252899,
          0.013819856569170952,
          -0.20503637194633484,
          -0.02754869870841503,
          -0.507617175579071,
          0.37521442770957947,
          -0.3993839919567108,
          -0.14517076313495636,
          -0.3278549909591675,
          0.15925008058547974,
          0.043643973767757416,
          0.48294195532798767,
          -0.450717031955719,
          -0.5647261142730713,
          -0.15736229717731476,
          -0.19324231147766113,
          -0.17524157464504242,
          0.16503359377384186,
          0.13519470393657684,
          -0.010258193127810955,
          -0.28987687826156616,
          -0.23153604567050934,
          -0.153408944606781,
          0.3579651415348053,
          -0.3787950277328491,
          -0.24295617640018463,
          0.09345365315675735,
          -0.35379526019096375,
          -0.4945726990699768,
          0.6701526641845703,
          -0.02485891990363598,
          -0.0073583065532147884,
          -0.0445392020046711,
          0.2904635965824127,
          0.08586156368255615,
          -0.38007593154907227,
          -0.07903185486793518,
          -0.02897796966135502,
          -0.41115692257881165,
          -0.21061047911643982,
          -0.15587200224399567,
          -0.29711174964904785,
          0.1972106248140335,
          -0.35490939021110535,
          0.264442503452301,
          0.5896890759468079,
          -0.45575129985809326,
          0.2754620313644409,
          -0.12358937412500381,
          0.010759769938886166,
          0.0483844131231308,
          0.5880497097969055,
          -0.6305521130561829,
          -0.1309528350830078,
          0.15567830204963684,
          -0.15222856402397156,
          -0.1938217282295227,
          0.32136955857276917,
          0.23800352215766907,
          0.22841113805770874,
          -0.07492046803236008,
          -0.011167971417307854,
          0.06236040219664574,
          0.2673214375972748,
          -0.14175741374492645,
          -0.3615230321884155,
          -0.14966170489788055,
          -0.2174350470304489,
          -0.07165529578924179,
          -0.2878541946411133,
          0.37146490812301636,
          -0.33023110032081604,
          -0.08537033200263977,
          0.39756548404693604,
          0.566021203994751,
          -0.1288948506116867,
          0.0663795992732048,
          0.028862647712230682,
          -0.09447358548641205,
          -0.26507481932640076,
          -0.049892961978912354,
          -0.1686217188835144,
          0.06153745949268341,
          -0.3433719277381897,
          0.13714894652366638,
          0.4081474542617798,
          0.21411347389221191,
          0.1037437915802002,
          0.05339331924915314,
          -0.2941281497478485,
          -0.326320081949234,
          0.24620598554611206,
          0.20432966947555542,
          -0.18511129915714264,
          -0.06319481134414673,
          -0.00974913127720356,
          -0.3741273880004883,
          -0.09642782062292099,
          -0.07886391133069992,
          0.05768813565373421,
          -0.12798409163951874,
          -0.11728925257921219,
          -0.06618741899728775,
          -0.2634371221065521,
          0.12742096185684204,
          0.41548776626586914,
          0.2780068516731262,
          -0.005645431578159332,
          0.23075485229492188,
          0.10642997175455093,
          0.41061538457870483,
          -0.15606321394443512,
          0.5803206562995911,
          -0.030774012207984924,
          0.06476692855358124,
          -0.24448959529399872,
          0.2617027759552002,
          -0.1654827892780304,
          0.23864683508872986,
          -0.20904751121997833,
          -0.05902504548430443,
          -0.009746680036187172,
          -0.16268886625766754,
          -0.2951972186565399,
          -0.2910754978656769,
          0.31573882699012756,
          0.07044768333435059
        ]
      },
      "inputHidden": {
        "rows": 20,
        "columns": 20,
        "weights": [
          -0.1259499341249466,
          0.3033452332019806,
          0.18961162865161896,
          -0.9563965201377869,
          0.1590944230556488,
          -0.20022164285182953,
          1.1674485206604004,
          0.2317533791065216,
          -0.14273978769779205,
          0.6685048341751099,
          0.4597379267215729,
          0.7460989356040955,
          0.6668459177017212,
          1.0052798986434937,
          -0.1270509660243988,
          -0.5369384288787842,
          0.4703567326068878,
          0.23235562443733215,
          -0.22038981318473816,
          0.18830324709415436,
          0.4391050636768341,
          -1.5927174091339111,
          0.009143615141510963,
          -0.5873125195503235,
          -0.10484421253204346,
          0.015375662595033646,
          -0.12814326584339142,
          -0.297238826751709,
          0.4164894223213196,
          0.9274271130561829,
          -0.038667164742946625,
          0.180480495095253,
          0.5934476852416992,
          0.6785111427307129,
          -1.1978378295898438,
          0.25121521949768066,
          -0.8217562437057495,
          0.035314902663230896,
          0.18865451216697693,
          -0.8908663392066956,
          0.07828901708126068,
          1.104736089706421,
          -0.3663729429244995,
          -0.40704524517059326,
          -0.26889491081237793,
          -0.1199733093380928,
          1.1856211423873901,
          0.5714203715324402,
          -0.2091054618358612,
          0.06551165878772736,
          0.592443585395813,
          0.8753705620765686,
          -0.7197155356407166,
          -0.06728952378034592,
          0.3621954023838043,
          0.10066316276788712,
          -0.24924413859844208,
          0.20293785631656647,
          -0.1900879144668579,
          0.39873453974723816,
          -0.21424677968025208,
          0.5091844797134399,
          1.3482275009155273,
          -0.03338836878538132,
          -1.797722578048706,
          0.21292662620544434,
          -1.1745967864990234,
          -1.1652939319610596,
          -0.9190149307250977,
          0.5929466485977173,
          -0.3267683684825897,
          0.641877293586731,
          0.9126418232917786,
          0.5991182327270508,
          0.4735884666442871,
          -1.057213306427002,
          -1.6810846328735352,
          -0.07740198820829391,
          -0.23282334208488464,
          0.3387274742126465,
          -0.18236149847507477,
          0.7131588459014893,
          0.678055465221405,
          0.6126693487167358,
          -0.9037320613861084,
          -0.5525432229042053,
          -0.6757562160491943,
          -1.0714136362075806,
          -0.6348873376846313,
          0.023952418938279152,
          0.03307974711060524,
          1.936436653137207,
          0.3958020806312561,
          0.5822371244430542,
          0.7454723119735718,
          -0.2776329815387726,
          -0.7825015783309937,
          -0.23640935122966766,
          -0.35203006863594055,
          -0.25447484850883484,
          -1.0295965671539307,
          -0.5321769714355469,
          1.1886707544326782,
          0.17011035978794098,
          1.2947345972061157,
          -1.3820135593414307,
          -0.16760225594043732,
          -0.5588573813438416,
          0.8078323602676392,
          0.880218505859375,
          -0.6922648549079895,
          0.7773723602294922,
          -0.5736698508262634,
          1.8770089149475098,
          -0.7017523646354675,
          -0.8542123436927795,
          -0.7348865270614624,
          0.7785793542861938,
          0.165479376912117,
          0.2831672728061676,
          -0.47967448830604553,
          -0.4656033217906952,
          0.7292605042457581,
          -0.38940542936325073,
          -0.5975194573402405,
          -0.8279455304145813,
          0.36128777265548706,
          0.40893611311912537,
          0.354742169380188,
          0.6488946676254272,
          0.5872207283973694,
          0.3531351685523987,
          0.4611832797527313,
          0.5990764498710632,
          -0.7465806603431702,
          0.4883410334587097,
          -0.1885489672422409,
          0.6933197379112244,
          -0.13020764291286469,
          0.18898847699165344,
          0.8705601692199707,
          0.7174211740493774,
          0.8102157115936279,
          -0.056178320199251175,
          0.526269257068634,
          -0.018912166357040405,
          -1.8953232765197754,
          -0.9808308482170105,
          -0.0007827213266864419,
          0.6254705190658569,
          1.0006409883499146,
          -0.07033666968345642,
          0.24224160611629486,
          0.14109964668750763,
          -0.4051803946495056,
          -0.5310935974121094,
          1.183396816253662,
          -0.22878773510456085,
          -0.36560311913490295,
          -0.5273675918579102,
          0.8528886437416077,
          -0.8108142614364624,
          0.7081862092018127,
          -0.8292616605758667,
          -0.22758258879184723,
          -0.3612566590309143,
          0.18020935356616974,
          -1.0598734617233276,
          0.556409478187561,
          -0.024098841473460197,
          -0.11748430132865906,
          0.3015076518058777,
          -0.949410080909729,
          -0.6614952683448792,
          -0.32877567410469055,
          -0.3605797290802002,
          0.6681386232376099,
          0.7174780368804932,
          0.09992800652980804,
          -0.21256831288337708,
          -2.2036325931549072,
          -1.491926908493042,
          1.639388918876648,
          -1.7923848628997803,
          -0.5232981443405151,
          -0.6820169687271118,
          -0.8099881410598755,
          -0.04748193174600601,
          0.5115125775337219,
          2.58359432220459,
          1.0232219696044922,
          -0.34062331914901733,
          0.8100176453590393,
          -0.2714911997318268,
          -0.5706899762153625,
          -1.1637661457061768,
          0.654940664768219,
          0.053770873695611954,
          1.2028999328613281,
          -0.08795873820781708,
          0.0883391723036766,
          0.340867817401886,
          0.29490166902542114,
          -0.8678908944129944,
          -0.06345244497060776,
          -0.6682851314544678,
          0.3396299183368683,
          -0.8282012343406677,
          0.9310986995697021,
          0.3570113778114319,
          0.7461195588111877,
          0.7855080962181091,
          -0.4626608192920685,
          1.8846168518066406,
          -0.8638870120048523,
          -1.043115258216858,
          -0.631536066532135,
          -0.02305762842297554,
          0.14300328493118286,
          1.8704885244369507,
          -0.22430011630058289,
          0.09906091541051865,
          -0.35556313395500183,
          -0.22739015519618988,
          -0.2728155851364136,
          -0.6211848855018616,
          0.5426653623580933,
          -0.4958190321922302,
          -0.26024889945983887,
          0.40953731536865234,
          0.41866785287857056,
          -0.7013852000236511,
          0.5399178266525269,
          1.331621527671814,
          -1.693464994430542,
          -0.6828580498695374,
          0.038501884788274765,
          -0.029585354030132294,
          -0.19554178416728973,
          -0.05755647271871567,
          -0.6464623808860779,
          0.20673896372318268,
          0.013737003318965435,
          -0.3661814332008362,
          -0.06303588300943375,
          -0.7171165347099304,
          0.09303145110607147,
          -0.5627691745758057,
          -0.21145497262477875,
          0.8582925200462341,
          0.8597307801246643,
          0.759469211101532,
          1.2350202798843384,
          1.1867953538894653,
          0.546384871006012,
          -1.1912356615066528,
          -0.4892100989818573,
          1.0073293447494507,
          -1.445751667022705,
          -0.7490479946136475,
          0.10801761597394943,
          0.18611864745616913,
          0.9554198384284973,
          -0.28909364342689514,
          0.5628097653388977,
          -0.9112783074378967,
          -0.15186285972595215,
          -1.0491048097610474,
          0.891933262348175,
          0.2352529913187027,
          -0.4674055278301239,
          0.5332872867584229,
          -1.3075271844863892,
          0.8075341582298279,
          0.14631900191307068,
          -0.5039407014846802,
          0.025570638477802277,
          0.11266115307807922,
          0.26935362815856934,
          0.8027516007423401,
          -0.23142394423484802,
          -0.8527714610099792,
          0.3073512315750122,
          -0.6144444942474365,
          -1.0326834917068481,
          -0.8343269228935242,
          0.012385699898004532,
          0.3665052354335785,
          -0.5397404432296753,
          1.4081568717956543,
          0.7567274570465088,
          -0.17410901188850403,
          -0.12676891684532166,
          0.608121395111084,
          0.2541173994541168,
          -0.5117970108985901,
          -1.7822895050048828,
          1.2934157848358154,
          -1.0453064441680908,
          -0.37011057138442993,
          0.561511218547821,
          0.4297979176044464,
          0.16115227341651917,
          -0.00728268176317215,
          0.6461169719696045,
          -1.2247695922851562,
          0.20969219505786896,
          -1.0950630903244019,
          0.012197489850223064,
          0.5969279408454895,
          -0.21978145837783813,
          0.6035875678062439,
          1.8957513570785522,
          0.9971476793289185,
          1.3394875526428223,
          -1.509494662284851,
          -0.4118800461292267,
          0.7231112122535706,
          -0.9805967807769775,
          0.5376695990562439,
          0.11504429578781128,
          -0.4507565200328827,
          -0.02429993823170662,
          -0.6632672548294067,
          0.36981621384620667,
          0.6289352178573608,
          0.3433087170124054,
          -1.23295259475708,
          -0.09932295233011246,
          0.4427390992641449,
          -0.3863566815853119,
          1.1183691024780273,
          -0.7221305966377258,
          0.7123289704322815,
          0.39403364062309265,
          -1.5407962799072266,
          -1.6725472211837769,
          0.6682001352310181,
          -0.3191576600074768,
          -0.3156379163265228,
          1.2968835830688477,
          0.04309879243373871,
          0.37231695652008057,
          -0.7622977495193481,
          -0.7481794357299805,
          1.0124304294586182,
          -0.5575606822967529,
          0.5385119915008545,
          -0.5580518245697021,
          0.8017178773880005,
          0.2620202302932739,
          -0.13591307401657104,
          0.36078986525535583,
          0.11442916095256805,
          0.5596886277198792,
          0.5909678339958191,
          -1.5283045768737793,
          -0.347661554813385,
          -0.9117903709411621,
          0.5275871157646179,
          -0.6906003355979919,
          0.2382030189037323,
          -0.3534463346004486,
          -0.6671457886695862,
          0.4648786187171936,
          -0.16680404543876648,
          0.04576577991247177,
          -0.03582904860377312,
          1.0267454385757446,
          0.730308473110199,
          0.4785882234573364,
          0.4339631497859955,
          0.43209508061408997,
          0.3357871472835541,
          -0.31659558415412903,
          -0.7415170073509216,
          0.5159180760383606,
          1.0274419784545898,
          0.766948401927948,
          0.44156715273857117,
          -0.5726862549781799,
          -0.6237896680831909,
          -0.0853278785943985,
          -1.0006617307662964,
          -0.6565516591072083,
          -1.1544235944747925,
          0.26519256830215454,
          -0.5078945755958557,
          1.2646907567977905,
          0.8021741509437561,
          0.15673209726810455,
          0.2877621352672577,
          1.123701810836792,
          1.6492403745651245,
          0.01962895691394806,
          -0.050043120980262756,
          0.5963563323020935,
          1.3660701513290405,
          0.08615091443061829,
          0.5672658085823059
        ]
      },
      "inputBias": {
        "rows": 20,
        "columns": 1,
        "weights": [
          0.47881564497947693,
          -0.15643538534641266,
          0.7389472126960754,
          0.6714840531349182,
          -0.2600708305835724,
          -0.35598281025886536,
          0.29725533723831177,
          0.6536544561386108,
          0.2274549901485443,
          0.8311828374862671,
          0.3129359185695648,
          1.0986276865005493,
          -0.1498177945613861,
          0.2292981594800949,
          0.22641627490520477,
          0.7193500399589539,
          -0.29581645131111145,
          0.34051787853240967,
          0.11396573483943939,
          0.055819105356931686
        ]
      },
      "forgetMatrix": {
        "rows": 20,
        "columns": 29,
        "weights": [
          -0.21237808465957642,
          0.07100442796945572,
          0.42496973276138306,
          -0.14371879398822784,
          -0.1715107560157776,
          -0.1954079419374466,
          0.24124856293201447,
          -0.3175641894340515,
          -0.22822831571102142,
          -0.059097908437252045,
          0.2246667891740799,
          -0.07115183025598526,
          -0.25406625866889954,
          -0.1635250747203827,
          -0.1382131278514862,
          -0.027678057551383972,
          -0.031106825917959213,
          0.190293550491333,
          -0.07711945474147797,
          -0.055519841611385345,
          -0.1984965056180954,
          0.04426685720682144,
          0.10778993368148804,
          -0.13946424424648285,
          0.6481543779373169,
          0.08359555155038834,
          0.006439089309424162,
          0.31650489568710327,
          -0.21448013186454773,
          0.05561312288045883,
          -0.1649804711341858,
          -0.13285696506500244,
          -0.20187732577323914,
          0.20993845164775848,
          -0.8436205983161926,
          -0.41334956884384155,
          0.11668141931295395,
          -0.23053057491779327,
          -0.331224262714386,
          0.2537209093570709,
          0.890320360660553,
          -0.1462358981370926,
          -0.09346438199281693,
          -0.32988688349723816,
          -0.5610246062278748,
          -0.38679635524749756,
          0.30201759934425354,
          0.16210970282554626,
          0.5560575723648071,
          0.10827146470546722,
          0.03569119796156883,
          0.10138998180627823,
          -0.20068411529064178,
          0.10444863885641098,
          -0.5251155495643616,
          0.22195693850517273,
          -0.13375505805015564,
          0.21907800436019897,
          0.12752310931682587,
          0.5745992064476013,
          -0.48148849606513977,
          -0.2789848744869232,
          0.18245045840740204,
          -0.18672193586826324,
          0.1705508679151535,
          -0.01771588996052742,
          -0.28817522525787354,
          -0.1441991925239563,
          -0.09146569669246674,
          0.06514039635658264,
          0.06883405148983002,
          -0.21266041696071625,
          -0.005262353923171759,
          0.36138683557510376,
          -0.47953078150749207,
          0.341800332069397,
          0.20174726843833923,
          0.5534884929656982,
          -0.04905352368950844,
          -0.13900744915008545,
          0.4094651937484741,
          0.2761010527610779,
          0.3420191705226898,
          -0.11158835142850876,
          0.40704959630966187,
          0.16301539540290833,
          0.2292146533727646,
          -0.5738776326179504,
          -0.001318746362812817,
          0.02042066492140293,
          -0.0054705324582755566,
          -0.032578300684690475,
          0.27110448479652405,
          0.4991864860057831,
          -0.0551043264567852,
          0.2496626079082489,
          0.07623320072889328,
          0.1584610790014267,
          0.3266565203666687,
          0.31203538179397583,
          -0.03809687867760658,
          -0.06515052169561386,
          0.18356628715991974,
          0.07439740747213364,
          0.46414580941200256,
          0.8050923347473145,
          -0.2896067500114441,
          0.7104730010032654,
          -0.3580252230167389,
          0.25286850333213806,
          -0.5847387313842773,
          -0.3634815216064453,
          0.108889140188694,
          0.048167597502470016,
          -0.36018452048301697,
          -0.3124699592590332,
          0.0928792804479599,
          -0.014084285125136375,
          0.3603563606739044,
          -0.07949988543987274,
          -0.05569855123758316,
          -0.001113111269660294,
          -0.13041263818740845,
          -0.6518279314041138,
          -0.19320037961006165,
          0.23239955306053162,
          -0.003226842964068055,
          0.22239521145820618,
          0.008321155793964863,
          0.015967704355716705,
          0.7233144044876099,
          -0.1732529103755951,
          -0.13470445573329926,
          0.20933988690376282,
          0.09243650734424591,
          -0.10702841728925705,
          -0.1436728686094284,
          -0.2585740387439728,
          -0.6908939480781555,
          -0.7897055149078369,
          0.3559550940990448,
          0.12850353121757507,
          -0.029598241671919823,
          0.1286066323518753,
          -0.3340536653995514,
          -0.5638255476951599,
          -0.6539151072502136,
          0.4759413003921509,
          0.6672859191894531,
          0.04697182774543762,
          0.15224841237068176,
          -0.41319429874420166,
          -0.24785169959068298,
          -0.09602097421884537,
          0.36480188369750977,
          0.6693512797355652,
          0.7244772911071777,
          -0.32885658740997314,
          -0.1309928297996521,
          -0.02009311132133007,
          0.286304235458374,
          -0.11708089709281921,
          0.5118526816368103,
          -0.3172306418418884,
          -0.15277685225009918,
          0.6998041272163391,
          0.29679858684539795,
          -0.6372179388999939,
          -0.08920813351869583,
          0.5427148342132568,
          0.31948426365852356,
          0.33084654808044434,
          -0.18979661166667938,
          0.1904108077287674,
          0.4918115437030792,
          0.24722664058208466,
          0.12357867509126663,
          0.03630044683814049,
          0.4779811203479767,
          0.703342616558075,
          0.04033982381224632,
          -0.5320162773132324,
          -0.11135204881429672,
          -0.2044888585805893,
          -0.2882637083530426,
          -0.10673563927412033,
          -0.3197207450866699,
          0.34063148498535156,
          -0.7832875847816467,
          0.21119245886802673,
          0.14080223441123962,
          0.13178828358650208,
          -0.1438405066728592,
          0.3563430607318878,
          -0.3021979331970215,
          -0.1981165111064911,
          0.21080930531024933,
          -0.1415655016899109,
          0.2235049456357956,
          -0.05291200801730156,
          0.06991015374660492,
          -0.3621007204055786,
          -0.12575365602970123,
          -0.392546683549881,
          0.15190207958221436,
          -0.08755390346050262,
          0.03542384132742882,
          -0.485327810049057,
          0.1351047158241272,
          0.1461816430091858,
          -0.24856404960155487,
          0.41082563996315,
          0.2855704724788666,
          0.4706540107727051,
          -0.13277772068977356,
          -0.023023424670100212,
          -0.15700498223304749,
          -0.3493814766407013,
          -0.7430377006530762,
          0.8047096133232117,
          -0.0635521188378334,
          -0.3948597013950348,
          -0.11817039549350739,
          0.47540968656539917,
          -0.026037218049168587,
          0.1641944795846939,
          -0.13898544013500214,
          -0.09753356873989105,
          -0.19006921350955963,
          0.42495203018188477,
          -0.12130864709615707,
          0.5069124698638916,
          -0.17325294017791748,
          -0.1614038050174713,
          -0.21506445109844208,
          -0.18960146605968475,
          0.18008463084697723,
          0.16647890210151672,
          -0.13709406554698944,
          0.4470714032649994,
          0.001281479373574257,
          0.12892276048660278,
          0.03197729215025902,
          -0.7639178037643433,
          0.21400077641010284,
          -0.4354531764984131,
          0.04652848467230797,
          0.059206921607255936,
          0.019498659297823906,
          -0.19198676943778992,
          0.3470102548599243,
          -0.05773254483938217,
          0.2810404598712921,
          0.4078996777534485,
          -0.155583918094635,
          -0.17008595168590546,
          -0.35687705874443054,
          0.02615189552307129,
          0.20167918503284454,
          -0.2475706785917282,
          -0.267808198928833,
          -0.22110842168331146,
          -0.00455447705462575,
          0.019774872809648514,
          -0.11368494480848312,
          -0.10583406686782837,
          -0.3310544490814209,
          0.4187605679035187,
          -0.6244825124740601,
          -0.09025981277227402,
          -0.09221534430980682,
          0.142430379986763,
          -0.14518705010414124,
          -0.054668623954057693,
          0.14552275836467743,
          -0.11534933000802994,
          0.3129979074001312,
          -0.18073460459709167,
          0.02133059874176979,
          0.412291020154953,
          -0.649742066860199,
          -0.00015464145690202713,
          0.07219642400741577,
          0.2747824192047119,
          -0.323283851146698,
          -0.17867180705070496,
          0.0038418364711105824,
          0.2700296640396118,
          0.08238434791564941,
          -0.6179971098899841,
          0.13309042155742645,
          0.6617974042892456,
          0.6652179956436157,
          -0.3838856518268585,
          -0.1429428607225418,
          0.4740528166294098,
          -0.35373762249946594,
          0.1779874563217163,
          -0.6081250905990601,
          0.15931758284568787,
          0.06821691989898682,
          -0.16379527747631073,
          0.08460269868373871,
          0.08167915791273117,
          -0.2776808440685272,
          -0.6711605787277222,
          0.11713849753141403,
          0.0752892941236496,
          0.034808382391929626,
          0.17454470694065094,
          -0.26606449484825134,
          -0.1310579776763916,
          -0.2763065993785858,
          -0.3979690372943878,
          0.08379030227661133,
          0.06823834031820297,
          -0.30053672194480896,
          0.5782344937324524,
          -0.18692249059677124,
          -0.08730556815862656,
          0.44369399547576904,
          -0.1165112629532814,
          0.161912202835083,
          -0.1280946582555771,
          0.5570025444030762,
          -0.1630973517894745,
          0.1827378123998642,
          0.23700709640979767,
          -0.029094800353050232,
          -0.21557438373565674,
          -0.22714243829250336,
          -0.03008102998137474,
          0.34038281440734863,
          -0.6316055655479431,
          -0.15391558408737183,
          0.1559956818819046,
          -0.4110136032104492,
          -0.43257227540016174,
          0.2128777652978897,
          0.2506377696990967,
          -0.1379420906305313,
          0.16014665365219116,
          0.2164672166109085,
          -0.4000684320926666,
          -0.031734637916088104,
          -0.05767746642231941,
          -0.07859215885400772,
          0.35339564085006714,
          0.28143465518951416,
          0.17214450240135193,
          -0.2398892492055893,
          -0.0014861248200759292,
          -0.07889930158853531,
          -0.1375725418329239,
          -0.03383411467075348,
          -0.02087000198662281,
          -0.21590624749660492,
          0.05466544255614281,
          -0.006960083730518818,
          -0.3426204323768616,
          0.10577541589736938,
          -0.25509312748908997,
          -0.01721976324915886,
          -0.1635204255580902,
          -0.08587926626205444,
          -0.14290818572044373,
          -0.029423097148537636,
          -0.15977983176708221,
          -0.2670619487762451,
          -0.008548282086849213,
          -0.08564245700836182,
          -0.0856703370809555,
          0.08194497972726822,
          -0.24441803991794586,
          0.5970592498779297,
          0.3314060866832733,
          -0.36076703667640686,
          -0.7869241237640381,
          -0.15339264273643494,
          0.05583460256457329,
          0.07763943076133728,
          -0.08300410956144333,
          0.1586681306362152,
          -0.04111691936850548,
          -0.12072565406560898,
          0.1893477439880371,
          0.026654625311493874,
          0.45055314898490906,
          0.5812304019927979,
          -0.20367231965065002,
          0.26125726103782654,
          -0.2515568733215332,
          0.06971003115177155,
          0.2796771228313446,
          0.41908788681030273,
          -0.47591352462768555,
          0.04079746454954147,
          0.43951693177223206,
          -0.048275016248226166,
          -0.17533263564109802,
          -0.34796276688575745,
          0.24635134637355804,
          -0.2044992297887802,
          -0.08831287175416946,
          -0.2176777422428131,
          -0.09748620539903641,
          0.051793817430734634,
          0.7683495283126831,
          -0.1933906227350235,
          0.3005160689353943,
          0.35673612356185913,
          0.14295880496501923,
          0.20644967257976532,
          -0.2842966914176941,
          -0.22456978261470795,
          -0.06512792408466339,
          0.10267515480518341,
          -0.05258587375283241,
          -0.10769491642713547,
          0.014876114204525948,
          0.3412782847881317,
          0.18188130855560303,
          -0.22393475472927094,
          0.09902592748403549,
          0.27253249287605286,
          0.0994490385055542,
          -0.01962747797369957,
          0.005208572838455439,
          0.1442619413137436,
          1.0054891109466553,
          0.46666762232780457,
          -0.5121140480041504,
          0.07300455123186111,
          0.5253466367721558,
          -0.3228504955768585,
          -0.12619103491306305,
          -0.26041319966316223,
          -0.2602906823158264,
          0.3357265293598175,
          -0.4394308030605316,
          -0.007956959307193756,
          0.15321701765060425,
          -0.3831539750099182,
          0.21736650168895721,
          0.22587570548057556,
          0.2763897180557251,
          0.42794886231422424,
          -0.5005015730857849,
          -0.0988253504037857,
          -0.27834340929985046,
          -0.6958515048027039,
          0.1945887953042984,
          0.48951175808906555,
          -0.24946196377277374,
          0.04484821483492851,
          0.7261362075805664,
          -0.11049932986497879,
          0.3405771255493164,
          0.09901925921440125,
          0.5264971852302551,
          -0.0568181574344635,
          0.04110127314925194,
          -0.38725030422210693,
          -0.862469494342804,
          0.011200791224837303,
          0.4921551048755646,
          -0.27592694759368896,
          -0.5099330544471741,
          0.7665237784385681,
          0.4110819399356842,
          0.3332439959049225,
          -0.8023008704185486,
          -0.010692106559872627,
          -0.23781287670135498,
          -0.20990891754627228,
          0.24522341787815094,
          0.23728424310684204,
          -0.18677033483982086,
          0.43333199620246887,
          -0.1981438249349594,
          -0.05277838930487633,
          -0.001675133709795773,
          0.6761212348937988,
          0.236480712890625,
          -0.1967686116695404,
          -0.2069372534751892,
          -0.2560584247112274,
          0.060247864574193954,
          0.29754889011383057,
          -0.10826406627893448,
          -0.013207994401454926,
          0.06458091735839844,
          -0.4309210777282715,
          -0.2507764995098114,
          -0.008480428718030453,
          0.1089646965265274,
          0.02567763812839985,
          0.13385355472564697,
          -0.16687697172164917,
          0.15974999964237213,
          0.14087128639221191,
          -0.49129369854927063,
          -0.483359158039093,
          -0.11670616269111633,
          0.5625932812690735,
          0.015400723554193974,
          -0.23779432475566864,
          -0.588750958442688,
          0.1764969378709793,
          -0.3832177519798279,
          0.2068914771080017,
          0.7410399913787842,
          0.20240876078605652,
          0.3878430724143982,
          0.3336535692214966,
          -0.05875681713223457,
          -0.342597633600235,
          -0.11018239706754684,
          0.20012566447257996,
          0.3701910376548767,
          -0.728888213634491,
          0.8400026559829712,
          0.20218177139759064,
          -0.4565528631210327,
          0.2889620363712311,
          -0.12195775657892227,
          0.09640006721019745,
          0.03002925217151642,
          -0.31639182567596436,
          -0.8075658679008484,
          -0.23245340585708618,
          0.13184934854507446,
          0.08473634719848633,
          0.24269619584083557,
          -0.03154561296105385,
          -0.20414449274539948,
          0.461093008518219,
          -0.07930558919906616,
          -0.20595042407512665,
          -0.10651349276304245,
          -0.06395459920167923,
          -0.11108498275279999,
          -0.2224786877632141,
          0.07777844369411469,
          -0.2622123956680298,
          -0.33102521300315857,
          -0.06075417250394821,
          0.27535271644592285,
          -0.11786773800849915,
          0.2764625549316406,
          -0.37807363271713257,
          0.6566470861434937,
          0.24251745641231537,
          0.14351560175418854,
          -0.31309953331947327,
          0.24342799186706543,
          0.38025781512260437,
          0.04739722982048988,
          -1.008564829826355,
          -0.44369715452194214,
          -0.38370683789253235,
          0.09825219959020615,
          -0.3376166522502899,
          -0.12436681985855103,
          0.07631204277276993,
          0.22444956004619598,
          -0.17746573686599731,
          -0.45384353399276733,
          0.09664023667573929,
          -0.2541215121746063,
          -0.15666602551937103,
          -0.13972142338752747,
          -0.10843946784734726,
          -0.7543586492538452,
          0.009479718282818794,
          0.030183155089616776,
          -0.3311937153339386,
          -0.6616496443748474,
          0.2552582621574402,
          -0.5439786314964294
        ]
      },
      "forgetHidden": {
        "rows": 20,
        "columns": 20,
        "weights": [
          0.40851283073425293,
          -0.7712199091911316,
          0.3572889566421509,
          0.34616851806640625,
          1.129114031791687,
          0.0036275663878768682,
          -1.623129963874817,
          -0.10981841385364532,
          0.36176079511642456,
          -0.6534455418586731,
          -0.5363501906394958,
          0.24975202977657318,
          -0.03475801274180412,
          -0.3874354064464569,
          0.6872057318687439,
          0.03499434143304825,
          -1.0846279859542847,
          0.20203979313373566,
          0.14724300801753998,
          -0.023896479979157448,
          -0.44254907965660095,
          0.4922363758087158,
          0.17986150085926056,
          0.12516102194786072,
          0.7280043959617615,
          -1.0937862396240234,
          0.11404511332511902,
          -0.7803029417991638,
          0.5884753465652466,
          -0.19170533120632172,
          -0.847705602645874,
          -0.12614001333713531,
          -0.4970618784427643,
          1.3293966054916382,
          0.5593648552894592,
          -0.9827564358711243,
          0.5464322566986084,
          0.42949149012565613,
          0.9774350523948669,
          -0.36701682209968567,
          0.2698110342025757,
          -0.7173399329185486,
          0.46412956714630127,
          -0.2838778793811798,
          0.003587371204048395,
          -0.24383240938186646,
          -0.36201074719429016,
          -0.389308363199234,
          0.05600348487496376,
          0.10299783945083618,
          0.05984976515173912,
          0.2569708526134491,
          -0.09175749123096466,
          -0.4439539313316345,
          0.0941971018910408,
          -0.319223552942276,
          -0.22803634405136108,
          0.22705714404582977,
          -0.31745922565460205,
          -0.38689231872558594,
          0.07329554855823517,
          -0.27418115735054016,
          1.4960789680480957,
          -0.1350407749414444,
          -0.4699872136116028,
          0.3073694109916687,
          -0.7879320383071899,
          -1.267978549003601,
          -0.9207184910774231,
          0.22542349994182587,
          -0.20400770008563995,
          -0.21748721599578857,
          0.7143796682357788,
          0.8145755529403687,
          0.8912670612335205,
          -1.1177399158477783,
          0.3184274137020111,
          -0.14286109805107117,
          -0.39126044511795044,
          -0.10419559478759766,
          -0.7889643907546997,
          0.14694006741046906,
          0.23689863085746765,
          0.03240051120519638,
          -0.2987121343612671,
          -0.07327190786600113,
          -0.4315759837627411,
          0.4097956717014313,
          0.0877639651298523,
          -0.03872014954686165,
          0.9162842035293579,
          -0.28283607959747314,
          0.30169224739074707,
          -0.4272884130477905,
          0.19328981637954712,
          -0.5516017079353333,
          0.12309230118989944,
          -0.2448091208934784,
          -0.20958185195922852,
          0.5462486743927002,
          0.20900896191596985,
          -0.13584817945957184,
          -0.4696003794670105,
          -0.14537551999092102,
          -0.15354950726032257,
          -0.08350636810064316,
          -0.5985281467437744,
          0.200636088848114,
          -0.02955407276749611,
          0.03894241899251938,
          0.13933300971984863,
          -0.03199346736073494,
          0.12124723196029663,
          0.07888220250606537,
          0.3286169171333313,
          0.39715006947517395,
          -0.9595047235488892,
          -0.024385549128055573,
          -0.5302870273590088,
          -0.015364686958491802,
          0.29817140102386475,
          0.1873396784067154,
          -0.45691564679145813,
          -0.2139982432126999,
          0.15490537881851196,
          0.5677701234817505,
          0.6236370205879211,
          0.445832759141922,
          0.15368779003620148,
          0.21778322756290436,
          -0.25346753001213074,
          -0.06203349307179451,
          0.6855871081352234,
          -0.41162610054016113,
          -0.2719528079032898,
          -0.14283087849617004,
          -0.632792592048645,
          0.6800352931022644,
          -0.13184289634227753,
          1.102192759513855,
          0.29908281564712524,
          -1.0975935459136963,
          0.44182586669921875,
          0.1585950255393982,
          -0.3946356475353241,
          -0.15746062994003296,
          0.1281721442937851,
          0.0026049884036183357,
          0.2848627269268036,
          -0.3563702702522278,
          -0.055448662489652634,
          0.3786356747150421,
          -0.05374371260404587,
          -0.2868056297302246,
          0.5763256549835205,
          0.35606563091278076,
          -0.6086044907569885,
          0.02660331130027771,
          0.4609064757823944,
          0.6424171328544617,
          -0.22244107723236084,
          0.7306763529777527,
          0.03098907135426998,
          -0.062353380024433136,
          0.5620704293251038,
          -0.6830474138259888,
          0.05898335948586464,
          -0.2740958333015442,
          -0.13948051631450653,
          -0.595380425453186,
          -1.1330671310424805,
          -0.1649046540260315,
          0.4824301600456238,
          -0.36851200461387634,
          0.9475622177124023,
          -0.3346826434135437,
          0.3705734610557556,
          0.06409326195716858,
          0.4733542501926422,
          0.5549249649047852,
          -0.4141654372215271,
          0.1251341849565506,
          -0.7881900072097778,
          0.08922404050827026,
          -0.1402963101863861,
          0.20667767524719238,
          1.063912034034729,
          0.03678923100233078,
          -0.1520502120256424,
          0.44208791851997375,
          -0.308761864900589,
          0.0740419253706932,
          0.22067557275295258,
          1.2559939622879028,
          0.3917554020881653,
          -0.21214324235916138,
          0.1105799749493599,
          -0.14890433847904205,
          -0.24095824360847473,
          -0.4612928330898285,
          0.5412996411323547,
          0.11531208455562592,
          0.05570549517869949,
          -0.7923994064331055,
          -0.6367236971855164,
          -0.41607576608657837,
          -0.060327205806970596,
          0.07718014717102051,
          -0.09774372726678848,
          0.5891720056533813,
          0.44957664608955383,
          0.5239576697349548,
          0.3208071291446686,
          0.4723682403564453,
          1.0350404977798462,
          0.32781872153282166,
          0.15843914449214935,
          1.193089246749878,
          0.0658719465136528,
          1.3395673036575317,
          -0.5657048225402832,
          -0.6489750742912292,
          0.2784968614578247,
          -0.5010690689086914,
          -0.4702574908733368,
          -0.11260464042425156,
          -0.5491607785224915,
          -0.19025740027427673,
          -0.33122679591178894,
          0.13641802966594696,
          0.5778501033782959,
          0.7493810653686523,
          -0.2921358346939087,
          0.6928574442863464,
          -0.09014194458723068,
          0.6021143198013306,
          0.17001670598983765,
          0.4230870008468628,
          -0.494473934173584,
          -0.6607971787452698,
          0.12866228818893433,
          -0.4555854797363281,
          0.15554159879684448,
          -0.3163544535636902,
          -0.1895301342010498,
          0.35230064392089844,
          0.47834691405296326,
          -0.9334375262260437,
          -0.6015584468841553,
          0.29488083720207214,
          0.5564389824867249,
          -0.06149689480662346,
          0.5531648993492126,
          0.9063588976860046,
          -0.2291441708803177,
          -0.6915525197982788,
          0.5139329433441162,
          0.09452372789382935,
          0.07628268003463745,
          0.6459187865257263,
          0.38083210587501526,
          -0.4678496718406677,
          0.13185922801494598,
          -0.18352699279785156,
          0.23397096991539001,
          0.49169406294822693,
          -0.34365424513816833,
          -0.24616064131259918,
          0.23842456936836243,
          -0.09980789572000504,
          -1.4369144439697266,
          0.4842584431171417,
          0.2991196811199188,
          0.4113590717315674,
          0.07594779878854752,
          0.33498162031173706,
          0.5324267148971558,
          0.022170307114720345,
          0.8344067335128784,
          -0.09964179247617722,
          0.3986842930316925,
          0.5761845111846924,
          0.06678469479084015,
          -0.43192821741104126,
          0.10594510287046432,
          -0.42316654324531555,
          0.16749992966651917,
          -0.20201502740383148,
          0.06202637031674385,
          0.20893017947673798,
          0.5584856867790222,
          -0.18115800619125366,
          0.03551316261291504,
          -0.17769400775432587,
          -0.018111679702997208,
          -0.38767462968826294,
          -0.3313171863555908,
          0.12635378539562225,
          -0.34685373306274414,
          -0.0832943245768547,
          -0.27713000774383545,
          -0.39181074500083923,
          -0.8809370994567871,
          -0.8183808922767639,
          0.3784664571285248,
          0.540623664855957,
          0.6623778343200684,
          0.07593264430761337,
          0.4236743450164795,
          0.8430920243263245,
          0.461050420999527,
          -0.09748872369527817,
          0.28557080030441284,
          0.4230322539806366,
          0.6022399067878723,
          0.05736696720123291,
          -0.3948192894458771,
          0.020724117755889893,
          -0.23239576816558838,
          0.4335501194000244,
          0.06557080149650574,
          0.5516288876533508,
          -0.03718021884560585,
          0.2553396224975586,
          0.6237850785255432,
          -0.6966536045074463,
          0.5483939051628113,
          -0.36500900983810425,
          0.17023755609989166,
          0.19569627940654755,
          0.10359564423561096,
          0.6864072680473328,
          0.34476932883262634,
          0.3336787819862366,
          0.3058072030544281,
          0.2890186905860901,
          0.11444106698036194,
          -0.19488315284252167,
          0.6276007294654846,
          -0.5802909135818481,
          0.2224031239748001,
          1.1581536531448364,
          -0.21594126522541046,
          0.5913599133491516,
          -1.173606276512146,
          0.6003749966621399,
          0.23799394071102142,
          -0.12996210157871246,
          -0.09372863918542862,
          -0.32117021083831787,
          0.0019071014830842614,
          0.7062972784042358,
          -0.4200690984725952,
          -0.7677503824234009,
          -1.1998625993728638,
          0.8643913865089417,
          0.2585357427597046,
          -0.9401403665542603,
          -0.6945859789848328,
          -0.6958556771278381,
          0.5499085187911987,
          -0.07525824010372162,
          -0.025539498776197433,
          0.6125195026397705,
          -0.19560077786445618,
          0.20532476902008057,
          -0.10924753546714783,
          0.24475064873695374,
          -0.5983250737190247,
          -0.3781064748764038,
          -0.2683700919151306,
          -0.1693926453590393,
          -0.6477202773094177,
          -0.5085681080818176,
          0.0905744656920433,
          0.11151747405529022,
          -0.36460867524147034,
          -0.6569690704345703,
          -1.0036214590072632,
          -0.502305269241333,
          0.6030529141426086,
          0.25560033321380615,
          -0.5710872411727905,
          -0.17671245336532593,
          -0.31631001830101013,
          0.2601254880428314,
          0.490276575088501,
          -0.6707996129989624,
          -0.1342916339635849,
          -0.48992571234703064,
          0.3588198721408844,
          0.7666974663734436,
          0.8785856366157532,
          -0.41624128818511963,
          0.2494957447052002,
          0.10373111069202423,
          -0.33509203791618347,
          -0.36688917875289917,
          -0.22406534850597382,
          0.3685448169708252
        ]
      },
      "forgetBias": {
        "rows": 20,
        "columns": 1,
        "weights": [
          0,
          0,
          0,
          0,
          0,
          0,
          0,
          0,
          0,
          0,
          0,
          0,
          0,
          0,
          0,
          0,
          0,
          0,
          0,
          0
        ]
      },
      "outputMatrix": {
        "rows": 20,
        "columns": 29,
        "weights": [
          0.18888066709041595,
          -0.40930652618408203,
          0.32959064841270447,
          0.13176701962947845,
          -0.054006803780794144,
          0.012381703592836857,
          -0.7808941006660461,
          -0.04880265146493912,
          -0.08927931636571884,
          -0.14781585335731506,
          -0.13329850137233734,
          0.3372839689254761,
          -0.32002952694892883,
          0.03510624170303345,
          0.32417941093444824,
          -0.13170555233955383,
          -0.3177928924560547,
          0.23588542640209198,
          -0.024149851873517036,
          -0.16648544371128082,
          -0.3958958685398102,
          -0.00047897943295538425,
          -0.254221111536026,
          -0.5064934492111206,
          0.05276139825582504,
          0.014465915970504284,
          -0.3629085123538971,
          0.10271138697862625,
          -0.675500214099884,
          0.4228743016719818,
          0.6062549352645874,
          0.35139039158821106,
          0.12430030852556229,
          0.8174024820327759,
          0.6808421611785889,
          -0.03905963897705078,
          -0.021105008199810982,
          0.16056035459041595,
          -0.30770280957221985,
          -0.7302810549736023,
          0.35052087903022766,
          0.4131653904914856,
          -0.27828875184059143,
          -0.11639489233493805,
          -0.48644784092903137,
          0.25395330786705017,
          0.180781751871109,
          -0.03251377493143082,
          0.2269199639558792,
          0.027754150331020355,
          -0.09768204391002655,
          0.020826730877161026,
          0.6479834318161011,
          -0.08661234378814697,
          0.03784826770424843,
          -0.3863584101200104,
          0.2682207524776459,
          -0.36598309874534607,
          -0.27600377798080444,
          0.8236929774284363,
          0.1787215769290924,
          -0.38082435727119446,
          0.7434781789779663,
          0.33121731877326965,
          -0.08528181910514832,
          0.11597925424575806,
          0.40039071440696716,
          -0.24810968339443207,
          0.30338653922080994,
          0.808219313621521,
          -0.3730592727661133,
          -0.3198052644729614,
          0.13146376609802246,
          -0.10677316039800644,
          -0.19248822331428528,
          0.5761042237281799,
          -0.38118699193000793,
          0.20748677849769592,
          -0.07861599326133728,
          -0.194884791970253,
          0.4562426805496216,
          0.16338127851486206,
          0.1871689260005951,
          -0.6710742712020874,
          0.43220576643943787,
          0.8964012265205383,
          -0.8751441240310669,
          0.10140695422887802,
          0.1060684323310852,
          0.05682230368256569,
          -0.44359254837036133,
          -0.26589539647102356,
          -0.08979509770870209,
          0.0038429400883615017,
          0.5472922325134277,
          -0.1875997930765152,
          0.11057800054550171,
          0.017636792734265327,
          0.4627099335193634,
          0.01688600890338421,
          0.11153216660022736,
          -0.45862603187561035,
          0.21406473219394684,
          -0.014895109459757805,
          0.14538413286209106,
          0.0524984747171402,
          -0.5059153437614441,
          0.22410403192043304,
          -0.7381447553634644,
          0.48003119230270386,
          -0.38892224431037903,
          -0.5117529630661011,
          -0.06295185536146164,
          -0.31112563610076904,
          0.6385801434516907,
          0.33480149507522583,
          0.2648654282093048,
          0.04432477802038193,
          0.44651779532432556,
          0.04078982397913933,
          0.2513910233974457,
          0.5753324031829834,
          -0.13592271506786346,
          0.22138458490371704,
          -0.056083112955093384,
          0.18179896473884583,
          -0.3261035084724426,
          0.04709353297948837,
          0.08099385350942612,
          0.05238112062215805,
          0.09615840017795563,
          -0.2710905969142914,
          0.18928523361682892,
          -0.07063141465187073,
          -0.03761895000934601,
          -0.48551610112190247,
          0.17176853120326996,
          0.10900571197271347,
          -0.2425658106803894,
          0.4612363874912262,
          -0.21194389462471008,
          -0.04680883139371872,
          -0.6482585668563843,
          0.23677611351013184,
          -0.2853591740131378,
          0.04579339548945427,
          -0.45103052258491516,
          0.06490185856819153,
          0.2391626387834549,
          -0.4810875356197357,
          -0.19477851688861847,
          -0.019395675510168076,
          0.26040735840797424,
          0.18589287996292114,
          -0.09224038571119308,
          -0.0421377569437027,
          0.3451642692089081,
          -0.18759974837303162,
          0.16077248752117157,
          0.08432186394929886,
          0.006025973707437515,
          0.35605481266975403,
          -0.2168552726507187,
          -0.4261980950832367,
          0.127662792801857,
          0.07278843969106674,
          0.19335830211639404,
          0.03685633838176727,
          0.04201703146100044,
          0.15656916797161102,
          -0.04857268184423447,
          -0.2171333283185959,
          0.023441346362233162,
          -0.39788052439689636,
          0.05394803732633591,
          -0.2175803780555725,
          0.6089037656784058,
          0.1254865527153015,
          0.06909928470849991,
          0.1598285734653473,
          -0.30175718665122986,
          0.1518668830394745,
          0.23342442512512207,
          0.0927794948220253,
          0.11882074177265167,
          -0.2185252457857132,
          -0.4418618977069855,
          0.03433297947049141,
          0.23303255438804626,
          -0.08355649560689926,
          -0.13812130689620972,
          -0.1773587465286255,
          -0.13269062340259552,
          0.12025732547044754,
          -0.11307495832443237,
          0.3170035779476166,
          0.21856877207756042,
          -0.05610959604382515,
          -0.22933855652809143,
          -0.1065230444073677,
          -0.1727047711610794,
          -0.0842754915356636,
          -0.12792810797691345,
          -0.05340835452079773,
          0.2518540024757385,
          0.6590877175331116,
          -0.17320482432842255,
          -0.037020716816186905,
          0.6208468079566956,
          -0.5891005396842957,
          0.29018110036849976,
          0.04803908243775368,
          0.43972232937812805,
          -0.016489140689373016,
          0.4860857427120209,
          -0.24789804220199585,
          -0.06979522854089737,
          -0.20777852833271027,
          -0.43848365545272827,
          0.0786425769329071,
          -0.025779427960515022,
          -0.42687222361564636,
          -0.8138629794120789,
          0.21394670009613037,
          0.10175081342458725,
          0.027156801894307137,
          0.16065695881843567,
          -0.4695418179035187,
          -0.08732270449399948,
          -0.17921830713748932,
          0.32073742151260376,
          0.10256128758192062,
          0.08180929720401764,
          0.12525729835033417,
          0.8172466158866882,
          -0.35109344124794006,
          0.07402759045362473,
          0.3877766728401184,
          -0.294419527053833,
          -0.150577574968338,
          -0.3285047709941864,
          0.39075443148612976,
          -0.10448791086673737,
          -0.010542317293584347,
          -0.07227332890033722,
          0.015560906380414963,
          -0.03191985934972763,
          -0.27093803882598877,
          -0.08166451007127762,
          0.2861543297767639,
          -0.25601527094841003,
          -0.021611157804727554,
          0.17025430500507355,
          -0.0469805970788002,
          0.19258403778076172,
          -0.16705843806266785,
          -0.29008179903030396,
          0.10570702701807022,
          -0.14612093567848206,
          0.5737095475196838,
          -0.06455669552087784,
          -0.0008155365940183401,
          0.08239658176898956,
          0.07867180556058884,
          -0.03994499519467354,
          0.16765961050987244,
          0.5937114953994751,
          -0.3104516565799713,
          -0.09482193738222122,
          0.2160772681236267,
          -0.3128155767917633,
