{
  "type": "LSTM",
  "options": {
    "inputSize": 25,
    "inputRange": 25,
    "hiddenLayers": [
      20,
      20
    ],
    "outputSize": 25,
    "decayRate": 0.999,
    "smoothEps": 1e-8,
    "regc": 0.000001,
    "clipval": 5,
    "maxPredictionLength": 100,
    "dataFormatter": {
      "indexTable": {
        "a": 0,
        "d": 1,
        "m": 2,
        "i": 3,
        "o": 4,
        "u": 5,
        "p": 6,
        "l": 7,
        "g": 8,
        "t": 9,
        "h": 10,
        "k": 11,
        "e": 12,
        "x": 13,
        "n": 14,
        "r": 15,
        "b": 16,
        "s": 17,
        "v": 18,
        "z": 19,
        "y": 20,
        "c": 21,
        "f": 22,
        "j": 23,
        "unrecognized": 24
      },
      "characterTable": {
        "0": "a",
        "1": "d",
        "2": "m",
        "3": "i",
        "4": "o",
        "5": "u",
        "6": "p",
        "7": "l",
        "8": "g",
        "9": "t",
        "10": "h",
        "11": "k",
        "12": "e",
        "13": "x",
        "14": "n",
        "15": "r",
        "16": "b",
        "17": "s",
        "18": "v",
        "19": "z",
        "20": "y",
        "21": "c",
        "22": "f",
        "23": "j",
        "24": null
      },
      "values": [
        "adamidou",
        "adamopoulou",
        "agathakou",
        "alexandropoulou",
        "alexiou",
        "alexopoulou",
        "aloumanou",
        "amanatidou",
        "ambanoudou",
        "anagnostopoulou",
        "anastasiou",
        "andonopoulou",
        "andreou",
        "andreoulakou",
        "andriopoulou",
        "andronikou",
        "androupolou",
        "angelidou",
        "angelopoulou",
        "antonatou",
        "antoniadou",
        "antonopoulou",
        "apadelou",
        "apostolopoulou",
        "arapoglou",
        "arvanitou",
        "arzoglou",
        "athanasiadou",
        "baboukou",
        "bakogiannou",
        "ballou",
        "baltou",
        "barraboutou",
        "batsarisakou",
        "bebou",
        "bekyrou",
        "beldekou",
        "beleardou",
        "boltou",
        "bonicou",
        "borbokou",
        "boudrou",
        "bougtsou",
        "bourganou",
        "bourikou",
        "brisimitzakou",
        "calogerakou",
        "calogirou",
        "capodistrou",
        "caristinou",
        "catelanakou",
        "chalatsou",
        "charistinou",
        "chatzigiannakou",
        "chimenedou",
        "chimenou",
        "chiotou",
        "chirou",
        "chopou",
        "christakou",
        "cocoyannou",
        "codekou",
        "coffidou",
        "comninou",
        "constandourou",
        "constantinou",
        "cosmatou",
        "costadou",
        "couloumbou",
        "coulourou",
        "cousoulou",
        "dafniotou",
        "damaskinou",
        "deligiannou",
        "deligiorgou",
        "delivorou",
        "dellou",
        "demakopoulou",
        "demakou",
        "demerou",
        "demetriadou",
        "diakogeorgiou",
        "diakoumakou",
        "diamandopoulou",
        "dikou",
        "dimitrakou",
        "dimitriadou",
        "dimopoulou",
        "dimou",
        "doukakou",
        "doukatelou",
        "doulaverou",
        "drossopoulou",
        "elevtheriadou",
        "evangelakou",
        "evstathiadou",
        "farfarou",
        "felouzou",
        "florakou",
        "fotiadou",
        "frakgolou",
        "galonopoulou",
        "gatsioudou",
        "gavrilopoulou",
        "georgatou",
        "georghiou",
        "georgiadou",
        "gheorghou",
        "gianikou",
        "giannakakou",
        "giannakopoulou",
        "giannopoulou",
        "giatrakou",
        "gjeolekou",
        "goudourou",
        "gounarou",
        "grigoriadou",
        "hassapoglou",
        "hatzigiannakou",
        "hatzimanolou",
        "iakovakou",
        "iatridou",
        "iatropoulou",
        "iliadou",
        "iliopoulou",
        "ioannidou",
        "ioannou",
        "kacoyanou",
        "kakavetsou",
        "kaklamanakou",
        "kaladosou",
        "kallitsou",
        "kalogirou",
        "kannellopoulou",
        "karagiannou",
        "karamanlou",
        "karidakou",
        "katapodou",
        "katsorou",
        "kazanzakou",
        "kezdoglou",
        "khadjikyriakou",
        "kharalambidou",
        "khatzinikolaou",
        "khristodoulou",
        "khristopoulou",
        "kirkilou",
        "kokkinou",
        "kokorou",
        "kolivou",
        "kolliou",
        "kolokotronou",
        "konstandinidou",
        "konstandinou",
        "kontouroudou",
        "kostanopoulou",
        "kostopoulou",
        "koufelou",
        "koumanidou",
        "koundekadakou",
        "kountouriotou",
        "koutsonikolou",
        "kozanou",
        "kritikou",
        "kyprianou",
        "kyriakopoulou",
        "kyriakou",
        "labrapoulou",
        "ladou",
        "laganopoulou",
        "laganou",
        "lakiotou",
        "laletou",
        "lambrakou",
        "lambropoulou",
        "lavranou",
        "lazarakou",
        "leonidou",
        "letsou",
        "levaditou",
        "logothetou",
        "makkou",
        "makrigiannou",
        "makrodimitrou",
        "makrou",
        "manolakou",
        "manthou",
        "maragelou",
        "markopoulou",
        "markoulidou",
        "marousou",
        "matsou",
        "matsoukou",
        "mavridou",
        "mavrikou",
        "mavrogordatou",
        "mavromikhalou",
        "mavropoulou",
        "mavrou",
        "meletoglou",
        "melissanidou",
        "mercourou",
        "metaxou",
        "michaelou",
        "mikhailidou",
        "mikhalakopoulou",
        "mitsotakou",
        "moratou",
        "moustakou",
        "mouzinakou",
        "mylonou",
        "nafpliotou",
        "niarkhou",
        "nicolatou",
        "nikolaidou",
        "nikolakakou",
        "nikolopoulou",
        "nomikou",
        "oikonomidou",
        "oikonomopoulou",
        "oikonomou",
        "onassou",
        "panagiatopoulou",
        "panagiotidou",
        "panagopoulou",
        "panagouliou",
        "panaotou",
        "pantelithakou",
        "pantelou",
        "papadakou",
        "papadelou",
        "papadimitriou",
        "papadopoulou",
        "papafagou",
        "papageorgiou",
        "papakonstantinou",
        "papakostou",
        "papamichaelou",
        "papanastasiou",
        "papandreou",
        "papanicolaou",
        "papanikolaou",
        "papasotiriou",
        "papastravou",
        "paraskeou",
        "paraskevaidou",
        "paschalou",
        "patsatzoglou",
        "patselou",
        "pattakou",
        "pavlakakou",
        "pavlidou",
        "pavloudou",
        "pelehou",
        "pentarakou",
        "petikou",
        "petrakou",
        "petridou",
        "philipousou",
        "pintzopoulou",
        "poulakou",
        "prodromidou",
        "psarou",
        "ralou",
        "rapakouliou",
        "retzekou",
        "rigopoulou",
        "rigou",
        "rousakou",
        "rousoulou",
        "roussou",
        "rozakou",
        "sakellariou",
        "saltidou",
        "sarakatsanou",
        "sardelou",
        "savvidou",
        "siderou",
        "simergekou",
        "simonou",
        "simopoulou",
        "sklavenitou",
        "skordakou",
        "skouloudou",
        "skouphou",
        "smagliotou",
        "spirelou",
        "spyropoulou",
        "stamatiadou",
        "stavrakou",
        "stavrianakou",
        "stavridou",
        "stavropoulou",
        "stavrou",
        "stefanopoulou",
        "stephanopoulou",
        "stogiannou",
        "stratou",
        "talitsikou",
        "tassioglou",
        "tavoularou",
        "thanou",
        "theodorakou",
        "theodoropoulou",
        "theodorou",
        "theotokou",
        "touchakou",
        "triandafyllou",
        "trigonopoulou",
        "tsaklou",
        "tsakoumou",
        "tsampirou",
        "tsangarou",
        "tselikou",
        "tseronakou",
        "tsikronakou",
        "tsolakoglou",
        "tsougarakou",
        "tsoutsouvou",
        "tzannetakou",
        "tzannou",
        "tzivou",
        "valaoritou",
        "vardakou",
        "vardoulakou",
        "vasilakou",
        "vasiliou",
        "vassiliadou",
        "velissariou",
        "veloukhiotou",
        "venizelou",
        "vergopoulou",
        "viliardou",
        "vithoulkou",
        "vlakhou",
        "vogiatzou",
        "xanthou",
        "xarhakou",
        "xenakou",
        "yannopoulou",
        "yialourou",
        "ypsilantou",
        "zafiropoulou",
        "zakhariadou",
        "zanakou",
        "zarpou",
        "zekopoulou",
        "zografou",
        "zoitakou",
        "zolotou",
        "zorbou",
        "zouvelekou"
      ],
      "characters": [
        "a",
        "d",
        "m",
        "i",
        "o",
        "u",
        "p",
        "l",
        "g",
        "t",
        "h",
        "k",
        "e",
        "x",
        "n",
        "r",
        "b",
        "s",
        "v",
        "z",
        "y",
        "c",
        "f",
        "j",
        "unrecognized"
      ],
      "specialIndexes": [
        24
      ]
    },
    "activation": "tanh"
  },
  "trainOpts": {
    "iterations": "20000",
    "errorThresh": "0.03",
    "log": false,
    "logPeriod": 1,
    "learningRate": "0.0001",
    "callbackPeriod": 1,
    "timeout": "Infinity"
  },
  "input": {
    "rows": 26,
    "columns": 25,
    "weights": [
      -0.14083915948867798,
      -0.3870049715042114,
      0.25300371646881104,
      0.35376447439193726,
      0.031128818169236183,
      0.2533608078956604,
      0.20309780538082123,
      -0.17069748044013977,
      -0.5705894231796265,
      -0.10982130467891693,
      0.20826198160648346,
      0.0310497023165226,
      0.17713284492492676,
      -0.4568523168563843,
      0.19344063103199005,
      0.2988552153110504,
      -0.15885686874389648,
      -0.2328215390443802,
      0.07576631754636765,
      -0.471661776304245,
      -0.8220127820968628,
      0.20722663402557373,
      -0.055222637951374054,
      -0.6525437831878662,
      -0.172141432762146,
      -1.545290470123291,
      0.41578370332717896,
      2.4707181453704834,
      -3.2831203937530518,
      1.3244267702102661,
      1.2638893127441406,
      -0.9124587178230286,
      -2.0679125785827637,
      -1.2069205045700073,
      -2.9910547733306885,
      0.6234564185142517,
      0.6120339035987854,
      -0.7446379065513611,
      2.6298816204071045,
      0.9131648540496826,
      -3.1713263988494873,
      0.21801111102104187,
      1.2604979276657104,
      -0.6620251536369324,
      0.5356462597846985,
      -0.29446253180503845,
      -0.5932596325874329,
      0.958623468875885,
      0.5715819597244263,
      3.9681508541107178,
      -2.0326690673828125,
      0.8635643124580383,
      1.0422728061676025,
      -0.12132579833269119,
      -1.2391759157180786,
      -1.2311577796936035,
      0.8748365044593811,
      0.2686653137207031,
      -0.28116074204444885,
      0.30553364753723145,
      1.7988455295562744,
      2.751264810562134,
      -0.056730639189481735,
      -1.2795429229736328,
      1.8407831192016602,
      -1.6506632566452026,
      -0.06878813356161118,
      -0.330925852060318,
      -1.0673925876617432,
      0.11452251672744751,
      -0.5802859663963318,
      2.554187059402466,
      -1.3390231132507324,
      -0.7900789380073547,
      0.5181609988212585,
      -2.0768420696258545,
      -2.1940367221832275,
      1.0709761381149292,
      -2.7156028747558594,
      0.9605652093887329,
      1.2188873291015625,
      -0.6567257642745972,
      -2.224173069000244,
      -1.6501036882400513,
      -2.870454788208008,
      -0.4363214373588562,
      0.9948827028274536,
      2.1140966415405273,
      1.5301439762115479,
      0.38410893082618713,
      -1.2281430959701538,
      0.5504232048988342,
      1.2566637992858887,
      -3.138169527053833,
      0.045439910143613815,
      0.39220625162124634,
      -0.29305118322372437,
      1.545578122138977,
      0.6891566514968872,
      3.470766305923462,
      -4.258821964263916,
      -3.0002920627593994,
      0.5130121111869812,
      -2.998570203781128,
      1.3809553384780884,
      0.954941987991333,
      1.1422789096832275,
      -3.0478687286376953,
      -1.2617782354354858,
      -4.682789325714111,
      -0.6318135857582092,
      0.5323774814605713,
      -0.052100345492362976,
      4.056495666503906,
      -1.0415619611740112,
      -1.9517115354537964,
      -0.1539141982793808,
      1.7048287391662598,
      -0.9868853688240051,
      -0.332292765378952,
      -1.1625049114227295,
      0.5708706378936768,
      1.2334034442901611,
      -2.194060802459717,
      3.145521402359009,
      -1.9828541278839111,
      -0.1509266048669815,
      0.21287299692630768,
      2.0427286624908447,
      -0.525220513343811,
      0.6718255281448364,
      0.14343614876270294,
      -0.4178721606731415,
      -0.21166619658470154,
      -0.3670405447483063,
      -0.7429500222206116,
      -0.6720291376113892,
      -0.1864154040813446,
      -1.1505447626113892,
      1.6487833261489868,
      0.624207615852356,
      0.8187934756278992,
      0.07975238561630249,
      0.8949045538902283,
      -1.3530088663101196,
      -0.052524715662002563,
      0.12596480548381805,
      0.03470584750175476,
      -1.0843149423599243,
      0.25580549240112305,
      -0.30722975730895996,
      -0.1991855800151825,
      0.27266937494277954,
      0.22632846236228943,
      0.1374620497226715,
      0.6065389513969421,
      -0.6289108395576477,
      -0.5156567096710205,
      -1.0452033281326294,
      -0.6701740622520447,
      0.2856990396976471,
      -0.4740929901599884,
      0.6686062216758728,
      0.5224320888519287,
      0.23904699087142944,
      -0.21244573593139648,
      0.49890822172164917,
      -0.9928486347198486,
      -0.36129140853881836,
      -0.6933248043060303,
      -0.7897741794586182,
      -0.361944317817688,
      -0.1755555272102356,
      -1.0515565872192383,
      -0.01723294146358967,
      -2.14544939994812,
      1.2905088663101196,
      2.7326548099517822,
      -0.2261810004711151,
      -0.8892189860343933,
      -0.4383562505245209,
      0.04350939020514488,
      0.3438565731048584,
      -0.3318859040737152,
      -1.9110544919967651,
      0.7366169095039368,
      0.5891489386558533,
      -0.7190948724746704,
      0.8228495717048645,
      -0.6507836580276489,
      1.7777066230773926,
      0.8458081483840942,
      0.004990714136511087,
      -1.3022583723068237,
      0.5515419840812683,
      -0.2688971757888794,
      1.364208459854126,
      -0.7149391174316406,
      -1.5247167348861694,
      0.2516089975833893,
      -0.47577211260795593,
      1.0870307683944702,
      3.140223741531372,
      0.45764434337615967,
      -0.1750946044921875,
      0.4052796959877014,
      -0.5909468531608582,
      1.3122406005859375,
      -2.3973610401153564,
      -0.2686969041824341,
      0.6602346897125244,
      0.685939371585846,
      -0.537807285785675,
      -0.16022063791751862,
      -0.03001336380839348,
      -0.04781058803200722,
      0.7738822102546692,
      0.7162795662879944,
      0.4052698016166687,
      -1.843931794166565,
      -0.39044949412345886,
      2.0982184410095215,
      -0.9047321677207947,
      -2.0781993865966797,
      0.2954864501953125,
      -1.8576525449752808,
      0.11161419749259949,
      2.6133036613464355,
      -0.633538007736206,
      0.6643325090408325,
      -0.2917279899120331,
      -0.17682629823684692,
      0.7603601813316345,
      -1.135571837425232,
      -0.24177855253219604,
      -0.39333927631378174,
      -0.3822156488895416,
      -0.7875115871429443,
      0.4025454819202423,
      -0.35353589057922363,
      1.4913150072097778,
      2.369288682937622,
      0.04933968186378479,
      2.0124337673187256,
      -1.7854608297348022,
      -1.2099965810775757,
      1.5439183712005615,
      0.18592654168605804,
      -1.9881256818771362,
      -0.7286697030067444,
      -0.24140213429927826,
      -0.04226978123188019,
      1.3783191442489624,
      3.0106635093688965,
      0.5989537835121155,
      0.36324939131736755,
      0.33343014121055603,
      -0.31916582584381104,
      -1.087764024734497,
      -0.5288841128349304,
      0.6654729843139648,
      1.0158469676971436,
      0.73179692029953,
      -3.613086223602295,
      -0.652849555015564,
      0.3639638125896454,
      0.678207516670227,
      0.5543327331542969,
      1.546440601348877,
      -1.6961475610733032,
      -0.8956387042999268,
      1.3198081254959106,
      -1.29734206199646,
      -0.9198787212371826,
      -1.8014919757843018,
      -0.1608973741531372,
      -2.1843745708465576,
      1.6461772918701172,
      -0.6966535449028015,
      1.1552857160568237,
      2.709888458251953,
      0.4017563462257385,
      -2.2295944690704346,
      -0.8622919917106628,
      -1.7638827562332153,
      -0.8587354421615601,
      -0.14889004826545715,
      0.5417396426200867,
      0.24217559397220612,
      2.73054838180542,
      -0.8385366201400757,
      -0.3314870297908783,
      0.2426137924194336,
      -3.764003038406372,
      -2.729015350341797,
      -0.7335428595542908,
      -1.4404640197753906,
      -0.06081496551632881,
      -3.099844217300415,
      6.321236610412598,
      -2.836961507797241,
      1.6158074140548706,
      2.854978084564209,
      0.9397199749946594,
      -0.12445849180221558,
      -0.3042105436325073,
      2.3890414237976074,
      1.4525543451309204,
      -1.4084476232528687,
      -0.029177483171224594,
      2.2325775623321533,
      1.1885050535202026,
      0.43893614411354065,
      -1.1927903890609741,
      1.090535044670105,
      -0.04226337745785713,
      0.13148626685142517,
      1.2425633668899536,
      0.5927292704582214,
      -1.1982054710388184,
      0.06296603381633759,
      0.3933420181274414,
      0.1352764070034027,
      0.4743542969226837,
      0.35400390625,
      -2.9556832313537598,
      -0.2412852942943573,
      4.492608547210693,
      0.2586950957775116,
      -0.7541939616203308,
      1.2534306049346924,
      0.0897262841463089,
      -1.829192876815796,
      -0.23530343174934387,
      -4.167922019958496,
      0.9901210069656372,
      -0.023936927318572998,
      0.31660786271095276,
      -0.332506000995636,
      2.56074857711792,
      -0.42966753244400024,
      0.25332361459732056,
      0.6085973381996155,
      0.5581376552581787,
      0.2025248110294342,
      -0.47158128023147583,
      -0.6072534322738647,
      0.43116816878318787,
      -1.8537945747375488,
      3.4492478370666504,
      -9.882429122924805,
      1.054682731628418,
      6.975009918212891,
      -0.6459404230117798,
      2.1381564140319824,
      -0.2501601576805115,
      -0.10844067484140396,
      -3.9438276290893555,
      -2.7805075645446777,
      -1.9970612525939941,
      0.11214883625507355,
      1.4082392454147339,
      0.1267603635787964,
      2.910304069519043,
      0.02901487983763218,
      -1.9339035749435425,
      -0.7087514400482178,
      1.1701264381408691,
      -6.05941915512085,
      0.17819707095623016,
      0.20538054406642914,
      1.3173258304595947,
      -1.0396772623062134,
      -1.2258816957473755,
      0.6568194627761841,
      -3.509653329849243,
      0.26970455050468445,
      4.361980438232422,
      -1.3352437019348145,
      -1.0923361778259277,
      0.9069982171058655,
      -0.06036805361509323,
      -0.7746530771255493,
      -0.5999644994735718,
      -3.4070703983306885,
      1.0590263605117798,
      2.210047721862793,
      1.3721554279327393,
      0.3070340156555176,
      4.476403713226318,
      -1.8651779890060425,
      -0.00675055431202054,
      1.113709807395935,
      -0.723629891872406,
      -0.127735897898674,
      0.45382601022720337,
      -0.15006184577941895,
      0.6648010015487671,
      -0.7091546654701233,
      3.511868476867676,
      -1.5193564891815186,
      -1.1526850461959839,
      0.8111286163330078,
      -3.4660022258758545,
      0.02124585025012493,
      -0.5241007208824158,
      -0.5084558725357056,
      -1.8217875957489014,
      -1.312737226486206,
      -1.5124940872192383,
      -0.5862656235694885,
      0.5853935480117798,
      2.0021071434020996,
      3.681694984436035,
      1.3310807943344116,
      -3.0918357372283936,
      -0.25865352153778076,
      0.51567542552948,
      -2.538252115249634,
      0.8307604193687439,
      0.5756409764289856,
      -1.0266858339309692,
      0.13612256944179535,
      2.0244216918945312,
      1.4393675327301025,
      -8.512235641479492,
      1.7808277606964111,
      6.45543909072876,
      -3.234546184539795,
      0.22298133373260498,
      2.303114652633667,
      -2.982231855392456,
      -2.335125684738159,
      -0.3238169848918915,
      -4.313726425170898,
      -0.5583329796791077,
      1.1056721210479736,
      -4.211520195007324,
      -3.8358991146087646,
      5.997413635253906,
      -3.6632816791534424,
      -1.8095686435699463,
      -2.4387943744659424,
      -3.6420600414276123,
      3.3538928031921387,
      -0.8899098634719849,
      -1.9931457042694092,
      -0.5491119623184204,
      1.5626698732376099,
      -5.80805778503418,
      -1.1796494722366333,
      -1.4319605827331543,
      0.9152254462242126,
      -4.216705322265625,
      -1.0224469900131226,
      0.5944572687149048,
      -0.26940006017684937,
      -2.1401381492614746,
      0.7242494821548462,
      -1.195525884628296,
      0.6793084740638733,
      -0.9723646640777588,
      -1.0722790956497192,
      0.7074320912361145,
      1.1994514465332031,
      -0.9250167608261108,
      -0.05360375717282295,
      -0.4263583719730377,
      -3.1592562198638916,
      0.5279608368873596,
      -0.30357593297958374,
      -2.3811440467834473,
      0.8735145926475525,
      -0.7687913179397583,
      -0.4493695795536041,
      -1.2065317630767822,
      0.7303714752197266,
      5.274252891540527,
      -0.7402689456939697,
      -0.7094737887382507,
      0.4897133409976959,
      0.18729211390018463,
      -0.32526376843452454,
      -2.2855358123779297,
      -2.670891761779785,
      1.5709233283996582,
      1.5683246850967407,
      1.0376183986663818,
      -0.6917219758033752,
      2.8221616744995117,
      -1.3480182886123657,
      -0.44664156436920166,
      1.2420401573181152,
      -0.03538968041539192,
      -3.2236568927764893,
      -0.5427220463752747,
      1.4070537090301514,
      -0.3531202971935272,
      -0.9615758657455444,
      1.3879753351211548,
      1.6054749488830566,
      -0.1564842313528061,
      2.496458053588867,
      1.0068130493164062,
      -1.613840103149414,
      1.6015561819076538,
      1.4277814626693726,
      0.2368544191122055,
      2.602538585662842,
      -1.6531583070755005,
      0.5893082618713379,
      2.9376561641693115,
      -0.4444897770881653,
      0.3891255557537079,
      2.9036951065063477,
      1.0781058073043823,
      -2.0752193927764893,
      0.3897087574005127,
      0.7513530254364014,
      0.03533679619431496,
      -0.6538692712783813,
      -0.9174519181251526,
      -3.288330078125,
      1.5637465715408325,
      -2.9759328365325928,
      -3.6666829586029053,
      -3.310743570327759,
      -1.758060097694397,
      0.22236138582229614,
      1.7981525659561157,
      2.937225103378296,
      -2.0115833282470703,
      -4.816206932067871,
      0.48854896426200867,
      -5.359732627868652,
      -0.04316197708249092,
      -1.8073344230651855,
      -0.09663031250238419,
      -5.266941070556641,
      -0.1788785308599472,
      -2.2652204036712646,
      2.594860553741455,
      4.767934322357178,
      -6.0363993644714355,
      -1.7031668424606323,
      -1.666547179222107,
      -0.9821195602416992,
      1.601925253868103,
      -1.3983606100082397,
      7.7091288566589355,
      -5.0740251541137695,
      0.997823178768158,
      4.391885757446289,
      2.249842882156372,
      0.686424732208252,
      -0.5621768832206726,
      1.972766637802124,
      0.38986074924468994,
      0.5665189027786255,
      -0.2586848735809326,
      1.152448058128357,
      0.19378633797168732,
      0.8171004056930542,
      -0.29898470640182495,
      5.471538066864014,
      -1.6561381816864014,
      -0.6816592216491699,
      1.7655820846557617,
      -0.2507048547267914,
      -1.1551274061203003,
      -0.10638660937547684,
      -1.1177723407745361,
      2.0619802474975586,
      0.31483331322669983,
      2.120039224624634,
      -0.38739147782325745,
      1.9656221866607666,
      3.0639255046844482,
      0.13875259459018707,
      -0.5956652760505676,
      1.9169456958770752,
      0.9667972326278687,
      0.15851075947284698,
      -3.188244581222534,
      -1.0293654203414917,
      2.726778507232666,
      0.47376590967178345,
      -2.244429349899292,
      2.3689255714416504,
      0.43529483675956726,
      -0.1283992975950241,
      0.0906967967748642,
      0.6299627423286438,
      -0.608829140663147,
      -2.132587432861328,
      0.6994062662124634,
      0.7806093096733093,
      0.6711881756782532,
      0.688686192035675,
      0.7609965205192566,
      -1.5216337442398071,
      1.6565929651260376,
      0.47567620873451233,
      -0.0016245160950347781,
      -1.7851260900497437,
      -1.0815025568008423,
      -3.0199100971221924,
      2.3296546936035156,
      -2.2132232189178467,
      -0.25869596004486084,
      3.284010887145996,
      2.3641786575317383,
      -1.5711373090744019,
      3.481320381164551,
      -2.2719244956970215,
      -2.569181203842163,
      -0.4589388370513916,
      -0.6659137010574341,
      -2.0028645992279053,
      -1.017600178718567,
      -0.511821985244751,
      2.0461559295654297,
      2.2047338485717773,
      2.1709766387939453,
      3.6432511806488037,
      -0.002631695941090584,
      -0.0111498748883605,
      -0.0018045157194137573,
      -0.002334869932383299,
      0.010708043351769447,
      0.0017368969274684787,
      -0.004946016240864992,
      0.011378664523363113,
      0.007539300248026848,
      -0.010611558333039284,
      0.007104233372956514,
      -0.005605550017207861,
      0.003436458995565772,
      0.008600981906056404,
      0.011776397936046124,
      -0.00621205335482955,
      0.00651846919208765,
      0.002435798291116953,
      0.0035306091886013746,
      -0.000796265434473753,
      -0.003991028759628534,
      -0.003052289364859462,
      -0.0032193323131650686,
      -0.0008653209661133587,
      -0.009630763903260231
    ]
  },
  "hiddenLayers": [
    {
      "inputMatrix": {
        "rows": 20,
        "columns": 25,
        "weights": [
          0.2002948373556137,
          0.08467915654182434,
          -0.03996143862605095,
          0.21236902475357056,
          0.4103434383869171,
          0.06376826763153076,
          -0.534417450428009,
          0.018534554168581963,
          0.2728128135204315,
          -0.665785014629364,
          0.3809313178062439,
          0.5177218317985535,
          0.03402511402964592,
          -0.09731631726026535,
          0.0224395040422678,
          -0.8419902324676514,
          -0.34944936633110046,
          0.8942431807518005,
          -0.43415313959121704,
          0.17315548658370972,
          -0.04948126897215843,
          0.5646299719810486,
          -0.6686509251594543,
          -0.09911811351776123,
          0.3110549747943878,
          0.2918400168418884,
          -0.2389402687549591,
          0.047021809965372086,
          -0.04013783112168312,
          -0.19403015077114105,
          -0.17208807170391083,
          0.44721829891204834,
          0.013774663209915161,
          -0.28191396594047546,
          0.119784414768219,
          0.09646392613649368,
          -0.12269347161054611,
          0.2807455360889435,
          0.09485306590795517,
          -0.1616613119840622,
          0.11006775498390198,
          -0.37446799874305725,
          -0.08256078511476517,
          0.21837393939495087,
          -0.8225429058074951,
          -0.10658980160951614,
          -0.24508070945739746,
          -0.12580010294914246,
          -0.6183395385742188,
          -0.2485761195421219,
          -0.14431390166282654,
          0.06769008934497833,
          -0.20192497968673706,
          -0.23025603592395782,
          -0.2259010672569275,
          -0.1043575257062912,
          0.2597774565219879,
          -0.511522650718689,
          -0.8614239692687988,
          0.14909687638282776,
          0.0049854968674480915,
          0.14093637466430664,
          0.03665723279118538,
          0.018186727538704872,
          -0.19923168420791626,
          0.017882520332932472,
          0.2534882724285126,
          -0.1279405802488327,
          -0.15503835678100586,
          -0.0775316059589386,
          -0.19041965901851654,
          0.6816173195838928,
          0.17903253436088562,
          -0.3837435841560364,
          -0.597732424736023,
          -0.31354856491088867,
          0.13741712272167206,
          -0.09423122555017471,
          0.06480003148317337,
          -0.1987653523683548,
          -0.06762845069169998,
          -0.361050009727478,
          0.010980549268424511,
          -0.05093177407979965,
          0.05393431708216667,
          0.15612240135669708,
          -0.18310050666332245,
          -0.07004445046186447,
          0.13461583852767944,
          0.22197620570659637,
          -0.001950110774487257,
          0.09708883613348007,
          -0.08952566236257553,
          0.08030137419700623,
          -0.2710963785648346,
          -0.24864459037780762,
          0.403527170419693,
          0.0339803546667099,
          -0.2619217336177826,
          -0.5183222889900208,
          0.46939828991889954,
          -0.4273913502693176,
          0.21853099763393402,
          0.11513829231262207,
          -0.04499862715601921,
          0.30306851863861084,
          0.06816160678863525,
          -0.33532440662384033,
          -0.10552657395601273,
          0.30563345551490784,
          0.26358065009117126,
          -0.7081531882286072,
          0.2526315152645111,
          -0.21089735627174377,
          -0.06591824442148209,
          -0.19165214896202087,
          -0.12468256801366806,
          -0.06783398985862732,
          -0.6841456294059753,
          0.2226051390171051,
          0.1284250020980835,
          -0.21469010412693024,
          -0.7490004897117615,
          -0.26842957735061646,
          0.22620777785778046,
          0.02989766374230385,
          -0.46865785121917725,
          0.36808744072914124,
          -0.20830723643302917,
          0.33820104598999023,
          0.511737048625946,
          -0.12068336457014084,
          -0.5637832283973694,
          0.012577874585986137,
          -0.06040051206946373,
          -0.08106521517038345,
          0.13100644946098328,
          0.08917661756277084,
          -0.3922921121120453,
          -0.10842394828796387,
          0.25142139196395874,
          0.5977897047996521,
          0.03268427401781082,
          0.15282022953033447,
          -0.10538162291049957,
          -0.07005403935909271,
          -0.13485242426395416,
          -0.4766538739204407,
          0.15289166569709778,
          0.03584367409348488,
          -0.08958662301301956,
          -0.3904585540294647,
          0.32097965478897095,
          0.20414721965789795,
          0.14184826612472534,
          0.5325722694396973,
          0.19938404858112335,
          -0.4247245490550995,
          -0.5919705033302307,
          0.1814175695180893,
          0.269776850938797,
          -0.011885314248502254,
          0.10451056808233261,
          -0.3953525424003601,
          0.5188256502151489,
          0.07062400132417679,
          -0.26340198516845703,
          0.2790938913822174,
          -0.028497524559497833,
          -0.20780888199806213,
          -0.4249538779258728,
          -0.07776369899511337,
          -0.14178188145160675,
          -0.009300815872848034,
          -0.20319093763828278,
          -0.21662098169326782,
          0.20641790330410004,
          0.08756300061941147,
          -0.27836689352989197,
          -0.040584858506917953,
          -0.11479384452104568,
          -0.1547631025314331,
          0.06215757131576538,
          -0.25805339217185974,
          -0.05823061987757683,
          0.19900311529636383,
          0.1756344735622406,
          0.30620163679122925,
          0.0312423687428236,
          0.3356122076511383,
          0.3481137454509735,
          -0.07990650087594986,
          -0.09142084419727325,
          0.12079867720603943,
          -0.8043415546417236,
          -0.24075743556022644,
          -0.05077637359499931,
          -0.09190056473016739,
          0.5742954015731812,
          0.04564986377954483,
          0.029869677498936653,
          -0.5664786100387573,
          0.3347952663898468,
          -0.13921114802360535,
          -0.4964451789855957,
          0.2659710943698883,
          0.3270344138145447,
          -0.3977111577987671,
          -0.3739619255065918,
          0.11988765746355057,
          -0.2319018393754959,
          -0.2247999608516693,
          0.49578988552093506,
          0.03458378463983536,
          -0.02526720240712166,
          -0.007285413797944784,
          0.13348644971847534,
          -0.27796605229377747,
          -0.06441899389028549,
          -0.03125861659646034,
          0.04806974530220032,
          -0.3440302908420563,
          -0.0742284432053566,
          -0.22503264248371124,
          0.3916635811328888,
          0.43010202050209045,
          -0.1432119756937027,
          0.14386777579784393,
          -0.04037715122103691,
          0.8679031133651733,
          0.4395381212234497,
          -0.6432280540466309,
          -0.05984760448336601,
          -0.655762791633606,
          0.06724446266889572,
          -0.3529093265533447,
          0.33710911870002747,
          -0.2285935878753662,
          0.07302244007587433,
          -0.5656731724739075,
          -0.1106591448187828,
          0.11290869861841202,
          -0.12828443944454193,
          0.1863347738981247,
          -0.23367594182491302,
          0.5586667656898499,
          -0.1947505921125412,
          -0.42541563510894775,
          -0.03688706457614899,
          0.26526713371276855,
          -0.023048272356390953,
          0.07953362166881561,
          0.13900622725486755,
          0.265803724527359,
          -0.2953631281852722,
          0.2604965269565582,
          0.09254935383796692,
          -0.042592719197273254,
          0.45541253685951233,
          -0.4858711361885071,
          -0.4003334939479828,
          0.7455669045448303,
          -0.23404374718666077,
          -0.10057268291711807,
          -0.11771053075790405,
          -0.3953045904636383,
          -0.24813082814216614,
          -0.0995640680193901,
          -0.09553609788417816,
          0.3742888569831848,
          -0.2368316650390625,
          -0.24346710741519928,
          -0.24451944231987,
          -0.19181346893310547,
          0.6153706908226013,
          -0.3179251253604889,
          -0.560482919216156,
          -0.21193140745162964,
          0.28688937425613403,
          0.1937238872051239,
          0.10442270338535309,
          0.03275706246495247,
          -0.0849396139383316,
          -0.04697583243250847,
          -0.1855364590883255,
          -0.10015737265348434,
          -0.2753956913948059,
          -0.326526939868927,
          -0.047912366688251495,
          -0.04531903564929962,
          -0.1026545986533165,
          -0.7262663841247559,
          0.028510797768831253,
          0.1466675102710724,
          -0.3766254782676697,
          -0.05173543468117714,
          0.6563634872436523,
          -0.3345625102519989,
          -0.3716680705547333,
          -0.017326723784208298,
          -0.3358650207519531,
          -0.21342207491397858,
          -0.17146708071231842,
          -0.09323351830244064,
          0.11274603754281998,
          0.3351694941520691,
          0.09150534868240356,
          -0.39398279786109924,
          -0.28108450770378113,
          -0.43433648347854614,
          0.1291988343000412,
          0.3120148777961731,
          -0.7470455765724182,
          0.2598673701286316,
          -0.017748333513736725,
          0.045690182596445084,
          0.0055894749239087105,
          0.3223426342010498,
          0.4239143133163452,
          0.10291510075330734,
          -0.06430185586214066,
          0.31023311614990234,
          -0.06796776503324509,
          -0.07030083984136581,
          -0.36641359329223633,
          -0.08188197761774063,
          -0.007700610905885696,
          0.48102182149887085,
          -0.08314920216798782,
          -0.09998754411935806,
          -0.04058178514242172,
          -0.5909384489059448,
          -0.1986842304468155,
          0.11354829370975494,
          0.15272635221481323,
          -0.0782821998000145,
          0.03438744693994522,
          -0.1880696415901184,
          -0.2144576460123062,
          0.34046974778175354,
          -0.0660114735364914,
          0.2710381746292114,
          0.2221686691045761,
          0.1835898458957672,
          -0.4572235345840454,
          -0.3329251706600189,
          -0.38769352436065674,
          0.14239613711833954,
          0.3329578936100006,
          -0.022596031427383423,
          -0.06747675687074661,
          0.28980687260627747,
          0.6156129837036133,
          0.14007136225700378,
          -0.08392026275396347,
          -0.15773536264896393,
          -0.5918721556663513,
          -0.013177500106394291,
          0.17594751715660095,
          0.06041303277015686,
          -0.19799251854419708,
          -0.08484996855258942,
          -0.05169264227151871,
          -0.21023014187812805,
          0.4920693337917328,
          -0.45952147245407104,
          -0.07189802825450897,
          0.8223190903663635,
          0.019437290728092194,
          -0.5595419406890869,
          -0.1424604207277298,
          -0.4674373269081116,
          0.20139259099960327,
          0.2516125738620758,
          -0.07813037186861038,
          -0.10236390680074692,
          -0.09051421284675598,
          -0.08592560887336731,
          0.33312439918518066,
          0.5480881333351135,
          -0.029021307826042175,
          -0.07848293334245682,
          0.10301288217306137,
          -0.45886513590812683,
          -0.11502501368522644,
          -0.0015319586964324117,
          -0.03854013606905937,
          -0.4800998866558075,
          -0.03739175945520401,
          0.04214346781373024,
          0.17169277369976044,
          -0.18661025166511536,
          -0.12290473282337189,
          -0.28863033652305603,
          -0.5946835279464722,
          0.040911417454481125,
          0.4726126194000244,
          -0.2026251256465912,
          -0.33540844917297363,
          -0.041468534618616104,
          0.001836378825828433,
          0.07154575735330582,
          -0.08066906034946442,
          0.04804646596312523,
          -0.1810181885957718,
          0.4383057951927185,
          -0.1301988959312439,
          0.01555242296308279,
          -0.26556721329689026,
          0.27551549673080444,
          -0.30252406001091003,
          -0.17384275794029236,
          0.23686541616916656,
          0.2953677475452423,
          0.27085447311401367,
          0.04017391428351402,
          0.5526525378227234,
          0.16411828994750977,
          -0.1891353577375412,
          -0.5417683124542236,
          -0.014300819486379623,
          -0.14444458484649658,
          0.12048092484474182,
          -0.07686387747526169,
          -0.352314293384552,
          -0.14113177359104156,
          -0.4354698359966278,
          0.1315220296382904,
          0.06930600851774216,
          0.03246809542179108,
          -0.5603331923484802,
          0.030696291476488113,
          0.05800304934382439,
          -0.5852933526039124,
          0.15083394944667816,
          -0.033516351133584976,
          0.3913958966732025,
          0.06571152806282043,
          0.214845672249794,
          0.3770228922367096,
          -0.15246112644672394,
          -0.10429685562849045,
          0.18032296001911163,
          -0.16105781495571136,
          -0.48533663153648376,
          0.21203605830669403,
          0.0952971875667572,
          -0.604660153388977,
          -0.10666005313396454,
          -0.18894679844379425,
          0.06174585968255997,
          -0.011670940555632114,
          0.22628134489059448,
          0.05560426786541939,
          -0.17660614848136902,
          0.08528488129377365,
          -0.08153672516345978,
          0.163730651140213,
          -0.16717153787612915,
          0.09031512588262558,
          -0.41672033071517944,
          0.2561763823032379,
          0.09024432301521301,
          -0.08096232265233994,
          -0.10903985053300858,
          -0.04932595416903496,
          -0.025078052654862404,
          0.20713886618614197,
          0.23139357566833496,
          -0.03621051087975502,
          0.03401421010494232,
          -0.540738582611084,
          0.4073159098625183,
          0.04108382761478424,
          0.310881644487381,
          0.4090662896633148,
          -0.249530628323555,
          -0.14520782232284546,
          -0.2854224443435669,
          -0.10823846608400345,
          -0.10037430375814438,
          0.14622414112091064,
          -0.4986186921596527,
          -0.3829178810119629,
          0.16900266706943512,
          0.6508121490478516,
          0.16360095143318176,
          -0.1392737179994583,
          0.047463469207286835,
          0.05657520890235901,
          -0.1661451905965805,
          -0.3289714455604553,
          0.056327056139707565,
          -0.14493542909622192,
          -0.42576348781585693,
          0.2199144959449768,
          0.29649534821510315,
          -0.006828007288277149,
          -0.48808610439300537,
          -0.11063212156295776
        ]
      },
      "inputHidden": {
        "rows": 20,
        "columns": 20,
        "weights": [
          0.33433663845062256,
          1.0830414295196533,
          0.5782424807548523,
          -0.43514764308929443,
          -0.21228304505348206,
          0.461565226316452,
          0.5788132548332214,
          0.08670098334550858,
          0.13119515776634216,
          0.03788158297538757,
          -0.2879192531108856,
          -0.3907085955142975,
          -0.31694114208221436,
          0.9583830833435059,
          -0.13935571908950806,
          0.8542322516441345,
          0.2100234031677246,
          0.3394460678100586,
          0.8036724925041199,
          0.15244270861148834,
          0.36996886134147644,
          -0.3307407796382904,
          0.4046294391155243,
          -0.2885344624519348,
          -0.8499405384063721,
          0.8986279368400574,
          0.558914840221405,
          0.3926335573196411,
          0.48655763268470764,
          -0.11826197057962418,
          -0.4874099791049957,
          -0.5077552795410156,
          -0.41923677921295166,
          -0.294359028339386,
          0.8328526616096497,
          0.33894169330596924,
          0.668145477771759,
          -0.1333431750535965,
          0.2587592303752899,
          0.3236503005027771,
          -0.08293653279542923,
          1.0089192390441895,
          0.6988080739974976,
          -0.7657474875450134,
          -0.16013984382152557,
          0.2585626542568207,
          0.8519797325134277,
          0.14372213184833527,
          0.45624780654907227,
          0.5523468255996704,
          -0.21362513303756714,
          -0.043584562838077545,
          -0.24607007205486298,
          0.40682169795036316,
          -0.5126276612281799,
          -0.25350502133369446,
          0.9525802731513977,
          0.4960995614528656,
          -0.5874131917953491,
          0.6126381158828735,
          0.37144237756729126,
          -0.1257081776857376,
          0.47369831800460815,
          -0.5009050965309143,
          -0.06073147803544998,
          -0.21612906455993652,
          0.10380926728248596,
          -0.6375263333320618,
          0.5853700041770935,
          -0.065306656062603,
          -1.2273423671722412,
          -0.4572932720184326,
          -0.5108321309089661,
          -0.4407082796096802,
          -1.1578574180603027,
          -0.04523955285549164,
          0.8980962634086609,
          0.23829907178878784,
          -0.6204477548599243,
          0.12128204107284546,
          0.506698489189148,
          0.6796841621398926,
          -0.11938826739788055,
          -0.33264318108558655,
          0.5825003981590271,
          -0.17508180439472198,
          0.8557919263839722,
          0.40312087535858154,
          -0.015424413606524467,
          0.16669508814811707,
          -0.16850057244300842,
          -0.42402660846710205,
          -0.04290948063135147,
          0.1647445261478424,
          0.1870008409023285,
          1.4384883642196655,
          0.6526588201522827,
          0.9116165041923523,
          0.3525388538837433,
          0.24208290874958038,
          -0.059626538306474686,
          -0.09302759170532227,
          0.5380292534828186,
          -0.7051413655281067,
          -0.3949342966079712,
          0.9924166202545166,
          0.8754860758781433,
          -0.26207756996154785,
          -0.10657385736703873,
          -0.5333845615386963,
          -0.29221129417419434,
          -0.10753127932548523,
          0.47294867038726807,
          0.4471723139286041,
          -0.09665951877832413,
          -0.2735631465911865,
          -0.14122942090034485,
          0.2222026288509369,
          0.572343111038208,
          0.08515132963657379,
          0.20362727344036102,
          1.154822826385498,
          0.700669527053833,
          -0.23251429200172424,
          0.06186680495738983,
          0.41202670335769653,
          0.8264829516410828,
          0.9651409983634949,
          0.9145867228507996,
          0.39587515592575073,
          -0.6307089924812317,
          -0.1671263724565506,
          0.024671534076333046,
          -0.3721083998680115,
          -0.13233278691768646,
          0.29129162430763245,
          -0.05056082829833031,
          0.41934266686439514,
          0.5997152924537659,
          -0.033374324440956116,
          -0.38151267170906067,
          0.051659226417541504,
          0.4265364408493042,
          -0.21435941755771637,
          -0.20451200008392334,
          -0.04227737337350845,
          -0.30111274123191833,
          1.6823536157608032,
          0.7414772510528564,
          -0.2525075078010559,
          -0.40347063541412354,
          -0.41329944133758545,
          -0.590667724609375,
          -0.026315193623304367,
          0.178130641579628,
          -0.5107953548431396,
          -0.40121960639953613,
          0.07705795764923096,
          1.4826842546463013,
          -0.2543196976184845,
          -0.2550852596759796,
          0.8965331315994263,
          0.5418087244033813,
          0.19469892978668213,
          0.02783016487956047,
          0.21569198369979858,
          0.6372658014297485,
          0.6534631252288818,
          -0.4316670596599579,
          1.1694108247756958,
          0.8827926516532898,
          -0.6259042024612427,
          0.29916417598724365,
          0.12455166131258011,
          0.45725640654563904,
          0.7074679732322693,
          0.7614680528640747,
          0.9403165578842163,
          0.34506508708000183,
          -0.030589044094085693,
          0.2943165600299835,
          1.0675146579742432,
          0.8311391472816467,
          0.32334810495376587,
          -1.0378353595733643,
          0.762302577495575,
          -0.7718281745910645,
          0.6756057739257812,
          0.8763082027435303,
          0.3253747224807739,
          -0.9216614365577698,
          -0.13724134862422943,
          -0.4962242841720581,
          -0.16740810871124268,
          -0.8469226360321045,
          0.46749377250671387,
          0.32007232308387756,
          0.5731315016746521,
          0.3086893558502197,
          0.049019716680049896,
          1.4339793920516968,
          0.10220938920974731,
          -0.3754195272922516,
          0.4967576265335083,
          0.1154562458395958,
          -0.29945075511932373,
          -0.43765145540237427,
          1.6059134006500244,
          -0.6918866634368896,
          -0.3193328082561493,
          -0.11336661130189896,
          -0.062305621802806854,
          0.1919848471879959,
          0.48324155807495117,
          -0.3039318323135376,
          -0.16071352362632751,
          -0.4572608768939972,
          -0.31185540556907654,
          0.023691326379776,
          0.15369975566864014,
          -0.3406094014644623,
          0.05718253552913666,
          0.7150927186012268,
          -0.5667389035224915,
          0.5912423729896545,
          0.004019899759441614,
          0.13072413206100464,
          1.1764652729034424,
          0.5593894124031067,
          0.565069317817688,
          -0.45026159286499023,
          1.1264996528625488,
          -0.22415077686309814,
          -0.3246419131755829,
          -0.36159953474998474,
          0.4561368525028229,
          0.18715697526931763,
          -0.26899608969688416,
          -0.3577665686607361,
          0.2906533479690552,
          1.1177502870559692,
          -0.07484757155179977,
          -0.11752989888191223,
          -0.6323416233062744,
          0.46447059512138367,
          0.29493263363838196,
          0.7789088487625122,
          1.2510528564453125,
          0.4990868866443634,
          0.515964150428772,
          -0.8015600442886353,
          -0.19764629006385803,
          -0.47638630867004395,
          -0.15953482687473297,
          0.5032474994659424,
          0.8419830203056335,
          0.08834879845380783,
          -0.1619744747877121,
          0.4344451427459717,
          0.34723615646362305,
          0.0366414450109005,
          0.42446961998939514,
          0.9058603644371033,
          -0.8113653063774109,
          0.05931498482823372,
          0.5344159007072449,
          0.0884741023182869,
          0.526187539100647,
          1.6366260051727295,
          0.19545374810695648,
          0.36284729838371277,
          -0.7107521295547485,
          -0.12169444561004639,
          0.48178380727767944,
          -0.5073147416114807,
          -0.2116336077451706,
          0.441208153963089,
          0.5162376165390015,
          0.07761015743017197,
          0.7477442622184753,
          0.5694692730903625,
          -0.22734908759593964,
          0.34999188780784607,
          -0.3572004735469818,
          0.7081674933433533,
          0.20516137778759003,
          0.6408740282058716,
          0.23136122524738312,
          0.32031553983688354,
          -1.0341187715530396,
          -0.849101185798645,
          -0.8836401700973511,
          0.5811710953712463,
          -0.4996238946914673,
          0.18558628857135773,
          -0.19304174184799194,
          -0.8914300799369812,
          -0.35449936985969543,
          0.292745977640152,
          0.3957618474960327,
          0.505800724029541,
          -0.18079404532909393,
          0.47234752774238586,
          -0.13752654194831848,
          -0.44764938950538635,
          0.551327109336853,
          0.5975779294967651,
          -0.5493341684341431,
          0.44222813844680786,
          0.17963160574436188,
          0.6163201928138733,
          -0.09950418025255203,
          0.8057039976119995,
          1.1136342287063599,
          -0.21053171157836914,
          -0.9345739483833313,
          0.2689359188079834,
          0.34684377908706665,
          0.6747691631317139,
          0.3182905912399292,
          -0.26374951004981995,
          0.6634352207183838,
          0.6579288840293884,
          -0.14610792696475983,
          0.7261319160461426,
          -0.3012738525867462,
          0.36954665184020996,
          0.13565278053283691,
          -1.0233676433563232,
          0.4036729335784912,
          0.16213008761405945,
          -0.5864294767379761,
          0.1336548626422882,
          -0.15642648935317993,
          0.42252036929130554,
          -0.7528737783432007,
          1.198941946029663,
          0.7560385465621948,
          0.14278987050056458,
          -1.3942517042160034,
          0.32621660828590393,
          -0.6084897518157959,
          0.6243221163749695,
          0.4246658980846405,
          0.12307658791542053,
          0.01973833329975605,
          -0.5754767656326294,
          -0.2875401973724365,
          1.3392707109451294,
          -1.6529157161712646,
          -0.03428710997104645,
          0.11603544652462006,
          -1.1857810020446777,
          -0.7370769381523132,
          -0.7454062700271606,
          0.9708467721939087,
          0.08751650154590607,
          0.00243768491782248,
          0.5317398309707642,
          -0.3106231391429901,
          0.6356867551803589,
          0.228333979845047,
          0.6849565505981445,
          -0.2810167074203491,
          -0.18724767863750458,
          0.5590770840644836,
          0.9478433728218079,
          -0.03617256507277489,
          -0.1006646603345871,
          -0.569472074508667,
          -0.600019633769989,
          -0.6608541011810303,
          0.34409981966018677,
          -0.2889845371246338,
          -0.09324240684509277,
          -0.1212972104549408,
          0.6522388458251953,
          0.7979425191879272,
          0.7656950354576111,
          0.026288436725735664,
          0.26073598861694336,
          0.9787744879722595,
          0.5054028630256653,
          -1.0651061534881592,
          0.6839907765388489,
          -0.19850946962833405,
          0.18407636880874634,
          0.9569014310836792,
          -1.3737680912017822,
          0.5221610069274902,
          -0.7411265969276428,
          0.14933782815933228,
          -0.297221302986145,
          0.3622347414493561,
          -0.1089063510298729,
          0.9479694366455078,
          -0.6026385426521301,
          0.8367564082145691,
          0.9046244025230408,
          0.3574567437171936
        ]
      },
      "inputBias": {
        "rows": 20,
        "columns": 1,
        "weights": [
          -0.3042197525501251,
          0.6125572919845581,
          0.9905490279197693,
          0.772952139377594,
          0.8302443027496338,
          0.20917461812496185,
          0.3619671165943146,
          -0.4819148778915405,
          0.31775742769241333,
          -0.2070820927619934,
          0.3115350008010864,
          1.267412543296814,
          0.030835209414362907,
          0.027024170383810997,
          -0.3245542049407959,
          -0.036204658448696136,
          0.920905351638794,
          0.8263433575630188,
          0.2008250504732132,
          0.22612643241882324
        ]
      },
      "forgetMatrix": {
        "rows": 20,
        "columns": 25,
        "weights": [
          0.1550905555486679,
          -0.06483650952577591,
          -0.20273365080356598,
          -0.4757900536060333,
          0.24421007931232452,
          0.2393653839826584,
          0.4209107756614685,
          -0.4158753752708435,
          -0.22411134839057922,
          0.35563409328460693,
          -0.30974796414375305,
          -0.028072919696569443,
          0.02490411326289177,
          -0.12128275632858276,
          -0.047463104128837585,
          -0.04084962606430054,
          0.7365391850471497,
          -0.23958700895309448,
          -0.2617107927799225,
          -0.22095085680484772,
          0.32866621017456055,
          -0.06835459917783737,
          0.35362371802330017,
          -0.07181671261787415,
          0.20927390456199646,
          0.09754400700330734,
          -0.0528317354619503,
          0.4279082119464874,
          -0.032587677240371704,
          -0.296130508184433,
          -0.08788567036390305,
          0.3541450500488281,
          0.33177661895751953,
          0.1775144636631012,
          -0.13911652565002441,
          0.1458335518836975,
          0.07019756734371185,
          0.32903480529785156,
          0.1557934582233429,
          -0.17895445227622986,
          0.10187770426273346,
          0.49902239441871643,
          -0.49298152327537537,
          0.15542162954807281,
          0.3626311123371124,
          -0.5462666153907776,
          -0.10641361027956009,
          -0.24630531668663025,
          -0.025598639622330666,
          0.0334760807454586,
          -0.1524556279182434,
          0.0201498381793499,
          0.13293442130088806,
          -0.048984039574861526,
          -0.341031938791275,
          -0.2919749319553375,
          -0.16159245371818542,
          0.03120705485343933,
          0.3872014284133911,
          0.0669843852519989,
          -0.05892065539956093,
          -0.020800674334168434,
          0.8803057074546814,
          -0.053277745842933655,
          0.3087598383426666,
          -0.13623648881912231,
          0.02971601113677025,
          -0.18750211596488953,
          -0.12735135853290558,
          0.6449213027954102,
          -0.06457895785570145,
          -0.23946961760520935,
          -0.11097852885723114,
          0.2851116955280304,
          -0.03061199188232422,
          0.29129230976104736,
          -0.2983596622943878,
          -0.11084616184234619,
          -0.09480387717485428,
          -0.09551551938056946,
          -0.2905849814414978,
          -0.028257805854082108,
          0.7118873000144958,
          0.23379221558570862,
          0.18278001248836517,
          -0.5858315229415894,
          0.6146539449691772,
          -0.6307197213172913,
          -0.1832769513130188,
          -0.22876204550266266,
          0.16938433051109314,
          0.17341117560863495,
          -0.2573191225528717,
          -0.1702176034450531,
          -0.46335944533348083,
          -0.9344090223312378,
          -0.06695912033319473,
          -0.0030199282336980104,
          0.27010029554367065,
          0.38153183460235596,
          -0.1231890320777893,
          0.09195871651172638,
          0.40054044127464294,
          -0.08015944808721542,
          -0.5304742455482483,
          -0.10191141813993454,
          -0.039327472448349,
          0.19235512614250183,
          0.759750247001648,
          -0.20955727994441986,
          -0.18283028900623322,
          -0.18662218749523163,
          -0.21250388026237488,
          0.3084574043750763,
          0.15112397074699402,
          0.23165182769298553,
          0.6516824960708618,
          -0.6917271614074707,
          -0.09935715794563293,
          0.05370800569653511,
          -0.3693886995315552,
          -0.3900141716003418,
          0.2035873383283615,
          -0.28758344054222107,
          -0.15884940326213837,
          -0.21752671897411346,
          -0.21640652418136597,
          -0.040914636105298996,
          -0.039599549025297165,
          0.07750048488378525,
          0.2027839720249176,
          -0.1381639689207077,
          -0.3310515880584717,
          -0.320446640253067,
          0.2019612193107605,
          0.4771363437175751,
          0.1662457138299942,
          -0.09348659962415695,
          0.06045562028884888,
          0.11255890130996704,
          0.15808315575122833,
          -0.198133647441864,
          -0.35106006264686584,
          0.15628744661808014,
          -0.08912283182144165,
          0.35868310928344727,
          0.5979809165000916,
          -0.07745093107223511,
          0.040261160582304,
          -0.5558801889419556,
          0.06058504432439804,
          0.6439601182937622,
          -0.008706779219210148,
          -0.08110609650611877,
          -0.12241474539041519,
          -0.8879715800285339,
          0.15733276307582855,
          0.34563395380973816,
          0.4289729595184326,
          0.02144045941531658,
          0.3948906660079956,
          0.33829087018966675,
          0.12709122896194458,
          0.12960365414619446,
          -0.24738702178001404,
          0.003105706535279751,
          -0.5652567148208618,
          -0.4245103895664215,
          -0.41599324345588684,
          0.11444201320409775,
          -1.1805013418197632,
          0.20774467289447784,
          -0.14387094974517822,
          0.02972221188247204,
          -0.3523315191268921,
          0.23702988028526306,
          0.16480757296085358,
          0.2913447618484497,
          0.27423688769340515,
          0.13740916550159454,
          0.24649833142757416,
          -0.013653527945280075,
          -0.09575745463371277,
          0.024919642135500908,
          -0.13241688907146454,
          0.47918790578842163,
          -0.7346386909484863,
          0.25316566228866577,
          0.05107824131846428,
          -0.1518760323524475,
          0.021581197157502174,
          0.20373108983039856,
          0.358713835477829,
          -0.11156096309423447,
          0.021799257025122643,
          -0.5522457361221313,
          -0.5133207440376282,
          0.19270673394203186,
          0.12780919671058655,
          -0.13395251333713531,
          0.10588657855987549,
          0.22404593229293823,
          0.4050096273422241,
          -0.4605858325958252,
          -0.4903615117073059,
          -0.2678065896034241,
          -0.07105307281017303,
          0.5741602182388306,
          0.6286715865135193,
          -0.1922607421875,
          0.21688657999038696,
          0.5240253806114197,
          0.23778869211673737,
          -0.06333710253238678,
          0.5439280271530151,
          -0.11524330079555511,
          0.1929837167263031,
          -0.062049124389886856,
          0.1188131794333458,
          -0.2738925814628601,
          -0.9147909879684448,
          -0.330373615026474,
          -0.06089715287089348,
          -0.00017897917132358998,
          0.42312416434288025,
          -0.12240627408027649,
          0.2633925676345825,
          0.084518663585186,
          0.27486586570739746,
          -0.6725924015045166,
          0.33310437202453613,
          0.3686133623123169,
          -0.08777165412902832,
          0.24936017394065857,
          -0.1945982426404953,
          0.25810548663139343,
          0.0612826831638813,
          0.012269493192434311,
          0.09578840434551239,
          -0.08062760531902313,
          0.044369298964738846,
          -0.0944579541683197,
          -0.2913418412208557,
          0.2906959056854248,
          -0.027769140899181366,
          -0.35162559151649475,
          0.16264186799526215,
          -0.10085411369800568,
          -0.6269261837005615,
          0.11409928649663925,
          -0.06305600702762604,
          -0.8447675704956055,
          0.28066590428352356,
          -0.4983082711696625,
          -0.22531597316265106,
          0.10420866310596466,
          -0.0707792267203331,
          0.18209019303321838,
          0.15538670122623444,
          0.26675814390182495,
          -0.480821430683136,
          0.03971052169799805,
          0.6718277335166931,
          -0.44334420561790466,
          0.4400573670864105,
          -0.37808266282081604,
          0.06012716889381409,
          -0.014995858073234558,
          0.13047845661640167,
          0.19342677295207977,
          -0.4344826638698578,
          0.08152177184820175,
          0.2269720882177353,
          -0.11721326410770416,
          -0.24664492905139923,
          -0.0658358559012413,
          0.11721181124448776,
          0.786251425743103,
          0.21872760355472565,
          0.20113623142242432,
          0.14703378081321716,
          -1.0465259552001953,
          -0.2393101155757904,
          0.30696171522140503,
          -0.10912731289863586,
          -0.11537076532840729,
          -0.1515408456325531,
          0.15590426325798035,
          -0.0013912873109802604,
          -0.1860412210226059,
          -0.20651289820671082,
          0.2315223664045334,
          0.2870922386646271,
          0.3135506212711334,
          0.42691534757614136,
          -0.15995144844055176,
          0.5851240158081055,
          0.33644312620162964,
          0.40960776805877686,
          -0.18054649233818054,
          0.012140384875237942,
          -0.11508294194936752,
          0.04536132887005806,
          -0.05077838525176048,
          0.24059240520000458,
          -0.05951625108718872,
          -0.019296543672680855,
          -0.14511311054229736,
          0.15267214179039001,
          -0.12128889560699463,
          0.5820534825325012,
          0.444980651140213,
          0.6796445846557617,
          -0.3218979835510254,
          0.2987646460533142,
          0.16957993805408478,
          0.2576482892036438,
          -0.07699714601039886,
          -0.16003966331481934,
          0.18589596450328827,
          -0.114239901304245,
          0.19947078824043274,
          -0.04022546112537384,
          0.28814995288848877,
          0.017654774710536003,
          -0.3080420196056366,
          -0.12222893536090851,
          0.2649320960044861,
          0.5332171320915222,
          0.5283871293067932,
          0.05574268475174904,
          -0.23802576959133148,
          -0.4737570583820343,
          -0.35924798250198364,
          0.622682511806488,
          -0.18765825033187866,
          -0.2502639889717102,
          0.8622199296951294,
          0.0021353980991989374,
          0.12652824819087982,
          0.07383745908737183,
          0.757929801940918,
          -0.21406742930412292,
          -0.25310471653938293,
          0.07320523262023926,
          1.1588371992111206,
          0.383507639169693,
          -0.27841052412986755,
          0.1643410325050354,
          -0.3262609541416168,
          0.23329640924930573,
          -0.05368802696466446,
          0.182080939412117,
          0.18089963495731354,
          0.6106289029121399,
          0.9825095534324646,
          0.10930906981229782,
          -0.11958526074886322,
          0.06539751589298248,
          -0.3053460717201233,
          0.006251980550587177,
          -0.9140511155128479,
          0.10258840024471283,
          0.18205446004867554,
          -0.44676679372787476,
          0.04431731626391411,
          0.35142019391059875,
          -0.44778352975845337,
          -0.2619022727012634,
          0.8064459562301636,
          -0.08145808428525925,
          -0.3365981876850128,
          0.5696239471435547,
          0.20466455817222595,
          0.7935593128204346,
          -0.026067422702908516,
          -0.5918659567832947,
          0.3973475396633148,
          -0.1353512704372406,
          0.25224459171295166,
          0.21254949271678925,
          -0.04880737140774727,
          0.1482992023229599,
          -0.11042845994234085,
          -0.2017975002527237,
          -0.6208442449569702,
          -0.26955077052116394,
          0.5384544730186462,
          0.0787353664636612,
          -0.27464884519577026,
          0.07636940479278564,
          0.424541175365448,
          -0.25037524104118347,
          -0.21202431619167328,
          -0.031112147495150566,
          0.2938189208507538,
          -0.4209011197090149,
          -0.2930968105792999,
          -0.18324820697307587,
          0.3455917239189148,
          -0.1392272710800171,
          0.7381288409233093,
          0.1490161120891571,
          -0.07665887475013733,
          -0.23865507543087006,
          -0.35834750533103943,
          0.5739211440086365,
          0.42771172523498535,
          0.35522347688674927,
          -0.09885269403457642,
          0.1201249286532402,
          -0.40218767523765564,
          0.28723546862602234,
          0.21102938055992126,
          -0.23777824640274048,
          0.07681433856487274,
          1.0870682001113892,
          -0.34845253825187683,
          -0.14157283306121826,
          0.1578477919101715,
          -0.5226251482963562,
          0.6440734267234802,
          0.14723508059978485,
          0.07468803226947784,
          0.13004165887832642,
          -0.026527464389801025,
          -0.24991129338741302,
          0.031696122139692307,
          -0.2437654286623001,
          -0.06892417371273041,
          -0.3240382969379425,
          0.4788694977760315,
          0.09194391220808029,
          -0.1682150810956955,
          0.06996064633131027,
          -0.3159281313419342,
          -0.029470190405845642,
          -0.12683679163455963,
          -0.27185773849487305,
          -0.02336171455681324,
          0.34575244784355164,
          0.12120410054922104,
          -0.3891013562679291,
          -0.4099670946598053,
          -0.7120059132575989,
          0.11666116863489151,
          -0.4646323323249817,
          0.07554574310779572,
          -0.14828498661518097,
          -0.23274344205856323,
          -0.0993451327085495,
          0.4334651827812195,
          -0.4609597623348236,
          -0.20965857803821564,
          0.039736248552799225,
          -0.5071165561676025,
          0.03906622156500816,
          0.016606928780674934,
          -0.31033018231391907,
          0.1182856559753418,
          0.12724892795085907,
          -0.12372046709060669,
          0.3482154607772827,
          0.18645282089710236,
          0.1394432634115219,
          -0.14660952985286713,
          -0.15676464140415192,
          -0.14313212037086487,
          -0.3744691014289856,
          -0.003095364896580577,
          0.5146476030349731,
          0.35025906562805176,
          0.12209183722734451,
          0.16181781888008118,
          -0.05684792250394821,
          -0.14388734102249146,
          0.08765683323144913,
          0.04143357649445534,
          0.060774046927690506,
          -0.13897591829299927,
          -0.014678594656288624,
          0.17800173163414001,
          -0.10065780580043793,
          -0.019996924325823784,
          0.15046092867851257,
          -0.20312277972698212,
          -0.491581529378891,
          0.06285228580236435,
          0.04367045685648918,
          -0.1105031967163086,
          -0.0682651475071907,
          1.0530102252960205,
          -0.3711263835430145,
          -0.2316635400056839,
          0.30412954092025757,
          0.03018994815647602,
          0.1379968672990799,
          -0.07174079865217209,
          -0.46034806966781616,
          -0.31804102659225464
        ]
      },
      "forgetHidden": {
        "rows": 20,
        "columns": 20,
        "weights": [
          0.586961030960083,
          -0.5021289587020874,
          0.5589589476585388,
          -0.22425299882888794,
          0.1693582683801651,
          0.6753941178321838,
          0.5277583599090576,
          0.43690308928489685,
          0.0489358976483345,
          0.7074878811836243,
          -0.40843087434768677,
          -0.49084925651550293,
          0.22414572536945343,
          -0.2606070637702942,
          -0.19557945430278778,
          0.2940903306007385,
          -0.6914779543876648,
          0.4427662193775177,
          0.3755905032157898,
          0.37391793727874756,
          1.396277666091919,
          -0.02428516186773777,
          -0.10130391269922256,
          0.05701911449432373,
          0.35912054777145386,
          0.06359301507472992,
          -0.09383389353752136,
          0.4837327301502228,
          0.33105534315109253,
          0.8326638340950012,
          0.16051147878170013,
          0.06150876358151436,
          0.7436994910240173,
          -0.0956835225224495,
          -1.1531274318695068,
          -0.11107009649276733,
          -0.7157977223396301,
          -0.06380220502614975,
          0.05049145221710205,
          0.6233595609664917,
          0.06466246396303177,
          0.3103569447994232,
          0.3278025686740875,
          -0.3153632581233978,
          -0.24363014101982117,
          0.26803651452064514,
          0.30473342537879944,
          0.241038978099823,
          0.24489976465702057,
          -1.3482897281646729,
          0.32183870673179626,
          -0.43608376383781433,
          -0.23687241971492767,
          -0.7920199036598206,
          -0.18080440163612366,
          0.287008136510849,
          -0.13396377861499786,
          -0.04319681227207184,
          0.6591532826423645,
          -0.5782922506332397,
          0.9867289066314697,
          -0.9833283424377441,
          0.36522671580314636,
          -0.18158559501171112,
          0.34379762411117554,
          0.4623786509037018,
          0.13454791903495789,
          0.27086031436920166,
          -0.5034058094024658,
          -1.5711122751235962,
          -0.09970612078905106,
          -0.11875046044588089,
          -0.45804208517074585,
          0.3846120536327362,
          -0.21471232175827026,
          0.2636367380619049,
          0.014226642437279224,
          -0.03607993572950363,
          -0.3901403844356537,
          0.2670936584472656,
          0.06504544615745544,
          -0.028880978003144264,
          -0.03216003254055977,
          -0.1720791459083557,
          0.08436770737171173,
          -1.2266026735305786,
          -0.9890543818473816,
          -0.8763668537139893,
          -0.9587419629096985,
          -0.5078564286231995,
          0.044209983199834824,
          0.07085060328245163,
          -0.19140484929084778,
          -1.2159945964813232,
          0.526268720626831,
          0.8397937417030334,
          0.5022313594818115,
          0.6806347370147705,
          -0.21962285041809082,
          -0.15076065063476562,
          0.4844595193862915,
          -0.11121626943349838,
          0.29801106452941895,
          -0.3826262652873993,
          -0.16148677468299866,
          0.7676469683647156,
          -0.08728206902742386,
          0.7653871774673462,
          -0.6811346411705017,
          -0.3842753767967224,
          -1.225740671157837,
          -0.4500787556171417,
          -0.2907576262950897,
          0.07335837185382843,
          -0.031248779967427254,
          -0.08974156528711319,
          0.3179669678211212,
          0.6248519420623779,
          0.09904228895902634,
          1.0246087312698364,
          0.4092649817466736,
          -0.4855358302593231,
          0.47463324666023254,
          -0.5519458055496216,
          -0.012821132317185402,
          0.718286395072937,
          0.5708743929862976,
          -0.05083492398262024,
          -0.4654529392719269,
          -2.0115649700164795,
          -1.046399712562561,
          -0.3955288827419281,
          -0.7920987606048584,
          0.44929391145706177,
          -0.4154476523399353,
          -0.6896193027496338,
          0.34793776273727417,
          0.17197321355342865,
          0.579264223575592,
          -0.0800752267241478,
          0.23820453882217407,
          -1.040206789970398,
          0.9342086315155029,
          -1.0302125215530396,
          -0.09977729618549347,
          0.30532094836235046,
          1.4648792743682861,
          -0.3204914331436157,
          -0.2636188268661499,
          -0.43472886085510254,
          0.49892619252204895,
          -0.7953138947486877,
          0.21072959899902344,
          -0.4370640814304352,
          0.16818520426750183,
          -0.1411677598953247,
          0.002463854383677244,
          0.8845685720443726,
          1.2683600187301636,
          0.8714462518692017,
          -0.6111560463905334,
          0.9188938140869141,
          0.8695424199104309,
          0.35565271973609924,
          -2.014599323272705,
          0.13104291260242462,
          0.20143406093120575,
          0.4322701394557953,
          0.7172111868858337,
          -0.9743929505348206,
          -0.48636913299560547,
          -0.26832520961761475,
          -0.1801546961069107,
          0.5348862409591675,
          0.7540619373321533,
          -0.212110236287117,
          -0.791317880153656,
          0.14036183059215546,
          -1.228313684463501,
          0.9504765868186951,
          -0.35375526547431946,
          -0.7442973852157593,
          0.2834838628768921,
          0.11525585502386093,
          0.37477996945381165,
          0.1726980209350586,
          0.22300472855567932,
          -0.17646841704845428,
          0.5325238704681396,
          -1.0361863374710083,
          0.09801343828439713,
          1.1605417728424072,
          -0.24806992709636688,
          -0.2546440362930298,
          -0.47253504395484924,
          -0.008508699014782906,
          -0.17899416387081146,
          0.06370127946138382,
          -0.422738641500473,
          -1.9374898672103882,
          -0.34830614924430847,
          0.4065409004688263,
          0.5380454063415527,
          -0.8540892601013184,
          -1.0608837604522705,
          0.8417181372642517,
          1.275445818901062,
          0.42430949211120605,
          -0.16021215915679932,
          -0.9401950240135193,
          -0.1572079062461853,
          -0.34281429648399353,
          -0.44128260016441345,
          -0.543690025806427,
          -0.4221486747264862,
          0.23469170928001404,
          -0.043325286358594894,
          0.7513352632522583,
          0.43949297070503235,
          0.6394418478012085,
          0.4278939962387085,
          1.3536381721496582,
          0.2584785223007202,
          -2.3192825317382812,
          0.6705843806266785,
          0.08844665437936783,
          -0.10401416569948196,
          0.11417015641927719,
          0.23163577914237976,
          -0.5281021595001221,
          -0.13852614164352417,
          -0.5215843915939331,
          -0.1732170581817627,
          0.5524248480796814,
          -0.23846186697483063,
          0.3931172490119934,
          0.09205523878335953,
          0.22207893431186676,
          0.5485235452651978,
          0.15404534339904785,
          0.7914375066757202,
          0.35493016242980957,
          -0.5120458006858826,
          0.15095867216587067,
          -0.9467046856880188,
          0.8837239146232605,
          -0.35191136598587036,
          0.5236450433731079,
          0.09196773171424866,
          -0.5467402935028076,
          -0.8700680732727051,
          -0.27225461602211,
          -0.7291494607925415,
          0.10640764981508255,
          -0.8165088295936584,
          -0.505115807056427,
          -0.32917243242263794,
          -0.5172677636146545,
          -0.08549996465444565,
          -0.5455230474472046,
          1.0082534551620483,
          -0.772190272808075,
          -0.6329039335250854,
          -0.20005272328853607,
          0.2933337390422821,
          0.3366534411907196,
          -1.0567015409469604,
          -0.08830329030752182,
          1.2431203126907349,
          -0.32384565472602844,
          -0.39960530400276184,
          0.07449706643819809,
          -0.510271430015564,
          -0.15037329494953156,
          -0.7182266712188721,
          0.5058085322380066,
          0.4435048997402191,
          -0.37342870235443115,
          0.08006972819566727,
          -0.23006607592105865,
          -0.5859227776527405,
          0.2923641502857208,
          -0.2847924530506134,
          0.6072227358818054,
          1.0681087970733643,
          -0.288329154253006,
          -0.5219553112983704,
          0.47774699330329895,
          -0.5133287310600281,
          -0.150961235165596,
          -0.09999050945043564,
          0.7017812728881836,
          -0.48606008291244507,
          -0.2737334370613098,
          -0.13812710344791412,
          0.46622613072395325,
          0.2982088625431061,
          -0.40866395831108093,
          0.42348480224609375,
          -0.759601354598999,
          0.06063196435570717,
          0.19554811716079712,
          0.1273128092288971,
          0.033539097756147385,
          0.47288650274276733,
          0.30808594822883606,
          0.634719729423523,
          -0.18559451401233673,
          0.6149370670318604,
          1.8547694683074951,
          -0.3101409077644348,
          1.6168543100357056,
          0.6287206411361694,
          0.32329052686691284,
          -0.12675419449806213,
          0.31091606616973877,
          -0.7204755544662476,
          0.18154773116111755,
          -0.5628129243850708,
          0.3254205286502838,
          0.2790912687778473,
          0.3406675457954407,
          0.7109768390655518,
          -0.013987386599183083,
          -0.21394822001457214,
          0.3169705271720886,
          1.9298428297042847,
          -0.12776881456375122,
          0.2934703528881073,
          0.48737818002700806,
          -0.3062140643596649,
          0.28676873445510864,
          0.8574076294898987,
          0.07258656620979309,
          -0.6144185662269592,
          1.2713851928710938,
          -0.1272699236869812,
          0.4241061806678772,
          0.5312119126319885,
          0.5417546033859253,
          -0.2520892024040222,
          0.13091838359832764,
          0.20124205946922302,
          -0.4385015368461609,
          -0.14542211592197418,
          -0.3264952003955841,
          0.5389019846916199,
          0.07915513217449188,
          -0.8673567771911621,
          0.5826919674873352,
          0.1315060406923294,
          -0.047687411308288574,
          -0.5387259721755981,
          -0.1381893754005432,
          -0.5872776508331299,
          -1.0827198028564453,
          0.6364997029304504,
          0.45500269532203674,
          -0.534848153591156,
          0.07554448395967484,
          -0.09369960427284241,
          0.4912117123603821,
          -0.19526636600494385,
          -0.7624422311782837,
          0.6919911503791809,
          -0.4745386838912964,
          0.03881373256444931,
          -0.28977805376052856,
          0.460121214389801,
          -0.6352733373641968,
          -0.5485928654670715,
          0.33341866731643677,
          -0.14243380725383759,
          0.018881317228078842,
          -0.5385811924934387,
          -0.09614446014165878,
          0.3123360872268677,
          -0.4424799084663391,
          -0.3636874556541443,
          -0.2769235670566559,
          0.318208783864975,
          -0.10817457735538483,
          -0.7411888241767883,
          -0.35407325625419617,
          1.0199358463287354,
          -0.18838216364383698,
          0.055889323353767395,
          -0.24077467620372772,
          0.7399984002113342,
          0.47761785984039307,
          -0.17560897767543793,
          -0.44549763202667236,
          -0.5781958103179932,
          0.03533259779214859,
          -0.9427180886268616,
          -0.46365195512771606,
          0.21914459764957428,
          -0.09489879012107849,
          -0.8598760962486267,
          -0.9022825360298157
        ]
      },
      "forgetBias": {
        "rows": 20,
        "columns": 1,
        "weights": [
          0,
          0,
          0,
          0,
          0,
          0,
          0,
          0,
          0,
          0,
          0,
          0,
          0,
          0,
          0,
          0,
          0,
          0,
          0,
          0
        ]
      },
      "outputMatrix": {
        "rows": 20,
        "columns": 25,
        "weights": [
          -0.34723469614982605,
          -0.3770620822906494,
          0.46766197681427,
          0.10756763815879822,
          0.8942256569862366,
          0.059259895235300064,
          -0.3810359239578247,
          -0.3285927176475525,
          0.23685283958911896,
          0.09198540449142456,
          -0.16037125885486603,
          0.20768703520298004,
          -0.0019776523113250732,
          0.07343007624149323,
          0.2781485617160797,
          -0.01984858699142933,
          -0.1323917955160141,
          0.2795422375202179,
          0.19175799190998077,
          -0.1755574643611908,
          -0.023733651265501976,
          0.14146952331066132,
          -0.33050477504730225,
          0.1352519392967224,
          -0.0066820853389799595,
          0.1883268505334854,
          -0.3491373360157013,
          0.20097589492797852,
          0.13617394864559174,
          -0.16545656323432922,
          0.33642467856407166,
          0.12270703166723251,
          -0.3953910171985626,
          -0.1018214076757431,
          0.049983229488134384,
          0.13386264443397522,
          0.18696652352809906,
          0.31130459904670715,
          -0.07668822258710861,
          -0.05270957201719284,
          -0.20239226520061493,
          0.27893516421318054,
          -0.43921804428100586,
          0.1241530179977417,
          -0.09710290282964706,
          -0.7582526803016663,
          -0.3619129955768585,
          -0.17061248421669006,
          0.00737878168001771,
          0.2300495058298111,
          -0.2326221764087677,
          0.01506324578076601,
          0.2221701443195343,
          0.09756353497505188,
          -0.24148498475551605,
          -0.36060595512390137,
          -0.19810794293880463,
          -0.31382453441619873,
          -0.01006390992552042,
          0.13296666741371155,
          0.27759024500846863,
          -0.079765185713768,
          -0.009368238039314747,
          -0.19237931072711945,
          0.03354084491729736,
          -0.1544211506843567,
          -0.06079080328345299,
          -0.19782447814941406,
          -0.13188523054122925,
          -0.28363749384880066,
          -0.38761064410209656,
          0.33429551124572754,
          -0.03808952495455742,
          -0.37989315390586853,
          -0.49997296929359436,
          -0.03590714931488037,
          0.3603033721446991,
          -0.0765102356672287,
          0.0028477543964982033,
          -0.23060379922389984,
          -0.24594929814338684,
          -0.16326701641082764,
          0.04129795357584953,
          -0.043346911668777466,
          0.17623649537563324,
          0.06096759811043739,
          0.13459114730358124,
          0.014250258915126324,
          -0.35949191451072693,
          -0.17583629488945007,
          0.019761905074119568,
          -0.032862402498722076,
          -0.08165178447961807,
          -0.2948816120624542,
          -0.5099710822105408,
          -0.36579716205596924,
          0.280310720205307,
          0.21257829666137695,
          -0.12922480702400208,
          -0.4835418164730072,
          -0.3979356288909912,
          0.15848515927791595,
          0.13354192674160004,
          0.3343142569065094,
          0.16718924045562744,
          -0.048960547894239426,
          -0.7608686089515686,
          -0.2508520483970642,
          -0.07505664974451065,
          -0.022756317630410194,
          0.8972152471542358,
          -0.16935071349143982,
          -0.37022098898887634,
          0.22107148170471191,
          0.6550895571708679,
          -0.010973076336085796,
          -0.13142536580562592,
          0.42928946018218994,
          0.10604064166545868,
          -0.04333006590604782,
          -0.13547563552856445,
          0.7237914800643921,
          0.025103814899921417,
          -0.14168784022331238,
          -0.3989388942718506,
          -0.31971514225006104,
          0.04182432219386101,
          0.0919172465801239,
          0.1634906381368637,
          0.543026864528656,
          0.012646608054637909,
          0.17591476440429688,
          -0.4706757068634033,
          0.047186363488435745,
          -0.13949765264987946,
          0.5511220097541809,
          -0.04529719799757004,
          0.2534762918949127,
          0.0970405787229538,
          0.2177068591117859,
          -0.09222816675901413,
          -0.25457537174224854,
          0.08816550672054291,
          0.06476684659719467,
          0.21092166006565094,
          0.02936537377536297,
          0.03754787519574165,
          0.0698401927947998,
          0.3220977783203125,
          -0.34022751450538635,
          -0.5062469840049744,
          0.05825820937752724,
          0.18939298391342163,
          0.08840490132570267,
          -0.08562971651554108,
          -0.18842081725597382,
          0.3179674446582794,
          -0.1780969351530075,
          -0.33305174112319946,
          -0.21505090594291687,
          1.0642328262329102,
          0.4053000509738922,
          0.5096592903137207,
          0.1995980441570282,
          0.6773308515548706,
          -0.4416057765483856,
          -0.4435804486274719,
          -0.2680879831314087,
          -0.18811781704425812,
          -0.04601534083485603,
          -0.3209890127182007,
          0.1535991132259369,
          -0.12891976535320282,
          -0.36179423332214355,
          -0.16453394293785095,
          -0.06102031469345093,
          0.2862824499607086,
          0.21599915623664856,
          -0.35173407196998596,
          0.021937662735581398,
          -0.09581401199102402,
          -0.03337520733475685,
          0.00011090168845839798,
          -0.003405032679438591,
          -0.27255377173423767,
          0.49460405111312866,
          0.1468186229467392,
          -0.41986870765686035,
          0.5578628778457642,
          0.1548745185136795,
          -0.1289261132478714,
          -0.09535322338342667,
          0.9394129514694214,
          -0.26702919602394104,
          -0.18978610634803772,
          0.17970839142799377,
          0.08829552680253983,
          -0.17175164818763733,
          -0.0497167594730854,
          0.1546512395143509,
          -0.2947533130645752,
          -0.3710496425628662,
          0.0022020682226866484,
          0.3051745593547821,
          0.47160792350769043,
          0.6400453448295593,
          -0.132950559258461,
          -0.5600014925003052,
          -0.4079758822917938,
          0.005744845140725374,
          0.11673969775438309,
          0.0008660347666591406,
          -0.3205503225326538,
          -0.12433434277772903,
          0.4998144209384918,
          -0.07067876309156418,
          -0.06978203356266022,
          -0.5167174935340881,
          -0.15680493414402008,
          0.09238472580909729,
          -1.1160098314285278,
          -0.0012857932597398758,
          -0.12774725258350372,
          0.25724390149116516,
          -0.046323586255311966,
          -0.34047800302505493,
          0.2582634687423706,
          0.20639102160930634,
          -0.3045252561569214,
          -0.06000753864645958,
          -0.10043815523386002,
          -0.13733245432376862,
          -0.47736334800720215,
          0.18098068237304688,
          -0.6834021806716919,
          0.24061855673789978,
          0.4491014778614044,
          0.016097381711006165,
          -0.36288920044898987,
          -0.2972182333469391,
          -0.24497798085212708,
          0.41525325179100037,
          -0.375409871339798,
          -0.178507000207901,
          0.37022286653518677,
          0.18394871056079865,
          -0.22860661149024963,
          0.3945828080177307,
          0.11430242657661438,
          0.43359965085983276,
          -0.25066566467285156,
          0.3498137891292572,
          0.47026148438453674,
          0.14326298236846924,
          -0.14549653232097626,
          -0.07796895503997803,
          -0.5742769241333008,
          -0.21970847249031067,
          -0.03152412176132202,
          0.030808627605438232,
          -0.07206416875123978,
          -0.0014988959301263094,
          -0.5940860509872437,
          -0.19127419590950012,
          0.37470197677612305,
          -0.41927197575569153,
          0.39086830615997314,
          0.1257990300655365,
          -0.15408268570899963,
          -0.18080148100852966,
          -0.4722129702568054,
          0.31622743606567383,
          0.2992255687713623,
          -0.10525702685117722,
          -0.3382874131202698,
          -0.020113572478294373,
          -0.2567382752895355,
          0.11324093490839005,
          0.21948669850826263,
          0.34127768874168396,
          0.060822032392024994,
          -0.18656806647777557,
          -0.215494304895401,
          -0.002073883078992367,
          -0.21410423517227173,
          0.12697984278202057,
          -0.38333117961883545,
          -0.0956127941608429,
          0.03241255506873131,
          0.1909838169813156,
          -0.03515717014670372,
          -0.02338341623544693,
          0.13713015615940094,
          -0.07098834216594696,
          0.2557576596736908,
          -0.6299036741256714,
          -0.3398091793060303,
          0.47874608635902405,
          0.5127637982368469,
          -0.4566684365272522,
          -0.22482450306415558,
          -0.029256874695420265,
          -0.04424649104475975,
          0.2965792715549469,
          0.19822409749031067,
          0.5986674427986145,
          0.39485180377960205,
          0.1162976548075676,
          0.04131349176168442,
          0.07420553267002106,
          0.3410568833351135,
          -0.3528842628002167,
          0.49776726961135864,
          0.171348437666893,
          0.3484911024570465,
          0.3387416899204254,
          0.3053528964519501,
          -0.10065634548664093,
          -0.3883103132247925,
          0.2088930606842041,
          0.19478298723697662,
          0.3631161153316498,
          0.07272616028785706,
          -0.06271142512559891,
          0.09547725319862366,
          -0.455280065536499,
          -0.27774083614349365,
          -0.039614807814359665,
          0.264727920293808,
          -0.04966383054852486,
          0.3386015295982361,
          -0.2756916582584381,
          -0.179892897605896,
          -0.16948629915714264,
          0.04616563022136688,
          0.06913544982671738,
          -0.26597854495048523,
          -0.21092650294303894,
          -0.042907826602458954,
          0.17585639655590057,
          0.1489144116640091,
          -0.3615889251232147,
          0.12481911480426788,
          0.11245092749595642,
          -0.09641323238611221,
          0.16283872723579407,
          0.44516465067863464,
          -0.016212083399295807,
          -0.24456475675106049,
          -0.18643619120121002,
          0.081573985517025,
          0.32441210746765137,
          0.07144621014595032,
          -0.3914947509765625,
          0.06194664165377617,
          0.24544337391853333,
          0.7874408960342407,
          0.26056548953056335,
          -0.15108370780944824,
          0.0195772685110569,
          0.6732484102249146,
          0.14037831127643585,
          0.24722355604171753,
          0.37933385372161865,
          0.1495850533246994,
          -0.34074485301971436,
          0.3682597875595093,
          -0.1701536625623703,
          0.1634398251771927,
          -0.05174003913998604,
          -0.5134387612342834,
          0.13476920127868652,
          -0.28246501088142395,
          0.04502243548631668,
          0.2370816022157669,
          0.04144500195980072,
          -0.1349591761827469,
          0.02251116745173931,
          -0.10172820836305618,
          0.06884599477052689,
          0.05175890401005745,
          0.15385623276233673,
          0.11357375979423523,
          -0.3376598060131073,
          -0.01113821566104889,
          0.7311519384384155,
          0.11888526380062103,
          0.27706748247146606,
          -0.06526351720094681,
          0.16276884078979492,
          -0.004602780099958181,
          -0.3971373736858368,
          0.14200691878795624,
          -0.12389984726905823,
          -0.24668462574481964,
          -0.14532840251922607,
          0.3880019783973694,
          -0.33592844009399414,
          -0.46339842677116394,
          0.10278113931417465,
          -0.040839459747076035,
          0.06016477942466736,
          -0.0213041752576828,
          0.1200641393661499,
          -0.24135880172252655,
          0.0868929922580719,
          -0.48712703585624695,
          -0.4916045665740967,
          -0.2919219434261322,
          0.2893048822879791,
          0.1728138029575348,
          -0.212294802069664,
          -0.05783059820532799,
          -0.12784886360168457,
          0.7757456302642822,
          -0.685304582118988,
          -0.1514112800359726,
          0.10028964281082153,
          0.15090256929397583,
          -0.37235957384109497,
          -0.5841677784919739,
          0.2578480541706085,
          0.21897061169147491,
          -0.13897182047367096,
          -0.41153937578201294,
          -0.49059489369392395,
          0.07162874937057495,
          -0.5181315541267395,
          -0.0584343746304512,
          -0.323845773935318,
          -0.316930890083313,
          -0.46013084053993225,
          -0.5208241939544678,
          -0.3635351359844208,
          0.189902201294899,
          -0.09087837487459183,
          0.1505102813243866,
          -0.2416466474533081,
          -0.022249257192015648,
          0.3541952073574066,
          0.03815929591655731,
          -0.2658979594707489,
          0.21383561193943024,
          -0.4142623543739319,
          -0.27196204662323,
          0.5385957360267639,
          0.44841936230659485,
          0.0774267390370369,
          -0.4406689703464508,
          -0.8501926064491272,
          -0.050238341093063354,
          0.23602604866027832,
          0.0197959803044796,
          -0.0956447497010231,
          -0.02083914540708065,
          -0.19067905843257904,
          -0.41603127121925354,
          -0.18039058148860931,
          0.025998670607805252,
          0.2464790791273117,
          -0.2712860703468323,
          -0.11133419722318649,
          -1.0408010482788086,
          -0.04806266352534294,
          0.08168215304613113,
          -0.49222317337989807,
          0.2987722158432007,
          0.08623348921537399,
          -0.44135037064552307,
          -0.3280048072338104,
          -0.4394553303718567,
          -0.13648360967636108,
          -0.08245527744293213,
          -0.27836373448371887,
          -0.11469297856092453,
          -0.21211028099060059,
          -0.3690376281738281,
          0.12339511513710022,
          0.2122543752193451,
          0.016420068219304085,
          0.27448153495788574,
          -0.045923665165901184,
          -0.18784135580062866,
          -0.12398312240839005,
          0.2760854661464691,
          -0.18281912803649902,
          0.4236060678958893,
          0.30309584736824036,
          -0.34568890929222107,
          0.610563337802887,
          -0.04082753136754036,
          -0.46458080410957336,
          0.3741443455219269,
          0.21463768184185028,
          0.11698150634765625,
          -0.45271220803260803,
          -0.17019012570381165,
          0.16152572631835938,
          0.20151495933532715,
