{
  "type": "LSTM",
  "options": {
    "inputSize": 22,
    "inputRange": 22,
    "hiddenLayers": [
      20,
      20
    ],
    "outputSize": 22,
    "decayRate": 0.999,
    "smoothEps": 1e-8,
    "regc": 0.000001,
    "clipval": 5,
    "maxPredictionLength": 100,
    "dataFormatter": {
      "indexTable": {
        "b": 0,
        "e": 1,
        "o": 2,
        "m": 3,
        "-": 4,
        "s": 5,
        "k": 6,
        "y": 7,
        "u": 8,
        "n": 9,
        "g": 10,
        "c": 11,
        "h": 12,
        "l": 13,
        "j": 14,
        "w": 15,
        "a": 16,
        "i": 17,
        "d": 18,
        "r": 19,
        "t": 20,
        "unrecognized": 21
      },
      "characterTable": {
        "0": "b",
        "1": "e",
        "2": "o",
        "3": "m",
        "4": "-",
        "5": "s",
        "6": "k",
        "7": "y",
        "8": "u",
        "9": "n",
        "10": "g",
        "11": "c",
        "12": "h",
        "13": "l",
        "14": "j",
        "15": "w",
        "16": "a",
        "17": "i",
        "18": "d",
        "19": "r",
        "20": "t",
        "21": null
      },
      "values": [
        "beom-seok",
        "bo-kyung",
        "bo-yeon",
        "byung-chul",
        "byung-hee",
        "byung-ho",
        "byung-hoon",
        "byung-hun",
        "byung-joon",
        "byung-woo",
        "byung-wook",
        "chang-ho",
        "chang-hoon",
        "chang-min",
        "chang-woo",
        "cheol-min",
        "chi-won",
        "chul",
        "chul-soo",
        "chul-soon",
        "chun-hee",
        "da-bin",
        "dae-hyun",
        "dae-sung",
        "dae-won",
        "deok-su",
        "do-hun",
        "do-hyun",
        "do-won",
        "do-yeon",
        "dong-chan",
        "dong-chul",
        "dong-geun",
        "dong-gun",
        "dong-ha",
        "dong-hoon",
        "dong-hyuk",
        "dong-hyun",
        "dong-il",
        "dong-joo",
        "dong-jun",
        "dong-soo",
        "dong-suk",
        "dong-won",
        "dong-wook",
        "du-ri",
        "eun-jae",
        "eun-sang",
        "eun-soo",
        "eun-sung",
        "geun",
        "gun",
        "ha-neul",
        "ha-sun",
        "hae-il",
        "hae-jin",
        "hae-joo",
        "hae-seong",
        "hae-won",
        "han-bin",
        "han-jae",
        "hee-chul",
        "hee-joon",
        "hee-jung",
        "hee-kyung",
        "hee-sun",
        "hee-sung",
        "ho",
        "ho-jin",
        "ho-jun",
        "ho-jung",
        "ho-sung",
        "hong-gi",
        "hong-joo",
        "hoon",
        "hye-sung",
        "hyeon-joon",
        "hyo-jin",
        "hyuk",
        "hyun-hee",
        "hyun-jin",
        "hyun-joo",
        "hyun-jun",
        "hyun-jung",
        "hyun-seok",
        "hyun-seung",
        "hyun-sik",
        "hyun-soo",
        "hyun-tae",
        "hyun-woo",
        "hyun-wook",
        "hyung-joon",
        "hyung-min",
        "hyung-won",
        "il",
        "in-sik",
        "in-soo",
        "in-young",
        "ja-kyung",
        "jae-beom",
        "jae-geun",
        "jae-gyu",
        "jae-hee",
        "jae-ho",
        "jae-hyuk",
        "jae-hyun",
        "jae-in",
        "jae-joon",
        "jae-kyung",
        "jae-shin",
        "jae-suk",
        "jae-sung",
        "jae-won",
        "jae-woo",
        "jae-wook",
        "jae-woong",
        "jae-yong",
        "jae-yoon",
        "jae-young",
        "ji-ha",
        "ji-hae",
        "ji-ho",
        "ji-hoon",
        "ji-hu",
        "ji-hwan",
        "ji-hyun",
        "ji-min",
        "ji-seok",
        "ji-su",
        "ji-tae",
        "ji-won",
        "ji-woo",
        "ji-woon",
        "ji-woong",
        "ji-yoon",
        "jin-hee",
        "jin-ho",
        "jin-hwan",
        "jin-hyuk",
        "jin-joo",
        "jin-soo",
        "jin-sun",
        "jin-sung",
        "jin-woo",
        "jin-wook",
        "jin-young",
        "jong-hoon",
        "jong-hyuk",
        "jong-hyun",
        "jong-ok",
        "jong-seok",
        "jong-soo",
        "jong-yul",
        "joo-hee",
        "joo-hwan",
        "joo-hyun",
        "joo-won",
        "joon-ho",
        "joon-hyuk",
        "joon-ki",
        "joon-tae",
        "jun-ha",
        "jun-sang",
        "jun-seo",
        "jun-seok",
        "jun-young",
        "jung-eun",
        "jung-hee",
        "jung-ho",
        "jung-hoon",
        "jung-hwa",
        "jung-hwan",
        "jung-hyun",
        "jung-il",
        "jung-jin",
        "jung-min",
        "jung-mo",
        "jung-myung",
        "jung-nam",
        "jung-sik",
        "jung-soo",
        "jung-won",
        "jung-woo",
        "kang-min",
        "ki-ha",
        "ki-jung",
        "ki-moon",
        "ki-nam",
        "ki-tae",
        "ki-woo",
        "ki-woong",
        "ki-young",
        "kun-woo",
        "kwang-hee",
        "kwang-ho",
        "kwang-hoon",
        "kwang-hwan",
        "kwang-hyok",
        "kwang-hyun",
        "kwang-jo",
        "kwang-min",
        "kwang-seok",
        "kwang-seon",
        "kwang-sik",
        "kwang-su",
        "kyu-chul",
        "kyu-won",
        "kyung-chul",
        "kyung-gu",
        "kyung-ho",
        "kyung-hwan",
        "kyung-jae",
        "kyung-joon",
        "kyung-ju",
        "kyung-lim",
        "kyung-min",
        "kyung-mo",
        "kyung-seok",
        "kyung-soo",
        "kyung-sun",
        "kyung-tae",
        "kyung-taek",
        "kyung-wan",
        "kyung-won",
        "man-hee",
        "man-seok",
        "man-sik",
        "man-soo",
        "mi-sun",
        "min-chul",
        "min-ho",
        "min-hyuk",
        "min-jae",
        "min-jun",
        "min-ki",
        "min-kyu",
        "min-kyung",
        "min-seok",
        "min-soo",
        "min-sun",
        "min-woo",
        "min-young",
        "moon-sik",
        "moon-soo",
        "mu-yeol",
        "mu-young",
        "myung-hee",
        "myung-hoon",
        "myung-hwan",
        "myung-soo",
        "myung-yong",
        "nam-gi",
        "nam-il",
        "nam-seon",
        "nam-sun",
        "nu-ri",
        "oh-seong",
        "sang",
        "sang-chul",
        "sang-eun",
        "sang-hoon",
        "sang-hyun",
        "sang-jun",
        "sang-won",
        "sang-woo",
        "sang-wook",
        "se-yeon",
        "se-yoon",
        "se-young",
        "seo-jun",
        "seok-ho",
        "seok-ju",
        "seong-han",
        "seul-ki",
        "seung-chul",
        "seung-eun",
        "seung-gi",
        "seung-hee",
        "seung-heon",
        "seung-ho",
        "seung-hoon",
        "seung-hwa",
        "seung-hwan",
        "seung-hyun",
        "seung-jae",
        "seung-jun",
        "seung-min",
        "seung-soo",
        "seung-won",
        "seung-woo",
        "seung-yeon",
        "seung-yong",
        "shin-young",
        "si-won",
        "soo-hyun",
        "soo-jin",
        "soo-jung",
        "soo-kyung",
        "soo-min",
        "soo-yeon",
        "soo-young",
        "su-bin",
        "su-ji",
        "sun-young",
        "sung-hee",
        "tae-hee",
        "tae-hyun",
        "tae-yeon",
        "tae-young",
        "woo-jin",
        "ye-jun",
        "yeon-woo",
        "yeong-ok",
        "yi-soo",
        "yoo-jung",
        "young-jin",
        "young-joo",
        "young-nam",
        "young-shin",
        "young-soo",
        "yu-jin",
        "yun-seo"
      ],
      "characters": [
        "b",
        "e",
        "o",
        "m",
        "-",
        "s",
        "k",
        "y",
        "u",
        "n",
        "g",
        "c",
        "h",
        "l",
        "j",
        "w",
        "a",
        "i",
        "d",
        "r",
        "t",
        "unrecognized"
      ],
      "specialIndexes": [
        21
      ]
    },
    "activation": "tanh"
  },
  "trainOpts": {
    "iterations": "10000",
    "errorThresh": "0.15",
    "log": false,
    "logPeriod": 1,
    "learningRate": "0.001",
    "callbackPeriod": 1,
    "timeout": "Infinity"
  },
  "input": {
    "rows": 23,
    "columns": 22,
    "weights": [
      -0.4575519263744354,
      0.8907977938652039,
      -0.10293888300657272,
      -0.8661763668060303,
      -0.4674554467201233,
      0.7165279388427734,
      0.2521551847457886,
      0.011818310245871544,
      -0.9086629152297974,
      0.004278607200831175,
      0.10463380813598633,
      0.5893766283988953,
      -0.11367755383253098,
      0.2905322015285492,
      0.3921170234680176,
      -1.5190420150756836,
      0.5957617163658142,
      0.43777701258659363,
      0.1355433315038681,
      -0.7893874645233154,
      0.22003597021102905,
      -0.25471124053001404,
      0.39338865876197815,
      0.9009201526641846,
      -0.7251481413841248,
      -5.767752647399902,
      -0.3680780231952667,
      -0.8516668081283569,
      0.5225793123245239,
      0.031312309205532074,
      -0.5152720808982849,
      -0.9713872671127319,
      -2.1660003662109375,
      0.019636426120996475,
      0.490296870470047,
      0.32879701256752014,
      0.12393324077129364,
      -1.3125879764556885,
      0.1430395245552063,
      3.645280122756958,
      -1.8915431499481201,
      0.33965587615966797,
      -1.8080416917800903,
      -1.0119816064834595,
      -0.7024970650672913,
      -0.11414868384599686,
      -0.9885889887809753,
      -1.3425664901733398,
      -0.6147552728652954,
      -0.021701591089367867,
      1.2270445823669434,
      -1.0434249639511108,
      -0.20723022520542145,
      1.5035849809646606,
      0.8765726685523987,
      -0.48260754346847534,
      -1.0172877311706543,
      2.2961339950561523,
      0.5258198976516724,
      0.31556466221809387,
      0.9810665845870972,
      1.9024879932403564,
      1.7144123315811157,
      0.4022955894470215,
      -0.631901741027832,
      -1.031415343284607,
      -0.6375772953033447,
      1.102256178855896,
      -2.4007272720336914,
      3.2188658714294434,
      -1.8502228260040283,
      -0.02118435874581337,
      2.1564323902130127,
      -2.2635018825531006,
      -0.9183616042137146,
      2.536298990249634,
      2.285829782485962,
      2.3049163818359375,
      -1.5842084884643555,
      1.4362126588821411,
      1.7332857847213745,
      0.5679984092712402,
      0.5990618467330933,
      0.3376476764678955,
      1.833886742591858,
      -1.450494647026062,
      1.7996304035186768,
      -0.9289208650588989,
      0.48024943470954895,
      -0.425263911485672,
      -0.1924450546503067,
      -0.3796175718307495,
      -1.4071661233901978,
      0.34477555751800537,
      -2.301007032394409,
      0.6633445620536804,
      1.0361425876617432,
      -0.18751540780067444,
      0.06583520025014877,
      2.5717973709106445,
      1.3362418413162231,
      -1.15983247756958,
      0.918243408203125,
      -0.7546100616455078,
      -1.327229619026184,
      -2.3437750339508057,
      0.060584645718336105,
      0.1972060352563858,
      1.240728735923767,
      -0.5490963459014893,
      -0.11349841952323914,
      1.1690095663070679,
      0.22483783960342407,
      -1.2522923946380615,
      0.8434109091758728,
      -0.3060700297355652,
      -0.7714443802833557,
      0.36690136790275574,
      -1.2222479581832886,
      -1.010558009147644,
      -0.21168354153633118,
      -0.3134053647518158,
      0.06565194576978683,
      -0.2693004906177521,
      -1.206237554550171,
      0.1472991704940796,
      0.0769255980849266,
      0.152650386095047,
      -0.3692108690738678,
      0.4184883236885071,
      0.02416602522134781,
      0.042235225439071655,
      -0.2951803505420685,
      0.8859634399414062,
      0.8669043183326721,
      0.9755315780639648,
      -0.7851602435112,
      0.0996386706829071,
      1.1490100622177124,
      0.37619584798812866,
      -0.6612773537635803,
      -0.695504367351532,
      -0.11597773432731628,
      0.30099916458129883,
      -0.27470725774765015,
      0.6794850826263428,
      1.069352626800537,
      -0.784696102142334,
      0.10891296714544296,
      0.974348247051239,
      0.21954353153705597,
      -0.865989089012146,
      -0.21412570774555206,
      0.2040085345506668,
      2.1665291786193848,
      -2.7845520973205566,
      1.473961353302002,
      -1.2713309526443481,
      -1.8241419792175293,
      -0.35335323214530945,
      0.7165380120277405,
      -0.5075286626815796,
      2.7153217792510986,
      1.0400612354278564,
      -0.5310527086257935,
      -0.940597414970398,
      -0.1675494909286499,
      2.0831990242004395,
      1.8201711177825928,
      0.8073982000350952,
      -1.3999756574630737,
      -0.2188609391450882,
      0.645908534526825,
      0.9275928139686584,
      0.6906964182853699,
      1.1694291830062866,
      -1.5174787044525146,
      2.5997374057769775,
      0.6548269987106323,
      -2.6630141735076904,
      -0.42894092202186584,
      0.9000399708747864,
      1.5639574527740479,
      0.464033842086792,
      -3.865665912628174,
      -0.3749862015247345,
      0.16344329714775085,
      1.5377445220947266,
      -2.3499596118927,
      0.641509473323822,
      0.548905074596405,
      -2.2816646099090576,
      1.0320370197296143,
      1.4394285678863525,
      -0.1755530685186386,
      -4.195342540740967,
      -0.19323161244392395,
      -0.3301972448825836,
      0.2649375796318054,
      0.8994000554084778,
      -1.0958547592163086,
      1.6377217769622803,
      -0.46910548210144043,
      -0.3643738627433777,
      4.396296501159668,
      -2.898404359817505,
      -0.9776818156242371,
      2.567470073699951,
      2.903777837753296,
      0.9913469552993774,
      -3.793968915939331,
      2.8074710369110107,
      1.7290655374526978,
      0.5819305777549744,
      0.8319447636604309,
      1.71598219871521,
      2.4844777584075928,
      -2.6591289043426514,
      1.7371270656585693,
      -0.5686891078948975,
      -0.4088609218597412,
      0.714135468006134,
      0.08248069882392883,
      -0.644818902015686,
      0.5814758539199829,
      0.05836158245801926,
      -0.31287989020347595,
      0.043923456221818924,
      -0.6601716876029968,
      -0.436168372631073,
      -0.40534862875938416,
      -0.3084903657436371,
      0.23672938346862793,
      -0.12353532761335373,
      -0.5325738787651062,
      -0.15752416849136353,
      0.45375165343284607,
      0.3752618134021759,
      -0.29461631178855896,
      0.18715232610702515,
      -0.2001940757036209,
      0.06580416858196259,
      0.040244922041893005,
      1.6956589221954346,
      1.3705538511276245,
      -1.8096152544021606,
      1.1970555782318115,
      -1.0226728916168213,
      -1.5996978282928467,
      -0.004989536013454199,
      -1.1242469549179077,
      -2.610408306121826,
      0.4124847650527954,
      -0.3237099051475525,
      1.4114105701446533,
      0.9882038831710815,
      -1.3706040382385254,
      -0.7313376665115356,
      0.24443890154361725,
      1.1077932119369507,
      -0.6165469288825989,
      0.702207088470459,
      0.13579286634922028,
      0.053993117064237595,
      1.6548340320587158,
      2.2526965141296387,
      -0.7943661212921143,
      -9.799468040466309,
      5.103507995605469,
      -4.1458516120910645,
      -3.023193597793579,
      -0.9438561201095581,
      0.5707062482833862,
      -2.6161398887634277,
      -5.226754665374756,
      -3.937633752822876,
      -3.3657495975494385,
      1.1079657077789307,
      -1.9691890478134155,
      0.8464199304580688,
      2.4822914600372314,
      5.114386081695557,
      -1.2992500066757202,
      -2.8317978382110596,
      -3.559316635131836,
      0.1398264616727829,
      0.06737178564071655,
      -0.22577227652072906,
      -1.1840403079986572,
      -3.2389280796051025,
      0.7998650074005127,
      -0.9246123433113098,
      -1.3216608762741089,
      0.49167367815971375,
      0.47012415528297424,
      -0.42962831258773804,
      -2.0849361419677734,
      -0.3495376706123352,
      -0.32236945629119873,
      -1.5671887397766113,
      0.8352378606796265,
      0.1946692019701004,
      -0.25043800473213196,
      -0.042351119220256805,
      -3.3004934787750244,
      0.041221246123313904,
      -1.5410679578781128,
      -1.5548585653305054,
      0.5926804542541504,
      0.6694788336753845,
      1.7330588102340698,
      -5.407543659210205,
      -0.27688896656036377,
      -1.0468631982803345,
      -2.4390828609466553,
      0.7566606402397156,
      -2.4991400241851807,
      -0.49993231892585754,
      -0.7211708426475525,
      0.31989169120788574,
      -0.6750746369361877,
      -3.9125988483428955,
      -1.679611086845398,
      1.3316574096679688,
      0.3134439289569855,
      0.8310984969139099,
      -0.5517278909683228,
      -1.8004692792892456,
      1.2486552000045776,
      2.2172091007232666,
      0.8190744519233704,
      -2.8804893493652344,
      -0.6903895735740662,
      1.1647837162017822,
      1.122249960899353,
      -0.5854306817054749,
      -5.3188652992248535,
      -0.08496158570051193,
      3.334853172302246,
      -1.8327109813690186,
      -1.3852899074554443,
      -0.6649923324584961,
      0.17684181034564972,
      -1.0067753791809082,
      -1.809739112854004,
      2.6492919921875,
      -0.7761301398277283,
      -3.336851119995117,
      0.3053341805934906,
      1.5351581573486328,
      -0.860431969165802,
      -1.6597673892974854,
      0.8337836265563965,
      -0.863673210144043,
      -1.432606816291809,
      2.674426794052124,
      -0.8463712930679321,
      -0.9946842193603516,
      -2.4676990509033203,
      -1.2040375471115112,
      1.7115495204925537,
      -0.22371013462543488,
      1.2369765043258667,
      1.1057811975479126,
      -0.25877901911735535,
      -1.0916963815689087,
      0.7787438631057739,
      0.6234844326972961,
      -0.04295090585947037,
      -1.0119885206222534,
      -0.17312504351139069,
      1.1181020736694336,
      0.8799183368682861,
      -3.1136887073516846,
      0.2614896893501282,
      1.3890905380249023,
      -1.4897488355636597,
      3.423192262649536,
      -0.6257608532905579,
      -1.2727339267730713,
      1.733677625656128,
      -3.330146551132202,
      -1.0427769422531128,
      2.1458356380462646,
      1.3075207471847534,
      0.49829989671707153,
      -3.2262678146362305,
      1.2143104076385498,
      0.8144223690032959,
      0.6442016959190369,
      1.2462881803512573,
      2.7743444442749023,
      1.8478482961654663,
      -2.35935378074646,
      1.540650725364685,
      -0.843355119228363,
      1.0542008876800537,
      0.8036742806434631,
      -2.306006908416748,
      -0.0279157105833292,
      -1.031370997428894,
      -1.2271469831466675,
      1.5683201551437378,
      -1.8806891441345215,
      -0.7410529255867004,
      2.009810447692871,
      0.696636438369751,
      0.6593444347381592,
      -2.2510175704956055,
      1.0001814365386963,
      2.494602918624878,
      0.21033050119876862,
      1.8156198263168335,
      3.400736093521118,
      0.6931935548782349,
      -5.399283409118652,
      2.045724630355835,
      1.470174789428711,
      -0.9791662096977234,
      -1.4849591255187988,
      -1.4345581531524658,
      -1.8796063661575317,
      -2.041278839111328,
      -0.9613664746284485,
      -3.1632256507873535,
      -2.748563766479492,
      1.371122121810913,
      1.1975383758544922,
      1.847069263458252,
      0.05606524273753166,
      -0.18767598271369934,
      1.3090741634368896,
      1.0400586128234863,
      0.6392910480499268,
      3.38873291015625,
      2.00740385055542,
      -1.5869600772857666,
      1.6039291620254517,
      5.469308376312256,
      -1.9694273471832275,
      0.6901692748069763,
      1.4693046808242798,
      5.156033992767334,
      -4.730558395385742,
      2.945735454559326,
      1.3821477890014648,
      -0.8980612754821777,
      5.449375629425049,
      -2.2515130043029785,
      -5.858378887176514,
      -1.710080862045288,
      -2.1270949840545654,
      -0.7738891839981079,
      -1.482797622680664,
      -4.744184970855713,
      3.1200103759765625,
      1.2763972282409668,
      2.3571407794952393,
      2.9476161003112793,
      0.8734430074691772,
      -0.06300000101327896,
      3.867372751235962,
      -0.4657899737358093,
      9.538363456726074,
      2.4516873359680176,
      -5.916936874389648,
      -0.14879722893238068,
      -5.907808303833008,
      -3.078204393386841,
      -0.938538134098053,
      -3.110795736312866,
      -1.7023992538452148,
      11.75611686706543,
      6.674533843994141,
      -2.7874257564544678,
      10.274187088012695,
      0.4462818205356598,
      -4.452016830444336,
      -1.470295786857605,
      2.6208555698394775,
      -10.787718772888184,
      -5.8195319175720215,
      -4.442981243133545,
      1.1923747062683105,
      -0.06454389542341232,
      -0.030069051310420036,
      -0.010297505185008049,
      -0.051599595695734024,
      0.045331139117479324,
      0.01509800460189581,
      0.009254758246243,
      0.036838047206401825,
      -0.05167728289961815,
      -0.06197956204414368,
      0.015066001564264297,
      0.022729257121682167,
      0.06723862886428833,
      0.04559873789548874,
      0.025270091369748116,
      -0.004449622705578804,
      -0.05128318816423416,
      -0.028746100142598152,
      -0.004832752514630556,
      0.07587005943059921,
      -0.06102069467306137,
      0.017308959737420082
    ]
  },
  "hiddenLayers": [
    {
      "inputMatrix": {
        "rows": 20,
        "columns": 22,
        "weights": [
          -0.2911399006843567,
          0.6352952122688293,
          -0.1522611528635025,
          -0.7280188202857971,
          -0.2015533447265625,
          0.5731717348098755,
          0.8142650723457336,
          -0.04945481941103935,
          -0.4941418766975403,
          0.1098814532160759,
          -0.0937802791595459,
          0.4589099884033203,
          -0.1679595410823822,
          0.5127883553504944,
          0.5062220692634583,
          -0.7265803217887878,
          0.10701204836368561,
          0.0763617753982544,
          0.13996011018753052,
          -0.4663313627243042,
          -0.32829147577285767,
          -0.3139203190803528,
          -0.45613715052604675,
          0.7018945217132568,
          -0.9908151030540466,
          -0.19970089197158813,
          -0.27554064989089966,
          0.5771225094795227,
          0.7258051037788391,
          -0.485073983669281,
          -0.580875813961029,
          0.6775862574577332,
          0.11870857328176498,
          0.26716306805610657,
          -1.212581992149353,
          0.6596015095710754,
          0.2561582624912262,
          -0.018853386864066124,
          0.7616099715232849,
          1.1090420484542847,
          0.3124106526374817,
          -0.6467720866203308,
          0.1701120287179947,
          -1.0874607563018799,
          -0.29023119807243347,
          0.4947406053543091,
          -0.33248159289360046,
          -0.5791507959365845,
          -0.19617483019828796,
          0.5964263677597046,
          0.8785201907157898,
          -0.07653536647558212,
          -0.26793918013572693,
          0.10037446022033691,
          -0.24582654237747192,
          0.33517539501190186,
          -0.08451306074857712,
          0.8762512803077698,
          0.7057980895042419,
          -1.247208833694458,
          0.2753566801548004,
          0.5491989850997925,
          0.006640641018748283,
          -0.7393012046813965,
          -0.6775233745574951,
          -0.6463659405708313,
          -0.07062477618455887,
          0.04711209237575531,
          0.09129732102155685,
          -1.0027484893798828,
          -0.1794804483652115,
          -0.1903306394815445,
          0.19046755135059357,
          0.16314227879047394,
          -0.08576351404190063,
          -0.05140577256679535,
          0.0542781762778759,
          -0.038523878902196884,
          -0.2614162266254425,
          0.24990276992321014,
          0.3954031467437744,
          -0.06231077015399933,
          -0.09376099705696106,
          0.28193601965904236,
          -0.11558593809604645,
          -0.2764412462711334,
          0.11519771069288254,
          0.5320262312889099,
          0.2589745819568634,
          -0.08884023874998093,
          0.18643221259117126,
          -0.2761289179325104,
          0.0351518914103508,
          -0.12519297003746033,
          0.35047340393066406,
          -0.2798877954483032,
          0.14861182868480682,
          0.12963491678237915,
          0.4401760995388031,
          -0.006445828825235367,
          -1.068581223487854,
          0.7704060673713684,
          -0.04799171909689903,
          0.2018725723028183,
          -0.04703512787818909,
          0.4140673279762268,
          0.42169246077537537,
          -0.4009275734424591,
          0.06620033830404282,
          0.13525906205177307,
          -0.4838275909423828,
          0.25668054819107056,
          -0.3649034798145294,
          -0.6190041303634644,
          -0.4322492182254791,
          0.3645496666431427,
          -0.2482454776763916,
          -0.7173236608505249,
          -0.4241127371788025,
          0.43738698959350586,
          0.24374233186244965,
          0.3769340515136719,
          -0.05869625136256218,
          0.09016349166631699,
          0.41270971298217773,
          -0.2587863504886627,
          0.08624183386564255,
          0.192743182182312,
          0.04648126661777496,
          0.11420077830553055,
          0.31593430042266846,
          -0.22796770930290222,
          -0.41647326946258545,
          0.4167630076408386,
          -0.3498973548412323,
          -0.4514651894569397,
          -0.6387435793876648,
          0.27089330554008484,
          1.2523552179336548,
          -0.48811134696006775,
          -0.7597463130950928,
          1.0456082820892334,
          0.1813579797744751,
          -0.4391559660434723,
          -0.6910049319267273,
          0.2962179481983185,
          0.7360040545463562,
          0.02542044036090374,
          0.639202356338501,
          0.8271629214286804,
          0.10351746529340744,
          -0.2753725051879883,
          0.26887789368629456,
          0.3967735767364502,
          -0.8378158211708069,
          0.9178839325904846,
          -0.3561149537563324,
          0.17573615908622742,
          -0.3835175037384033,
          0.5650392770767212,
          0.1027776226401329,
          -0.2648981213569641,
          -1.053696632385254,
          0.245003804564476,
          0.060932230204343796,
          0.6378149390220642,
          0.7312769293785095,
          -0.303366482257843,
          0.10004179924726486,
          -0.4541245996952057,
          0.035868242383003235,
          -0.6304033398628235,
          0.029342828318476677,
          -0.036369793117046356,
          0.3070475459098816,
          -0.9316970705986023,
          -0.017901239916682243,
          0.5386711359024048,
          -0.7446651458740234,
          -0.5856940150260925,
          -0.32424405217170715,
          0.1644236147403717,
          -0.27699485421180725,
          -0.5889952182769775,
          -0.37719637155532837,
          0.29279354214668274,
          -0.028508175164461136,
          0.5686778426170349,
          -0.2695700228214264,
          0.051499560475349426,
          0.316230833530426,
          -0.28330060839653015,
          -0.02167762629687786,
          -0.19575411081314087,
          0.08854267746210098,
          -0.3280135691165924,
          0.6604881286621094,
          -1.10565984249115,
          0.3030173182487488,
          -0.0391850546002388,
          0.3340359330177307,
          -1.1504786014556885,
          0.21187013387680054,
          -0.468122661113739,
          0.05524693429470062,
          -0.25529858469963074,
          -0.08917456120252609,
          0.14226755499839783,
          0.15153935551643372,
          -0.13403840363025665,
          -0.4324089288711548,
          0.1245201900601387,
          -0.29542168974876404,
          0.28659582138061523,
          -0.010012391023337841,
          0.5886572599411011,
          0.32520821690559387,
          -0.2005997747182846,
          0.06971719861030579,
          0.3190575838088989,
          -0.1492784321308136,
          0.5234817266464233,
          -0.640984058380127,
          -0.8824684619903564,
          -0.42300933599472046,
          0.10864363610744476,
          0.33606481552124023,
          -0.4582532048225403,
          -0.7570462822914124,
          0.731310248374939,
          0.43004918098449707,
          0.3269686996936798,
          -1.4342974424362183,
          0.6568760275840759,
          0.46144789457321167,
          0.1788957566022873,
          0.36439821124076843,
          0.388689786195755,
          0.1273178905248642,
          -0.32431280612945557,
          0.5048191547393799,
          -0.5435715317726135,
          -0.066744863986969,
          0.5724634528160095,
          -0.37512102723121643,
          -0.8041697144508362,
          -0.2552935481071472,
          -0.0754380002617836,
          -0.09152699261903763,
          -0.02667381800711155,
          -0.6058999300003052,
          0.4923073351383209,
          0.2897488474845886,
          1.241400957107544,
          -0.42525675892829895,
          -0.6366934776306152,
          0.010672236792743206,
          -0.39647480845451355,
          -0.6169340014457703,
          -0.879157304763794,
          0.6592638492584229,
          -0.9686471819877625,
          -0.12376539409160614,
          -0.6873299479484558,
          -0.9007333517074585,
          0.515940248966217,
          -0.6063648462295532,
          -0.34441882371902466,
          -0.3471880257129669,
          0.29885774850845337,
          0.8081623911857605,
          -0.5023291110992432,
          -0.7417141199111938,
          0.7491794228553772,
          0.25496402382850647,
          -0.16618938744068146,
          -0.7531370520591736,
          -0.07426293194293976,
          0.33968260884284973,
          -0.08247628062963486,
          0.9661014080047607,
          0.9450913667678833,
          0.10438809543848038,
          -0.6708868741989136,
          -0.04635343328118324,
          -0.0021273938473314047,
          -0.04137694090604782,
          0.5031782388687134,
          0.14781439304351807,
          -0.3553631603717804,
          0.01388896070420742,
          -0.05667077749967575,
          -0.2685266435146332,
          0.05793743580579758,
          -0.42839428782463074,
          -0.2281421571969986,
          0.07589542120695114,
          0.2655998170375824,
          -0.12636908888816833,
          -0.16564252972602844,
          -0.07067506015300751,
          -0.9038900136947632,
          0.293607234954834,
          0.35249465703964233,
          -0.15339310467243195,
          -0.31813284754753113,
          0.13166916370391846,
          0.23246699571609497,
          -0.7791210412979126,
          0.38817885518074036,
          -0.4822648763656616,
          -0.29714903235435486,
          -0.43587467074394226,
          0.35276874899864197,
          0.8553870320320129,
          -0.4933035671710968,
          -0.681546151638031,
          0.7720572352409363,
          0.48036813735961914,
          0.14570178091526031,
          -0.7257081270217896,
          -0.40533408522605896,
          0.4086155295372009,
          -0.15148237347602844,
          0.5925668478012085,
          0.2907220721244812,
          0.17786765098571777,
          -0.7203041911125183,
          0.10932721942663193,
          0.3438243567943573,
          -0.7994969487190247,
          1.179371953010559,
          -0.9515433311462402,
          -0.08030853420495987,
          0.28019794821739197,
          0.8470406532287598,
          0.2862321734428406,
          0.024368001148104668,
          -0.5255451798439026,
          0.05273735523223877,
          -0.3299911320209503,
          0.7547873258590698,
          -0.6208934187889099,
          0.743039071559906,
          0.5126852989196777,
          -1.1486679315567017,
          0.5080447793006897,
          1.0107299089431763,
          0.3281596899032593,
          -0.3452707827091217,
          0.16581104695796967,
          -1.1298155784606934,
          -0.19705118238925934,
          0.5374535918235779,
          -0.3350486755371094,
          -0.7032014727592468,
          -0.6841090321540833,
          0.21829719841480255,
          0.42672234773635864,
          -0.2655704915523529,
          -0.6344154477119446,
          0.9083271026611328,
          -0.08203190565109253,
          0.0036618432495743036,
          -0.6248684525489807,
          0.4525615870952606,
          0.6683784127235413,
          0.021164821460843086,
          0.20873373746871948,
          0.2617517113685608,
          0.0013984651304781437,
          -0.4367033541202545,
          0.2568843364715576,
          -0.09620600193738937,
          -1.0861822366714478,
          0.8165181875228882,
          -0.21761037409305573,
          -0.7929235696792603,
          -0.14662669599056244,
          1.152405858039856,
          1.085476279258728,
          -0.11227917671203613,
          -0.6373391151428223,
          0.1537759155035019,
          -0.10268325358629227,
          0.6514052748680115,
          0.3532082736492157,
          0.7348601818084717,
          0.43108266592025757,
          -1.3016847372055054,
          1.2122504711151123,
          0.6814375519752502,
          0.12885403633117676,
          -0.5579814910888672,
          -0.43654605746269226,
          -0.2848684787750244,
          -0.0400392971932888,
          0.9341163039207458,
          -0.5554787516593933,
          -0.9346597790718079,
          -0.21762330830097198,
          0.2720277011394501,
          -0.28522729873657227,
          -0.400358110666275,
          -0.888742983341217,
          -0.032015327364206314,
          -0.1158243864774704,
          0.4154665172100067,
          -0.6788788437843323,
          0.13891564309597015,
          -0.10069432109594345,
          -0.04343598335981369,
          -0.4180498421192169,
          -0.06565036624670029,
          0.45884132385253906,
          0.01498747244477272,
          1.1811859607696533,
          -0.583350658416748,
          -0.23973560333251953,
          0.5473892688751221,
          -1.387236475944519,
          -0.40205615758895874,
          -0.25566285848617554,
          -0.05938532575964928,
          0.07148168236017227,
          -0.7044758200645447,
          -0.6546251177787781,
          0.6074190735816956,
          0.046455804258584976,
          0.9400275945663452,
          -1.4882875680923462,
          0.05744178593158722,
          0.19241741299629211,
          0.12127561867237091,
          0.22261399030685425,
          0.0435095876455307,
          0.7192670702934265,
          -0.6697922945022583,
          1.0032774209976196,
          -1.3520678281784058
        ]
      },
      "inputHidden": {
        "rows": 20,
        "columns": 20,
        "weights": [
          0.26958081126213074,
          -0.10267500579357147,
          0.19083520770072937,
          -0.8480552434921265,
          0.05147351697087288,
          0.010848971083760262,
          1.169045329093933,
          -0.08523145318031311,
          -0.23151139914989471,
          -0.5134915709495544,
          0.6048004031181335,
          0.5485702157020569,
          0.1594623327255249,
          0.8578581809997559,
          -0.05792902410030365,
          0.528422474861145,
          0.435759037733078,
          0.7582763433456421,
          -0.4328181743621826,
          -0.06082058697938919,
          -0.037706077098846436,
          0.23926988244056702,
          0.036287762224674225,
          0.15129400789737701,
          -0.012690449133515358,
          -0.0552356131374836,
          -0.10653553903102875,
          -0.41005295515060425,
          -0.010648186318576336,
          0.21964630484580994,
          -0.10441330820322037,
          0.3431294858455658,
          -0.06940304487943649,
          -0.36491087079048157,
          -0.1686089187860489,
          0.47151345014572144,
          -0.4775325655937195,
          -0.4379008710384369,
          -0.29920494556427,
          -0.003067118814215064,
          -0.26652660965919495,
          0.21149641275405884,
          -0.026435745880007744,
          -0.6949529647827148,
          0.4244879186153412,
          0.37108486890792847,
          0.768700897693634,
          -0.4149237871170044,
          -0.5596344470977783,
          -0.2783364951610565,
          0.6688258051872253,
          0.7013224363327026,
          -0.18989601731300354,
          0.7087058424949646,
          0.509448766708374,
          0.1666235327720642,
          0.1753455251455307,
          0.2105424553155899,
          -0.6897501349449158,
          -0.04821537435054779,
          -1.0279377698898315,
          1.0548200607299805,
          -0.14935040473937988,
          0.6550382971763611,
          0.4989525079727173,
          -0.26464760303497314,
          0.4582914710044861,
          0.24752044677734375,
          -0.42618298530578613,
          -0.00695191603153944,
          -0.556164562702179,
          0.9944710731506348,
          -0.25789034366607666,
          -0.4328368604183197,
          -0.2289457619190216,
          0.5930535197257996,
          1.0146563053131104,
          -0.2787317633628845,
          -1.0455803871154785,
          0.5888959765434265,
          -0.4513705372810364,
          0.06888917833566666,
          -0.3870788514614105,
          -0.8563730120658875,
          0.3885267972946167,
          0.3479223847389221,
          -0.12433724850416183,
          -1.114050269126892,
          -1.1533129215240479,
          0.3793172836303711,
          -0.010001431219279766,
          1.151257038116455,
          -0.7423765659332275,
          0.9960032105445862,
          0.48127949237823486,
          -0.36727041006088257,
          -0.40229532122612,
          -0.39183756709098816,
          -1.1479970216751099,
          0.28486064076423645,
          -1.8267650604248047,
          0.6481863856315613,
          -0.3148254156112671,
          -0.1318705976009369,
          0.857757031917572,
          0.4998965859413147,
          0.7484204769134521,
          -0.9206465482711792,
          0.0191290695220232,
          -0.39906635880470276,
          0.2787999212741852,
          1.0414459705352783,
          -0.5921526551246643,
          0.024886153638362885,
          -0.05543017014861107,
          0.4461632966995239,
          -0.9647974967956543,
          0.3074907660484314,
          -0.4696306586265564,
          -0.42880722880363464,
          0.2445438653230667,
          0.3519171178340912,
          0.09809143096208572,
          0.41394689679145813,
          0.157505065202713,
          0.11117692291736603,
          0.5412150621414185,
          -0.10245826095342636,
          0.05441455543041229,
          0.1067141741514206,
          0.26558801531791687,
          0.18705666065216064,
          -0.10964984446763992,
          -0.6843336820602417,
          0.28177300095558167,
          -0.1236027404665947,
          0.2319020926952362,
          -0.09171067923307419,
          -0.011178127489984035,
          0.029416508972644806,
          -0.8139001131057739,
          0.5909704566001892,
          -0.4427225887775421,
          0.24939070641994476,
          0.2845679521560669,
          -0.2285214513540268,
          0.40763792395591736,
          -0.5785709023475647,
          -0.22925041615962982,
          0.24905836582183838,
          0.2898539900779724,
          0.7222788333892822,
          -0.46039295196533203,
          -1.1662113666534424,
          -0.38019606471061707,
          0.5403041839599609,
          -0.2836412191390991,
          0.31761330366134644,
          -0.646125853061676,
          0.8350825905799866,
          -1.1641019582748413,
          0.01856473833322525,
          0.1553296595811844,
          0.29064488410949707,
          0.6256929039955139,
          0.267721951007843,
          0.6880913972854614,
          -0.02036190591752529,
          0.03322675824165344,
          -0.4129089415073395,
          0.6677898168563843,
          0.727055013179779,
          -0.35913094878196716,
          -0.04358552768826485,
          -0.21723251044750214,
          0.19621394574642181,
          0.1553453803062439,
          0.7704896926879883,
          -0.6433843374252319,
          0.035594046115875244,
          -0.6613011360168457,
          0.29356300830841064,
          0.15158626437187195,
          -0.007181094028055668,
          1.0359550714492798,
          0.8231307864189148,
          -0.22430521249771118,
          -1.244940996170044,
          -0.6528027653694153,
          0.060447629541158676,
          -0.37439534068107605,
          0.4725736677646637,
          -0.653724730014801,
          -0.4165809154510498,
          0.4406227767467499,
          -0.18826259672641754,
          -0.5095052719116211,
          -0.707146167755127,
          -0.346489816904068,
          -0.24865780770778656,
          -1.250425100326538,
          0.658471941947937,
          -0.6453297138214111,
          0.35615625977516174,
          0.15795722603797913,
          0.5009129047393799,
          -0.9342827796936035,
          0.07372752577066422,
          -0.5992284417152405,
          0.6331322193145752,
          -0.603837788105011,
          0.07870514690876007,
          -0.5452688932418823,
          -0.26129159331321716,
          -0.573003351688385,
          0.2982439398765564,
          -0.5282564163208008,
          -0.5659098029136658,
          -0.0513867624104023,
          0.06831279397010803,
          -0.04210428148508072,
          -0.18901106715202332,
          0.28610172867774963,
          0.28488874435424805,
          0.4963577091693878,
          -0.11520873010158539,
          0.5870100259780884,
          -0.11261036992073059,
          -0.5230193734169006,
          -0.5781636238098145,
          0.6765519976615906,
          1.090694546699524,
          -0.14834098517894745,
          -0.006676677148789167,
          0.5331487655639648,
          -0.22332070767879486,
          1.2667044401168823,
          0.4434664845466614,
          -1.0291789770126343,
          0.7895320057868958,
          -0.16265302896499634,
          0.12364105880260468,
          0.16577717661857605,
          0.4461939334869385,
          0.21639025211334229,
          -0.42944493889808655,
          0.05124395713210106,
          -0.15818549692630768,
          -0.0608413927257061,
          0.08469301462173462,
          0.3022262752056122,
          0.08980609476566315,
          0.1409377157688141,
          -0.42171862721443176,
          -0.6477594375610352,
          1.1621391773223877,
          -0.4285680055618286,
          -0.3112226128578186,
          -0.22060847282409668,
          0.24350589513778687,
          -0.02310994081199169,
          0.6855381727218628,
          -0.4288574457168579,
          0.8317123651504517,
          -0.17642155289649963,
          0.6349633932113647,
          0.39628317952156067,
          -0.4792341887950897,
          -0.00525203300639987,
          0.6130337119102478,
          -0.13072195649147034,
          -0.14499956369400024,
          -0.507549524307251,
          -1.0300188064575195,
          -0.17236849665641785,
          1.0288509130477905,
          -0.6117590665817261,
          -0.583918035030365,
          -0.0343501977622509,
          1.3878285884857178,
          -0.435742050409317,
          0.2849721908569336,
          -0.16339854896068573,
          0.33649349212646484,
          0.1986086070537567,
          0.6399855613708496,
          -0.09354770928621292,
          -0.18773844838142395,
          -0.16668036580085754,
          0.3749624788761139,
          -0.5345166325569153,
          0.15970104932785034,
          -0.5375882983207703,
          -0.45323237776756287,
          -0.2001265585422516,
          -0.13838468492031097,
          -0.025167619809508324,
          -0.2956981956958771,
          -0.0336093045771122,
          -0.23893605172634125,
          0.030930181965231895,
          -0.2785114347934723,
          0.10671927779912949,
          -0.6002328395843506,
          0.7290990352630615,
          0.3324502408504486,
          -0.5250787734985352,
          -0.41122472286224365,
          -1.671618938446045,
          0.35780712962150574,
          0.5824903249740601,
          0.3816347122192383,
          -0.560651957988739,
          0.5559524297714233,
          -0.06766948848962784,
          0.0805482566356659,
          -0.12297075986862183,
          -0.3542807996273041,
          -0.441215842962265,
          -0.9108721017837524,
          -0.32408517599105835,
          0.31813642382621765,
          -0.06055432930588722,
          -0.030109768733382225,
          0.4654941260814667,
          0.3211580514907837,
          -0.48618975281715393,
          -0.24774524569511414,
          -0.5379815101623535,
          0.517379105091095,
          -0.06971853226423264,
          0.46866217255592346,
          -0.2972378134727478,
          -0.21854844689369202,
          -0.18214717507362366,
          -0.14428773522377014,
          0.11366268247365952,
          0.3759877383708954,
          -0.48442208766937256,
          0.4740857481956482,
          0.12389089167118073,
          0.3433506190776825,
          0.36092811822891235,
          -0.3245393931865692,
          -0.14497220516204834,
          0.44162270426750183,
          0.7572321891784668,
          -0.22818370163440704,
          -0.45808878540992737,
          0.0638030469417572,
          0.5484156608581543,
          0.34725886583328247,
          -0.1464221030473709,
          0.08412381261587143,
          0.017547274008393288,
          0.6905732154846191,
          0.5488958954811096,
          -0.08108352869749069,
          -0.31579354405403137,
          -0.3901301622390747,
          -0.2683713138103485,
          0.16674762964248657,
          -0.42836669087409973,
          0.2271953523159027,
          0.6732115745544434,
          0.5910919904708862,
          -0.40203630924224854,
          -0.6944133639335632,
          -0.7806821465492249,
          0.41110506653785706,
          -0.0503394640982151,
          0.5542178153991699,
          -1.133755087852478,
          -0.6103620529174805,
          0.10229343175888062,
          -0.05132778361439705,
          -0.25285249948501587,
          -1.2346110343933105,
          -0.6111326217651367,
          0.5101985931396484,
          -0.6122360825538635,
          0.09416137635707855,
          -0.27478671073913574,
          0.0774088129401207,
          0.5949059724807739,
          -0.18215137720108032,
          -0.05784052982926369,
          -0.35211989283561707,
          -0.745357096195221,
          -0.23524720966815948,
          0.1546415090560913,
          0.9149312973022461,
          -0.16838344931602478,
          0.06487276405096054,
          -0.242208793759346,
          0.5081433653831482,
          -0.9187858700752258,
          -0.6798305511474609,
          -0.8005404472351074,
          0.345537006855011
        ]
      },
      "inputBias": {
        "rows": 20,
        "columns": 1,
        "weights": [
          1.047884464263916,
          0.31100380420684814,
          0.9763151407241821,
          0.09703656286001205,
          0.23422487080097198,
          0.6843445897102356,
          0.37248072028160095,
          0.4601757228374481,
          0.3796437382698059,
          -0.009121694602072239,
          0.9964432120323181,
          0.42262011766433716,
          0.5578463077545166,
          0.20243419706821442,
          0.21005919575691223,
          0.3722985088825226,
          -0.5518296957015991,
          1.1351767778396606,
          0.2510751485824585,
          0.451699823141098
        ]
      },
      "forgetMatrix": {
        "rows": 20,
        "columns": 22,
        "weights": [
          0.14594078063964844,
          -0.0688527449965477,
          0.2910726070404053,
          0.24203701317310333,
          -0.14095616340637207,
          0.08825322985649109,
          -0.649387538433075,
          0.4051382839679718,
          0.15962986648082733,
          -0.3867245018482208,
          0.22868534922599792,
          0.1087210476398468,
          0.4845620393753052,
          -0.24703098833560944,
          -0.024144519120454788,
          0.04187538102269173,
          -0.19730299711227417,
          -0.7021607160568237,
          -0.24601206183433533,
          0.6192203164100647,
          0.24490942060947418,
          -0.1270010620355606,
          -0.23405666649341583,
          -0.4774165153503418,
          0.0657089427113533,
          0.15746843814849854,
          -1.0317904949188232,
          0.4345650374889374,
          0.7003899216651917,
          0.08730559051036835,
          0.4978328049182892,
          0.360493540763855,
          -0.014582185074687004,
          0.04194940999150276,
          0.5122517347335815,
          -0.42979222536087036,
          0.9667588472366333,
          -0.2705332636833191,
          -0.5108262300491333,
          -0.934263288974762,
          0.39324456453323364,
          0.41136452555656433,
          -0.5475917458534241,
          0.2654802203178406,
          -0.14631615579128265,
          0.11600440740585327,
          0.02631591074168682,
          0.3340562582015991,
          -0.4242672920227051,
          0.2749258279800415,
          0.40378859639167786,
          0.37904858589172363,
          -0.0643000453710556,
          -0.05284135416150093,
          0.07564246654510498,
          0.58531653881073,
          0.01696157455444336,
          -0.11310388892889023,
          0.5200647711753845,
          -0.601455569267273,
          -0.19588437676429749,
          -0.3564995229244232,
          -0.12127664685249329,
          -0.658866286277771,
          -0.5224055051803589,
          -0.21189558506011963,
          -1.3621654510498047,
          0.2490508109331131,
          -0.799637496471405,
          0.43931758403778076,
          -1.214510202407837,
          1.0232051610946655,
          1.041332721710205,
          -1.6852275133132935,
          -0.6473634243011475,
          1.2718400955200195,
          0.28250399231910706,
          0.25654658675193787,
          0.14129798114299774,
          0.5392922163009644,
          1.189967393875122,
          -1.163041591644287,
          1.7626889944076538,
          1.1693652868270874,
          0.4538336992263794,
          -1.0336802005767822,
          0.7013680934906006,
          -0.42618879675865173,
          -0.7074843049049377,
          0.22573450207710266,
          -0.3356216549873352,
          0.47746509313583374,
          -0.16899271309375763,
          0.37366774678230286,
          -0.554529070854187,
          0.6306729316711426,
          0.026576964184641838,
          -0.7282766103744507,
          -0.1339574158191681,
          0.23142343759536743,
          0.1957477331161499,
          -0.01861560344696045,
          0.08097691833972931,
          -0.3589574992656708,
          0.19005347788333893,
          0.009241932071745396,
          -0.3456898629665375,
          -0.03882410377264023,
          -0.17398475110530853,
          -0.7396488189697266,
          -0.3905511796474457,
          0.2465049773454666,
          -0.2953615188598633,
          -0.026571879163384438,
          0.2245938777923584,
          0.6338832974433899,
          0.346466988325119,
          -0.15239235758781433,
          -0.2867963910102844,
          0.14091403782367706,
          -0.2238091081380844,
          0.4690626859664917,
          -0.4020809233188629,
          0.09149535000324249,
          0.17955386638641357,
          -0.34981101751327515,
          0.45497673749923706,
          0.0669810101389885,
          0.58430016040802,
          -0.49827370047569275,
          0.13102206587791443,
          -0.4979744851589203,
          0.6382853984832764,
          -0.26703202724456787,
          0.2742502987384796,
          0.19843408465385437,
          1.1620383262634277,
          -0.5107598900794983,
          -1.7794362306594849,
          0.4121647775173187,
          0.42786461114883423,
          -0.9795750379562378,
          -0.20156478881835938,
          0.17916959524154663,
          -0.30660226941108704,
          -0.07761821895837784,
          -1.2212282419204712,
          0.3473433554172516,
          -0.47123438119888306,
          -0.4866884648799896,
          -0.154660165309906,
          0.38209977746009827,
          0.18375204503536224,
          -0.004865116439759731,
          0.059446293860673904,
          0.11350452154874802,
          -0.2591959536075592,
          0.030083829537034035,
          -0.11652186512947083,
          0.2300969362258911,
          0.7050797939300537,
          -0.12321001291275024,
          0.044563714414834976,
          0.30364325642585754,
          -0.0007674724329262972,
          0.03403293713927269,
          -0.4662286639213562,
          0.21896114945411682,
          0.5864229798316956,
          -0.5723219513893127,
          0.3089264929294586,
          0.4985649287700653,
          0.27321040630340576,
          -0.6721670031547546,
          -0.5073108077049255,
          -0.2564076781272888,
          -0.4577859342098236,
          0.7853869199752808,
          -0.09487374871969223,
          0.045347411185503006,
          -0.47202548384666443,
          0.3088855743408203,
          0.17053328454494476,
          -0.29134148359298706,
          -0.701991081237793,
          0.02229384332895279,
          0.3441193997859955,
          -0.003504636697471142,
          0.15825295448303223,
          0.13526059687137604,
          0.20279324054718018,
          -0.4602074921131134,
          0.3779594600200653,
          0.1432669460773468,
          0.29169490933418274,
          0.27669769525527954,
          0.2905445396900177,
          -0.2675250470638275,
          -0.6852678060531616,
          0.1810382753610611,
          -0.8401908874511719,
          0.12020472437143326,
          -0.7965967655181885,
          0.8249663710594177,
          0.6322689652442932,
          -0.4030506908893585,
          0.04133669286966324,
          0.5881227850914001,
          -0.3982830345630646,
          0.6003832817077637,
          -0.003910447005182505,
          0.04862211272120476,
          0.8396958112716675,
          -0.5525395274162292,
          0.7405269742012024,
          0.724937379360199,
          0.14343081414699554,
          -0.21828898787498474,
          -0.25714924931526184,
          -1.2226766347885132,
          0.27953726053237915,
          -0.07597576826810837,
          0.4244994521141052,
          0.45123836398124695,
          0.24128840863704681,
          0.11756718903779984,
          -0.18611669540405273,
          0.5713395476341248,
          0.2012939155101776,
          -0.41098684072494507,
          0.18275058269500732,
          -0.1856478601694107,
          -0.0412769578397274,
          0.1473519504070282,
          -0.1513226181268692,
          -0.301532119512558,
          0.5138542652130127,
          0.3583122789859772,
          -0.10991726815700531,
          -0.5204958915710449,
          0.009958550333976746,
          0.8392434120178223,
          0.400430828332901,
          0.016642844304442406,
          0.009043781086802483,
          -0.2094925493001938,
          0.6077665090560913,
          -0.7381384372711182,
          -0.1709207445383072,
          0.4316180646419525,
          -0.0004505263641476631,
          -0.47169020771980286,
          -0.047923922538757324,
          -0.15560400485992432,
          0.10494327545166016,
          -0.39416834712028503,
          -0.11870351433753967,
          -0.00687181344255805,
          -0.7815981507301331,
          -0.476334810256958,
          -0.2993186414241791,
          -0.2702040374279022,
          -0.4519966244697571,
          -0.1958388388156891,
          0.027246885001659393,
          -0.12213456630706787,
          0.5827043056488037,
          0.02720697969198227,
          -0.40184876322746277,
          0.409273624420166,
          0.23700164258480072,
          0.4028436243534088,
          0.323718398809433,
          -0.301378458738327,
          -0.2649485468864441,
          0.2816597521305084,
          0.24320665001869202,
          0.7633494138717651,
          0.5363146066665649,
          -1.192733883857727,
          -0.16174235939979553,
          0.27752500772476196,
          -0.2339169830083847,
          -0.32011181116104126,
          -0.15529519319534302,
          -0.012165026739239693,
          -0.9777911305427551,
          -0.5803414583206177,
          -0.803412914276123,
          1.1330269575119019,
          -0.6175028681755066,
          0.5694456100463867,
          0.17708489298820496,
          -0.534988522529602,
          0.6372350454330444,
          0.9277924299240112,
          0.15856698155403137,
          0.03528112918138504,
          0.5611907839775085,
          0.05928012356162071,
          0.5422846674919128,
          -0.16520053148269653,
          0.2638540267944336,
          -0.6351217031478882,
          0.06152180954813957,
          0.154081329703331,
          -0.022046374157071114,
          -0.9586052894592285,
          0.5540836453437805,
          -0.6350220441818237,
          0.0002966539468616247,
          -0.3696296215057373,
          -0.05334509164094925,
          -0.6242365837097168,
          -0.3970918655395508,
          -0.04684927687048912,
          0.39947500824928284,
          0.38960933685302734,
          -0.4229564368724823,
          -1.1613458395004272,
          -0.6994110941886902,
          0.08414176851511002,
          0.020403049886226654,
          0.8103763461112976,
          -0.12615425884723663,
          0.1583622843027115,
          -0.6575369238853455,
          0.6095036864280701,
          -0.03178444877266884,
          0.28899261355400085,
          0.7032085657119751,
          -1.0050793886184692,
          0.6839454770088196,
          0.04705192893743515,
          0.6005381345748901,
          -0.7254355549812317,
          -0.2233884036540985,
          0.08693427592515945,
          0.6871584057807922,
          0.022964539006352425,
          0.06227671727538109,
          -0.8548465371131897,
          -0.4008011519908905,
          -0.3577192425727844,
          -0.5547478199005127,
          1.0709195137023926,
          -0.5967200994491577,
          -0.5734529495239258,
          -0.1024932786822319,
          0.2755255103111267,
          -0.1353142261505127,
          0.8617026209831238,
          -0.19254577159881592,
          -0.09685423225164413,
          -0.4238373637199402,
          0.4520178735256195,
          -0.33102527260780334,
          0.11900125443935394,
          0.7276277542114258,
          -0.8103761076927185,
          0.14320655167102814,
          0.5361259579658508,
          0.4628221392631531,
          0.02975369803607464,
          -0.2615578770637512,
          0.32987284660339355,
          0.5638977885246277,
          -0.16210247576236725,
          0.6286348104476929,
          0.13349752128124237,
          0.24103473126888275,
          -0.36753466725349426,
          0.008482975885272026,
          -0.4256701171398163,
          0.03178621456027031,
          -0.18385334312915802,
          0.46165087819099426,
          0.7469158172607422,
          -0.16515827178955078,
          -0.06326577812433243,
          -0.6150526404380798,
          0.1294470876455307,
          0.14127293229103088,
          -0.3590508699417114,
          -0.12167014181613922,
          -0.3762480914592743,
          0.48022037744522095,
          -0.4611954689025879,
          -0.22385983169078827,
          0.039770349860191345,
          -0.2774912118911743,
          -0.5699952244758606,
          -0.26367923617362976,
          0.6287925243377686,
          0.39681702852249146,
          0.6702872514724731,
          0.3374335467815399,
          0.03558512404561043,
          0.24106504023075104,
          -0.25933972001075745,
          0.24922756850719452,
          -0.20651942491531372,
          0.20077894628047943,
          0.3405027985572815,
          0.07090773433446884,
          -0.41512876749038696,
          -0.1760168820619583,
          -0.44088032841682434,
          -0.5407401323318481,
          0.2149684578180313,
          0.08411476016044617,
          -0.08598855137825012,
          -0.3557690978050232,
          0.23349842429161072,
          -0.2291134148836136,
          -0.22465024888515472,
          -0.47456103563308716,
          0.23790273070335388,
          0.4276627004146576,
          -0.10965894907712936,
          0.3138294816017151,
          1.4603914022445679,
          -0.4602768123149872,
          0.15541373193264008,
          0.40667515993118286,
          -0.20462775230407715,
          0.36522164940834045,
          -0.14371292293071747,
          0.43049919605255127,
          0.6217241883277893,
          0.7690910696983337,
          0.6188957095146179,
          0.40191730856895447,
          -0.22210556268692017,
          -0.3979180157184601,
          -0.5403258800506592,
          -0.06590042263269424,
          0.09085611999034882,
          0.36529526114463806,
          -0.30675750970840454
        ]
      },
      "forgetHidden": {
        "rows": 20,
        "columns": 20,
        "weights": [
          -0.058957312256097794,
          0.23581595718860626,
          -0.2197200059890747,
          1.126375436782837,
          -0.04304797574877739,
          0.14222119748592377,
          -0.9046517610549927,
          -0.0646786093711853,
          0.07845453172922134,
          0.4016853868961334,
          -0.3822837769985199,
          -0.27154892683029175,
          -0.10813870280981064,
          -0.8490453362464905,
          -0.165135458111763,
          -0.6189179420471191,
          -0.5581158399581909,
          -0.6575560569763184,
          0.0915900245308876,
          0.036092013120651245,
          -0.3338419198989868,
          0.4007532298564911,
          0.09415499120950699,
          0.7037439942359924,
          0.47331520915031433,
          0.6782132387161255,
          -0.28806260228157043,
          -0.22807012498378754,
          -0.30268916487693787,
          0.37163156270980835,
          0.038393184542655945,
          0.3272601068019867,
          -0.3542945981025696,
          -0.43113791942596436,
          0.2357066422700882,
          0.4017239809036255,
          0.5960149765014648,
          0.5528798699378967,
          -0.32045993208885193,
          0.7879412174224854,
          0.31144317984580994,
          -0.29325050115585327,
          0.07524370402097702,
          0.7440510988235474,
          -1.0378086566925049,
          -0.459882915019989,
          -0.47699952125549316,
          0.48493215441703796,
          0.6786466836929321,
          -0.33538907766342163,
          -0.22661875188350677,
          -0.7626470923423767,
          0.283155232667923,
          -1.1323620080947876,
          -0.4693261682987213,
          -0.26946040987968445,
          0.04662556201219559,
          0.10288403183221817,
          0.8106200695037842,
          0.09057111293077469,
          -0.3300566077232361,
          0.1935548037290573,
          -0.26364338397979736,
          -0.09010776877403259,
          -0.1351201981306076,
          -0.05415767431259155,
          -0.36956414580345154,
          -0.05862259119749069,
          -0.17947936058044434,
          0.0022447819355875254,
          -0.2316904366016388,
          0.26693880558013916,
          -0.0441150888800621,
          0.09868380427360535,
          -0.7341892123222351,
          0.10233400762081146,
          0.12116960436105728,
          -0.3155711889266968,
          -0.24866820871829987,
          0.11169328540563583,
          0.0890306681394577,
          0.549070417881012,
          -0.15178069472312927,
          0.24506370723247528,
          0.7941290736198425,
          0.06238603964447975,
          -0.16388759016990662,
          -0.4398096799850464,
          -0.9577967524528503,
          0.2767679691314697,
          0.2905437648296356,
          0.45133712887763977,
          -0.12580175697803497,
          -0.7533480525016785,
          -0.22471295297145844,
          0.6803034543991089,
          -0.5767946839332581,
          -0.5681191086769104,
          -0.6185203790664673,
          0.9535422921180725,
          -0.2379201203584671,
          -0.2456553429365158,
          -0.06934796273708344,
          -0.5064437985420227,
          -0.15923090279102325,
          -0.00023435767798218876,
          -0.11249551177024841,
          0.19394685328006744,
          0.27087128162384033,
          -0.04152294620871544,
          -0.23934033513069153,
          -0.25686290860176086,
          0.04051873832941055,
          0.03540675714612007,
          -1.6718109846115112,
          0.5448122024536133,
          0.13672874867916107,
          0.18904615938663483,
          0.10807613283395767,
          0.029688633978366852,
          -0.14702251553535461,
          0.17639441788196564,
          -0.05875152722001076,
          0.039159923791885376,
          0.09683754295110703,
          0.09041056782007217,
          -0.1705421358346939,
          -0.1797061562538147,
          -0.2558339536190033,
          0.13580471277236938,
          0.027551986277103424,
          0.2613789141178131,
          -0.01558307558298111,
          0.20124110579490662,
          -0.09113357961177826,
          1.1456907987594604,
          -0.2172744870185852,
          -0.17167791724205017,
          -0.3017037510871887,
          0.5213461518287659,
          0.36165761947631836,
          0.17818984389305115,
          -0.11649248003959656,
          0.8536865711212158,
          0.14633716642856598,
          0.8459064960479736,
          -0.18804295361042023,
          -0.13679957389831543,
          -0.14486323297023773,
          0.16367405652999878,
          -0.04784786328673363,
          -0.10611069202423096,
          -0.3524564802646637,
          -0.463547945022583,
          0.33293718099594116,
          -0.7980832457542419,
          0.12906312942504883,
          0.12760965526103973,
          -0.11069881170988083,
          0.2739975154399872,
          -0.9177219271659851,
          0.5817782282829285,
          -0.3011632561683655,
          -0.14980028569698334,
          0.38883671164512634,
          0.02134118415415287,
          0.2409113198518753,
          0.2630927860736847,
          -0.5148357152938843,
          0.6054971218109131,
          -0.1692657172679901,
          0.37964197993278503,
          -0.23977980017662048,
          0.08367971330881119,
          -0.14602193236351013,
          0.11554226279258728,
          -0.2596210241317749,
          -0.5542412996292114,
          -0.510101854801178,
          0.5563725233078003,
          -0.30984827876091003,
          0.08618919551372528,
          -0.10880297422409058,
          -0.041442032903432846,
          0.27544912695884705,
          0.11237092316150665,
          -0.30538931488990784,
          -0.17611710727214813,
          -0.08597128838300705,
          0.1168719008564949,
          -0.17423640191555023,
          0.15413834154605865,
          -0.12064798176288605,
          -0.3260767459869385,
          0.11636530607938766,
          -0.03846365213394165,
          0.08226680010557175,
          -0.3160157799720764,
          -0.10371090471744537,
          0.1849389672279358,
          0.38953661918640137,
          -0.993364691734314,
          0.24934108555316925,
          -0.03699971362948418,
          -0.4557216167449951,
          -0.728900134563446,
          0.10186673700809479,
          0.6991875171661377,
          0.5051892399787903,
          -0.6780907511711121,
          0.2178572565317154,
          -0.3307510018348694,
          0.8368895649909973,
          -0.03135598078370094,
          -0.1848936676979065,
          -0.5410900712013245,
          0.6089255809783936,
          -0.08642002195119858,
          0.07870082557201385,
          -0.4607183337211609,
          0.07691233605146408,
          -0.27025318145751953,
          0.1353895366191864,
          0.43130308389663696,
          0.511069655418396,
          -0.11619057506322861,
          0.767694890499115,
          -0.1003323495388031,
          -0.22231809794902802,
          -0.5098103284835815,
          0.5567281246185303,
          0.7606601119041443,
          -0.1630263775587082,
          -0.6493441462516785,
          0.31057170033454895,
          -0.717677652835846,
          0.9134469628334045,
          0.0630231723189354,
          -0.8144899010658264,
          0.5688684582710266,
          0.03688440099358559,
          0.19347688555717468,
          -0.2392883002758026,
          0.06762468814849854,
          0.03539479151368141,
          0.49504411220550537,
          -0.24477241933345795,
          -0.2573067843914032,
          -0.23702079057693481,
          0.3350973427295685,
          -0.38080286979675293,
          0.191801056265831,
          -0.20880669355392456,
          -0.24648669362068176,
          0.4472408890724182,
          -1.4043296575546265,
          0.29861101508140564,
          -0.10245506465435028,
          -0.21318551898002625,
          -0.09876491129398346,
          0.272384375333786,
          -0.036211758852005005,
          0.17490637302398682,
          0.15554730594158173,
          0.44135168194770813,
          -0.36282792687416077,
          0.020720696076750755,
          0.03403801843523979,
          -0.08807867765426636,
          -0.044784314930438995,
          0.3670598268508911,
          0.24477484822273254,
          -0.00423390930518508,
          -0.42172014713287354,
          0.006166461855173111,
          0.05803405120968819,
          -0.2402350753545761,
          -0.2426138073205948,
          -0.29604023694992065,
          0.13899195194244385,
          0.18026569485664368,
          -0.3895705044269562,
          0.13495390117168427,
          0.32347074151039124,
          -0.5824793577194214,
          -0.4727994203567505,
          0.04848252981901169,
          0.26958784461021423,
          0.45791271328926086,
          -0.17979946732521057,
          0.0660051479935646,
          -0.32663068175315857,
          0.15861256420612335,
          0.10973948240280151,
          -0.1826287806034088,
          -0.1609387844800949,
          0.35420820116996765,
          -0.2609308063983917,
          0.18364214897155762,
          -0.16256298124790192,
          0.19789303839206696,
          0.07286642491817474,
          0.09113229066133499,
          0.7488936185836792,
          -0.5871501564979553,
          -0.27734676003456116,
          -0.60499107837677,
          0.22699938714504242,
          0.4379258155822754,
          -0.22963657975196838,
          -0.1014547049999237,
          -0.46475425362586975,
          0.30995383858680725,
          -0.9614546298980713,
          -0.24540084600448608,
          0.1975681036710739,
          -0.49593260884284973,
          0.27771756052970886,
          0.4459000825881958,
          0.6058045625686646,
          0.3549468517303467,
          -0.911529541015625,
          0.5697354078292847,
          -0.4821486473083496,
          -0.15277953445911407,
          -0.9037461876869202,
          0.6351786255836487,
          0.1684577316045761,
          0.3844108581542969,
          -0.7365044355392456,
          0.41110697388648987,
          0.09265643358230591,
          1.0019664764404297,
          0.4582449197769165,
          0.3584264814853668,
          -0.8437407612800598,
          0.1555260568857193,
          0.4007258117198944,
          -0.1362401247024536,
          -0.21751853823661804,
          -0.09173630177974701,
          0.20478659868240356,
          -0.4667675197124481,
          0.548130452632904,
          -0.19208398461341858,
          0.1595197319984436,
          -0.9018508791923523,
          -0.191491961479187,
          0.07672759145498276,
          0.08698710799217224,
          -0.700893223285675,
          -0.022924097254872322,
          -0.2669789791107178,
          -0.22740717232227325,
          -0.053259190171957016,
          -0.48606038093566895,
          -0.1314544379711151,
          -0.587627649307251,
          0.0004562368558254093,
          0.14483331143856049,
          -0.3772772252559662,
          0.3566458225250244,
          0.16032111644744873,
          -0.43228039145469666,
          0.3884783983230591,
          0.1359207183122635,
          0.38717836141586304,
          -0.352131187915802,
          -0.4408206045627594,
          -0.048619188368320465,
          -0.0014183948514983058,
          0.8333001732826233,
          0.12811188399791718,
          0.4380059242248535,
          0.572970986366272,
          -0.9917787909507751,
          -0.1433703899383545,
          1.0324615240097046,
          -0.8637990951538086,
          -0.20000451803207397,
          -0.5109087228775024,
          0.47068411111831665,
          0.5331013798713684,
          0.7783384323120117,
          0.22170837223529816,
          0.5266458988189697,
          -0.4980008602142334,
          -0.3232543468475342,
          -0.22340665757656097,
          0.5717293620109558,
          0.1803686022758484,
          0.20506930351257324,
          -0.4929114282131195,
          -0.5858264565467834,
          0.23032692074775696,
          0.2839546203613281,
          0.6815118193626404,
          0.5401738286018372,
          -0.23062460124492645,
          0.5906350016593933
        ]
      },
      "forgetBias": {
        "rows": 20,
        "columns": 1,
        "weights": [
          0,
          0,
          0,
          0,
          0,
          0,
          0,
          0,
          0,
          0,
          0,
          0,
          0,
          0,
          0,
          0,
          0,
          0,
          0,
          0
        ]
      },
      "outputMatrix": {
        "rows": 20,
        "columns": 22,
        "weights": [
          0.5085045099258423,
          -0.23369966447353363,
          -0.23794782161712646,
          -0.43740445375442505,
          -0.2353678196668625,
          -0.29318174719810486,
          0.8061142563819885,
          -0.48032185435295105,
          0.2007417529821396,
          0.33134332299232483,
          0.20943719148635864,
          -0.26534563302993774,
          -1.6461857557296753,
          0.6928567886352539,
          0.8883297443389893,
          0.16273008286952972,
          0.5527262687683105,
          1.11440908908844,
          0.41233083605766296,
          -1.2591785192489624,
          -0.11619699001312256,
          -0.4527231752872467,
          -0.10701394081115723,
          0.518358588218689,
          -0.06462858617305756,
          -0.18332694470882416,
          -0.7813039422035217,
          0.9686866998672485,
          1.3173298835754395,
          -0.17389771342277527,
          -0.2699512541294098,
          0.569316029548645,
          -0.5264392495155334,
          -0.2856714427471161,
          -0.35475900769233704,
          0.7643216848373413,
          0.9147416949272156,
          -0.7061724066734314,
          0.883982241153717,
          1.3854517936706543,
          0.14839403331279755,
          -0.9074936509132385,
          -0.23501059412956238,
          -0.1829911470413208,
          0.1117701455950737,
          0.8165346384048462,
          -0.17252449691295624,
          -0.8893882036209106,
          -0.16275610029697418,
          -0.13863039016723633,
          0.8648784756660461,
          -0.22683939337730408,
          -0.6890474557876587,
          0.13085190951824188,
          -0.2282007485628128,
          -0.05295190587639809,
          -0.6348695158958435,
          0.6469547748565674,
          0.5108746290206909,
          -0.6281865239143372,
          -0.17657679319381714,
          0.7391383647918701,
          0.20319922268390656,
          -0.8211911916732788,
          0.012250284664332867,
          -0.5071471333503723,
          0.4664810001850128,
          0.16014912724494934,
          0.16292928159236908,
          -1.14971923828125,
          0.0071707358583807945,
          -0.22808854281902313,
          0.12929773330688477,
          -0.20669056475162506,
          -0.36404645442962646,
          0.1614331305027008,
          0.0027596012223511934,
          -0.3473435044288635,
          -0.690849781036377,
          0.0301058292388916,
          0.029641106724739075,
          0.03120575286448002,
          0.0797329694032669,
          0.4637157917022705,
          -0.19464018940925598,
          -0.29385486245155334,
          0.32394102215766907,
          0.46026021242141724,
          0.5263458490371704,
          -0.117685966193676,
          0.007090851664543152,
          0.1344306319952011,
          0.04812568798661232,
          -0.4983031451702118,
          0.10607858002185822,
          -0.4957751929759979,
          0.16100624203681946,
          0.22647595405578613,
          0.8568279147148132,
          -0.2826705574989319,
          -1.3445264101028442,
          1.0886180400848389,
          0.0709625631570816,
          0.2408805638551712,
          -0.12069758027791977,
          0.3410801887512207,
          0.1556900590658188,
          -0.680679440498352,
          0.20921868085861206,
          0.06274067610502243,
          -0.8035382628440857,
          0.9738267660140991,
          -0.5645228624343872,
          -1.0528945922851562,
          -0.33896878361701965,
          0.30462002754211426,
          -0.07733884453773499,
          -0.3243619501590729,
          -1.0190355777740479,
          0.39011916518211365,
          0.08686588704586029,
          0.5812574625015259,
          -0.46213242411613464,
          -0.05726476013660431,
          0.24672949314117432,
          -0.25303810834884644,
          0.02578570879995823,
          -0.24044924974441528,
          0.3377830982208252,
          -0.07557979971170425,
          0.4579438269138336,
          -0.7346055507659912,
          0.26124098896980286,
          0.17367801070213318,
          0.231156125664711,
          -0.9566523432731628,
          0.36653921008110046,
          -0.7337978482246399,
          0.16787029802799225,
          -0.3840162456035614,
          -0.33474060893058777,
          0.10737883299589157,
          -0.08552756905555725,
          -0.2644520103931427,
          -0.5343011021614075,
          0.05743364617228508,
          -0.46745729446411133,
          0.575605571269989,
          -0.05366520956158638,
          0.6993662118911743,
          0.22871726751327515,
          0.04687919467687607,
          0.2421296238899231,
          0.5907018780708313,
          -0.17212200164794922,
          1.0807348489761353,
          -0.6339619755744934,
          -0.16937197744846344,
          0.08936430513858795,
          -0.4012516736984253,
          0.05875870957970619,
          -0.09395399689674377,
          -0.9510326385498047,
          -0.02996399998664856,
          0.29298722743988037,
          0.9479802846908569,
          -0.2951396405696869,
          -0.6053566336631775,
          0.022081725299358368,
          -0.799060583114624,
          -0.8841779828071594,
          -0.5161752700805664,
          0.9011586308479309,
          -0.5845993161201477,
          0.3925919532775879,
          -1.0520347356796265,
          -0.20797419548034668,
          0.894216001033783,
          -0.8243196606636047,
          -0.358076810836792,
          0.40288954973220825,
          -0.5718770623207092,
          -0.5119218230247498,
          -0.31903672218322754,
          -0.7647425532341003,
          0.22256574034690857,
          -0.029150592163205147,
          1.045579433441162,
          -0.3758053779602051,
          -0.6906595230102539,
          -0.18502087891101837,
          -0.010109003633260727,
          -0.8628217577934265,
          -0.8102604150772095,
          0.615105390548706,
          -0.827354371547699,
          0.09362097829580307,
          -0.7329531908035278,
          -0.0688801184296608,
          0.03501738980412483,
          -0.47397640347480774,
          -0.34048691391944885,
          -0.15922145545482635,
          -0.16573330760002136,
          0.44064369797706604,
          -0.5293680429458618,
          -0.1494915634393692,
          0.7624661922454834,
          0.44209662079811096,
          -0.14929300546646118,
          -0.7518025636672974,
          0.42398375272750854,
          0.5622844696044922,
          0.33570408821105957,
          -0.01891099475324154,
          -0.1305595338344574,
          0.0995890200138092,
          -0.30090177059173584,
          0.15355631709098816,
          -0.43587687611579895,
          -0.41025659441947937,
          0.24255669116973877,
          0.7006229162216187,
          -0.9569768309593201,
          -0.20655062794685364,
          1.0607608556747437,
          1.1244858503341675,
          0.6885248422622681,
          -0.17266687750816345,
          -0.06702559441328049,
          -0.027316676452755928,
          -0.030389878898859024,
          -0.03851260989904404,
          0.4164632558822632,
          0.9354121088981628,
          -1.1503057479858398,
          0.20748144388198853,
          0.32103970646858215,
          -0.14637544751167297,
          -0.9419955611228943,
          -0.5904757380485535,
          0.51838219165802,
          0.3220463991165161,
          0.46629518270492554,
          -0.3607596457004547,
          -0.340766966342926,
          -0.22679822146892548,
          0.06306178122758865,
          0.3319169878959656,
          0.10299377888441086,
          -0.2893426716327667,
          -0.15096241235733032,
          -0.044983819127082825,
          0.3666049540042877,
          -0.7688462138175964,
          0.8402668833732605,
          0.7292972803115845,
          -0.5725318193435669,
          -0.4022015631198883,
          0.7145272493362427,
          -0.021325072273612022,
          -0.7808517813682556,
          0.1397518366575241,
          -0.7642106413841248,
          -0.5220747590065002,
          0.8448466062545776,
          0.03409998491406441,
          -0.226442351937294,
          0.21399421989917755,
          0.724780261516571,
          0.8653042912483215,
          0.22885139286518097,
          -0.39707285165786743,
          -0.25694167613983154,
          -0.28513598442077637,
          0.3008539080619812,
          -0.053060729056596756,
          0.8272301554679871,
          0.34294652938842773,
          -0.9759072065353394,
          0.7028407454490662,
          1.496648907661438,
          0.06687149405479431,
          -1.1967310905456543,
          -0.3908674716949463,
          -0.5686596035957336,
          0.328618586063385,
          0.2875567078590393,
          -0.1041552722454071,
          -0.1644417643547058,
          0.032675135880708694,
          -0.7951282262802124,
          -0.41614624857902527,
          0.12797337770462036,
          -0.19700893759727478,
          -0.3576413094997406,
          -0.3314547836780548,
          0.04586554691195488,
          -0.04500269889831543,
          -0.17029710114002228,
          0.08712694048881531,
          -0.4518062174320221,
          -0.052998773753643036,
          0.48882055282592773,
          -0.2052641212940216,
          -0.4742259085178375,
          -0.119572214782238,
          0.2937960922718048,
          0.378894567489624,
          0.21990430355072021,
          0.48462042212486267,
          -0.9329234957695007,
          0.13422070443630219,
          0.25038930773735046,
          0.4627496898174286,
          0.32073917984962463,
          -0.3533172607421875,
          -0.08459174633026123,
          0.07727870345115662,
          -0.38977521657943726,
          -0.439940869808197,
          0.07393407821655273,
          0.1729784905910492,
          -0.49295714497566223,
          -0.1431639939546585,
          0.42274102568626404,
          -0.06392953544855118,
          -0.4877769351005554,
          -0.006267457734793425,
          0.6794309616088867,
          0.33257967233657837,
          -0.08295252174139023,
          -0.9308947324752808,
          -0.09968288987874985,
          -0.3801726996898651,
          -0.36168524622917175,
          0.49075421690940857,
          -0.9686161279678345,
          0.07405328005552292,
          0.9412958025932312,
          0.38212624192237854,
          -0.18777641654014587,
          -1.2439227104187012,
          0.31233078241348267,
          0.8291786313056946,
          0.23520611226558685,
          0.23103253543376923,
          0.6831302046775818,
          -0.1960580199956894,
          -0.4162844717502594,
          0.16612593829631805,
          -0.5157261490821838,
          0.26667049527168274,
          -0.14528553187847137,
          0.19351817667484283,
          -0.274731308221817,
          0.07476634532213211,
          -0.30573275685310364,
          -0.21837684512138367,
          0.059321220964193344,
          0.17907080054283142,
          -0.019472774118185043,
          -0.006419273559004068,
          0.007650301326066256,
          -0.043639734387397766,
          -0.29820895195007324,
          -0.07975924015045166,
          0.10464458167552948,
          -0.2736007571220398,
          -0.17738069593906403,
          -0.17906107008457184,
          -0.16069139540195465,
          -0.021895790472626686,
          0.14377093315124512,
          -0.22864575684070587,
          1.0258855819702148,
          0.5034011006355286,
          -1.7855957746505737,
          0.18285274505615234,
          0.2680905759334564,
          0.27020499110221863,
          -0.13409864902496338,
          -1.4575196504592896,
          0.17347872257232666,
          -0.009296050295233727,
          -0.19705022871494293,
          -0.48407721519470215,
          0.21947599947452545,
          -0.25712987780570984,
          -0.09918458759784698,
          0.45325255393981934,
          1.2468516826629639,
          0.17810003459453583,
          -0.07316293567419052,
          0.11558914184570312,
          0.03573909401893616,
          0.5042322874069214,
          0.6454837322235107,
          -0.030960366129875183,
          -0.7093179821968079,
          -0.20579177141189575,
          0.04553767293691635,
          0.14350618422031403,
          -0.3264361619949341,
          -0.5898618102073669,
          0.17549464106559753,
          0.2140415608882904,
          0.005059302784502506,
          -1.0561864376068115,
          0.5107857584953308,
          0.33718106150627136,
          -0.12860707938671112,
          0.1459893137216568,
          0.6749613881111145,
          0.3569788634777069,
          -0.5165672898292542,
          0.24154113233089447,
          -0.19486595690250397,
          -0.6436268091201782,
          0.16774506866931915,
          -0.38548266887664795,
          0.0317508801817894,
          -0.88841712474823,
          0.49620524048805237,
          0.6688124537467957,
          -0.13953565061092377,
          -0.3493092656135559,
          0.520351767539978,
          0.034519556909799576,
          0.4057319462299347,
          0.14803668856620789,
          -0.3647387623786926,
          0.8798550367355347,
          -0.7383031249046326,
          0.039848003536462784,
          -0.23899954557418823,
          0.20990952849388123,
          -0.17757028341293335,
          -0.24498263001441956,
          -0.5112069249153137
        ]
      },
      "outputHidden": {
        "rows": 20,
        "columns": 20,
        "weights": [
          -0.30984261631965637,
          0.3659214377403259,
          -0.22333236038684845,
          -0.5254653096199036,
          0.7626878023147583,
          0.5761286616325378,
          -0.16990485787391663,
          -1.2221451997756958,
          -0.6221598386764526,
          0.14836819469928741,
          0.19559994339942932,
          1.1444319486618042,
          -0.7402164936065674,
          0.6542980670928955,
          0.3230453133583069,
          -0.16855917870998383,
          -0.42806851863861084,
          0.10686045140028,
          -1.259779453277588,
          0.3663848638534546,
          0.19807811081409454,
          0.8869784474372864,
          0.34500476717948914,
          0.6693898439407349,
          0.24977204203605652,
          0.9498210549354553,
          0.07107992470264435,
          -0.7494099140167236,
          -0.2879183888435364,
          0.5608339905738831,
          0.3401637375354767,
          0.3611081838607788,
          -0.44337454438209534,
          -0.7272933125495911,
          0.04394931346178055,
          1.0045650005340576,
          -0.5275666117668152,
          0.3109318017959595,
          -0.3243437707424164,
          0.30758076906204224,
          -0.7557639479637146,
          0.3448422849178314,
          -0.28390833735466003,
          -0.2097422480583191,
          0.6037749648094177,
          0.2048935443162918,
          0.7653548121452332,
          -0.3685873746871948,
          -0.4279375672340393,
          -0.21394814550876617,
          0.47497615218162537,
          0.8603720664978027,
          -0.09430447220802307,
          0.34689101576805115,
          0.5059396028518677,
          0.31769341230392456,
          -0.17416739463806152,
          0.1359272003173828,
          -0.728859543800354,
          0.5241382122039795,
          -0.6596084833145142,
          0.67381352186203,
          -0.34902775287628174,
          0.11835671216249466,
          0.43683937191963196,
          0.19380788505077362,
          -0.08874377608299255,
          -0.15147076547145844,
          -0.15978819131851196,
          0.17504176497459412,
          -0.396613210439682,
          0.5922861695289612,
          -0.8543605208396912,
          0.2685905396938324,
          -0.17205627262592316,
          0.665671169757843,
          0.22544752061367035,
          -0.41085121035575867,
          -0.5452080368995667,
          0.1935315877199173,
          0.43910178542137146,
          0.123640276491642,
          -0.14386190474033356,
          0.24791380763053894,
          0.3562661111354828,
          0.538017749786377,
          0.11247516423463821,
          -0.9305986166000366,
          -0.7424098253250122,
          0.5041279196739197,
          0.2686946392059326,
          0.5621976256370544,
          -0.7500720620155334,
          -0.2731156051158905,
          0.3747272789478302,
          -0.5177597403526306,
          -0.3524373173713684,
          -1.020381212234497,
          -0.7010815143585205,
          0.22162199020385742,
          -0.4560776650905609,
          0.0022484243381768465,
          -0.7383343577384949,
          0.1449812352657318,
          0.4921904504299164,
          -0.1752319633960724,
          -0.5164356231689453,
          -0.1715378314256668,
          -0.4085383117198944,
          -0.10970950871706009,
          -0.29061806201934814,
          0.551078736782074,
          -0.04609638825058937,
          -0.18065233528614044,
          -0.5227985978126526,
          0.6398595571517944,
          -0.6756665706634521,
          -0.8224707245826721,
          -0.4188097417354584,
          -0.09575735032558441,
          -1.0297186374664307,
          0.05193594470620155,
          -0.9470757842063904,
          -0.49385973811149597,
          0.8937389254570007,
          1.087072730064392,
          -0.36373329162597656,
          -1.29581618309021,
          -1.390064001083374,
          0.23077236115932465,
          -0.921370804309845,
          1.0584278106689453,
          -0.23783990740776062,
          -0.04136321693658829,
          -0.43886709213256836,
          0.12064538896083832,
          -0.36240842938423157,
          -1.1372333765029907,
          -0.5103546977043152,
          0.47030213475227356,
          -0.561496376991272,
          0.21388186514377594,
          0.12626194953918457,
          0.4286275804042816,
          0.7355504035949707,
          0.061636075377464294,
          0.8655759692192078,
          -0.27199697494506836,
          -0.41805389523506165,
          0.06020534783601761,
          0.76854008436203,
          0.787243127822876,
          -0.1390494704246521,
          -0.6818450689315796,
          0.03496239706873894,
          0.04311772435903549,
          0.027634400874376297,
          0.5413344502449036,
          -0.7760367393493652,
          0.7870872616767883,
          -0.3410068154335022,
          0.06389603763818741,
          0.11747884005308151,
          0.46600937843322754,
          0.7120206356048584,
          0.16418145596981049,
          0.7531723976135254,
          -0.052323970943689346,
          -0.5285544991493225,
          -0.3283750116825104,
          0.8248411417007446,
          0.7329486608505249,
          -0.28781041502952576,
          -0.5928272008895874,
          -0.26360225677490234,
          0.9307175874710083,
          0.4281143248081207,
          0.4609195291996002,
          -0.5844765901565552,
          0.7352510094642639,
          0.11536570638418198,
          0.2908761501312256,
          0.5636571645736694,
          1.074864387512207,
          0.6991879940032959,
          -0.01635235920548439,
          0.2357393205165863,
          -0.24557605385780334,
          -0.6515854597091675,
          -0.0066139050759375095,
          0.4906047284603119,
          0.6125569939613342,
          -0.1755593717098236,
          -1.319640874862671,
          -0.3733326494693756,
          0.8101275563240051,
          0.21393506228923798,
          0.2233123481273651,
          -0.711006760597229,
          0.5684311985969543,
          -0.7203684449195862,
          0.33846941590309143,
          0.15592682361602783,
          -0.25571146607398987,
          0.9501979351043701,
          -0.35938510298728943,
          0.9069828987121582,
          -0.04011450335383415,
          -1.5918995141983032,
          -0.4830077588558197,
          0.39136409759521484,
          1.5942096710205078,
          0.15939576923847198,
          0.04975837469100952,
          0.36949801445007324,
          0.649379312992096,
          0.8291208744049072,
          0.38606706261634827,
          -1.4561291933059692,
          -0.34831735491752625,
          -0.5938145518302917,
          0.2710925042629242,
          0.0842370092868805,
          -0.008731941692531109,
          1.1206927299499512,
          0.2424543797969818,
          0.3251814544200897,
          -0.6611789464950562,
          -0.8126046657562256,
          -0.35613030195236206,
          0.5396375060081482,
          1.7161476612091064,
          -0.5251680016517639,
          0.14879190921783447,
          1.1605793237686157,
          -0.810947060585022,
          0.8962193727493286,
          0.07950295507907867,
          -1.6867210865020752,
          0.18616312742233276,
          -0.5259974598884583,
          0.629641056060791,
          -0.08100411295890808,
          0.2608017325401306,
          0.1890871822834015,
          0.670468270778656,
          -0.14881911873817444,
          -0.7408446073532104,
          -0.17463403940200806,
          0.22350691258907318,
          -0.05715607851743698,
          0.5073978304862976,
          -0.3674495816230774,
          -0.3416067361831665,
          0.25898128747940063,
          -0.12160065025091171,
          -0.2744697332382202,
          0.06114727631211281,
          -0.40704604983329773,
          -0.40122443437576294,
          -0.9548999071121216,
          0.06783678382635117,
          -0.2754775285720825,
          -0.6654052734375,
          0.2813591957092285,
          0.5847247242927551,
          -0.4937598407268524,
          -0.6576054096221924,
          -0.20553500950336456,
          -0.08970817178487778,
          -0.8643335103988647,
          0.34394100308418274,
          -0.7619385123252869,
          0.9850107431411743,
          0.14272092282772064,
          0.5037238597869873,
          0.7296909093856812,
          -0.5133650302886963,
          -0.605387806892395,
          0.5628414154052734,
          -0.7288073301315308,
          -0.04346354305744171,
          -0.4894029498100281,
          -0.47796568274497986,
          0.8415793180465698,
          0.8372730612754822,
          1.2721823453903198,
          -1.3728160858154297,
          -1.329947829246521,
          -0.27835333347320557,
          1.271355152130127,
          1.5954515933990479,
          -0.29919853806495667,
          -0.32508713006973267,
          1.3358198404312134,
          0.14523626863956451,
          0.8232985734939575,
          -0.34346723556518555,
          -1.2681301832199097,
          0.5033098459243774,
          -0.05141301453113556,
          0.4816533327102661,
          -0.34643784165382385,
          0.44229087233543396,
          0.5530951619148254,
          0.5395873188972473,
          -1.1211483478546143,
          -0.39246639609336853,
          -1.0807287693023682,
          0.31854352355003357,
          -0.3684751093387604,
          0.288519024848938,
          -1.0906097888946533,
          -0.5388763546943665,
          -0.09206066280603409,
          0.7590070962905884,
          -0.37572428584098816,
          -0.4720284938812256,
          -0.3490581214427948,
          0.46679016947746277,
          -0.8037877678871155,
          0.2130025029182434,
          -0.04330918565392494,
          -1.0255694389343262,
          1.6871305704116821,
          0.27457723021507263,
          1.2435133457183838,
          -0.8989966511726379,
          -1.2703415155410767,
          -0.0727573111653328,
          0.6778238415718079,
          1.8913929462432861,
          -0.3267570436000824,
          -0.01354898139834404,
          0.8308321237564087,
          0.06557796150445938,
          1.060359239578247,
          0.08095843344926834,
          -1.7329660654067993,
          0.3712635934352875,
          -0.3767169713973999,
          1.0645301342010498,
          -0.33987781405448914,
          0.7880313992500305,
          -0.2611537575721741,
          0.47771257162094116,
          -0.44313931465148926,
          -0.7428154945373535,
          -0.5406031012535095,
          0.045556917786598206,
          -0.1407923400402069,
          0.29192620515823364,
          0.6425758004188538,
          -0.8529917597770691,
          -1.2362899780273438,
          1.0535941123962402,
          -0.7445952296257019,
