{
  "type": "LSTM",
  "options": {
    "inputSize": 18,
    "inputRange": 18,
    "hiddenLayers": [
      20,
      20
    ],
    "outputSize": 18,
    "decayRate": 0.999,
    "smoothEps": 1e-8,
    "regc": 0.000001,
    "clipval": 5,
    "maxPredictionLength": 100,
    "dataFormatter": {
      "indexTable": {
        "a": 0,
        "h": 1,
        "e": 2,
        "r": 3,
        "i": 4,
        "u": 5,
        "k": 6,
        "t": 7,
        "m": 8,
        "o": 9,
        "n": 10,
        "g": 11,
        "w": 12,
        "p": 13,
        "y": 14,
        "-": 15,
        " ": 16,
        "unrecognized": 17
      },
      "characterTable": {
        "0": "a",
        "1": "h",
        "2": "e",
        "3": "r",
        "4": "i",
        "5": "u",
        "6": "k",
        "7": "t",
        "8": "m",
        "9": "o",
        "10": "n",
        "11": "g",
        "12": "w",
        "13": "p",
        "14": "y",
        "15": "-",
        "16": " ",
        "17": null
      },
      "values": [
        "ahera",
        "ahia",
        "ahuru",
        "aika",
        "aketu",
        "amako",
        "amiri",
        "amonga",
        "anaru",
        "anewa",
        "arama",
        "ariki",
        "atama",
        "atua",
        "eau",
        "eiwi",
        "ekara",
        "eraka",
        "erehe",
        "erepu",
        "erorangi",
        "eru",
        "eruera",
        "eteka",
        "eti",
        "hakara",
        "hamahona",
        "hamakona",
        "hamonga",
        "hangakore",
        "hani",
        "hanu",
        "hare",
        "haru",
        "hemi",
        "heriko",
        "hirini",
        "hohepa",
        "hori",
        "huatare",
        "iaka",
        "ianga",
        "ikei",
        "imua",
        "io",
        "iramai",
        "itu",
        "kae",
        "kahi",
        "kahorere",
        "kauri",
        "kea",
        "keka",
        "kiki",
        "kingi",
        "kiri",
        "kiwi",
        "koro",
        "maaka",
        "mahora",
        "maiope",
        "maipi",
        "mairo",
        "maka",
        "manu",
        "marama",
        "maro",
        "matewa",
        "mirama",
        "moana",
        "mokihi",
        "nahi",
        "naihi",
        "nanui",
        "napo",
        "natana",
        "nyree",
        "okiara",
        "opi",
        "oraora",
        "ori",
        "otikoro",
        "paau",
        "pahu",
        "paipa",
        "paipau",
        "paiwa",
        "paiwai",
        "pakanga",
        "paki-iwi",
        "pana",
        "pango",
        "paora",
        "petera",
        "piki",
        "pita",
        "poto",
        "puta",
        "raiepe",
        "raione",
        "rana",
        "rangi",
        "raru",
        "rawiri",
        "rera",
        "rewi",
        "rongo",
        "rua",
        "ruhi",
        "ruki",
        "ruru",
        "taanga",
        "taaura",
        "tahiwai",
        "taipo",
        "tama",
        "tamati",
        "tana",
        "tane",
        "tangaroa",
        "taonga",
        "tapu",
        "tiki",
        "tipene",
        "tua",
        "tuna",
        "tupai",
        "turi",
        "uamutu",
        "ungu",
        "uniki",
        "urepa",
        "urepo",
        "uru reio",
        "uru tonga",
        "urutu",
        "waiapi",
        "waiara",
        "waraki",
        "whiro",
        "wiremu",
        "witi"
      ],
      "characters": [
        "a",
        "h",
        "e",
        "r",
        "i",
        "u",
        "k",
        "t",
        "m",
        "o",
        "n",
        "g",
        "w",
        "p",
        "y",
        "-",
        " ",
        "unrecognized"
      ],
      "specialIndexes": [
        17
      ]
    }
  },
  "trainOpts": {
    "iterations": "10000",
    "errorThresh": "0.05",
    "log": false,
    "logPeriod": 1,
    "learningRate": "0.0001",
    "callbackPeriod": 1,
    "timeout": "Infinity",
    "activation": "tanh"
  },
  "input": {
    "rows": 19,
    "columns": 18,
    "weights": [
      -0.3225042223930359,
      -1.1425787210464478,
      0.27898886799812317,
      0.5543840527534485,
      0.8123925924301147,
      0.359817773103714,
      0.6944544911384583,
      -0.40548571944236755,
      0.12989559769630432,
      -0.45516663789749146,
      -0.05378482863306999,
      0.020692044869065285,
      -0.9025560617446899,
      0.12430998682975769,
      0.495344340801239,
      -0.5737343430519104,
      0.22976331412792206,
      0.046840935945510864,
      3.1051387786865234,
      -1.287806749343872,
      -0.21007369458675385,
      -0.7065390348434448,
      -0.45437684655189514,
      0.9848418831825256,
      0.043223608285188675,
      -2.5455234050750732,
      -2.0575478076934814,
      -1.593389630317688,
      0.7602921724319458,
      -1.1704552173614502,
      -0.9667409658432007,
      -0.3740991950035095,
      -0.9492803812026978,
      0.03645486384630203,
      -0.28835517168045044,
      2.6215128898620605,
      -0.6543577909469604,
      0.9579948782920837,
      0.8975098729133606,
      2.860581398010254,
      2.8470425605773926,
      0.6184750199317932,
      -1.9894633293151855,
      0.9712346792221069,
      -0.7326541543006897,
      -1.7330284118652344,
      2.3061912059783936,
      -4.992856502532959,
      0.9556223154067993,
      0.7974578738212585,
      0.27105244994163513,
      -1.1424803733825684,
      -1.6402724981307983,
      0.04701562970876694,
      1.8499201536178589,
      0.10194972902536392,
      -0.8162996768951416,
      -0.5988509058952332,
      -1.9590282440185547,
      -1.053186058998108,
      -0.6468415856361389,
      -1.7117093801498413,
      -0.942604660987854,
      -1.2604236602783203,
      2.846691846847534,
      1.91046941280365,
      -1.7038675546646118,
      0.8989012241363525,
      0.6404298543930054,
      -0.7116600871086121,
      -0.7327758073806763,
      3.024700403213501,
      -1.1419858932495117,
      -2.1696105003356934,
      -0.7199274301528931,
      0.013569147326052189,
      -0.2043164223432541,
      0.6932410001754761,
      -2.470515012741089,
      0.8054778575897217,
      0.28834572434425354,
      0.45950081944465637,
      1.0876325368881226,
      -2.670438289642334,
      -0.17217397689819336,
      1.1886179447174072,
      1.1569392681121826,
      -0.8090031147003174,
      0.11353462934494019,
      1.7630622386932373,
      3.953655481338501,
      -0.9508485794067383,
      -0.42190828919410706,
      -0.3660939931869507,
      0.8141972422599792,
      3.483389377593994,
      -1.2917790412902832,
      -2.237914562225342,
      -2.83329176902771,
      -2.4785044193267822,
      -0.3432959020137787,
      -1.7106561660766602,
      -2.957141637802124,
      -1.7255293130874634,
      -0.3489772081375122,
      1.4384740591049194,
      0.2513951361179352,
      2.60280179977417,
      2.745422124862671,
      0.4499306380748749,
      -0.08039101958274841,
      -0.7762205600738525,
      -0.9592809677124023,
      -0.9470357298851013,
      -0.42433086037635803,
      -2.6647403240203857,
      -0.7114403247833252,
      -1.9693845510482788,
      2.3148229122161865,
      -0.5069932341575623,
      -0.026220200583338737,
      0.20139919221401215,
      1.6966296434402466,
      -0.8787624835968018,
      -1.5648573637008667,
      1.511960744857788,
      -0.4034704864025116,
      -0.639414370059967,
      -0.3523090183734894,
      -0.9046710133552551,
      -0.32675644755363464,
      -0.9539148211479187,
      0.3389471471309662,
      -1.261724829673767,
      -1.3986854553222656,
      -1.3906378746032715,
      0.5243162512779236,
      -1.2774732112884521,
      0.683287501335144,
      1.6228716373443604,
      1.053239107131958,
      -3.3523709774017334,
      1.11237370967865,
      1.5543321371078491,
      5.543782711029053,
      -1.0333564281463623,
      -2.4620447158813477,
      -0.5397510528564453,
      -0.3880828619003296,
      2.99088978767395,
      0.3994045555591583,
      -0.6984420418739319,
      -2.0350840091705322,
      -2.1679959297180176,
      0.12188943475484848,
      -2.6221137046813965,
      -2.2497286796569824,
      -0.1877991259098053,
      0.9562405347824097,
      -0.40567824244499207,
      -1.5184155702590942,
      2.772697925567627,
      2.42263126373291,
      -4.418912410736084,
      0.6241333484649658,
      -0.3264768719673157,
      -1.3971456289291382,
      0.44753366708755493,
      0.35102975368499756,
      -5.4737749099731445,
      -3.3921687602996826,
      -2.7132315635681152,
      0.3853190839290619,
      -0.36578476428985596,
      -1.4457749128341675,
      -1.9043346643447876,
      0.43800443410873413,
      0.6723706722259521,
      0.24715828895568848,
      5.270832061767578,
      3.55206036567688,
      -2.30313777923584,
      0.9502999782562256,
      0.07984887808561325,
      0.1540568321943283,
      1.481797695159912,
      -0.30484694242477417,
      -1.2073627710342407,
      -2.113274335861206,
      -0.9691995978355408,
      0.6965597867965698,
      -2.486701250076294,
      -2.294522523880005,
      -0.4316559135913849,
      0.5553362369537354,
      0.3292265236377716,
      -1.5052974224090576,
      3.427480697631836,
      6.337811470031738,
      -3.208885431289673,
      1.0464059114456177,
      -2.927813768386841,
      -0.13791123032569885,
      1.2706140279769897,
      -0.3261588513851166,
      -0.11946254968643188,
      -0.9825517535209656,
      -2.9491255283355713,
      -2.39957594871521,
      -4.0658488273620605,
      -1.396337628364563,
      -0.6787765026092529,
      -2.1408915519714355,
      2.3899009227752686,
      0.2652033567428589,
      0.4220344126224518,
      0.9469425082206726,
      0.4519816040992737,
      -3.229121685028076,
      0.9002240300178528,
      -0.0372580848634243,
      -0.15803933143615723,
      0.9935557246208191,
      2.9349989891052246,
      -2.1308977603912354,
      -0.03604189679026604,
      2.640674352645874,
      -1.9155592918395996,
      -0.6929570436477661,
      0.0025740345008671284,
      0.48283258080482483,
      -0.7845675945281982,
      -0.5895013809204102,
      -1.0504077672958374,
      1.2060985565185547,
      0.11798781156539917,
      -2.1219534873962402,
      -2.002246856689453,
      0.04789190739393234,
      -2.6959259510040283,
      -0.7371630668640137,
      -1.2995442152023315,
      -0.8772566318511963,
      -2.399886131286621,
      -2.2409067153930664,
      0.6428933143615723,
      -0.7570849061012268,
      -0.7869464755058289,
      2.3694581985473633,
      -0.6799066066741943,
      9.97669506072998,
      2.7593467235565186,
      2.574423313140869,
      0.22020523250102997,
      -3.8435287475585938,
      -0.20505866408348083,
      -0.5470297932624817,
      1.8288527727127075,
      2.0994937419891357,
      0.5637691617012024,
      0.05131467431783676,
      -1.4774401187896729,
      -0.6856238842010498,
      0.7540367245674133,
      -1.9578206539154053,
      -1.5251867771148682,
      1.9396623373031616,
      -1.084704041481018,
      -1.0319637060165405,
      -3.4156105518341064,
      3.1854143142700195,
      -21.142301559448242,
      4.859294891357422,
      1.3857969045639038,
      -18.751291275024414,
      -1.9529342651367188,
      -12.757208824157715,
      1.4532620906829834,
      -23.070743560791016,
      -13.08942699432373,
      4.7674784660339355,
      -1.7758324146270752,
      3.678001642227173,
      0.9428206086158752,
      -10.493681907653809,
      -9.638858795166016,
      1.9946987628936768,
      9.581880569458008,
      -3.2512576580047607,
      -0.635788083076477,
      -9.69897747039795,
      1.6510446071624756,
      6.444316864013672,
      6.353259086608887,
      1.2832907438278198,
      5.161243438720703,
      1.4818358421325684,
      -9.149483680725098,
      -18.6888427734375,
      -8.158320426940918,
      10.354912757873535,
      -3.682007312774658,
      -0.3852345943450928,
      3.948268175125122,
      7.5347981452941895,
      -18.959346771240234,
      1.3581851720809937,
      -4.502050876617432,
      -0.8318284153938293,
      2.1723361015319824,
      12.573890686035156,
      3.842693567276001,
      1.5959502458572388,
      -0.3769631087779999,
      -3.243518114089966,
      5.619305610656738,
      -0.7563143968582153,
      0.10530415922403336,
      4.156954288482666,
      -0.7260736227035522,
      8.317904472351074,
      -17.67660903930664,
      -6.046414852142334,
      -0.5466525554656982,
      -0.011307704262435436,
      0.014063440263271332,
      0.009459865279495716,
      0.0021369140595197678,
      0.013154345564544201,
      -0.00003991235280409455,
      0.006828306242823601,
      0.017655586823821068,
      0.006623095832765102,
      0.004481469746679068,
      -0.013486374169588089,
      -0.007738081272691488,
      0.01592576876282692,
      -0.0031787282787263393,
      -0.018679603934288025,
      -0.00015744895790703595,
      0.005936491768807173,
      -0.012004858814179897
    ]
  },
  "hiddenLayers": [
    {
      "inputMatrix": {
        "rows": 20,
        "columns": 18,
        "weights": [
          0.08171490579843521,
          -0.34252405166625977,
          -0.3259832561016083,
          0.6651394367218018,
          -0.214511439204216,
          0.2303854078054428,
          0.14158757030963898,
          -0.26950839161872864,
          0.03709058091044426,
          -0.07137472182512283,
          0.08287698030471802,
          -0.1117899939417839,
          -0.17314158380031586,
          0.17956046760082245,
          0.7218673229217529,
          -0.5197798609733582,
          0.28867456316947937,
          -0.1619332879781723,
          0.11916094273328781,
          -0.13961243629455566,
          0.4361801743507385,
          -0.13060429692268372,
          0.20732960104942322,
          -0.05601220205426216,
          0.5595511794090271,
          -0.26262161135673523,
          0.08485527336597443,
          -0.6625955700874329,
          -0.11766824871301651,
          -0.015367344953119755,
          -0.551098644733429,
          0.02520141191780567,
          -0.0031916401349008083,
          0.09011461585760117,
          0.12577210366725922,
          -0.14023363590240479,
          -0.4938971698284149,
          -0.8861939907073975,
          0.1058419793844223,
          -0.06039822846651077,
          0.2174035608768463,
          -0.4794328212738037,
          0.09351547807455063,
          -0.44863295555114746,
          -0.05874402076005936,
          -0.20999115705490112,
          0.38563045859336853,
          0.0752996951341629,
          -0.16809269785881042,
          -0.11629877239465714,
          -0.09024215489625931,
          -0.30870136618614197,
          -0.35816696286201477,
          0.16670554876327515,
          -0.09871948510408401,
          -0.058101143687963486,
          0.22928881645202637,
          0.5460749268531799,
          -0.1508924514055252,
          -0.06142446771264076,
          -0.5352877974510193,
          0.1074419841170311,
          0.266359806060791,
          0.020777612924575806,
          -0.5488789677619934,
          -0.0003485507913865149,
          -0.9748148918151855,
          0.46409884095191956,
          0.42624416947364807,
          -0.7210849523544312,
          0.024691445752978325,
          -0.4547528326511383,
          -0.030102770775556564,
          -0.9596708416938782,
          -0.340527206659317,
          0.5367046594619751,
          -0.011839336715638638,
          -0.16605667769908905,
          0.8829504251480103,
          -0.6190178990364075,
          0.15096870064735413,
          0.13409917056560516,
          0.5504347085952759,
          -0.013864257372915745,
          0.0594593808054924,
          0.2522070109844208,
          0.020231226459145546,
          -0.40061986446380615,
          0.2456313520669937,
          -0.2232176810503006,
          -0.21767038106918335,
          -0.330029159784317,
          -0.42987143993377686,
          0.4612428843975067,
          0.3846689462661743,
          0.13555097579956055,
          0.3409190773963928,
          -0.47912082076072693,
          0.19830559194087982,
          0.34367048740386963,
          -0.11312653124332428,
          -0.11052629351615906,
          -0.18995630741119385,
          0.07922878861427307,
          0.2802410423755646,
          -0.4069722592830658,
          -0.00628978805616498,
          -0.17662183940410614,
          -0.05614745244383812,
          -0.10789521783590317,
          0.21854938566684723,
          0.3453295826911926,
          -0.2607888877391815,
          -0.005210211034864187,
          -0.12748272716999054,
          0.25118324160575867,
          -0.3910597562789917,
          -0.6407365202903748,
          0.05470404773950577,
          -0.1918114721775055,
          -0.3570365607738495,
          -0.1407432109117508,
          0.6829834580421448,
          -0.6328303217887878,
          0.6778115630149841,
          -0.22566302120685577,
          0.038860417902469635,
          -0.02939002402126789,
          0.3989222049713135,
          0.7140812873840332,
          -0.02220604382455349,
          0.3874208629131317,
          -0.03486499935388565,
          0.0895947590470314,
          0.03336482495069504,
          0.24395284056663513,
          -0.3341142535209656,
          -0.23356318473815918,
          -0.4921592175960541,
          0.28896746039390564,
          0.8269660472869873,
          -0.3840724527835846,
          0.026541925966739655,
          -0.2805142104625702,
          0.24484883248806,
          0.02130451239645481,
          0.20741847157478333,
          -0.37041616439819336,
          -0.5332139134407043,
          0.2794826030731201,
          0.19301649928092957,
          -0.03739836439490318,
          0.23630475997924805,
          -0.7968255877494812,
          -0.005420358385890722,
          0.21629825234413147,
          -0.10898809880018234,
          -0.09634264558553696,
          0.044891390949487686,
          0.45174840092658997,
          -0.09703037887811661,
          -0.155105322599411,
          -0.22123925387859344,
          0.10156302899122238,
          0.35587596893310547,
          0.3340952694416046,
          -0.04021761566400528,
          -0.10978396981954575,
          -0.18979455530643463,
          0.12857499718666077,
          0.328919380903244,
          -0.16468466818332672,
          -0.3118191361427307,
          -0.3616195023059845,
          -0.9772934913635254,
          -0.5452726483345032,
          0.13644854724407196,
          -0.553390383720398,
          0.9102118015289307,
          -0.15451812744140625,
          -0.2344016134738922,
          -0.04515387862920761,
          0.6021929979324341,
          0.17482908070087433,
          0.24091652035713196,
          -0.02477078326046467,
          -0.038438908755779266,
          0.16974575817584991,
          -0.43912580609321594,
          -0.2273384928703308,
          -0.1654006540775299,
          -0.07462991029024124,
          -0.5329375863075256,
          0.34711819887161255,
          0.03333864361047745,
          -0.7716990113258362,
          -0.007046450395137072,
          -0.33874747157096863,
          0.6222804188728333,
          -0.2719826400279999,
          0.1501404196023941,
          0.2987448573112488,
          -0.08409310132265091,
          0.030515287071466446,
          0.4302693009376526,
          -0.37651023268699646,
          0.27456575632095337,
          -0.35515791177749634,
          -0.044523339718580246,
          0.059718310832977295,
          -0.16759714484214783,
          0.4673307538032532,
          0.7219409942626953,
          -0.24465309083461761,
          -0.07718265056610107,
          -0.42555463314056396,
          0.4908665418624878,
          -0.13914062082767487,
          -0.2540946304798126,
          0.19176271557807922,
          -0.3154807984828949,
          0.1989804357290268,
          -0.16053050756454468,
          -0.4426911771297455,
          0.12325185537338257,
          0.017439397051930428,
          -0.15223829448223114,
          -0.43736889958381653,
          -0.05872458964586258,
          -0.5190140008926392,
          -0.33802300691604614,
          -0.23452356457710266,
          0.049882613122463226,
          0.05677536502480507,
          0.09543094038963318,
          -0.24057906866073608,
          -0.42956072092056274,
          0.06034934148192406,
          -0.361595094203949,
          -0.3484261631965637,
          0.08344084769487381,
          -0.13114331662654877,
          0.3678111433982849,
          0.3882741332054138,
          0.311442494392395,
          -0.14452137053012848,
          0.13347811996936798,
          0.814641535282135,
          0.1633625030517578,
          -0.5909691452980042,
          0.06312347948551178,
          -0.38889771699905396,
          -0.18010956048965454,
          -1.372437834739685,
          -0.1317225992679596,
          0.15224388241767883,
          0.03014250285923481,
          -0.9241042733192444,
          0.9008643627166748,
          -0.4564436674118042,
          -0.34341347217559814,
          0.1528075635433197,
          0.09933412075042725,
          -0.42281365394592285,
          0.2752647399902344,
          -0.05534191057085991,
          0.5731202960014343,
          -0.7995736598968506,
          0.8592321872711182,
          -0.3352420926094055,
          -0.1411660611629486,
          -0.21724249422550201,
          0.5154495239257812,
          -0.2583254277706146,
          0.7468137145042419,
          -0.5650778412818909,
          0.17884857952594757,
          -0.1278892457485199,
          -0.6454614996910095,
          -0.22955024242401123,
          0.1462181955575943,
          0.1350785791873932,
          -0.148481547832489,
          0.3831188678741455,
          0.5053921937942505,
          -0.7214027643203735,
          0.3020772635936737,
          -0.25700247287750244,
          0.06879351288080215,
          0.09059473872184753,
          0.1715758591890335,
          0.09714919328689575,
          -0.20411092042922974,
          -0.00779091427102685,
          -0.4310930371284485,
          0.20368090271949768,
          -0.4955816864967346,
          -0.6987617015838623,
          0.23546813428401947,
          -0.11921097338199615,
          0.051295362412929535,
          -0.05057171732187271,
          0.21626940369606018,
          0.031704653054475784,
          0.4662517309188843,
          0.03708729147911072,
          -0.13868582248687744,
          0.08165689557790756,
          -0.06211414933204651,
          0.34292072057724,
          -0.28869351744651794,
          0.13388654589653015,
          -0.2709176540374756,
          0.22791944444179535,
          -0.47832196950912476,
          -0.42048388719558716,
          0.855522096157074,
          -0.2391502410173416,
          0.24355153739452362,
          -0.18683061003684998,
          0.06681037694215775,
          0.021566810086369514,
          -0.6431199312210083,
          0.0071467449888587,
          -0.05913148820400238,
          -0.1269034445285797,
          0.10724755376577377,
          0.1502983272075653,
          0.21911217272281647,
          -0.08216529339551926,
          0.18797621130943298,
          0.01160481758415699,
          -0.17224228382110596,
          -0.3862416446208954,
          0.0689225047826767,
          -0.1572292000055313,
          -0.6391681432723999,
          0.09242040663957596,
          0.39663320779800415,
          -0.433737576007843,
          0.7808620929718018,
          0.030696747824549675,
          0.05952532961964607,
          -0.3583216965198517,
          -0.5656744241714478,
          -0.1930382400751114,
          0.6281933784484863,
          -0.37401044368743896,
          0.5653122663497925,
          -0.2970597743988037,
          0.012450038455426693,
          0.5681452751159668,
          -0.36656102538108826,
          -0.12448811531066895,
          0.009831522591412067,
          0.5674553513526917,
          0.0255973432213068,
          -0.12094583362340927,
          -0.047201938927173615,
          0.32692188024520874
        ]
      },
      "inputHidden": {
        "rows": 20,
        "columns": 20,
        "weights": [
          -0.9571856260299683,
          -0.4502817392349243,
          -2.3486292362213135,
          0.43865662813186646,
          -0.5202112793922424,
          0.4486020505428314,
          -0.6466589570045471,
          0.07788591086864471,
          -0.2710409164428711,
          -0.6866741180419922,
          -0.6349536180496216,
          -0.19570140540599823,
          0.33181998133659363,
          -0.09657662361860275,
          -1.2509781122207642,
          0.508193850517273,
          0.05133727192878723,
          0.30050721764564514,
          -0.15189914405345917,
          -0.2723957896232605,
          -0.5258566737174988,
          0.3745279014110565,
          0.47908642888069153,
          -0.23482199013233185,
          0.23678909242153168,
          0.18686197698116302,
          -0.4212099611759186,
          -0.3538888096809387,
          0.46372708678245544,
          0.0059652626514434814,
          0.16482403874397278,
          -0.11766029894351959,
          -0.4147225320339203,
          -0.629096269607544,
          -0.2657029330730438,
          0.098907470703125,
          -0.13117064535617828,
          0.4432465136051178,
          0.28702786564826965,
          0.06458745896816254,
          -0.12717771530151367,
          0.4041546881198883,
          0.9082227945327759,
          -0.8962305784225464,
          0.0442972332239151,
          -0.092847540974617,
          0.15581537783145905,
          -0.043535009026527405,
          0.9699034094810486,
          0.8705680966377258,
          0.1874963492155075,
          -0.30282512307167053,
          -1.3232265710830688,
          -0.14750206470489502,
          0.08305372297763824,
          0.3744819462299347,
          0.6440233588218689,
          -0.2490195780992508,
          0.19350232183933258,
          0.04705476388335228,
          -1.1423405408859253,
          0.48700782656669617,
          -0.9059036374092102,
          -0.6075625419616699,
          -0.9787735342979431,
          0.9007097482681274,
          -0.8096478581428528,
          -0.4437496066093445,
          -0.2795126140117645,
          -0.07779116928577423,
          0.13196133077144623,
          -0.23878833651542664,
          -0.8449736833572388,
          1.2417898178100586,
          -0.2638690173625946,
          -0.017384806647896767,
          0.2631903886795044,
          0.05865372344851494,
          0.08753018826246262,
          -0.36253267526626587,
          0.47205880284309387,
          0.3001563549041748,
          -1.132596731185913,
          -0.1247149407863617,
          0.3346088230609894,
          -0.2487889677286148,
          0.1652490794658661,
          -0.6233569383621216,
          -0.055985040962696075,
          0.33236417174339294,
          -0.7193887233734131,
          1.2996186017990112,
          0.2502058744430542,
          0.38354992866516113,
          -0.08166128396987915,
          -0.20219352841377258,
          -0.5352901220321655,
          0.28486403822898865,
          0.2790592610836029,
          -0.553482174873352,
          -0.2836747169494629,
          0.13129127025604248,
          0.03153602033853531,
          -0.7717016935348511,
          -0.17778775095939636,
          0.02477153390645981,
          -1.0334588289260864,
          -0.20153863728046417,
          0.31051263213157654,
          0.025107702240347862,
          -0.5089200139045715,
          -0.5759752988815308,
          0.3015502989292145,
          0.35209739208221436,
          -0.06682123988866806,
          0.16662780940532684,
          0.5728367567062378,
          0.9463578462600708,
          0.04199895262718201,
          0.9968703389167786,
          0.5386853814125061,
          -0.19945712387561798,
          0.9055613279342651,
          0.11627279222011566,
          0.0008342295186594129,
          0.10717807710170746,
          -0.23423661291599274,
          0.2738872766494751,
          -0.1357014775276184,
          -0.0636555477976799,
          0.13600830733776093,
          0.34254056215286255,
          -0.2271500527858734,
          0.11252663284540176,
          -0.22893410921096802,
          0.25025761127471924,
          -0.5462196469306946,
          0.31437793374061584,
          1.1786450147628784,
          0.9182844758033752,
          1.5626229047775269,
          1.068625807762146,
          0.43537572026252747,
          0.4714232385158539,
          -0.722623884677887,
          0.08276841044425964,
          -0.8370034694671631,
          -1.1738799810409546,
          0.09671945124864578,
          -0.5598016977310181,
          -0.43185707926750183,
          0.8574790358543396,
          -0.501318097114563,
          -0.5862645506858826,
          -0.4098341166973114,
          -0.09165399521589279,
          -0.05740460380911827,
          0.3757424056529999,
          0.4046685993671417,
          -0.012467495165765285,
          0.1109032928943634,
          -0.14981454610824585,
          -0.3280613124370575,
          0.5422345995903015,
          0.0545782633125782,
          0.32334232330322266,
          0.36624616384506226,
          -0.7867691516876221,
          1.0943474769592285,
          -0.8286184668540955,
          -0.07936310023069382,
          0.9441508650779724,
          -0.17985883355140686,
          0.2569388747215271,
          -0.7831965088844299,
          -0.782884955406189,
          -0.45321226119995117,
          -0.5409623980522156,
          -0.04575686529278755,
          -0.18307174742221832,
          0.3891407549381256,
          0.6615889072418213,
          0.3970809280872345,
          -0.7702397108078003,
          0.11933650076389313,
          0.2445582002401352,
          -0.06019722670316696,
          -1.2447304725646973,
          -0.10702641308307648,
          0.39729660749435425,
          -0.14215634763240814,
          -0.20882269740104675,
          -0.40075618028640747,
          0.5598378777503967,
          0.17432641983032227,
          0.34910550713539124,
          1.3078501224517822,
          0.871299684047699,
          0.648978054523468,
          0.11316516995429993,
          -0.6369868516921997,
          0.023647114634513855,
          0.2956202030181885,
          -1.372931718826294,
          0.40099483728408813,
          -0.16692425310611725,
          1.1288769245147705,
          -0.38878217339515686,
          0.7118088603019714,
          0.41475969552993774,
          0.33096927404403687,
          0.733216404914856,
          -0.2052522748708725,
          0.6641480326652527,
          -0.602034330368042,
          0.17832274734973907,
          -0.4206784665584564,
          0.13558721542358398,
          0.9573283791542053,
          0.26217523217201233,
          -0.44582003355026245,
          0.12432754784822464,
          0.3342982232570648,
          0.4197368323802948,
          0.4971678853034973,
          -0.008274441584944725,
          0.46238359808921814,
          -0.14638856053352356,
          -0.2542968690395355,
          0.17432178556919098,
          0.26464471220970154,
          -0.044761255383491516,
          -0.4437088668346405,
          0.5844898819923401,
          -0.2340797632932663,
          -0.4068792760372162,
          -1.1055716276168823,
          0.2842693030834198,
          0.20391342043876648,
          0.3464979827404022,
          0.6904066205024719,
          0.2917642295360565,
          -0.87178635597229,
          -0.07581473141908646,
          0.16305789351463318,
          0.9342133402824402,
          -0.03010849840939045,
          -0.4942924380302429,
          1.0118067264556885,
          -0.0506468266248703,
          0.07481950521469116,
          0.5236167907714844,
          -0.6033563613891602,
          -0.15107065439224243,
          0.11702316999435425,
          -0.2188367247581482,
          -0.523245096206665,
          0.22139692306518555,
          0.5531054139137268,
          -0.8559068441390991,
          1.1872719526290894,
          0.41563519835472107,
          -0.016680415719747543,
          -1.2940930128097534,
          -0.5361514091491699,
          0.5935730338096619,
          -0.2538105249404907,
          -0.3421250283718109,
          -0.23884935677051544,
          1.0040363073349,
          -0.3204193711280823,
          0.2273440659046173,
          -0.6876590847969055,
          1.3943359851837158,
          -0.857515811920166,
          0.3768775463104248,
          -1.0093955993652344,
          1.3461501598358154,
          1.1786458492279053,
          -0.510180652141571,
          0.22024939954280853,
          0.3550125062465668,
          0.13839833438396454,
          0.07930993288755417,
          -0.3495466113090515,
          0.32041704654693604,
          -0.48864859342575073,
          -0.16198299825191498,
          0.604988694190979,
          -0.11300309002399445,
          0.09859444200992584,
          0.11164993047714233,
          -0.17236799001693726,
          0.06585468351840973,
          -0.20820237696170807,
          -0.16405926644802094,
          -0.23651127517223358,
          -0.3001779019832611,
          0.22295677661895752,
          -0.6266568899154663,
          -0.44287312030792236,
          0.1256483793258667,
          -0.012279562652111053,
          -0.5529329776763916,
          0.5194857120513916,
          0.06858963519334793,
          -0.1801178902387619,
          -0.6412711143493652,
          -0.04320449009537697,
          0.2716961205005646,
          -0.4944838881492615,
          -0.32588544487953186,
          -0.6541460156440735,
          0.40401190519332886,
          0.3521973490715027,
          0.23795385658740997,
          -0.6403262615203857,
          0.4847066104412079,
          0.35332995653152466,
          -0.08863241970539093,
          0.5377984046936035,
          -0.03805873543024063,
          -0.023410214111208916,
          0.4934643805027008,
          -0.09436291456222534,
          0.40605488419532776,
          0.3074357211589813,
          -0.14441710710525513,
          0.7947192192077637,
          -0.1462634950876236,
          0.14487424492835999,
          0.2162359058856964,
          -1.0179169178009033,
          -0.365436851978302,
          -0.7622250318527222,
          0.04145685210824013,
          -0.19186758995056152,
          -0.46449393033981323,
          0.006938328500837088,
          -0.3518058657646179,
          -0.017884420230984688,
          -0.0934569463133812,
          -0.262209415435791,
          0.49232518672943115,
          -0.23549196124076843,
          0.396949827671051,
          0.21407383680343628,
          -0.0699743777513504,
          -0.6175575852394104,
          -0.4179178476333618,
          -0.23046743869781494,
          -0.392043799161911,
          0.057498998939991,
          0.4595813453197479,
          -0.36364108324050903,
          0.10293588787317276,
          1.0404157638549805,
          -0.2664760649204254,
          -0.09140066802501678,
          0.3054044842720032,
          -0.9916935563087463,
          0.2711755633354187,
          -0.38956716656684875,
          0.4222312569618225,
          -0.1060914620757103,
          -0.08751845359802246,
          0.24075818061828613,
          0.17821180820465088,
          0.19123700261116028,
          1.4521836042404175,
          0.2785247564315796,
          -0.43041908740997314,
          0.22255352139472961,
          -0.41850486397743225,
          0.48360538482666016,
          0.4928326904773712,
          -0.1019274890422821,
          0.49560970067977905,
          0.566866397857666,
          -0.6997283697128296,
          -0.20625582337379456,
          0.5943975448608398,
          -0.10321806371212006,
          0.10980483144521713,
          0.0338384211063385,
          0.3954256772994995,
          -0.35363471508026123,
          -0.8153212070465088,
          0.5291578769683838,
          0.5657250285148621,
          -0.3991277515888214,
          -0.2547841966152191,
          -0.6143931746482849,
          0.10717179626226425,
          -0.04467407241463661,
          -0.027573805302381516,
          -0.7544577121734619,
          0.4226616621017456,
          0.46032753586769104,
          -0.4843461513519287
        ]
      },
      "inputBias": {
        "rows": 20,
        "columns": 1,
        "weights": [
          0.5678704380989075,
          0.6753680109977722,
          0.8932321071624756,
          0.37382715940475464,
          1.002442717552185,
          0.8488205671310425,
          0.6465285420417786,
          0.6072757244110107,
          -0.3158605396747589,
          0.2170887440443039,
          0.5222350358963013,
          0.6933164000511169,
          0.04845520108938217,
          -0.01213193591684103,
          1.239462971687317,
          1.4930990934371948,
          -0.17031235992908478,
          0.41026178002357483,
          0.6107978820800781,
          0.43353766202926636
        ]
      },
      "forgetMatrix": {
        "rows": 20,
        "columns": 18,
        "weights": [
          -0.12888865172863007,
          0.07763804495334625,
          0.848291277885437,
          0.20589131116867065,
          -0.09444666653871536,
          -0.2551562786102295,
          -0.06218523532152176,
          0.09257671982049942,
          0.051933422684669495,
          -0.7129231691360474,
          0.18004252016544342,
          -0.047332875430583954,
          -0.2604239284992218,
          -0.12420341372489929,
          -0.2728905975818634,
          -0.6750494241714478,
          0.16600455343723297,
          -0.11143060028553009,
          0.19905593991279602,
          -0.030423220247030258,
          -0.09468469768762589,
          -0.3788372278213501,
          -0.02617662027478218,
          -0.08846545219421387,
          -0.09941266477108002,
          0.11785484850406647,
          -0.27435609698295593,
          0.013792246580123901,
          0.30808302760124207,
          0.11178554594516754,
          0.07732655853033066,
          -0.24583125114440918,
          0.15615537762641907,
          0.0786166712641716,
          0.2985489070415497,
          -0.07551592588424683,
          -0.1240481287240982,
          0.17625533044338226,
          0.07024109363555908,
          -0.08057130128145218,
          -0.006933346390724182,
          0.2593598961830139,
          0.6202425956726074,
          -0.2549516260623932,
          0.1884137988090515,
          -0.2753230631351471,
          -0.3669073283672333,
          -0.26405760645866394,
          -0.10298402607440948,
          -0.2878838777542114,
          -0.45477625727653503,
          0.08994068205356598,
          -0.017733843997120857,
          -0.03570402413606644,
          0.3090967833995819,
          0.01630922593176365,
          -0.8450053930282593,
          0.6032662391662598,
          0.19855287671089172,
          0.8143170475959778,
          -0.008824980817735195,
          -0.34639692306518555,
          -0.30005261301994324,
          -0.04722004756331444,
          -0.09924205392599106,
          -0.256352037191391,
          -0.1746380776166916,
          -0.6346278786659241,
          -0.12551097571849823,
          0.08919630944728851,
          0.013120658695697784,
          0.0895267054438591,
          -0.18261148035526276,
          -0.08634358644485474,
          -0.4384925067424774,
          0.4137870967388153,
          -0.0831775888800621,
          0.5589467287063599,
          0.30031925439834595,
          -0.10567066818475723,
          -0.20130875706672668,
          0.19002443552017212,
          -0.050242114812135696,
          0.19305261969566345,
          -0.19689516723155975,
          0.41118746995925903,
          0.1749676614999771,
          -0.17210741341114044,
          0.18949346244335175,
          -0.26481524109840393,
          -0.09449225664138794,
          0.015028836205601692,
          -0.41074055433273315,
          0.3746611177921295,
          -0.06024752929806709,
          0.06325563788414001,
          0.09311184287071228,
          -0.24124184250831604,
          -0.0959283784031868,
          0.14269421994686127,
          0.3230101466178894,
          0.22534576058387756,
          0.9901719093322754,
          -0.13525083661079407,
          0.27334100008010864,
          0.09934709966182709,
          -0.2172507345676422,
          0.17417512834072113,
          0.07925979793071747,
          0.02727639488875866,
          0.27103716135025024,
          -0.047281015664339066,
          0.3479284346103668,
          0.002139494987204671,
          0.45546314120292664,
          -0.1754184365272522,
          0.07042871415615082,
          0.3043437600135803,
          -0.3669390380382538,
          -0.2898056209087372,
          0.44232577085494995,
          0.15354570746421814,
          -0.09018727391958237,
          0.02875729836523533,
          -0.03324742242693901,
          0.4349246025085449,
          -0.1541050672531128,
          0.2139173448085785,
          -0.49232223629951477,
          -0.48757585883140564,
          0.01290504727512598,
          0.019986635074019432,
          -0.09832638502120972,
          -0.13962692022323608,
          -0.12464094907045364,
          -0.19614720344543457,
          0.505828320980072,
          0.016506560146808624,
          0.2486432045698166,
          -0.5427260398864746,
          -0.3495808243751526,
          0.4907843768596649,
          -0.005981904920190573,
          0.15697406232357025,
          -0.02912932075560093,
          -0.3940356373786926,
          -0.9285025596618652,
          0.3990603983402252,
          0.7538187503814697,
          -0.16526667773723602,
          -0.35333994030952454,
          -0.5021654367446899,
          0.3427680730819702,
          -0.060266897082328796,
          0.048054471611976624,
          -0.19692085683345795,
          0.251365065574646,
          0.12963919341564178,
          -0.4678820073604584,
          0.2760450839996338,
          0.17178401350975037,
          0.11647249758243561,
          0.02634916640818119,
          -0.03217412158846855,
          -0.08423054963350296,
          -0.08070804923772812,
          -0.9537926912307739,
          0.5360361337661743,
          0.2616645395755768,
          0.01461047027260065,
          0.5510308146476746,
          -0.1474149376153946,
          -0.3555722236633301,
          -0.2721805274486542,
          0.33496516942977905,
          -0.48961225152015686,
          0.04632843658328056,
          0.9522671699523926,
          0.32413017749786377,
          0.3800007402896881,
          0.1375761479139328,
          -0.23527394235134125,
          -1.0105054378509521,
          -0.1051083505153656,
          0.5973120331764221,
          -0.11133778840303421,
          -0.04258749261498451,
          -0.5385937690734863,
          -0.026565805077552795,
          -0.025736939162015915,
          0.061224259436130524,
          0.3545859456062317,
          0.4456942677497864,
          0.04848289117217064,
          0.027003230527043343,
          -0.35839277505874634,
          0.2558528184890747,
          -0.2680957317352295,
          -0.16261447966098785,
          0.20600725710391998,
          0.3684706687927246,
          -0.5771021246910095,
          -0.1339714378118515,
          -0.4736197292804718,
          -0.5142198801040649,
          0.26732137799263,
          0.03306997939944267,
          0.14276130497455597,
          -0.23627470433712006,
          0.049926821142435074,
          -0.1438320428133011,
          0.1736951470375061,
          0.11465160548686981,
          -0.3037320375442505,
          0.4845474064350128,
          0.2243719846010208,
          -0.034875884652137756,
          -0.09544215351343155,
          0.12668852508068085,
          0.11375316977500916,
          0.8522480130195618,
          -0.2230096012353897,
          -0.30253803730010986,
          -0.024324513971805573,
          -0.2795999050140381,
          0.14832915365695953,
          0.20303156971931458,
          -0.046702880412340164,
          0.15964750945568085,
          -0.0782185047864914,
          0.17714527249336243,
          -0.3502444326877594,
          -0.6908356547355652,
          0.037627849727869034,
          -0.12515126168727875,
          0.7200923562049866,
          -0.31376853585243225,
          0.29096028208732605,
          0.07574768364429474,
          0.3813857138156891,
          -0.1481207013130188,
          -0.25845614075660706,
          0.1879936009645462,
          -0.3459019660949707,
          0.6174278855323792,
          -0.042661454528570175,
          0.10073678940534592,
          -0.8084174990653992,
          -0.5015002489089966,
          0.13189151883125305,
          0.34910452365875244,
          -0.06828156858682632,
          -0.22733038663864136,
          -0.32074037194252014,
          -0.42052191495895386,
          0.49990135431289673,
          0.2784000039100647,
          0.07111940532922745,
          -0.0021001314744353294,
          -0.8660916686058044,
          0.06145597994327545,
          0.6566416621208191,
          0.11811430752277374,
          0.2627347707748413,
          0.05876567214727402,
          -0.2582669258117676,
          -0.45068198442459106,
          -0.5787298083305359,
          0.09367992728948593,
          -0.6613838076591492,
          0.128409743309021,
          -0.1894681453704834,
          -0.336168497800827,
          -0.07532830536365509,
          -0.11597493290901184,
          0.29194509983062744,
          -0.3478161096572876,
          -0.31842565536499023,
          0.5241708755493164,
          0.17891767621040344,
          -0.11238504201173782,
          0.17191913723945618,
          0.22276747226715088,
          -0.17926053702831268,
          -0.5293682813644409,
          0.40570786595344543,
          -0.1642208695411682,
          0.05249164626002312,
          -0.11550089716911316,
          0.21203432977199554,
          0.011698874644935131,
          0.5693090558052063,
          0.6575269103050232,
          -0.07254917174577713,
          0.01754443719983101,
          -0.038626767694950104,
          -0.7272607684135437,
          -0.06258348375558853,
          0.7571561932563782,
          0.29537633061408997,
          -0.047547802329063416,
          0.004344054963439703,
          0.06692281365394592,
          -0.4574355483055115,
          -0.07042655348777771,
          -0.12419542670249939,
          0.3591064512729645,
          0.7138716578483582,
          0.22880055010318756,
          -0.34343597292900085,
          0.0026025245897471905,
          0.5773918628692627,
          0.027007635682821274,
          -0.1740712672472,
          0.20036792755126953,
          -0.6530911922454834,
          0.1260293573141098,
          -0.1353360414505005,
          -0.4154920279979706,
          -0.05290672183036804,
          -0.03956320136785507,
          0.5812321305274963,
          0.2576296627521515,
          -0.23328934609889984,
          0.18648329377174377,
          0.270426869392395,
          0.09514156728982925,
          -0.1884680837392807,
          -0.0637030154466629,
          -0.05601600930094719,
          -0.11572688072919846,
          -0.1438588947057724,
          -0.06979984790086746,
          -0.20856456458568573,
          0.06997493654489517,
          -0.05123217776417732,
          0.07334113121032715,
          -0.1531054526567459,
          0.11221369355916977,
          -0.014004651457071304,
          0.2357659935951233,
          -0.13079024851322174,
          -0.05921684578061104,
          0.2849687933921814,
          0.2931549847126007,
          -0.20146584510803223,
          -0.4397397041320801,
          0.4183731973171234,
          -0.21790337562561035,
          -0.00851940456777811,
          -0.4158608317375183,
          -0.6547743678092957,
          0.5749470591545105,
          0.23626403510570526,
          0.09750694781541824,
          -0.6726250052452087,
          0.0295421089977026,
          -0.030771132558584213,
          0.18888385593891144,
          -0.4020068049430847
        ]
      },
      "forgetHidden": {
        "rows": 20,
        "columns": 20,
        "weights": [
          -0.08377443999052048,
          0.5855557918548584,
          0.5952017903327942,
          -0.8232556581497192,
          0.24422071874141693,
          0.06250039488077164,
          1.2357984781265259,
          -0.6320407390594482,
          0.43601828813552856,
          0.43216896057128906,
          0.13888218998908997,
          0.24663978815078735,
          -0.061312705278396606,
          0.15123872458934784,
          0.18056605756282806,
          0.10115603357553482,
          0.3841126263141632,
          -0.04479411989450455,
          -0.1825183928012848,
          -0.008910278789699078,
          -0.07388666272163391,
          -0.07329069823026657,
          -0.10823779553174973,
          -0.3365281820297241,
          0.4559352397918701,
          -0.1369285136461258,
          0.20741160213947296,
          0.2937118411064148,
          -0.4362369179725647,
          0.6302873492240906,
          0.2977101504802704,
          0.47637635469436646,
          0.33567509055137634,
          0.09418436884880066,
          -0.11715973913669586,
          -0.5002395510673523,
          0.384819358587265,
          -0.20210058987140656,
          -0.03690563142299652,
          0.04662830010056496,
          0.21870660781860352,
          0.25948822498321533,
          -0.49568772315979004,
          0.6352236866950989,
          -0.058196425437927246,
          0.5297912955284119,
          0.08567268401384354,
          -0.351375550031662,
          -0.02094396948814392,
          -0.41342857480049133,
          -0.016356347128748894,
          0.17996226251125336,
          -0.6664674282073975,
          0.32480937242507935,
          -0.15915128588676453,
          -0.24979780614376068,
          -0.4449455440044403,
          1.0327394008636475,
          0.5912995934486389,
          -0.3359580338001251,
          -1.4613498449325562,
          -0.07497837394475937,
          -0.06466573476791382,
          -0.26957669854164124,
          1.0354775190353394,
          0.2693639099597931,
          0.6784535646438599,
          0.31063657999038696,
          0.778089702129364,
          -0.1272512972354889,
          0.273147851228714,
          -0.3030756711959839,
          -0.42386749386787415,
          -0.03954792395234108,
          -0.11324723809957504,
          -0.4598940312862396,
          -0.4083425998687744,
          0.46726974844932556,
          0.36291825771331787,
          0.5570051074028015,
          0.8615896701812744,
          0.049646828323602676,
          0.2925983965396881,
          0.5774229168891907,
          -0.5749971866607666,
          0.41063594818115234,
          -0.19877994060516357,
          0.3458024859428406,
          0.07378116250038147,
          -0.9277408123016357,
          0.050504233688116074,
          0.27613818645477295,
          0.22940930724143982,
          0.017688695341348648,
          -0.5902214050292969,
          0.3528576195240021,
          0.5287903547286987,
          0.2619953453540802,
          0.562654972076416,
          -0.25637170672416687,
          0.27319085597991943,
          0.1136917993426323,
          -0.035705696791410446,
          0.7745063900947571,
          -0.22811242938041687,
          0.30634447932243347,
          0.23817385733127594,
          0.44654643535614014,
          -0.059919387102127075,
          -0.2044297754764557,
          0.13120685517787933,
          0.48115965723991394,
          -0.01935378834605217,
          0.005384842399507761,
          -0.03983432799577713,
          -0.09795135259628296,
          0.25186774134635925,
          0.2731860280036926,
          0.4458204507827759,
          0.19558313488960266,
          -0.32897457480430603,
          -0.1599816530942917,
          -0.22137673199176788,
          -0.8788214921951294,
          -0.579868733882904,
          0.2787923812866211,
          0.1003766655921936,
          0.07884350419044495,
          -0.5315523743629456,
          0.6732460856437683,
          -0.565698504447937,
          -0.2558663487434387,
          0.1583729386329651,
          0.7868285179138184,
          0.23477615416049957,
          -0.29605570435523987,
          0.5266625881195068,
          -0.561939537525177,
          -0.02838803268969059,
          0.49541664123535156,
          -0.5104846358299255,
          0.11367785930633545,
          -0.5185582637786865,
          -0.3975581228733063,
          0.4285148084163666,
          0.39838290214538574,
          0.6956217885017395,
          -0.21153636276721954,
          -0.9291698932647705,
          0.6792731285095215,
          -0.15303382277488708,
          0.6247876882553101,
          1.1100938320159912,
          0.8245022296905518,
          0.5417634844779968,
          -1.0801562070846558,
          0.4504130780696869,
          -0.12805281579494476,
          -0.13427229225635529,
          0.05449045076966286,
          -0.8770638704299927,
          0.28247755765914917,
          0.3499884009361267,
          -0.7893126010894775,
          -0.07782439142465591,
          -0.20413018763065338,
          0.38811981678009033,
          0.42821553349494934,
          -0.23490920662879944,
          2.081584930419922,
          -0.043507009744644165,
          -0.388322651386261,
          0.059179868549108505,
          -0.011749772354960442,
          0.42471954226493835,
          -0.7747058272361755,
          -0.1280490607023239,
          -0.17176425457000732,
          -0.26736947894096375,
          -0.03884187713265419,
          -0.7689428329467773,
          -0.6331308484077454,
          0.18600808084011078,
          0.717806875705719,
          -0.05724724754691124,
          -0.013847718946635723,
          -0.2614927887916565,
          0.5326414704322815,
          -0.05387473106384277,
          -0.8291283249855042,
          0.031088916584849358,
          -0.07787404954433441,
          -0.4396432638168335,
          -0.10034916549921036,
          -0.4519203305244446,
          -0.41420450806617737,
          0.2498631626367569,
          0.01619669981300831,
          -0.581222414970398,
          0.28766298294067383,
          0.34930214285850525,
          0.44612452387809753,
          -0.14623600244522095,
          -0.3128609359264374,
          -0.1104493960738182,
          0.44326210021972656,
          -1.2586978673934937,
          -0.1492725908756256,
          -0.07389193773269653,
          0.6271183490753174,
          -0.18849539756774902,
          -0.12865552306175232,
          -0.5261167883872986,
          0.029159005731344223,
          0.7227434515953064,
          -0.830747127532959,
          -0.9069430828094482,
          0.28708669543266296,
          0.07118763774633408,
          -0.8522725701332092,
          -0.45652636885643005,
          -0.1946651041507721,
          -0.5846455693244934,
          -0.0738079845905304,
          -0.45935526490211487,
          0.1494152992963791,
          -0.2462376207113266,
          0.3168896734714508,
          0.44428449869155884,
          -0.4476989507675171,
          0.062077846378088,
          0.25404369831085205,
          -0.10772354900836945,
          -0.9893366098403931,
          -0.06625968962907791,
          -0.23423708975315094,
          0.23818859457969666,
          -0.27253592014312744,
          -0.21747267246246338,
          0.3148874342441559,
          -1.0223538875579834,
          -0.3594837784767151,
          0.06961746513843536,
          -0.7795190811157227,
          0.4978814423084259,
          0.41332560777664185,
          -0.02614024467766285,
          0.4225662350654602,
          -0.41309022903442383,
          0.5349124670028687,
          -0.25486865639686584,
          0.4472348093986511,
          -0.5809314250946045,
          0.13369320333003998,
          0.482656329870224,
          -0.30851271748542786,
          -0.4015960097312927,
          0.6410622596740723,
          0.11191857606172562,
          0.6956952214241028,
          -0.12597034871578217,
          0.6124464273452759,
          -0.5430680513381958,
          -0.052223484963178635,
          -0.7696422934532166,
          0.2824587821960449,
          0.8131842613220215,
          -0.37944933772087097,
          0.790099561214447,
          -0.1909829080104828,
          -0.16271843016147614,
          0.09718671441078186,
          -0.15146784484386444,
          -0.5612771511077881,
          0.7948946356773376,
          -0.3535577952861786,
          0.5375775694847107,
          -0.32984423637390137,
          0.7840659022331238,
          0.11307143419981003,
          -0.11647278815507889,
          -0.055693119764328,
          -0.45998650789260864,
          -0.6725159287452698,
          -0.7155019640922546,
          0.26067954301834106,
          0.32014572620391846,
          -0.6044294834136963,
          -0.5072500705718994,
          0.547107458114624,
          -0.3271302282810211,
          0.037703052163124084,
          0.47303715348243713,
          0.4790184199810028,
          -0.6756558418273926,
          -0.14470374584197998,
          0.6524139642715454,
          0.02655704878270626,
          -0.4415759742259979,
          0.2316044718027115,
          0.009918640367686749,
          0.089189812541008,
          -0.22741757333278656,
          -0.9439499378204346,
          -0.07549773156642914,
          0.05638495087623596,
          0.22723081707954407,
          0.12024465203285217,
          -0.009311839006841183,
          -0.012841661460697651,
          0.12363789230585098,
          0.3815738558769226,
          0.2236565202474594,
          0.22949618101119995,
          0.03130826726555824,
          -0.44556504487991333,
          0.04497106000781059,
          0.1535780429840088,
          -0.24596260488033295,
          0.08680692315101624,
          -0.7799715995788574,
          -0.4127071499824524,
          0.47861775755882263,
          0.5172205567359924,
          1.0883190631866455,
          -0.3060510456562042,
          -0.13256195187568665,
          0.3832523822784424,
          -0.12066658586263657,
          0.010941321030259132,
          0.3333536982536316,
          0.699713408946991,
          -0.2472231388092041,
          -0.2788199782371521,
          0.17042003571987152,
          -0.41453659534454346,
          -0.10990869998931885,
          0.09459193795919418,
          -0.3178967237472534,
          0.3214380741119385,
          0.06702499091625214,
          -0.14193862676620483,
          0.4295542538166046,
          0.23192936182022095,
          0.025112701579928398,
          -0.3619900941848755,
          -0.60343998670578,
          0.4486914873123169,
          -0.7623565196990967,
          0.4627005457878113,
          -0.24395112693309784,
          0.25117263197898865,
          -0.0977218970656395,
          -0.29337039589881897,
          -0.12487669289112091,
          0.1882636696100235,
          0.22975721955299377,
          0.13022825121879578,
          0.48358362913131714,
          0.6879830956459045,
          -0.022893421351909637,
          -0.025374239310622215,
          0.10733630508184433,
          0.24212044477462769,
          0.313008189201355,
          -0.11554297059774399,
          -0.2934258282184601,
          0.590623676776886,
          0.3220794200897217,
          0.6260272264480591,
          0.6931784152984619,
          0.8463874459266663,
          -0.4708799421787262,
          -0.3934883773326874,
          -0.19961537420749664,
          -0.83637934923172,
          0.25677868723869324,
          -0.5345237851142883,
          -0.3706308901309967,
          -0.9362238645553589,
          0.5103654265403748,
          -0.11196472495794296,
          0.014095548540353775,
          0.13794808089733124,
          0.8636073470115662,
          0.01926117017865181,
          -0.3645085394382477,
          0.4471953809261322,
          -1.0836517810821533,
          -0.06372960656881332,
          0.6109434962272644,
          0.6247119307518005,
          -0.04552268609404564,
          -0.1363821029663086,
          -0.4096054136753082,
          -0.00642358185723424,
          -0.1787940412759781,
          -0.22676482796669006,
          0.08731232583522797,
          -0.07325562834739685
        ]
      },
      "forgetBias": {
        "rows": 20,
        "columns": 1,
        "weights": [
          0,
          0,
          0,
          0,
          0,
          0,
          0,
          0,
          0,
          0,
          0,
          0,
          0,
          0,
          0,
          0,
          0,
          0,
          0,
          0
        ]
      },
      "outputMatrix": {
        "rows": 20,
        "columns": 18,
        "weights": [
          0.11908043920993805,
          -0.5737137794494629,
          -0.5585334300994873,
          0.6026731133460999,
          -0.1255452185869217,
          -0.1363757997751236,
          0.49615681171417236,
          -0.5686984658241272,
          0.10522570461034775,
          0.6401724815368652,
          -0.1386662721633911,
          -0.5430583357810974,
          0.14007624983787537,
          -0.281085729598999,
          -0.19718630611896515,
          -0.8034363389015198,
          0.37102094292640686,
          -0.25054970383644104,
          0.1162824034690857,
          -0.07055239379405975,
          0.37335649132728577,
          -0.0909091904759407,
          0.11767923831939697,
          -0.07793451100587845,
          -0.06063426285982132,
          0.08910596370697021,
          -0.02188717946410179,
          -0.40167129039764404,
          0.00569477304816246,
          -0.20805276930332184,
          -0.4311267137527466,
          0.4280865490436554,
          0.6082746982574463,
          -0.4453389644622803,
          0.3779439926147461,
          -0.19425304234027863,
          0.1648222804069519,
          -0.356411337852478,
          -0.33386901021003723,
          1.1273549795150757,
          0.24962438642978668,
          1.1314218044281006,
          0.7835649847984314,
          -0.7774142026901245,
          -0.1783241331577301,
          0.23486462235450745,
          0.11214568465948105,
          0.28342974185943604,
          -0.7525904178619385,
          -0.6522823572158813,
          -0.17629988491535187,
          -0.4823886752128601,
          0.2841843366622925,
          -0.5020859837532043,
          0.11209982633590698,
          -0.34659847617149353,
          0.28656086325645447,
          0.1983051747083664,
          -0.0629337877035141,
          0.22612866759300232,
          0.19800925254821777,
          -0.0778571292757988,
          -0.34167781472206116,
          -0.5026344656944275,
          -0.1655661165714264,
          -0.09529043734073639,
          -0.36546194553375244,
          0.3191589117050171,
          0.4332456886768341,
          -0.3724385201931,
          0.8679252862930298,
          -0.07536129653453827,
          0.2078612744808197,
          -0.268760621547699,
          -0.9682876467704773,
          0.5924314260482788,
          0.6774626970291138,
          0.5667116641998291,
          0.22584393620491028,
          -0.03698625788092613,
          0.1586715579032898,
          0.47328999638557434,
          -0.2592104375362396,
          -0.07399695366621017,
          -1.0041110515594482,
          -0.43128734827041626,
          -0.07599179446697235,
          0.0945582240819931,
          0.4271323084831238,
          -0.29747384786605835,
          -0.2389238327741623,
          -0.2559279501438141,
          -0.5818179845809937,
          0.642375111579895,
          0.3523973822593689,
          -0.035400863736867905,
          0.5441966652870178,
          -0.6374083757400513,
          0.1799277663230896,
          0.06093087047338486,
          -0.23991309106349945,
          -0.17832286655902863,
          -0.1733621209859848,
          -0.2917804419994354,
          -0.04836824908852577,
          -0.6492170095443726,
          0.19485881924629211,
          -0.30128204822540283,
          0.682992160320282,
          -0.2998514771461487,
          0.043156035244464874,
          0.14118583500385284,
          0.18473990261554718,
          0.012228073552250862,
          0.4589064419269562,
          -0.21014535427093506,
          0.024516301229596138,
          -0.2446858435869217,
          0.6313076615333557,
          -0.0733388289809227,
          -0.10619868338108063,
          -0.47016435861587524,
          -0.053560901433229446,
          0.24339331686496735,
          -0.26303499937057495,
          0.34245041012763977,
          0.13918054103851318,
          -0.6261754035949707,
          0.189635768532753,
          0.19178681075572968,
          0.17869888246059418,
          0.22881051898002625,
          0.6790239214897156,
          -0.46163687109947205,
          0.08620612323284149,
          -0.10226146131753922,
          -0.0425003282725811,
          -0.5842954516410828,
          -0.7893900871276855,
          -0.017028966918587685,
          0.18172085285186768,
          -0.21947382390499115,
          0.48068708181381226,
          -0.4983292818069458,
          0.7136561274528503,
          0.3002028167247772,
          -0.08020483702421188,
          0.02781325951218605,
          -0.37375563383102417,
          0.5843060612678528,
          0.3071363866329193,
          0.22728991508483887,
          -0.45994409918785095,
          -0.5599982142448425,
          0.5742108225822449,
          -0.13069796562194824,
          -0.10343688726425171,
          -0.3333744406700134,
          -0.3171183466911316,
          0.27838629484176636,
          -0.7119227647781372,
          0.14936362206935883,
          0.3438780903816223,
          -0.11259917914867401,
          0.021174240857362747,
          0.44997909665107727,
          -0.17585252225399017,
          0.18510136008262634,
          0.3539849817752838,
          -0.3213866651058197,
          -0.1494341343641281,
          -0.48982471227645874,
          0.03299899026751518,
          -0.093472421169281,
          -0.4836980402469635,
          0.14891357719898224,
          0.4216461777687073,
          -0.23580625653266907,
          0.35163167119026184,
          -0.3224298655986786,
          -0.04241782799363136,
          -0.564474880695343,
          -0.18521389365196228,
          0.7500735521316528,
          0.34164372086524963,
          -0.25133615732192993,
          0.6058416366577148,
          -0.7085535526275635,
          -0.13363425433635712,
          0.2044956088066101,
          0.1950925588607788,
          -0.1801394671201706,
          -0.3607582747936249,
          0.8805030584335327,
          0.4421703517436981,
          -0.984524130821228,
          0.33689141273498535,
          -0.649283230304718,
          0.07475053519010544,
          -0.48149698972702026,
          -0.3902750611305237,
          -0.3868575990200043,
          0.2856113314628601,
          -0.5803828239440918,
          0.22519683837890625,
          -0.5773667693138123,
          0.5799557566642761,
          -0.13941307365894318,
          0.021942202001810074,
          -0.14946295320987701,
          -0.1200195923447609,
          0.5468253493309021,
          0.4386429488658905,
          -0.8875769376754761,
          0.7888877987861633,
          -0.33758097887039185,
          0.24155709147453308,
          0.024342892691493034,
          0.4146389663219452,
          -0.33845314383506775,
          -0.0972742959856987,
          0.10273709893226624,
          0.17565973103046417,
          -0.7474389672279358,
          -0.1402307152748108,
          -0.27129676938056946,
          -0.2948288023471832,
          -0.4673822820186615,
          -0.019508210942149162,
          -0.03892435133457184,
          0.1910482496023178,
          -0.19709062576293945,
          -0.13081568479537964,
          0.12589284777641296,
          -0.03443139046430588,
          -0.45244741439819336,
          -0.596314013004303,
          0.9347506165504456,
          0.11802133172750473,
          0.04222983121871948,
          0.3858135938644409,
          -0.6900694966316223,
          -0.13413089513778687,
          0.5582126975059509,
          -0.2905428111553192,
          -0.4027637541294098,
          0.030037524178624153,
          -0.6540637612342834,
          -0.2684660255908966,
          -1.2146720886230469,
          0.3405059576034546,
          -0.5555585622787476,
          -0.1415063589811325,
          -0.45661455392837524,
          0.07018336653709412,
          0.16035188734531403,
          0.21788464486598969,
          -0.9024907946586609,
          0.2409149557352066,
          -0.11719053238630295,
          -0.44004321098327637,
          0.39597436785697937,
          -0.4202314615249634,
          -0.24319271743297577,
          -0.7611395716667175,
          -1.1885141134262085,
          0.21376179158687592,
          -1.3071964979171753,
          0.6101784110069275,
          -0.23271913826465607,
          -0.2159104347229004,
          -0.55931156873703,
          -0.020363375544548035,
          0.016890913248062134,
          1.1355260610580444,
          -0.22042010724544525,
          -0.5959078669548035,
          -0.6328681707382202,
          0.5330896973609924,
          0.12086145579814911,
          0.05898654833436012,
          0.17395904660224915,
          -0.49616891145706177,
          -0.4022918939590454,
          -0.354489266872406,
          -0.38132837414741516,
          -0.27262672781944275,
          -0.1964506208896637,
          1.0948766469955444,
          0.30933767557144165,
          -0.37677374482154846,
          0.11898654699325562,
          0.24669796228408813,
          0.5541586875915527,
          0.052986565977334976,
          -0.257527232170105,
          -0.12513616681098938,
          -0.6314591765403748,
          0.2339201271533966,
          -0.15363644063472748,
          -0.29779762029647827,
          -0.6538225412368774,
          -0.5537078976631165,
          0.35647597908973694,
          0.13728751242160797,
          0.22300764918327332,
          0.1208052784204483,
          0.37600472569465637,
          0.05167080834507942,
          0.20845958590507507,
          -0.06554678082466125,
          -0.5270377397537231,
          -0.3782877027988434,
          0.2796363830566406,
          -0.05645434185862541,
          -0.30796635150909424,
          -0.3562835454940796,
          -0.638218104839325,
          -0.31345489621162415,
          0.1479364037513733,
          0.5534622073173523,
          -0.8771195411682129,
          0.42700669169425964,
          0.12721793353557587,
          1.0548593997955322,
          -0.13748526573181152,
          -0.19970349967479706,
          0.3262269198894501,
          0.4493199586868286,
          0.3464643359184265,
          0.7762457728385925,
          -0.7109583616256714,
          -0.42749983072280884,
          -0.6872155666351318,
          0.15753597021102905,
          -0.1280452460050583,
          -0.4083748161792755,
          -0.0656912699341774,
          0.05916111543774605,
          -0.0316333994269371,
          0.36838945746421814,
          -0.2170235961675644,
          0.6884860396385193,
          -0.1353999674320221,
          -0.5600439310073853,
          0.32685860991477966,
          0.030247172340750694,
          0.37648361921310425,
          0.3507061302661896,
          -0.3594553768634796,
          -0.09988503903150558,
          -0.25075605511665344,
          -0.028388729318976402,
          -0.45565226674079895,
          -0.583554208278656,
          0.016475660726428032,
          0.29767483472824097,
          -0.22635036706924438,
          0.44419384002685547,
          -0.07802627980709076
        ]
      },
      "outputHidden": {
        "rows": 20,
        "columns": 20,
        "weights": [
          -1.7524659633636475,
          0.3778495490550995,
          0.13890579342842102,
          -0.6578689813613892,
          -0.41290053725242615,
          0.1721094399690628,
          -0.18113462626934052,
          -0.6774079203605652,
          -0.9407707452774048,
          1.6415637731552124,
          -0.08260680735111237,
          -0.3052420914173126,
          0.160347118973732,
          0.2544275224208832,
          -0.2983255684375763,
          -0.24250955879688263,
          0.3856970965862274,
          0.5449591279029846,
          0.5895235538482666,
          0.5333974957466125,
          0.9351983666419983,
          0.06870836764574051,
          0.6706162691116333,
          -0.03339581564068794,
          0.09250201284885406,
          0.002541694324463606,
          0.1499870866537094,
          -0.5666906833648682,
          0.9624226689338684,
          -0.8849614262580872,
          0.162901371717453,
          0.9633412957191467,
          -0.07508661597967148,
          -0.08839422464370728,
          -0.5649870038032532,
          0.1062067523598671,
          0.03454511985182762,
          0.13911667466163635,
          0.4644228518009186,
          -0.29123133420944214,
          0.2912454307079315,
          0.8115006685256958,
          -0.31792232394218445,
          -0.9120268225669861,
          -0.26987728476524353,
          0.11938879638910294,
          -0.4507017135620117,
          -1.0509065389633179,
          1.2492395639419556,
          1.4746109247207642,
          -0.46753016114234924,
          0.4341704547405243,
          -1.779281735420227,
          0.1471477448940277,
          -0.620345413684845,
          -0.08913225680589676,
          1.142699122428894,
          0.596210241317749,
          0.6372328996658325,
          -0.3161446452140808,
          -0.9885216355323792,
          0.12662337720394135,
          -1.0829517841339111,
          -0.9198287725448608,
          0.1364515721797943,
          0.2998602092266083,
          0.09353511780500412,
          0.3860466182231903,
          1.943990707397461,
          -0.1779073178768158,
          -0.20569729804992676,
          0.886648416519165,
          -1.0609183311462402,
          -0.2716353237628937,
          -1.1338053941726685,
          -1.490164875984192,
          -1.0756789445877075,
          -0.2900780141353607,
          0.43674787878990173,
          0.1881532073020935,
          -0.3769327402114868,
          0.5762403607368469,
          0.6979199051856995,
          -0.8080351948738098,
          -0.6546080112457275,
          0.33476755023002625,
          -0.7260591387748718,
          0.11479775607585907,
          1.2294509410858154,
          0.019620193168520927,
          0.26867175102233887,
          -0.03384704887866974,
          -0.6568536162376404,
          1.8417836427688599,
          -0.08069325238466263,
          -0.2731701731681824,
          -1.065551996231079,
          0.5060744285583496,
          0.6621063351631165,
          0.8230852484703064,
          -0.49721434712409973,
          0.2894265055656433,
          0.17079870402812958,
          0.1323251575231552,
          -0.12228226661682129,
          0.27824121713638306,
          -0.8722149133682251,
          -0.09149768203496933,
          0.04113946110010147,
          -0.23046401143074036,
          -0.17041528224945068,
          -0.6656466126441956,
          -0.3682329058647156,
          0.10425875335931778,
          -0.2093541920185089,
          0.25594398379325867,
          0.05670560523867607,
          1.3442044258117676,
          0.31267499923706055,
          0.45109862089157104,
          -0.20927442610263824,
          -0.06062576174736023,
          0.09017064422369003,
          0.26815491914749146,
          -1.184940218925476,
          0.56529301404953,
          -0.40152376890182495,
          0.30802667140960693,
          -1.619248390197754,
          0.6785845160484314,
          0.25135233998298645,
          -0.5632259249687195,
          0.5446155667304993,
          0.35330930352211,
          -0.31596457958221436,
          -0.1544693261384964,
          0.5272548198699951,
          -1.2472388744354248,
          0.3311966359615326,
          0.37797749042510986,
          0.12422391772270203,
          0.8698709607124329,
          -0.5134273171424866,
          -1.2506492137908936,
          0.04799230396747589,
          0.9175655841827393,
          -0.5615054965019226,
          -1.2067232131958008,
          0.8222036361694336,
          -0.38474443554878235,
          -0.8049289584159851,
          1.6176116466522217,
          -0.06187817454338074,
          0.9040009379386902,
          -1.5833574533462524,
          -2.0773303508758545,
          -0.3894934058189392,
          -0.3987208604812622,
          2.800617218017578,
          0.6169500946998596,
          0.14691244065761566,
          0.29461005330085754,
          -0.47241756319999695,
          0.4850594997406006,
          -0.24296963214874268,
          0.8200055956840515,
          0.21014411747455597,
          -0.1782272905111313,
          0.2545508146286011,
          0.8100334405899048,
          0.34536898136138916,
          -0.14040812849998474,
          -1.401834487915039,
          -0.6235167384147644,
          -0.24798960983753204,
          -0.591859757900238,
          -0.39005592465400696,
          -0.03261649236083031,
          0.32378989458084106,
          -0.7031360268592834,
          0.9532702565193176,
          0.19607877731323242,
          0.714682400226593,
          -0.3248949646949768,
          -0.6218265295028687,
          0.3878149688243866,
          0.49103018641471863,
          -0.34093788266181946,
          -0.6396200656890869,
          1.4786943197250366,
          0.15294249355793,
          0.16424408555030823,
          0.5515981912612915,
          -0.2327793836593628,
          -0.16370636224746704,
          -0.7847712635993958,
          0.34240078926086426,
          0.24925923347473145,
          0.28396299481391907,
          0.6707317233085632,
          0.35061949491500854,
          1.2485723495483398,
          0.2696320116519928,
          -0.4697752892971039,
          -0.2738998532295227,
          -0.28266772627830505,
          -0.4178914725780487,
          -1.5759576559066772,
          -0.07952463626861572,
          -0.503533124923706,
          -0.6268020272254944,
          1.0345131158828735,
          0.4867119789123535,
          2.9655601978302,
          0.6279311776161194,
          -0.572519838809967,
          -0.8910601735115051,
          0.036267440766096115,
          1.4764267206192017,
          -0.5976725816726685,
          0.5453381538391113,
          0.26587986946105957,
          -0.26819655299186707,
          0.8117904663085938,
          -0.12631197273731232,
          0.14697577059268951,
          -1.133529782295227,
          -0.47767964005470276,
          0.07207178324460983,
          -0.16735433042049408,
          -0.3166554570198059,
          0.9728813171386719,
          0.28916671872138977,
          -0.1380634307861328,
          -0.32049238681793213,
          -0.17939160764217377,
          -0.5290376543998718,
          0.20875918865203857,
          0.19425421953201294,
          0.5762573480606079,
          -0.3854469358921051,
          0.1861584484577179,
          0.3190513849258423,
          -0.4243302643299103,
          -0.20163001120090485,
          0.8499841690063477,
          0.5280935168266296,
          0.013254137709736824,
          0.9564360976219177,
          -1.1552714109420776,
          -0.09582166373729706,
          0.8662925958633423,
          -0.007399804890155792,
          1.4734277725219727,
          -0.19078385829925537,
          -0.13076315820217133,
          0.13027308881282806,
          -0.001687690382823348,
          0.13793842494487762,
          0.149629607796669,
          0.4458427429199219,
          0.5111569166183472,
          -0.261269211769104,
          -0.10951140522956848,
          -1.0996123552322388,
          0.625364363193512,
          -0.7057461738586426,
          -0.3252338469028473,
          0.46230870485305786,
          0.03946378082036972,
          0.021512171253561974,
          -0.18534505367279053,
          -0.7760355472564697,
          0.6327931880950928,
          -0.1798713654279709,
          -0.35486364364624023,
          -1.1117686033248901,
          0.6516236662864685,
          0.4240509271621704,
          0.2583000361919403,
          -0.43735891580581665,
          0.361745148897171,
          0.14381250739097595,
          -0.3958984911441803,
          -0.15369756519794464,
          0.3223704397678375,
          -0.5717615485191345,
          -0.5467529296875,
          1.4113974571228027,
          0.008277442306280136,
          -0.2280948907136917,
          -0.16868741810321808,
          -0.5588218569755554,
          0.8566651940345764,
          -0.14957907795906067,
          -0.05835184454917908,
          -0.19426611065864563,
          0.13311907649040222,
          0.07886683940887451,
          -0.11245071887969971,
          -0.5815423727035522,
          -0.13766352832317352,
          -1.0867890119552612,
          -0.14762920141220093,
          -0.6866094470024109,
          0.8892553448677063,
          0.6946011185646057,
          -0.20426298677921295,
          -0.9982771277427673,
          0.06753405928611755,
          -0.2544916868209839,
          0.5628492832183838,
          0.08730830997228622,
          0.7063749432563782,
          -0.05303959175944328,
          -1.2064316272735596,
          0.014229039661586285,
          0.45899084210395813,
          0.4503655433654785,
          0.23188088834285736,
          -0.032617729157209396,
          -0.1150093525648117,
          -0.251437246799469,
          1.7471259832382202,
          -0.24069425463676453,
          0.5309937596321106,
          -0.15890486538410187,
          0.08145994693040848,
          1.0446808338165283,
          0.5093275904655457,
          -0.7097410559654236,
          -0.14885056018829346,
          -0.5980817079544067,
          0.9241658449172974,
          -0.6517937183380127,
          -0.05995497480034828,
          0.03592119738459587,
          -0.16193190217018127,
          0.07567274570465088,
          0.0825425386428833,
          0.056080445647239685,
          0.1824665069580078,
          -0.03814783692359924,
          -0.9665380716323853,
          -0.12124481052160263,
          0.17675456404685974,
          -0.5185405611991882,
          -0.3271811902523041,
          -0.10914455354213715,
          0.864302933216095,
          -0.12366460263729095,
          -0.38579630851745605,
          -0.36464613676071167,
          0.4645388424396515,
          0.07101914286613464,
          -0.42865458130836487,
          -0.7737111449241638,
          0.12939466536045074,
          0.9383638501167297,
          0.38268786668777466,
          -0.6521914601325989,
          0.14754459261894226,
          -0.20537079870700836,
          -0.42812401056289673,
          -0.36959007382392883,
          -0.026841312646865845,
          -0.1946701556444168,
          0.18134109675884247,
          0.7179304361343384,
          0.14856351912021637,
          -0.13763970136642456,
          0.21654173731803894,
          -0.16018275916576385,
          -0.18813961744308472,
          0.283916175365448,
          0.04669855535030365,
          -0.02650878205895424,
          0.3663517236709595,
          0.2735925316810608,
          -0.38818711042404175,
          0.14962364733219147,
          0.1186426505446434,
          0.5632573962211609,
          -1.1620806455612183,
          -1.8536659479141235,
          0.12996119260787964,
          -0.3576245903968811,
          -0.10418549180030823,
          -1.5893802642822266,
          2.2895495891571045,
          -0.28303447365760803,
          0.6966129541397095,
          -0.3604266345500946,
          0.3192873001098633,
          0.08827472478151321,
          -1.2987349033355713,
          -0.45503994822502136,
          0.8291608095169067,
          0.6963428854942322,
          -0.24343141913414001
        ]
      },
      "outputBias": {
        "rows": 20,
        "columns": 1,
        "weights": [
          0.5666536688804626,
          0.6777333617210388,
          0.8947317600250244,
          0.37109559774398804,
          1.006805658340454,
          0.8482651114463806,
          0.6441668272018433,
          0.6124734282493591,
          -0.33517223596572876,
          0.21083222329616547,
          0.523638129234314,
          0.6966203451156616,
          0.07843243330717087,
          -0.018779803067445755,
          1.243106722831726,
          1.4980530738830566,
          -0.170973539352417,
          0.40999501943588257,
          0.6124935150146484,
          0.44538724422454834
        ]
      },
      "cellActivationMatrix": {
        "rows": 20,
        "columns": 18,
        "weights": [
          0.026050878688693047,
          0.14985671639442444,
          0.5886848568916321,
          -0.5176642537117004,
          0.16847187280654907,
          -0.10823933780193329,
          -0.21594303846359253,
          0.10164107382297516,
          0.17962056398391724,
          -0.4282010495662689,
          -0.06123056262731552,
          0.1644572764635086,
          -0.5730875134468079,
          0.19984881579875946,
          -0.1584865301847458,
          -0.3910006880760193,
          -0.01565733551979065,
          -0.10334840416908264,
          0.2109086811542511,
          -0.3584732115268707,
          0.05393276363611221,
          0.0858481153845787,
          0.6747393608093262,
          0.00994789320975542,
          0.16385191679000854,
          0.04086259379982948,
          -0.007389801554381847,
          -0.14697308838367462,
          0.14079804718494415,
          0.08659666776657104,
          -0.23190820217132568,
          -0.007525998167693615,
          -0.01195239182561636,
          -0.12080137431621552,
          0.1313418596982956,
          -0.05463211238384247,
          0.8069941401481628,
          0.1580961048603058,
          0.06968653202056885,
          0.21359866857528687,
          0.07138010859489441,
          0.002097352175042033,
          -0.32257595658302307,
          0.121943399310112,
          -0.47381097078323364,
          -0.08559911698102951,
          0.19380171597003937,
          -0.00028147577540948987,
          0.16091100871562958,
          0.4134121239185333,
          0.6764282584190369,
          0.15635615587234497,
          0.503679096698761,
          -0.09687554091215134,
          -0.27033731341362,
          0.03599988669157028,
          0.17363590002059937,
          -0.04346659779548645,
          0.385800838470459,
          0.022801704704761505,
          -0.03827160224318504,
          0.29710015654563904,
          -0.26327985525131226,
          -0.1208525076508522,
          0.02330365590751171,
          0.3733513057231903,
          0.09199851751327515,
          -0.16679322719573975,
          -0.518192708492279,
          -0.06357519328594208,
          -0.01936093531548977,
          0.11063745617866516,
          0.1427614837884903,
          0.105872742831707,
          0.03520514816045761,
          -0.44500088691711426,
          -0.09490395337343216,
          0.16237899661064148,
          -0.7370008230209351,
          0.04154527559876442,
          -0.5268945693969727,
          -0.4135116934776306,
          -0.07822970300912857,
          0.13083335757255554,
          0.27250048518180847,
          -0.12021759897470474,
          0.03404279053211212,
          0.10362715274095535,
          -0.0977836474776268,
          0.4194472134113312,
          0.05515375733375549,
          -0.25561875104904175,
          0.02556850016117096,
          -0.025565732270479202,
          -0.21029992401599884,
          0.02938678115606308,
          0.43858349323272705,
          -0.4036886394023895,
          0.2682909071445465,
          0.028039848431944847,
          -0.13462911546230316,
          -0.493204265832901,
          -0.20220328867435455,
          0.18814617395401,
          0.09699174761772156,
          -0.07068314403295517,
          -0.1341744214296341,
          -0.17815831303596497,
          0.19098016619682312,
          -0.13023383915424347,
          -0.16702228784561157,
          -0.3131865859031677,
          0.0498819500207901,
          -0.3009546101093292,
          -0.14750835299491882,
          -0.46674832701683044,
          0.12985581159591675,
          -0.1778780072927475,
          -0.2944960594177246,
          -0.05991777405142784,
          0.026838432997465134,
          0.016763903200626373,
          0.3525658845901489,
          -0.36560383439064026,
          0.09445173293352127,
          -0.11823711544275284,
          0.20272478461265564,
          -0.04636486992239952,
          -0.006003803573548794,
          0.3659384250640869,
          0.061838384717702866,
          0.3704845905303955,
          -0.028119903057813644,
          -0.19744586944580078,
          -0.16388294100761414,
          0.4060119688510895,
          -0.050235405564308167,
          -0.2007027268409729,
          0.37902748584747314,
          0.570022463798523,
          -0.08511663973331451,
          0.20207199454307556,
          0.777157187461853,
          -0.14632771909236908,
          0.3450596332550049,
          -0.2577110230922699,
          -0.3639127314090729,
          -1.0765918493270874,
          0.4065440595149994,
          0.0893726497888565,
          0.5542669296264648,
          -0.19741424918174744,
          0.08215388655662537,
          -0.05655743181705475,
          0.30646562576293945,
          0.536005437374115,
          0.20949380099773407,
          0.35054895281791687,
          -0.18748460710048676,
          0.35597604513168335,
          -0.0169732216745615,
          -0.04150351136922836,
          0.47418439388275146,
          0.19003905355930328,
          0.16633227467536926,
          0.2687920928001404,
          0.1050429716706276,
          0.4684034287929535,
          -0.15212178230285645,
          0.4871712327003479,
          0.5427423119544983,
          -0.5771039724349976,
          0.28393083810806274,
          0.3326575458049774,
          -0.008813023567199707,
          0.11733158677816391,
          0.4358993470668793,
          0.25868746638298035,
          0.1477539986371994,
          0.15296843647956848,
          1.100727915763855,
          0.472235769033432,
          -0.10913355648517609,
          0.1708422750234604,
          -0.08852586150169373,
          -0.09697867929935455,
          -0.4108961522579193,
          -0.2901012599468231,
          -0.6002457141876221,
          -0.21696814894676208,
          0.1833779364824295,
          -0.11777453124523163,
          0.10056199133396149,
          -0.016643332317471504,
          0.06913215667009354,
          -0.028813889250159264,
          -0.21426847577095032,
          0.1302742213010788,
          0.7353391051292419,
          0.07268992066383362,
          0.25622597336769104,
          -0.719239354133606,
          0.8311414122581482,
          -0.44554007053375244,
          -0.746418297290802,
          -0.7835973501205444,
          -0.0782599225640297,
          -0.08522386848926544,
          0.11270004510879517,
          0.08174427598714828,
          -0.3664512038230896,
          0.7362465262413025,
          0.3062448501586914,
          -0.7461205720901489,
          0.7982843518257141,
          -0.19696705043315887,
          0.08215457201004028,
          0.06422332674264908,
          0.16944767534732819,
          0.6944795846939087,
          -0.8154299855232239,
          0.068951815366745,
          0.1561667025089264,
          -0.27083948254585266,
          -0.06461495906114578,
          0.13073310256004333,
          -0.3738320469856262,
          -0.6564565300941467,
          -0.3478611707687378,
          0.4404202997684479,
          0.15631020069122314,
          -0.4314621686935425,
          -0.19473294913768768,
          -0.3248230814933777,
          0.19647447764873505,
          -0.16341201961040497,
          -0.2677063047885895,
          -0.7951717376708984,
          -0.0014248212100937963,
          0.1495881825685501,
          -0.25540250539779663,
          -0.013525782153010368,
          0.1750584840774536,
          -0.3423180878162384,
          -0.10369089990854263,
          0.775323748588562,
          -0.12940272688865662,
          0.13046501576900482,
          0.08256694674491882,
          -0.10000307112932205,
          -0.12810342013835907,
          -0.2430526465177536,
          0.3314109742641449,
          0.09288378804922104,
          -0.06248239427804947,
          -0.07106593251228333,
          -0.4662627875804901,
          0.10113363713026047,
          0.18079037964344025,
          0.3893047869205475,
          -0.12967383861541748,
          -0.09520900994539261,
          -0.08579320460557938,
          -0.10817193984985352,
          0.258316308259964,
          0.23320868611335754,
          0.38245177268981934,
          0.3795749247074127,
          0.05690688639879227,
          0.2102794647216797,
          -0.3052332401275635,
          -0.023663204163312912,
          0.27440908551216125,
          0.3875146210193634,
          -0.211944580078125,
          0.44086501002311707,
          0.07078804820775986,
          0.19426985085010529,
          0.13843339681625366,
          -0.5205625891685486,
          0.2861866354942322,
          0.14106684923171997,
          -0.19437895715236664,
          0.3241637647151947,
          -0.3206501603126526,
          0.652895987033844,
          0.12574318051338196,
          0.18805238604545593,
          -0.263478547334671,
          -0.1488184928894043,
          -0.5558135509490967,
          0.3706028461456299,
          -0.14934015274047852,
          -0.08740752190351486,
          0.04631725326180458,
          0.1344330608844757,
          0.5266487002372742,
          0.5874150991439819,
          0.08982009440660477,
          -0.25989678502082825,
          0.07676950842142105,
          -0.5062945485115051,
          -0.0864664688706398,
          0.2468908280134201,
          0.3039577007293701,
          -0.20022374391555786,
          0.15530002117156982,
          -0.03061198815703392,
          -0.15117628872394562,
          -0.23376832902431488,
          0.335972398519516,
          -0.5791141986846924,
          -0.8035950660705566,
          -0.08711101114749908,
          -0.6313521862030029,
          -0.1429910808801651,
          -0.0693526417016983,
          -0.6175607442855835,
          -0.29457181692123413,
          0.7196730971336365,
          -0.13924427330493927,
          -0.5958243012428284,
          0.24071280658245087,
          0.5730171799659729,
          -0.5691749453544617,
          -0.015254105441272259,
          0.26668575406074524,
          -0.47011125087738037,
          -0.29676321148872375,
          -0.24768391251564026,
          -0.02107822522521019,
          0.06987223029136658,
          -0.34729698300361633,
          -0.3681008517742157,
          -0.07405788451433182,
          -0.24508073925971985,
          -0.15426085889339447,
          -0.15797114372253418,
          0.4282854199409485,
          0.09915871918201447,
          0.2859150767326355,
          0.3527607023715973,
          0.21065127849578857,
          -0.15795458853244781,
          -0.39713916182518005,
          0.26468902826309204,
          -0.007935159839689732,
          -0.33079591393470764,
          -0.1089637354016304,
          -0.08454591780900955,
          0.1334136426448822,
          0.5208343267440796,
          -0.26791444420814514,
          -0.49941831827163696,
          0.26312893629074097,
          -0.14549942314624786,
          0.32879358530044556,
          -0.12907174229621887,
          0.5170908570289612,
          0.2483985275030136
        ]
      },
      "cellActivationHidden": {
        "rows": 20,
        "columns": 20,
        "weights": [
          0.5244438052177429,
          -0.6852732300758362,
          -0.24294573068618774,
          1.2434747219085693,
          0.3113323748111725,
          -0.16395726799964905,
          -0.12275055795907974,
          0.5008678436279297,
          -0.8019241690635681,
          -0.6805722117424011,
          -0.10306639969348907,
          -0.042241983115673065,
          0.1194603368639946,
          0.3506905734539032,
          -0.13007566332817078,
          0.22075828909873962,
          0.9095575213432312,
          -0.08173798024654388,
          -0.02377089485526085,
          -0.3715585470199585,
          -0.04568367451429367,
          0.04364955425262451,
          0.1857028752565384,
          0.16221806406974792,
          -0.2512700855731964,
          0.053594764322042465,
          0.1747421771287918,
          0.13585881888866425,
          -0.07185868918895721,
          0.6551240682601929,
          0.24095316231250763,
          0.03805522620677948,
          0.2518657445907593,
          -0.3598773181438446,
          -0.2457946538925171,
          -0.5291487574577332,
          0.8046598434448242,
          -0.4476698040962219,
          -0.2121323198080063,
          0.44214507937431335,
          0.26165372133255005,
          -0.28968849778175354,
          0.5293641090393066,
          -0.02046637237071991,
          -0.20690089464187622,
          -0.1510031819343567,
          0.2747836410999298,
          0.30583474040031433,
          0.10903300344944,
          -0.40141040086746216,
          0.6455187797546387,
          0.7109755873680115,
          0.15518879890441895,
          -0.2912929058074951,
          -0.6031826734542847,
          -0.19860610365867615,
          0.03058343194425106,
          -0.3101358115673065,
          -0.2228517383337021,
          -0.6054009199142456,
          -0.19231028854846954,
          0.13300251960754395,
          -0.41449224948883057,
          0.5617870688438416,
          0.5051292777061462,
          -0.18278245627880096,
          -0.6276078224182129,
          -0.07097157835960388,
          0.023372510448098183,
          0.23101800680160522,
          -0.5318311452865601,
          -0.2602631151676178,
          0.15553338825702667,
