{
  "type": "LSTM",
  "options": {
    "inputSize": 27,
    "inputRange": 27,
    "hiddenLayers": [
      20,
      20
    ],
    "outputSize": 27,
    "decayRate": 0.999,
    "smoothEps": 1e-8,
    "regc": 0.000001,
    "clipval": 5,
    "maxPredictionLength": 100,
    "dataFormatter": {
      "indexTable": {
        "a": 0,
        "k": 1,
        "h": 2,
        "o": 3,
        "n": 4,
        "m": 5,
        "e": 6,
        "l": 7,
        "g": 8,
        "i": 9,
        "s": 10,
        "r": 11,
        "b": 12,
        "y": 13,
        "d": 14,
        "w": 15,
        "t": 16,
        "p": 17,
        "u": 18,
        "c": 19,
        "z": 20,
        "f": 21,
        "j": 22,
        "v": 23,
        "x": 24,
        "q": 25,
        "unrecognized": 26
      },
      "characterTable": {
        "0": "a",
        "1": "k",
        "2": "h",
        "3": "o",
        "4": "n",
        "5": "m",
        "6": "e",
        "7": "l",
        "8": "g",
        "9": "i",
        "10": "s",
        "11": "r",
        "12": "b",
        "13": "y",
        "14": "d",
        "15": "w",
        "16": "t",
        "17": "p",
        "18": "u",
        "19": "c",
        "20": "z",
        "21": "f",
        "22": "j",
        "23": "v",
        "24": "x",
        "25": "q",
        "26": null
      },
      "values": [
        "akhona",
        "amaka",
        "amohelang",
        "anele",
        "anisha",
        "arabang",
        "ayanda",
        "ayele",
        "babalwa",
        "baliwe",
        "basetsana",
        "bhekisisa",
        "bikwaphi",
        "bohlokwa",
        "bokang",
        "boniswa",
        "bonolo",
        "bontle",
        "buang",
        "busisiwe",
        "cebile",
        "chenzira",
        "chineso",
        "chipo",
        "chuma",
        "diboko",
        "didi",
        "dikeledi",
        "dikgang",
        "dimakatso",
        "dimpho",
        "dineo",
        "dipalesa",
        "disebo",
        "dithole",
        "ditsheho",
        "ditswanelo",
        "duduzile",
        "dumisile",
        "dyondzeka",
        "fabana",
        "felleng",
        "fezeka",
        "fikile",
        "fumane",
        "fundiswa",
        "gabisile",
        "gugu",
        "gugulethu",
        "hlengiwe",
        "inaambura",
        "inah",
        "inam",
        "itumeleng",
        "jabulile",
        "jabulisile",
        "kagiso",
        "kamohelo",
        "kananelo",
        "katleho",
        "keneuwe",
        "khanyisile",
        "khothatso",
        "khulelaphi",
        "khuselwa",
        "leabie",
        "lebohang",
        "lerato",
        "letsatsi",
        "lindiwe",
        "londiwe",
        "lulama",
        "lungile",
        "luzuko",
        "lyanda",
        "magano",
        "maideyi",
        "majobo",
        "makaziwe",
        "makhokolotso",
        "makhosazana",
        "makhulu",
        "makhutswana",
        "maki",
        "maletsatsi",
        "mandisa",
        "mantso",
        "mariha",
        "mashama",
        "masoabi",
        "mathona",
        "matlakala",
        "maudisa",
        "mavivi",
        "mbakondja",
        "mbalenhle",
        "mbhali",
        "mmaabo",
        "mosa",
        "mosela",
        "moshidi",
        "mosimodi",
        "mosimotsana",
        "motle",
        "mpho",
        "mphonyana",
        "mponeng",
        "mpumelelo",
        "muchaneta",
        "mudiwa",
        "mxolisi",
        "naledi",
        "nande",
        "nandi",
        "nandiphe",
        "ndapewa",
        "ndileka",
        "ndindi",
        "nelisiwe",
        "nhlahla",
        "nikelwa",
        "nkazimulo",
        "nkosazana",
        "nkosinathi",
        "nobantu",
        "nobini",
        "nobuhle",
        "nobuntu",
        "nocawe",
        "nodathembu",
        "nodayimni",
        "nofanele",
        "nokhanyo",
        "nokhwezi",
        "nokukhanya",
        "nokulunga",
        "nokuthula",
        "nolitha",
        "nolwandle",
        "nomabaso",
        "nomafu",
        "nomagugu",
        "nomakholwa",
        "nomalanga",
        "nomampondo",
        "nomandla",
        "nomasonto",
        "nomatha",
        "nomathalente",
        "nomathamsanqa",
        "nomathemba",
        "nomazizi",
        "nombeko",
        "nomble",
        "nombulelo",
        "nombuso",
        "nombuyiselo",
        "nomcebo",
        "nomgcobo",
        "nomlanga",
        "nomonde",
        "nomphelo",
        "nompilo",
        "nompumelelo",
        "nomqondiso",
        "nomsa",
        "nomthandazo",
        "nomusa",
        "nomvula",
        "nomzano",
        "nonduddumo",
        "nondummiso",
        "nonggawuse",
        "nonhlanhla",
        "nonhle",
        "nonjabulo",
        "nonkulukeko",
        "nontando",
        "nontiupheko",
        "nontobeko",
        "nontothuzelo",
        "nontsikelelo",
        "nonyameko",
        "nonzenzele",
        "nonzwakazi",
        "nosekeni",
        "nosine",
        "nosipho",
        "notancu",
        "notando",
        "noxolo",
        "nozibele",
        "nozibusiso",
        "nozipho",
        "nozizwe",
        "nqobile",
        "ntathu",
        "ntatu",
        "nthabiseng",
        "nthati",
        "ntombentle",
        "ntombi",
        "ntombifuthi",
        "ntombikayise",
        "ntombizanele",
        "ntombizine",
        "ntombizodidi",
        "ntombizodwa",
        "ntozake",
        "ntsebo",
        "ntswaki",
        "nyakallo",
        "oarona",
        "olwethu",
        "ontibile",
        "owethu",
        "paballo",
        "palesa",
        "pepukayi",
        "phathiwe",
        "phenyo",
        "phetuxolo",
        "phindile",
        "phutheho",
        "pula",
        "pulane",
        "pumla",
        "ramatla",
        "ramona",
        "ratsebo",
        "reabetswe",
        "reabilwe",
        "refilwe",
        "reneilwe",
        "rethabile",
        "ripuree",
        "rudo",
        "rufaro",
        "runako",
        "sakile",
        "samukelisiwe",
        "sanele",
        "sekayi",
        "setai",
        "shange",
        "sibongile",
        "sibusisiwe",
        "sihle",
        "sikhumbuzo",
        "sikose",
        "silondile",
        "simphiwe",
        "simthembele",
        "sindisiwe",
        "sinethemba",
        "siphesihle",
        "siphiwe",
        "sipo",
        "sithabile",
        "sithokozile",
        "siyabulele",
        "siyamthanda",
        "siyanda",
        "sonto",
        "spiwe",
        "thabisa",
        "thabisile",
        "thalente",
        "thandazile",
        "thandeka",
        "thandekile",
        "thandi",
        "thandiswa",
        "thandiwe",
        "thathani",
        "thato",
        "themba",
        "thembeka",
        "thembekile",
        "thembelihle",
        "thembi",
        "thembile",
        "thembisile",
        "thoko",
        "thokozile",
        "tholakele",
        "thuthukile",
        "tlotliso",
        "tokoloho",
        "tshepiso",
        "tumelo",
        "unathi",
        "uvatera",
        "vela",
        "vumile",
        "vuyelwa",
        "vuyisa",
        "vuyiswa",
        "xola",
        "xolelwa",
        "zanele",
        "zaziwe",
        "zeni",
        "zenzele",
        "zenzile",
        "zibuyile",
        "zindziwa",
        "zine",
        "zinhle",
        "zintle",
        "zola",
        "zondlile",
        "zukisa"
      ],
      "characters": [
        "a",
        "k",
        "h",
        "o",
        "n",
        "m",
        "e",
        "l",
        "g",
        "i",
        "s",
        "r",
        "b",
        "y",
        "d",
        "w",
        "t",
        "p",
        "u",
        "c",
        "z",
        "f",
        "j",
        "v",
        "x",
        "q",
        "unrecognized"
      ],
      "specialIndexes": [
        26
      ]
    }
  },
  "trainOpts": {
    "iterations": "10000",
    "errorThresh": "0.04",
    "log": false,
    "logPeriod": 1,
    "learningRate": "0.0001",
    "callbackPeriod": 1,
    "timeout": "Infinity",
    "activation": "tanh"
  },
  "input": {
    "rows": 28,
    "columns": 27,
    "weights": [
      -0.3127693831920624,
      -0.09624841809272766,
      -0.4145270586013794,
      0.11328766494989395,
      0.258154034614563,
      -0.6698963642120361,
      0.2196398377418518,
      0.39999908208847046,
      -0.48430928587913513,
      0.2625727355480194,
      -0.17116758227348328,
      0.002249338198453188,
      0.09301730990409851,
      0.38676196336746216,
      -0.09121979773044586,
      -0.2835389971733093,
      0.03232518583536148,
      0.15577386319637299,
      -0.42905473709106445,
      -0.11984675377607346,
      -0.362978994846344,
      -0.427074670791626,
      -0.13058526813983917,
      0.592212975025177,
      -0.3402591347694397,
      0.6083874106407166,
      -0.6562745571136475,
      0.710317075252533,
      0.3582723140716553,
      0.7643808126449585,
      -1.3111222982406616,
      -0.12728986144065857,
      2.220388889312744,
      0.5912652015686035,
      0.04737599194049835,
      1.4180071353912354,
      -1.1414903402328491,
      -0.9817385077476501,
      -2.133876085281372,
      -1.524519681930542,
      2.373882293701172,
      -1.390200138092041,
      -1.9586118459701538,
      1.6333203315734863,
      -1.3256728649139404,
      0.3845631182193756,
      -0.9478265643119812,
      0.8076558113098145,
      0.4939737915992737,
      -0.13104407489299774,
      -0.5446174144744873,
      1.0320825576782227,
      -1.2217719554901123,
      3.5385537147521973,
      0.03638086095452309,
      0.06528861820697784,
      -3.3708274364471436,
      -0.7681409120559692,
      0.5665645003318787,
      0.8074987530708313,
      0.07169877737760544,
      -0.7468169927597046,
      0.9684348702430725,
      2.01037859916687,
      -0.6652679443359375,
      -1.3221086263656616,
      -4.288551330566406,
      1.457274317741394,
      -0.0029478271026164293,
      0.6006457209587097,
      -2.9181854724884033,
      0.6858688592910767,
      -0.15305101871490479,
      1.8774564266204834,
      -1.0264277458190918,
      -0.7090586423873901,
      2.2834699153900146,
      2.4853107929229736,
      0.25506722927093506,
      2.5063579082489014,
      -0.12752081453800201,
      -0.20911353826522827,
      0.07785019278526306,
      -0.44057542085647583,
      -1.517277479171753,
      1.0645405054092407,
      -0.2564220130443573,
      -1.657105565071106,
      1.0236512422561646,
      -1.2055460214614868,
      1.102012276649475,
      -0.07954122126102448,
      0.12116392701864243,
      0.47437962889671326,
      -0.1545184701681137,
      -0.0032227037008851767,
      0.11031673848628998,
      0.827263355255127,
      -0.021164949983358383,
      0.2642565071582794,
      0.28470632433891296,
      -0.2369452863931656,
      -0.06991414725780487,
      -0.2062530517578125,
      0.2762143611907959,
      0.06154663860797882,
      -0.04060353711247444,
      2.0674285888671875,
      1.28020441532135,
      1.3698605298995972,
      1.0972936153411865,
      0.07169943302869797,
      1.7267436981201172,
      3.492859125137329,
      1.6419093608856201,
      0.8193365931510925,
      1.1800165176391602,
      -2.6046643257141113,
      -0.4435657560825348,
      -0.4423358738422394,
      0.9920621514320374,
      1.8898167610168457,
      0.22158735990524292,
      -1.8199918270111084,
      1.4347840547561646,
      -0.7600090503692627,
      -0.4812791347503662,
      -2.0246827602386475,
      0.6178143620491028,
      0.4375971853733063,
      -0.9671792387962341,
      -2.895164966583252,
      1.1629551649093628,
      -0.7152210474014282,
      1.3547507524490356,
      0.4201854467391968,
      0.6356357336044312,
      -2.459345817565918,
      0.20615597069263458,
      0.8510406613349915,
      -0.038210444152355194,
      -0.24669267237186432,
      -0.3352274000644684,
      -0.848154604434967,
      -0.06845792382955551,
      -0.27961933612823486,
      -1.2123812437057495,
      -0.9012910723686218,
      1.1597763299942017,
      0.3692163825035095,
      0.6023572087287903,
      -0.1370510756969452,
      0.11921781301498413,
      0.6749911308288574,
      -0.4262312352657318,
      -0.6111941337585449,
      -0.6253963708877563,
      0.996245265007019,
      1.5272470712661743,
      -0.5541300177574158,
      0.8268000483512878,
      -0.4347206950187683,
      -0.531091034412384,
      0.5988686084747314,
      -0.48916345834732056,
      -0.39191558957099915,
      -1.107637882232666,
      0.8608605861663818,
      -1.029923677444458,
      0.40896639227867126,
      -0.742688000202179,
      -0.601018488407135,
      -0.1605348289012909,
      -0.4951377809047699,
      0.11088991165161133,
      1.7207822799682617,
      0.29851168394088745,
      -0.35844218730926514,
      -0.40425431728363037,
      0.27785158157348633,
      0.6255354881286621,
      -0.4590921700000763,
      -0.0657181665301323,
      -0.7604519128799438,
      1.0415186882019043,
      0.20277880132198334,
      0.9355297088623047,
      2.2493317127227783,
      -0.6445112824440002,
      0.9430232644081116,
      0.8806798458099365,
      0.03717474639415741,
      -0.9296559691429138,
      0.2005438357591629,
      1.021701455116272,
      0.7939490675926208,
      -0.8026915788650513,
      0.6326436400413513,
      0.4160448908805847,
      0.4112747013568878,
      -1.4670014381408691,
      -0.4270358383655548,
      1.2146254777908325,
      -0.10960160195827484,
      -2.1886329650878906,
      2.2605185508728027,
      0.13595357537269592,
      0.48624104261398315,
      0.42786237597465515,
      0.22660018503665924,
      1.2006113529205322,
      0.6760832667350769,
      -1.8684940338134766,
      0.758533775806427,
      -0.9247667193412781,
      1.494886040687561,
      0.7397088408470154,
      0.7540632486343384,
      -4.03902006149292,
      0.5028372406959534,
      1.9598478078842163,
      -0.5325008630752563,
      -1.3818937540054321,
      0.18198172748088837,
      -1.7198030948638916,
      0.5510947108268738,
      -0.783480167388916,
      -0.6493638753890991,
      -1.5272892713546753,
      0.9042443633079529,
      0.688951313495636,
      0.6866329908370972,
      -1.2074074745178223,
      0.68806391954422,
      1.1869159936904907,
      0.011851989664137363,
      0.12067438662052155,
      -1.0293099880218506,
      0.37426209449768066,
      2.3916749954223633,
      -0.07210096716880798,
      2.2112717628479004,
      -0.9422593712806702,
      0.4411345422267914,
      0.1212221309542656,
      -1.4245424270629883,
      -0.07613658905029297,
      1.1882785558700562,
      2.536799192428589,
      -0.999830961227417,
      -0.6013222336769104,
      0.5551407933235168,
      -1.174568772315979,
      -1.0690399408340454,
      -0.12219046801328659,
      0.023818856105208397,
      1.1883642673492432,
      -0.31298717856407166,
      -0.834636390209198,
      -0.00459469947963953,
      -1.1335722208023071,
      -0.2175000011920929,
      0.8853793740272522,
      -0.7255342602729797,
      -0.3884561061859131,
      1.3767633438110352,
      0.5226552486419678,
      -0.5824520587921143,
      1.8595985174179077,
      2.3916800022125244,
      -0.11111564189195633,
      0.02175741270184517,
      1.2069556713104248,
      -0.2954340875148773,
      -1.7871874570846558,
      0.9814465641975403,
      0.601824939250946,
      0.27790701389312744,
      0.25375896692276,
      -1.1738262176513672,
      -0.0946241170167923,
      -1.4514524936676025,
      -0.15854158997535706,
      0.857353687286377,
      -1.0355191230773926,
      -1.584054708480835,
      1.7802650928497314,
      -0.2323097139596939,
      -0.5148053169250488,
      -0.17207783460617065,
      -0.02339203841984272,
      0.10082846134901047,
      0.24945056438446045,
      -1.4184722900390625,
      1.5160865783691406,
      -1.1754601001739502,
      0.4543049931526184,
      0.5671538710594177,
      0.7672979235649109,
      0.6870406866073608,
      -0.09094531834125519,
      -1.922749638557434,
      -0.665697455406189,
      -0.14758548140525818,
      -0.6215662360191345,
      2.8037893772125244,
      -0.5170923471450806,
      -0.523537814617157,
      -1.8403923511505127,
      -2.730020046234131,
      3.48089861869812,
      -0.7245296239852905,
      0.5412917137145996,
      -1.0274978876113892,
      -0.8714362978935242,
      0.3647717237472534,
      -1.0949649810791016,
      -1.0145926475524902,
      -0.6050118207931519,
      -0.22932198643684387,
      -0.4667609632015228,
      0.41965243220329285,
      1.0568443536758423,
      1.0317316055297852,
      1.557344913482666,
      -0.7114341259002686,
      0.021593064069747925,
      1.3612521886825562,
      -3.096837043762207,
      0.4782291054725647,
      -4.415776252746582,
      -1.4019910097122192,
      1.0008196830749512,
      2.5129311084747314,
      -1.9113588333129883,
      0.7452369332313538,
      -0.6352874636650085,
      2.255964517593384,
      -1.0512580871582031,
      -0.32396653294563293,
      -3.8321805000305176,
      0.37321585416793823,
      -2.094721555709839,
      0.9546666741371155,
      0.9871003031730652,
      1.5083142518997192,
      1.0019094944000244,
      -0.8626012206077576,
      1.2808557748794556,
      5.650149822235107,
      1.50484037399292,
      1.8323979377746582,
      0.8678160905838013,
      -2.8276870250701904,
      -2.4889793395996094,
      -0.9329167008399963,
      2.018247365951538,
      0.7161528468132019,
      -0.6472184658050537,
      -1.829987645149231,
      -1.7098450660705566,
      -0.23323951661586761,
      -3.156717538833618,
      -1.505894660949707,
      1.8119868040084839,
      2.3546788692474365,
      0.3194630444049835,
      0.56905597448349,
      0.35298097133636475,
      -0.8999980688095093,
      -1.8609240055084229,
      -0.6918299794197083,
      -0.22333605587482452,
      0.6899791955947876,
      4.7913970947265625,
      0.7183936834335327,
      -0.2359878271818161,
      -0.47320836782455444,
      3.9530422687530518,
      0.3548555374145508,
      -2.861701011657715,
      -0.13807976245880127,
      -0.8131365776062012,
      -0.6049529314041138,
      1.0063469409942627,
      -0.12455020844936371,
      -3.8984382152557373,
      1.6886740922927856,
      -1.673233985900879,
      0.1576729118824005,
      -2.3755767345428467,
      -0.3266764283180237,
      -0.6171481013298035,
      2.3596580028533936,
      -1.8959770202636719,
      -0.016664426773786545,
      -0.7295324206352234,
      2.1571714878082275,
      -2.3333427906036377,
      0.29419317841529846,
      0.9973378777503967,
      3.0987071990966797,
      1.162390112876892,
      3.0872015953063965,
      -0.36293983459472656,
      1.7014644145965576,
      -3.48148512840271,
      2.4823107719421387,
      -0.8182451725006104,
      -3.3797593116760254,
      -0.23075824975967407,
      -0.5199037790298462,
      -0.6250781416893005,
      3.314666271209717,
      -0.5657975673675537,
      -0.49977946281433105,
      0.0012074854457750916,
      -1.3671094179153442,
      3.3904786109924316,
      0.016453798860311508,
      -1.5334960222244263,
      -0.558325469493866,
      -2.5300817489624023,
      1.2810052633285522,
      -1.157331109046936,
      2.4264166355133057,
      0.5241162180900574,
      1.4025713205337524,
      -4.995028495788574,
      0.06346888840198517,
      2.881350517272949,
      4.296121597290039,
      0.4704003632068634,
      0.6839820742607117,
      -2.8148367404937744,
      -0.1913483589887619,
      1.6185758113861084,
      0.8332222104072571,
      2.111246347427368,
      -1.0385679006576538,
      -1.5279650688171387,
      0.5616862177848816,
      -0.1570516973733902,
      -1.232312798500061,
      1.0907716751098633,
      1.3335970640182495,
      1.0662530660629272,
      2.734020948410034,
      0.6485400199890137,
      0.7923546433448792,
      -0.9548951387405396,
      0.8604145646095276,
      -1.59418523311615,
      1.8308957815170288,
      1.192734718322754,
      0.6587608456611633,
      -2.713228225708008,
      1.3468601703643799,
      -1.1539047956466675,
      0.31737127900123596,
      -0.8076026439666748,
      0.055937498807907104,
      0.6580244898796082,
      -1.7771703004837036,
      0.5930188298225403,
      -1.0465680360794067,
      0.10470564663410187,
      1.5247952938079834,
      1.0727338790893555,
      0.15117745101451874,
      -2.6206014156341553,
      -1.3528999090194702,
      1.2789398431777954,
      0.8681250214576721,
      0.12934254109859467,
      1.0032548904418945,
      -0.3131592869758606,
      -0.2195081263780594,
      -1.170230507850647,
      -0.3318920135498047,
      -0.459229439496994,
      0.2984696328639984,
      -1.025726556777954,
      1.138241171836853,
      0.5180085301399231,
      1.8903100490570068,
      1.899283528327942,
      0.3316274583339691,
      1.5342823266983032,
      -2.184549331665039,
      -2.96506929397583,
      1.39683198928833,
      0.1397610753774643,
      -0.4428878724575043,
      -1.2271296977996826,
      0.10926523804664612,
      -2.3947675228118896,
      -1.6591861248016357,
      0.20307505130767822,
      -0.4258740246295929,
      -0.8815581798553467,
      1.700154423713684,
      -0.3448687195777893,
      -0.5488755106925964,
      -2.5334479808807373,
      0.06725013256072998,
      0.49304211139678955,
      2.8797550201416016,
      2.0311436653137207,
      -3.4697670936584473,
      -0.42078444361686707,
      -1.9435104131698608,
      -1.1462370157241821,
      -0.6961545348167419,
      0.34295225143432617,
      1.7534101009368896,
      -1.5667107105255127,
      -0.9049355983734131,
      1.5187395811080933,
      -0.3837936222553253,
      1.558702826499939,
      -0.33528780937194824,
      -3.7683329582214355,
      -0.6456772089004517,
      1.030281901359558,
      2.7786452770233154,
      2.0452845096588135,
      1.1601208448410034,
      -2.711602210998535,
      2.170445203781128,
      -0.37217482924461365,
      -0.9660533666610718,
      -3.1106622219085693,
      0.3367444574832916,
      -1.1206544637680054,
      0.07585087418556213,
      -2.6181447505950928,
      2.039478063583374,
      -0.03577113524079323,
      -0.08125666528940201,
      -0.9771735072135925,
      -1.9377467632293701,
      5.798035144805908,
      -0.6810096502304077,
      -2.213531970977783,
      -2.3985283374786377,
      -3.7363016605377197,
      -1.2211045026779175,
      0.7557392716407776,
      1.7484296560287476,
      -0.45267412066459656,
      -2.960282802581787,
      -2.509500503540039,
      0.22833585739135742,
      -0.4791986644268036,
      1.1259055137634277,
      2.4729223251342773,
      0.1409609615802765,
      -3.402977228164673,
      -0.6163296103477478,
      -0.24013954401016235,
      -2.9802637100219727,
      0.9494439363479614,
      -2.9151663780212402,
      0.7377525568008423,
      2.8205411434173584,
      -1.2941617965698242,
      -1.2499334812164307,
      3.5160093307495117,
      -4.764721393585205,
      3.4076876640319824,
      4.222422122955322,
      1.966139554977417,
      -0.45020073652267456,
      -1.7695564031600952,
      2.957948684692383,
      0.5507512092590332,
      1.4175399541854858,
      -3.8309316635131836,
      -5.425656318664551,
      -0.6534618139266968,
      -1.7134839296340942,
      -3.79472279548645,
      -0.6739086508750916,
      -4.302953720092773,
      0.3626106083393097,
      2.044543981552124,
      -1.7032631635665894,
      0.7592669129371643,
      2.5281059741973877,
      1.7092366218566895,
      0.09469520300626755,
      0.04489884898066521,
      3.017925500869751,
      2.7685627937316895,
      3.3904435634613037,
      -1.9040330648422241,
      -2.301203966140747,
      5.22104024887085,
      2.3194470405578613,
      0.9866839647293091,
      1.3510370254516602,
      -2.5158915519714355,
      -0.15431909263134003,
      -0.052968043833971024,
      -0.6436499953269958,
      -0.5542459487915039,
      0.930684506893158,
      1.4582732915878296,
      3.7069873809814453,
      -2.5951733589172363,
      5.0074286460876465,
      3.1732113361358643,
      -3.576798915863037,
      4.303617000579834,
      -3.7034480571746826,
      -1.9237080812454224,
      -0.5627216100692749,
      1.5099132061004639,
      3.8441221714019775,
      -6.989288806915283,
      1.794000506401062,
      1.9127883911132812,
      -1.1115882396697998,
      -0.409635066986084,
      0.6840487718582153,
      -1.7322297096252441,
      -4.16462516784668,
      -0.38710206747055054,
      -1.1025878190994263,
      -2.090364694595337,
      0.8397924304008484,
      -1.7310377359390259,
      -4.388072967529297,
      -1.3292467594146729,
      -2.732553482055664,
      0.8885715007781982,
      -2.939955472946167,
      0.11858168244361877,
      -3.334523916244507,
      -0.1571311205625534,
      0.34091395139694214,
      -1.9579322338104248,
      0.1101251170039177,
      2.5048165321350098,
      -2.9011199474334717,
      1.3104699850082397,
      0.30466389656066895,
      3.849134683609009,
      0.13781830668449402,
      -6.066561222076416,
      5.6883344650268555,
      6.799805164337158,
      0.3111253082752228,
      0.09876473248004913,
      0.8384116888046265,
      2.524115800857544,
      1.483609914779663,
      0.25479307770729065,
      -5.942135334014893,
      -1.2634503841400146,
      1.3501778841018677,
      -1.9792828559875488,
      -2.164902925491333,
      -2.359544038772583,
      -2.22577166557312,
      2.5461935997009277,
      6.215364456176758,
      -0.7831425666809082,
      -0.21427199244499207,
      4.254707336425781,
      5.155643939971924,
      -1.8202433586120605,
      5.401710510253906,
      1.6084436178207397,
      1.7685335874557495,
      -1.2314167022705078,
      -1.1238762140274048,
      -5.133071422576904,
      -0.5793072581291199,
      -1.4933080673217773,
      3.3539841175079346,
      1.3366849422454834,
      3.5325777530670166,
      0.9484111666679382,
      -1.9827921390533447,
      0.5152888298034668,
      -9.374717712402344,
      -0.3663736581802368,
      -0.27544620633125305,
      -4.232939720153809,
      -6.3313727378845215,
      -1.9816699028015137,
      -4.0221333503723145,
      -0.306599497795105,
      1.0535675287246704,
      2.172565221786499,
      1.8835922479629517,
      6.997334957122803,
      3.075585126876831,
      1.3304898738861084,
      -7.073539733886719,
      3.1145501136779785,
      0.09212999045848846,
      1.4648905992507935,
      -1.2605253458023071,
      0.8454812169075012,
      -1.4288073778152466,
      -2.5559206008911133,
      2.346583843231201,
      0.2856947183609009,
      0.030665753409266472,
      3.6848881244659424,
      -1.7781047821044922,
      -8.192963600158691,
      -0.1361442655324936,
      -4.651703357696533,
      2.159193754196167,
      0.4909398853778839,
      -0.29907140135765076,
      -0.4064912497997284,
      1.960411548614502,
      -1.393975019454956,
      0.773998498916626,
      -1.326801061630249,
      -1.6726230382919312,
      0.3111612796783447,
      2.428105115890503,
      -0.06656970083713531,
      0.0009732518810778856,
      -0.014470269903540611,
      0.01731804758310318,
      0.010444234125316143,
      -0.00860073696821928,
      -0.011883772909641266,
      -0.01033140067011118,
      0.004102162551134825,
      -0.010121870785951614,
      0.014326701872050762,
      -0.009142489172518253,
      0.015707850456237793,
      0.013489198870956898,
      0.010835126973688602,
      0.0024629279505461454,
      -0.00420995382592082,
      -0.018364643678069115,
      -0.01328972727060318,
      -0.018557336181402206,
      -0.008639647625386715,
      -0.004717770032584667,
      0.008292038924992085,
      -0.00970268901437521,
      0.012591092847287655,
      0.018102385103702545,
      0.017599279060959816,
      0.013919059187173843
    ]
  },
  "hiddenLayers": [
    {
      "inputMatrix": {
        "rows": 20,
        "columns": 27,
        "weights": [
          0.3354009985923767,
          -0.18103128671646118,
          -0.6497060060501099,
          -0.0510701946914196,
          -0.10496656596660614,
          0.3449653089046478,
          -0.10510291904211044,
          0.43565070629119873,
          0.1927596628665924,
          0.2576357424259186,
          0.05620969459414482,
          0.10050293058156967,
          -0.07343544065952301,
          -0.10771859437227249,
          -0.3202485144138336,
          -0.04013653099536896,
          -0.21972247958183289,
          -0.1881813257932663,
          -0.007808500435203314,
          -0.260314404964447,
          -0.3097233474254608,
          -0.0039955563843250275,
          0.28007739782333374,
          0.21371863782405853,
          0.2086540162563324,
          0.38401779532432556,
          -0.0823102593421936,
          0.10297079384326935,
          -0.25644150376319885,
          -0.3164820969104767,
          -0.20242224633693695,
          0.04724055156111717,
          -0.01610025390982628,
          -0.19661945104599,
          0.9216190576553345,
          -0.3660094738006592,
          0.2266993373632431,
          -0.3951480984687805,
          0.21247126162052155,
          0.00811921339482069,
          0.32070067524909973,
          0.40215176343917847,
          -0.20502448081970215,
          -0.14430269598960876,
          -0.04710954427719116,
          0.008626882918179035,
          0.26076096296310425,
          0.15982189774513245,
          -0.13490380346775055,
          0.06600314378738403,
          -0.07434109598398209,
          -0.3716591000556946,
          0.07110504806041718,
          0.09063395112752914,
          -0.18080690503120422,
          0.43782615661621094,
          -0.023456374183297157,
          -0.25987890362739563,
          0.2584148645401001,
          0.07865668833255768,
          -0.8384951949119568,
          0.3589309751987457,
          -0.09496480226516724,
          -0.20418639481067657,
          -0.143559068441391,
          -0.22185440361499786,
          -0.30607572197914124,
          -0.0925297811627388,
          -0.5162186622619629,
          -0.02309355139732361,
          0.08389470726251602,
          -0.2836616635322571,
          -0.25294217467308044,
          0.037617940455675125,
          -0.20649239420890808,
          -0.5208919644355774,
          0.14605236053466797,
          -0.2935444712638855,
          -0.29617300629615784,
          0.17961663007736206,
          -0.11391492187976837,
          -0.15687552094459534,
          0.04118819907307625,
          -0.6230221390724182,
          -0.07227067649364471,
          0.06472711265087128,
          0.1009347140789032,
          0.506611168384552,
          -0.4630747437477112,
          0.1793639063835144,
          0.32167088985443115,
          -0.643064022064209,
          -0.053846072405576706,
          0.07739926129579544,
          -0.032738447189331055,
          -0.03277995064854622,
          -0.31695467233657837,
          -0.22497257590293884,
          0.26573824882507324,
          0.5127025842666626,
          -0.06980909407138824,
          -0.27397140860557556,
          -0.13726496696472168,
          0.22082430124282837,
          -0.17739012837409973,
          -0.5157830715179443,
          0.7702393531799316,
          -0.08265130966901779,
          -0.15384793281555176,
          0.029786350205540657,
          -0.7871091961860657,
          -0.8997589945793152,
          0.3462776243686676,
          -0.40859687328338623,
          0.05211631953716278,
          0.8478026390075684,
          -0.15247006714344025,
          0.1551600843667984,
          -0.5140644311904907,
          0.13293711841106415,
          -0.08564573526382446,
          -0.06874574720859528,
          0.13669519126415253,
          -0.38802286982536316,
          -0.029556335881352425,
          -0.09341861307621002,
          -0.5863155722618103,
          -0.3476243019104004,
          -0.14295151829719543,
          -0.3168013393878937,
          0.015014472417533398,
          -0.35365501046180725,
          -0.6037396192550659,
          -0.014081060886383057,
          -0.04699037969112396,
          0.06009194999933243,
          0.28829631209373474,
          -0.40933582186698914,
          -0.07706204801797867,
          -0.11880034953355789,
          0.12154147773981094,
          0.21590851247310638,
          0.17817814648151398,
          0.006927007809281349,
          -0.26871582865715027,
          0.028456592932343483,
          -0.03545166179537773,
          0.16448968648910522,
          0.2915699779987335,
          0.3570454716682434,
          0.13693612813949585,
          0.2917690575122833,
          0.24298635125160217,
          -0.017725640907883644,
          0.1597491353750229,
          -0.24572210013866425,
          -0.20705272257328033,
          0.1589810848236084,
          0.2060997039079666,
          -0.6172317862510681,
          0.26818403601646423,
          -0.10187214612960815,
          -0.2688656151294708,
          -0.4347877502441406,
          -0.04232024401426315,
          -0.2801903188228607,
          0.01721419394016266,
          0.3315836191177368,
          -0.5223709940910339,
          -0.09116772562265396,
          0.3374665379524231,
          -0.13941678404808044,
          0.36264538764953613,
          -0.23134759068489075,
          0.07598970830440521,
          0.6196755766868591,
          -0.5168406367301941,
          0.3916037976741791,
          0.15037621557712555,
          -0.35294246673583984,
          -0.44526243209838867,
          -0.23740710318088531,
          -0.014283748343586922,
          -0.09063896536827087,
          -0.30752918124198914,
          0.2975101172924042,
          -0.0705561712384224,
          -0.28199484944343567,
          -0.34279850125312805,
          0.39453309774398804,
          -0.24596107006072998,
          -0.174264058470726,
          -0.5259129405021667,
          0.10937617719173431,
          -0.5214887857437134,
          0.3287116587162018,
          -0.08368977904319763,
          0.09951890259981155,
          0.1197582334280014,
          -0.7390892505645752,
          0.2578338384628296,
          0.014781871810555458,
          0.1689746230840683,
          -0.19533607363700867,
          -0.45898962020874023,
          -0.03622462972998619,
          -0.254022479057312,
          -0.5089609026908875,
          -0.11278291791677475,
          -0.8294165134429932,
          -0.32532998919487,
          0.3836438059806824,
          0.22516357898712158,
          0.29106855392456055,
          0.5673701167106628,
          -0.07302794605493546,
          0.09097468107938766,
          0.6671218872070312,
          -0.0234599057585001,
          0.026913538575172424,
          0.33633434772491455,
          -0.16269004344940186,
          -0.2712889015674591,
          -0.24810366332530975,
          0.18106220662593842,
          -0.16009017825126648,
          -0.42155227065086365,
          -0.6378479599952698,
          -0.8733938336372375,
          -0.36467766761779785,
          -0.6210471987724304,
          -0.4316057860851288,
          0.5628221035003662,
          0.2812022566795349,
          -0.15789325535297394,
          -0.34213903546333313,
          -0.9074651598930359,
          -0.14706812798976898,
          0.15131083130836487,
          -0.31860020756721497,
          -0.12090893089771271,
          0.3969457745552063,
          -0.23096874356269836,
          0.0830707848072052,
          0.19578365981578827,
          -0.4409588575363159,
          0.31946098804473877,
          0.34026771783828735,
          0.18813028931617737,
          0.37367525696754456,
          0.325407475233078,
          0.13531547784805298,
          0.7671268582344055,
          -0.3463975787162781,
          0.1289999783039093,
          -0.5547257661819458,
          0.05034255608916283,
          0.3132970929145813,
          -0.35663241147994995,
          0.04516949877142906,
          -0.20076829195022583,
          0.17849624156951904,
          0.023581191897392273,
          0.02681482397019863,
          -0.5707804560661316,
          0.45764273405075073,
          0.7336500287055969,
          0.4342379570007324,
          0.5648646354675293,
          0.5467609167098999,
          -0.12004914879798889,
          -0.08795210719108582,
          -0.12268727272748947,
          -0.42729777097702026,
          0.08239240199327469,
          0.10949403792619705,
          -0.208103746175766,
          0.11678995937108994,
          0.0012529208324849606,
          0.02862396091222763,
          -0.3467472195625305,
          -0.32890385389328003,
          0.14474160969257355,
          0.2994401752948761,
          -0.41829749941825867,
          -0.036838654428720474,
          0.11590621620416641,
          -0.39897653460502625,
          -0.7750573754310608,
          -0.5081251263618469,
          -0.6679019927978516,
          -0.3543030321598053,
          0.19167204201221466,
          -0.15433305501937866,
          -0.3826717436313629,
          0.16900283098220825,
          -0.3549070656299591,
          0.022309008985757828,
          0.5089397430419922,
          -0.16174866259098053,
          -0.24915069341659546,
          -0.22526168823242188,
          -0.17115674912929535,
          -0.13247135281562805,
          0.2635718882083893,
          -0.552349328994751,
          0.22868822515010834,
          -0.36943525075912476,
          0.2981500029563904,
          0.12746065855026245,
          0.054687753319740295,
          -0.31022799015045166,
          -0.40399467945098877,
          0.24314862489700317,
          -0.672040581703186,
          -0.34182289242744446,
          -0.024822408333420753,
          0.28799372911453247,
          -0.2384304255247116,
          0.03198692947626114,
          -0.1822386533021927,
          -0.10004782676696777,
          0.3508360981941223,
          -0.08451710641384125,
          0.2185809165239334,
          0.390160471200943,
          -0.41708657145500183,
          -0.434057354927063,
          0.0962376520037651,
          -0.14445753395557404,
          0.5266799330711365,
          0.3449667990207672,
          -0.021378759294748306,
          0.4098573327064514,
          0.17355558276176453,
          0.0384119488298893,
          -0.05728326365351677,
          0.40297701954841614,
          -0.17890270054340363,
          -0.3179163932800293,
          -0.184795081615448,
          0.14183931052684784,
          -0.6609126925468445,
          0.19942618906497955,
          -0.3438972234725952,
          -0.29765892028808594,
          -0.08715277165174484,
          -0.018546070903539658,
          -0.7230692505836487,
          0.3533848524093628,
          -0.13552026450634003,
          0.3127864599227905,
          -0.014615965075790882,
          -0.6364580988883972,
          -0.05508941411972046,
          -0.0029135425575077534,
          -0.2832563519477844,
          0.1648460179567337,
          0.8425337672233582,
          0.03533176705241203,
          0.3989652395248413,
          0.6744118928909302,
          0.039815664291381836,
          0.024748051539063454,
          0.08077942579984665,
          0.14061792194843292,
          -0.03739120066165924,
          -0.0006674860487692058,
          -0.3564700484275818,
          -0.8407694697380066,
          -0.16798140108585358,
          -0.40044257044792175,
          -0.7792336344718933,
          0.17747054994106293,
          -0.029767300933599472,
          -0.12898586690425873,
          0.27270495891571045,
          -0.28028589487075806,
          0.14422748982906342,
          0.13998089730739594,
          -0.06447143852710724,
          -0.6330087184906006,
          -0.048164788633584976,
          -0.45793086290359497,
          0.10769093036651611,
          0.40418967604637146,
          -0.025493010878562927,
          0.378658652305603,
          0.429237961769104,
          -0.23166467249393463,
          0.005150234326720238,
          0.7461591362953186,
          -0.3080787658691406,
          -0.20305109024047852,
          0.10802893340587616,
          -0.5810546875,
          -0.46701228618621826,
          -0.09649945795536041,
          0.18865971267223358,
          -0.25756847858428955,
          -0.11498641222715378,
          -0.049082301557064056,
          -0.2246450036764145,
          0.11910119652748108,
          -0.39569953083992004,
          0.4495362639427185,
          -0.38297775387763977,
          -0.404608815908432,
          0.18657447397708893,
          0.0714130625128746,
          -0.19806964695453644,
          0.3062358796596527,
          0.7475121021270752,
          -0.14442697167396545,
          -0.06204933673143387,
          -0.19498026371002197,
          0.10886719822883606,
          -0.4895727336406708,
          0.3113813102245331,
          0.21190105378627777,
          0.20948882400989532,
          0.2042979747056961,
          0.44382408261299133,
          -0.34618252515792847,
          -0.08577986806631088,
          -0.04219076782464981,
          -0.4005175530910492,
          -0.7036741971969604,
          0.20930711925029755,
          0.010743005201220512,
          0.06512047350406647,
          0.02012922428548336,
          0.1181359738111496,
          -0.09865541756153107,
          -0.035235628485679626,
          -0.07936850935220718,
          -0.28723248839378357,
          -0.0058062076568603516,
          0.48870575428009033,
          0.023742014542222023,
          -0.46260738372802734,
          0.05829213187098503,
          0.15540212392807007,
          0.5582045316696167,
          0.03240249305963516,
          0.03856898844242096,
          0.2623877227306366,
          0.006740789394825697,
          -0.1897958219051361,
          0.3431231677532196,
          -0.5015981197357178,
          0.1522633284330368,
          -0.6228727102279663,
          -0.682572066783905,
          0.3738959729671478,
          0.11286050081253052,
          -0.4655655324459076,
          0.5681964755058289,
          -0.10351452231407166,
          0.5388274192810059,
          0.2520446181297302,
          0.17823442816734314,
          -0.26825398206710815,
          0.09887057542800903,
          0.024200962856411934,
          0.6671905517578125,
          0.2219506800174713,
          -0.07670699805021286,
          0.16282065212726593,
          0.5405537486076355,
          0.29748255014419556,
          -0.07615996152162552,
          -0.27891430258750916,
          -0.29601866006851196,
          -0.1441914439201355,
          -0.2917926609516144,
          0.09897615760564804,
          -0.7954228520393372,
          0.23492871224880219,
          -1.1594152450561523,
          -0.42720577120780945,
          0.5088959336280823,
          -0.03302173316478729,
          0.009649444371461868,
          0.9890725016593933,
          -0.24890200793743134,
          0.30029287934303284,
          -0.09297460317611694,
          -0.17443549633026123,
          -0.3536332845687866,
          0.4068635404109955,
          -0.1204891949892044,
          0.5333511829376221,
          -0.35045117139816284,
          0.17894819378852844,
          0.19243541359901428,
          -0.42447996139526367,
          0.03143755719065666,
          0.22080637514591217,
          0.05301463603973389,
          0.140387162566185,
          -0.6982477307319641,
          -0.17902077734470367,
          0.20202623307704926,
          -0.13149169087409973,
          -0.29460951685905457,
          -0.8095589280128479,
          0.191976860165596,
          0.4315832853317261,
          0.09207815676927567,
          -0.42379215359687805,
          0.3597746193408966,
          -0.052870623767375946,
          -0.21528615057468414,
          -0.20316928625106812,
          -0.17642217874526978,
          -0.11806455999612808,
          -0.047684043645858765,
          -0.08136484026908875,
          0.2495487481355667,
          -0.3657645881175995,
          -0.47121214866638184,
          0.15203744173049927,
          -0.5671655535697937,
          -0.14662373065948486,
          -0.05467984452843666,
          0.09609897434711456,
          -0.10494363307952881,
          -0.7466821074485779,
          0.13664309680461884,
          0.164642333984375,
          0.4337847828865051,
          0.19573357701301575,
          -0.25935131311416626,
          0.19895412027835846,
          0.6037834286689758,
          0.12248782813549042,
          0.031148353591561317,
          0.5657520294189453,
          -0.23948875069618225
        ]
      },
      "inputHidden": {
        "rows": 20,
        "columns": 20,
        "weights": [
          -0.8873527646064758,
          -1.8442052602767944,
          -0.38956764340400696,
          -0.8527937531471252,
          0.9582610726356506,
          -0.6987898349761963,
          1.418108582496643,
          0.06483729928731918,
          -0.17180925607681274,
          -0.6160953044891357,
          0.40355798602104187,
          0.25477614998817444,
          0.22699765861034393,
          0.5718064904212952,
          -1.2220133543014526,
          0.36353304982185364,
          0.7091372013092041,
          1.0651079416275024,
          0.4817008078098297,
          0.46279987692832947,
          -0.183365136384964,
          -1.1494981050491333,
          -1.1068066358566284,
          -0.17306718230247498,
          0.3027482330799103,
          0.7968741059303284,
          -0.2881091237068176,
          -0.6053269505500793,
          -0.024999501183629036,
          -0.4237731695175171,
          0.09211187064647675,
          0.7059586644172668,
          -0.8665554523468018,
          1.2827751636505127,
          -0.5425924062728882,
          0.5684722065925598,
          0.013538320548832417,
          -0.11139009892940521,
          0.3839240074157715,
          0.12341351807117462,
          -0.06648093461990356,
          0.595674991607666,
          -0.5904036164283752,
          -0.04051770269870758,
          -0.06329628825187683,
          0.03388727828860283,
          -0.8524932861328125,
          -0.9973821640014648,
          0.49886173009872437,
          -0.49025535583496094,
          0.5438058376312256,
          0.90181565284729,
          -0.5094152688980103,
          0.9327386617660522,
          -0.5467650890350342,
          0.15952979028224945,
          1.5301899909973145,
          -0.7839257121086121,
          -0.6751948595046997,
          0.20249789953231812,
          -2.0492372512817383,
          -0.13299071788787842,
          0.10619872063398361,
          -0.1814880073070526,
          -0.05057678371667862,
          0.04408349096775055,
          -0.9681605696678162,
          1.048877477645874,
          0.28917843103408813,
          0.8453037738800049,
          0.19866116344928741,
          -0.10099633038043976,
          -0.19458584487438202,
          0.8220707774162292,
          -0.48858901858329773,
          1.7569983005523682,
          0.380776584148407,
          -0.28466230630874634,
          -0.21972410380840302,
          0.296526163816452,
          -0.67811119556427,
          -0.194297656416893,
          -0.15035800635814667,
          -0.9597790241241455,
          0.8492039442062378,
          1.1858620643615723,
          -0.20858341455459595,
          1.0560680627822876,
          0.24210278689861298,
          -1.103985071182251,
          1.2991493940353394,
          0.049693889915943146,
          -0.16907204687595367,
          -0.0769759938120842,
          -1.0643069744110107,
          1.8302342891693115,
          -0.26172930002212524,
          -0.22609207034111023,
          0.4687148332595825,
          0.1668851673603058,
          -1.3747551441192627,
          -0.39693814516067505,
          -0.4408126771450043,
          0.2984389364719391,
          1.1604697704315186,
          -1.2811795473098755,
          -1.1196717023849487,
          -0.30873844027519226,
          0.7358131408691406,
          0.8111473321914673,
          0.5422326326370239,
          -0.1942344605922699,
          -0.2864328920841217,
          0.4701121747493744,
          -0.6935673952102661,
          0.13228639960289001,
          -0.33648136258125305,
          -0.40956076979637146,
          0.6862924695014954,
          -1.050628662109375,
          -0.2467959225177765,
          -0.05043821781873703,
          -0.027559544891119003,
          -0.027061136439442635,
          0.5540520548820496,
          -0.30802521109580994,
          -0.6057208776473999,
          -0.045488014817237854,
          0.7454800605773926,
          0.17292502522468567,
          0.10289324074983597,
          -0.10450740903615952,
          0.592943549156189,
          1.4414341449737549,
          -0.9009279012680054,
          1.0134576559066772,
          1.6779134273529053,
          -0.5495505928993225,
          -0.07731270045042038,
          -0.1699368804693222,
          -0.21545790135860443,
          0.6746454238891602,
          0.28838419914245605,
          0.2510553300380707,
          0.16631653904914856,
          -1.350266933441162,
          -0.6003007888793945,
          -0.27778592705726624,
          1.1859049797058105,
          -0.19655990600585938,
          1.0192649364471436,
          -1.3428549766540527,
          0.04290315881371498,
          -0.2778131365776062,
          0.05556413158774376,
          0.24400705099105835,
          -0.4398486912250519,
          -0.20105670392513275,
          1.2684898376464844,
          0.8181599378585815,
          -0.49152424931526184,
          0.3997161388397217,
          -0.02350654825568199,
          0.5515748858451843,
          -0.26350581645965576,
          -0.8548773527145386,
          -0.25237467885017395,
          0.5289302468299866,
          0.7677294015884399,
          1.3438618183135986,
          0.22458377480506897,
          -0.3432627320289612,
          0.6144351959228516,
          0.8028178811073303,
          0.018727686256170273,
          0.7089320421218872,
          -0.8688794374465942,
          -0.18356050550937653,
          -0.2658306360244751,
          0.3241369128227234,
          -0.47012484073638916,
          -0.0821872279047966,
          -0.5380460619926453,
          0.09483330696821213,
          0.36207205057144165,
          -0.11001447588205338,
          -0.41191720962524414,
          0.8885148763656616,
          0.7989152073860168,
          0.15677814185619354,
          -0.2249860167503357,
          -0.4024147093296051,
          -0.5458967089653015,
          0.23646512627601624,
          -0.6134741306304932,
          0.6702144145965576,
          0.9424110651016235,
          -1.2773438692092896,
          0.482950896024704,
          -1.276474952697754,
          -0.2095717340707779,
          0.1455502063035965,
          -0.1930612474679947,
          0.6432850956916809,
          -0.6568522453308105,
          0.9975188970565796,
          0.8912814259529114,
          -0.142521932721138,
          -0.5100075602531433,
          -0.42271825671195984,
          -0.5967268347740173,
          0.7585355639457703,
          -0.6393764615058899,
          -0.30386847257614136,
          -0.15903471410274506,
          0.39708977937698364,
          -0.08926817029714584,
          -1.3273402452468872,
          0.562497079372406,
          -0.9429000616073608,
          -0.505407452583313,
          0.23646627366542816,
          -0.4050717353820801,
          0.897278904914856,
          -0.8111457228660583,
          -1.0880882740020752,
          -0.05993182212114334,
          -0.4496520161628723,
          0.7213709950447083,
          -0.08328264951705933,
          1.375900387763977,
          -1.3924225568771362,
          1.485715389251709,
          -0.0908011943101883,
          -0.635430097579956,
          0.574730634689331,
          -0.1652746945619583,
          0.7759010195732117,
          -0.10408148914575577,
          0.6318281292915344,
          -0.31609249114990234,
          -0.3796858787536621,
          -0.4884570837020874,
          0.0847436711192131,
          1.877098560333252,
          0.34797054529190063,
          -0.014892484992742538,
          -0.8985483050346375,
          -0.19764024019241333,
          -0.0873524621129036,
          0.5085998177528381,
          0.6767705082893372,
          0.6077784895896912,
          -0.23907092213630676,
          -0.5343735814094543,
          1.1191046237945557,
          0.3415602445602417,
          0.3498677611351013,
          0.022134307771921158,
          -0.2538052797317505,
          -1.5274101495742798,
          -0.9596044421195984,
          -1.1834787130355835,
          0.2890980839729309,
          0.06573399156332016,
          0.7498571872711182,
          -1.3927032947540283,
          -0.11555653810501099,
          0.8445918560028076,
          0.8194656372070312,
          0.27217596769332886,
          -0.7898402214050293,
          -0.16389329731464386,
          0.41800230741500854,
          -0.9486749172210693,
          0.49697837233543396,
          1.1342486143112183,
          -1.9232604503631592,
          -0.041975993663072586,
          -0.26887020468711853,
          -0.193216934800148,
          -0.2941663861274719,
          -0.1449851393699646,
          0.33656734228134155,
          0.9669808745384216,
          1.2673470973968506,
          -0.24528926610946655,
          -0.14995312690734863,
          -0.36416637897491455,
          0.07135935127735138,
          -1.0739202499389648,
          0.35872194170951843,
          0.24185386300086975,
          0.05788882076740265,
          -0.8620880842208862,
          -0.34617146849632263,
          0.33706793189048767,
          -0.25863128900527954,
          1.7724741697311401,
          -0.08057957142591476,
          -0.1970522552728653,
          0.4204961657524109,
          -0.004318463150411844,
          0.6351673603057861,
          -0.37459099292755127,
          -1.2482260465621948,
          -0.48834899067878723,
          -0.6103907823562622,
          0.5553579330444336,
          0.05416983366012573,
          -0.47913503646850586,
          0.04102751240134239,
          0.15194003283977509,
          0.4763058125972748,
          -0.48827478289604187,
          1.3962252140045166,
          0.42689943313598633,
          -1.449008584022522,
          1.4959602355957031,
          -0.9237167835235596,
          -0.46576830744743347,
          -0.8375564217567444,
          -0.9145559668540955,
          -0.19837068021297455,
          0.1555391252040863,
          0.581521213054657,
          -0.6659907698631287,
          0.6912859678268433,
          0.14563685655593872,
          -0.02493322640657425,
          -0.3697809875011444,
          -0.478511780500412,
          -0.19580817222595215,
          0.8021585941314697,
          -0.8088074922561646,
          0.716297447681427,
          0.8177696466445923,
          -0.02813703753054142,
          0.330267071723938,
          -0.9518823623657227,
          -0.26879170536994934,
          0.15018047392368317,
          -0.8586091995239258,
          -1.015660285949707,
          0.243547260761261,
          -0.050146788358688354,
          -0.14514175057411194,
          -0.17231762409210205,
          0.40709978342056274,
          -0.30338338017463684,
          0.34853217005729675,
          -0.8285133242607117,
          -0.05543437600135803,
          1.1608844995498657,
          -1.3818477392196655,
          0.11173055320978165,
          -0.029229940846562386,
          0.024612192064523697,
          0.10426315665245056,
          -0.7775439620018005,
          0.01031841617077589,
          0.32423293590545654,
          -0.38056716322898865,
          -0.43679001927375793,
          0.37546902894973755,
          0.7098885774612427,
          0.17809396982192993,
          -0.1250523179769516,
          0.6416320204734802,
          -0.593956708908081,
          -0.24886491894721985,
          -0.19525185227394104,
          -0.37789613008499146,
          -0.6525800824165344,
          -0.24090969562530518,
          0.1310163140296936,
          0.32320693135261536,
          0.06775473803281784,
          0.20667412877082825,
          -0.08143828064203262,
          0.16666796803474426,
          -0.09589411318302155,
          -0.617326557636261,
          0.7071541547775269,
          1.095709204673767,
          -0.31686919927597046,
          -0.9816853404045105,
          -0.2581510543823242,
          0.22206129133701324,
          -0.3971732556819916,
          -0.2735472321510315,
          -1.0574597120285034,
          -0.40408724546432495,
          -0.08197888731956482,
          -0.7799832224845886,
          0.5085480809211731,
          0.025395948439836502,
          -0.08895261585712433,
          0.0593411922454834,
          -0.6077943444252014
        ]
      },
      "inputBias": {
        "rows": 20,
        "columns": 1,
        "weights": [
          0.15720878541469574,
          -0.12963604927062988,
          0.05007809400558472,
          0.7994116544723511,
          0.19519662857055664,
          -0.1339990794658661,
          0.28899163007736206,
          0.2735934853553772,
          0.5736166834831238,
          -0.006384992506355047,
          0.7064096331596375,
          0.14267343282699585,
          0.7446033954620361,
          0.2520309388637543,
          0.3462264835834503,
          0.8371934294700623,
          0.24182899296283722,
          0.38423046469688416,
          0.48230868577957153,
          0.0449308305978775
        ]
      },
      "forgetMatrix": {
        "rows": 20,
        "columns": 27,
        "weights": [
          -0.3342684507369995,
          -0.09274303168058395,
          -0.08532001823186874,
          -0.4523966908454895,
          0.018842440098524094,
          0.3479241132736206,
          0.19693723320960999,
          0.48322030901908875,
          -0.12782248854637146,
          -0.28536590933799744,
          -0.7653714418411255,
          -0.02336762845516205,
          0.11384692043066025,
          0.3704514503479004,
          -0.12260684370994568,
          -0.15115861594676971,
          -0.08571517467498779,
          -0.10854879021644592,
          -0.20453640818595886,
          0.4591444730758667,
          -0.45963233709335327,
          0.01313670352101326,
          -0.1092420369386673,
          -0.14992046356201172,
          -0.134206622838974,
          0.4168080687522888,
          0.26971128582954407,
          0.16788679361343384,
          0.038926053792238235,
          -0.15027260780334473,
          -0.1974894404411316,
          0.003598051844164729,
          -0.10365929454565048,
          0.5865011215209961,
          1.092452883720398,
          -0.09489963948726654,
          -0.23286013305187225,
          1.007753849029541,
          -0.3279567360877991,
          -0.1649651974439621,
          -0.1312679946422577,
          0.05072787404060364,
          0.0806586742401123,
          0.2385401427745819,
          -0.009740044362843037,
          -0.8930478692054749,
          0.2776713967323303,
          -0.6066105961799622,
          -0.6894444227218628,
          0.2187202274799347,
          0.23984822630882263,
          -0.19218508899211884,
          0.26220405101776123,
          -0.11205852031707764,
          -0.7387570142745972,
          -0.2558811604976654,
          -0.2980996370315552,
          0.49213096499443054,
          0.023934729397296906,
          -0.0007448455435223877,
          0.07128233462572098,
          0.38799673318862915,
          0.24152125418186188,
          -0.11417342722415924,
          0.1793150007724762,
          -0.5739779472351074,
          0.09910956025123596,
          0.2825973331928253,
          0.2792874872684479,
          0.04304792359471321,
          0.08223727345466614,
          0.1434154212474823,
          0.48109328746795654,
          -0.020312540233135223,
          -0.12128816545009613,
          -0.4115087687969208,
          0.22380295395851135,
          0.4451224207878113,
          0.052315063774585724,
          0.06238739565014839,
          -0.2532416880130768,
          0.8633031249046326,
          -0.010123885236680508,
          -0.16519753634929657,
          -0.19999410212039948,
          0.1977495402097702,
          0.31844964623451233,
          0.9152142405509949,
          0.2761163115501404,
          0.009188574738800526,
          -0.0690595954656601,
          0.008398739621043205,
          0.2867606580257416,
          0.42629823088645935,
          0.1215272918343544,
          0.46525847911834717,
          -0.04516072943806648,
          -0.2953680753707886,
          0.23005104064941406,
          -0.38061872124671936,
          0.62314373254776,
          0.3271973431110382,
          0.20894324779510498,
          -0.33018383383750916,
          -0.0837399885058403,
          -0.45388704538345337,
          -0.1789211928844452,
          0.330122709274292,
          0.13658104836940765,
          0.11476875096559525,
          0.07847155630588531,
          -0.10245895385742188,
          0.14209423959255219,
          0.06648579984903336,
          0.31121063232421875,
          -0.6586030721664429,
          0.12241353839635849,
          -0.05935925990343094,
          -0.3796752393245697,
          0.36843374371528625,
          0.14652463793754578,
          0.005368122365325689,
          0.010001187212765217,
          -0.2051740437746048,
          -0.05557232350111008,
          -0.15107902884483337,
          -0.010959246195852757,
          0.11544173955917358,
          -0.2293860763311386,
          0.1666371375322342,
          0.12482234835624695,
          0.21398073434829712,
          -0.5367119908332825,
          0.35577213764190674,
          -0.16648851335048676,
          -0.6938678622245789,
          0.6310730576515198,
          -0.28874585032463074,
          -0.2025526762008667,
          -0.29489728808403015,
          -0.22150418162345886,
          -0.3841911256313324,
          -0.47591379284858704,
          -0.5406603813171387,
          -0.03410464897751808,
          -1.4987441301345825,
          0.5943267345428467,
          -0.0938088595867157,
          0.20720507204532623,
          -0.5231538414955139,
          -0.6195480227470398,
          0.0500962994992733,
          -0.4181598722934723,
          0.4992011487483978,
          -0.3486148416996002,
          0.029038233682513237,
          0.7228761911392212,
          -0.0062378281727433205,
          -0.0742301270365715,
          -0.4310586154460907,
          0.09392577409744263,
          -0.0670144334435463,
          -0.18695692718029022,
          0.0049599092453718185,
          0.07486091554164886,
          -0.5006441473960876,
          0.16267837584018707,
          -0.0726560726761818,
          0.1304275095462799,
          -0.5963488817214966,
          0.3211410641670227,
          -0.007343108765780926,
          -0.0595310814678669,
          0.02918584644794464,
          0.28396716713905334,
          0.031611088663339615,
          -0.6071655750274658,
          -0.6741241216659546,
          -0.06641882658004761,
          0.2619878947734833,
          -0.175709068775177,
          0.07008696347475052,
          -0.26813673973083496,
          0.402638703584671,
          0.25425827503204346,
          -0.328631728887558,
          0.4112660586833954,
          0.10045768320560455,
          0.03521675243973732,
          -0.4349362552165985,
          0.09086146205663681,
          0.4057977795600891,
          0.5098469853401184,
          -0.277029812335968,
          -0.4261038303375244,
          -1.0478525161743164,
          -0.43803685903549194,
          -0.17562007904052734,
          0.2750655710697174,
          0.35047850012779236,
          0.14820066094398499,
          -0.1335650533437729,
          -0.11380665004253387,
          -0.11365808546543121,
          0.08949440717697144,
          0.4251641035079956,
          -0.3583105206489563,
          0.4478549659252167,
          0.1210077553987503,
          1.3905906677246094,
          0.4808991253376007,
          -0.47530198097229004,
          0.1706310659646988,
          0.7164691090583801,
          -0.9755764603614807,
          0.14153535664081573,
          0.35250017046928406,
          -0.2356989085674286,
          -0.2295243889093399,
          0.06884849816560745,
          -0.34250473976135254,
          0.20285703241825104,
          0.051638852804899216,
          0.0935978889465332,
          -0.10387277603149414,
          0.28718075156211853,
          0.8145840167999268,
          0.36600223183631897,
          -0.1436367928981781,
          0.2108723372220993,
          0.08991944789886475,
          0.6654194593429565,
          -0.046606726944446564,
          0.3528288006782532,
          -0.3614490330219269,
          -0.028274204581975937,
          0.1460810899734497,
          -0.32264620065689087,
          -0.0801125168800354,
          0.015164905227720737,
          -0.01793627440929413,
          -0.174224391579628,
          -0.027890171855688095,
          -0.2250809669494629,
          0.04459356516599655,
          0.2643857002258301,
          -0.5766661763191223,
          -0.08703777194023132,
          -0.0019646096043288708,
          0.06957555562257767,
          -0.1461857706308365,
          0.3249472677707672,
          0.04412621259689331,
          -0.36304789781570435,
          -0.22932910919189453,
          0.34874218702316284,
          0.08172519505023956,
          -0.5813694596290588,
          -0.7210103273391724,
          0.39630451798439026,
          0.018290743231773376,
          0.21142074465751648,
          0.30287525057792664,
          -0.6639179587364197,
          -0.07251977920532227,
          0.39194485545158386,
          -0.15471577644348145,
          -0.1516348421573639,
          0.46324142813682556,
          0.48445257544517517,
          -0.175030916929245,
          -0.12501104176044464,
          0.04205553978681564,
          0.3260517716407776,
          -0.11236481368541718,
          0.39414358139038086,
          0.3048632740974426,
          0.6954385042190552,
          -0.2835198938846588,
          -0.7839678525924683,
          0.9902468323707581,
          0.5136357545852661,
          0.014602498151361942,
          0.1437973827123642,
          -0.16378530859947205,
          -0.05011024698615074,
          0.7028537392616272,
          -0.1651960015296936,
          0.0636400580406189,
          0.3993196189403534,
          -0.03155338019132614,
          -0.10191717743873596,
          0.21164295077323914,
          0.20938420295715332,
          0.41138651967048645,
          0.22923636436462402,
          -0.42955753207206726,
          -0.037625961005687714,
          -0.06249788776040077,
          0.036268096417188644,
          0.6310721039772034,
          0.5951431393623352,
          0.09820257127285004,
          -0.5059632658958435,
          -0.36678391695022583,
          0.09594862163066864,
          0.15145401656627655,
          -0.12135973572731018,
          0.17400944232940674,
          -0.7156277298927307,
          -0.18837256729602814,
          0.4159199595451355,
          0.1256512850522995,
          -0.018468687310814857,
          -0.33329716324806213,
          -0.02473369799554348,
          0.056654978543519974,
          -0.11173877120018005,
          0.39806580543518066,
          -0.4289170801639557,
          0.23875507712364197,
          -0.5548680424690247,
          -0.14874331653118134,
          -0.35771748423576355,
          -0.2456730604171753,
          0.0805775597691536,
          -0.46135056018829346,
          -0.4001920223236084,
          0.2262587696313858,
          -0.0916253998875618,
          -0.06135079637169838,
          -0.42696714401245117,
          -0.19541092216968536,
          -0.14984728395938873,
          -1.4878935813903809,
          0.2849780321121216,
          0.06554919481277466,
          0.18262749910354614,
          -0.15331485867500305,
          -0.646034300327301,
          -0.4457366168498993,
          -0.3256785571575165,
          0.2492801994085312,
          -0.06501437723636627,
          0.43277642130851746,
          0.4772409498691559,
          0.213155135512352,
          0.057562366127967834,
          -0.5868021845817566,
          0.20661213994026184,
          -0.22658824920654297,
          -0.122687429189682,
          0.27570420503616333,
          0.0026631506625562906,
          -0.01010753121227026,
          -0.5319635272026062,
          -0.06315786391496658,
          0.3864358365535736,
          -0.8621896505355835,
          -0.455357164144516,
          -0.1846189945936203,
          -0.18119676411151886,
          0.2043255716562271,
          0.09027273952960968,
          0.08889748156070709,
          -0.20757877826690674,
          -0.14872027933597565,
          0.07977356016635895,
          0.326447069644928,
          0.26776185631752014,
          0.3744937479496002,
          -0.1872165948152542,
          -0.20041559636592865,
          0.13502147793769836,
          -0.5042130947113037,
          -0.15842151641845703,
          0.13932934403419495,
          0.003527589375153184,
          -0.2980324625968933,
          0.4942797124385834,
          0.2610478103160858,
          -0.73687344789505,
          -0.1519254893064499,
          0.22703522443771362,
          0.5044532418251038,
          -0.023513764142990112,
          0.6646517515182495,
          0.16520944237709045,
          0.19966435432434082,
          -0.5780290961265564,
          0.2921788990497589,
          0.25308170914649963,
          -0.8037254810333252,
          -0.12253334373235703,
          -0.4234786033630371,
          0.38245224952697754,
          -0.1418638527393341,
          -0.3057858347892761,
          0.3120700716972351,
          -0.08194645494222641,
          -0.07677068561315536,
          -0.36268383264541626,
          0.20929564535617828,
          -0.14502327144145966,
          0.5317897200584412,
          -0.45206713676452637,
          0.16816820204257965,
          0.1889776885509491,
          -0.010312655009329319,
          -0.07942739129066467,
          -0.39177992939949036,
          -0.48899146914482117,
          0.006616140250116587,
          -0.38417109847068787,
          0.29740139842033386,
          0.27227696776390076,
          -0.278476744890213,
          0.1826116442680359,
          -0.18598459661006927,
          0.05546702444553375,
          -0.3411169946193695,
          0.4278789162635803,
          -0.40413898229599,
          -0.02212098054587841,
          0.15742707252502441,
          -0.26655763387680054,
          0.5758426785469055,
          0.21845479309558868,
          -0.4004749655723572,
          0.20727486908435822,
          0.017810365185141563,
          -0.0493987537920475,
          0.3423018157482147,
          -0.07241059094667435,
          -0.16505122184753418,
          -0.4309355914592743,
          -0.127043679356575,
          -0.14896179735660553,
          0.24977853894233704,
          -0.06448109447956085,
          -0.03636369854211807,
          -0.07635201513767242,
          -0.1406186819076538,
          0.17602814733982086,
          0.2794589102268219,
          0.14157241582870483,
          0.15320903062820435,
          0.20490944385528564,
          0.19798628985881805,
          0.4806651473045349,
          -0.33131924271583557,
          -0.1703786998987198,
          0.12199895083904266,
          -0.11583605408668518,
          -0.5316377878189087,
          -0.1289970874786377,
          -0.16173046827316284,
          0.3627265989780426,
          -0.3052397668361664,
          0.5746766924858093,
          -0.24266506731510162,
          -0.5888399481773376,
          0.07174305617809296,
          -0.16014346480369568,
          -0.06262341141700745,
          0.042007021605968475,
          -0.017639046534895897,
          -0.17359794676303864,
          0.6377593874931335,
          0.5888708233833313,
          0.6451839208602905,
          -0.20791053771972656,
          0.24952833354473114,
          0.49703341722488403,
          0.23780128359794617,
          -0.1066976860165596,
          0.049818746745586395,
          0.023366691544651985,
          0.141647070646286,
          0.20955699682235718,
          -0.027308877557516098,
          -0.2248663306236267,
          0.14991866052150726,
          0.038297612220048904,
          -0.08209460973739624,
          -0.36435627937316895,
          0.24780692160129547,
          -0.15641941130161285,
          -0.4079777002334595,
          0.2756205201148987,
          -0.0029577778186649084,
          -0.08869172632694244,
          -0.1420641541481018,
          0.6551777720451355,
          -0.06596453487873077,
          -0.7223707437515259,
          -0.29366037249565125,
          -0.40053021907806396,
          -0.07040443271398544,
          0.20042577385902405,
          0.23967956006526947,
          0.1110970601439476,
          0.17547982931137085,
          -0.002936837263405323,
          -0.18039417266845703,
          -0.03843691945075989,
          -0.5139657855033875,
          -0.6699504852294922,
          -0.11152920871973038,
          0.2184583842754364,
          0.04962862655520439,
          -0.012526126578450203,
          -0.03081679530441761,
          -0.05125516280531883,
          0.0008690838003531098,
          0.0007086083642207086,
          -0.1625022441148758,
          0.1671232134103775,
          0.07935502380132675,
          -0.17364250123500824,
          0.0497552789747715,
          0.20352719724178314,
          -0.1710791289806366,
          0.28234171867370605,
          -0.23521475493907928,
          -0.23352020978927612,
          -0.004697680007666349,
          -0.07723121345043182,
          -0.03513511270284653,
          -0.22595524787902832,
          0.38000673055648804,
          0.20090700685977936,
          -0.38840052485466003,
          0.7315579056739807,
          -0.08645269274711609,
          0.20074474811553955,
          0.04638213664293289,
          0.16037403047084808,
          -0.17156417667865753,
          -0.18334448337554932
        ]
      },
      "forgetHidden": {
        "rows": 20,
        "columns": 20,
        "weights": [
          -0.7237452268600464,
          0.5121631026268005,
          -0.29677534103393555,
          -0.6065146923065186,
          -0.011084605008363724,
          -0.205972820520401,
          -0.7403056621551514,
          0.2091396003961563,
          -0.08718658983707428,
          0.3469960689544678,
          0.4116874039173126,
          -0.5251548886299133,
          0.21575133502483368,
          -0.4265725612640381,
          0.21424463391304016,
          -0.16929857432842255,
          -1.1420934200286865,
          -0.017429711297154427,
          -1.265140414237976,
          0.32506948709487915,
          -0.3495246171951294,
          -0.801999032497406,
          -0.18288545310497284,
          -0.16033783555030823,
          0.4252932369709015,
          -0.11959458887577057,
          -0.9099116921424866,
          0.14562474191188812,
          0.7833601832389832,
          0.33063840866088867,
          0.32707682251930237,
          -0.6563420295715332,
          0.2607843577861786,
          -0.04973234236240387,
          -0.2938017249107361,
          -0.6100043654441833,
          1.29963219165802,
          -0.9700250029563904,
          -0.0881032943725586,
          -0.02014397643506527,
          -0.9394792914390564,
          0.324214369058609,
          -0.570756733417511,
          -1.0292012691497803,
          0.5412068367004395,
          -1.2878684997558594,
          0.44879376888275146,
          0.12173421680927277,
          -0.17594218254089355,
          -1.3400293588638306,
          0.331502765417099,
          -0.34471914172172546,
          0.40441980957984924,
          0.501099169254303,
          -0.005878152791410685,
          0.6097679138183594,
          -0.2181159406900406,
          -0.34113162755966187,
          0.38063856959342957,
          -0.029601285234093666,
          0.8729321360588074,
          0.3411446511745453,
          -0.1758795529603958,
          1.040615439414978,
          0.1362272948026657,
          -0.5906195640563965,
          -0.8787474036216736,
          0.4702686369419098,
          0.09045004099607468,
          0.22839541733264923,
          -0.8718501925468445,
          -0.3461493253707886,
          -0.14925602078437805,
          -0.7604066729545593,
          0.10580295324325562,
          -0.23002074658870697,
          0.7044071555137634,
          0.1571868658065796,
          0.9656071662902832,
          -1.3600825071334839,
          0.36303645372390747,
          -0.3095668852329254,
          -0.7602510452270508,
          -0.9405036568641663,
          0.2770368456840515,
          0.6158435344696045,
          0.1576533168554306,
          0.5460125207901001,
          0.022333165630698204,
          -1.523431420326233,
          -0.027311446145176888,
          0.8731653690338135,
          -0.2748461663722992,
          0.38752418756484985,
          0.09732998162508011,
          0.3462056517601013,
          -0.18876288831233978,
          -0.41702690720558167,
          -0.31894922256469727,
          0.39301735162734985,
          0.1696220338344574,
          0.3453471064567566,
          0.29366910457611084,
          0.3821072578430176,
          -1.0130417346954346,
          1.0027847290039062,
          0.14236462116241455,
          -0.23328030109405518,
          0.22398340702056885,
          0.6025575399398804,
          -0.21069785952568054,
          0.022984543815255165,
          0.6681607365608215,
          -0.40612277388572693,
          -0.3572840988636017,
          0.5817294716835022,
          1.0444331169128418,
          0.24344965815544128,
          -0.12874120473861694,
          -0.2982986569404602,
          0.6224703788757324,
          -0.05205390229821205,
          0.8721295595169067,
          0.15930771827697754,
          -0.14094792306423187,
          -0.5727550387382507,
          0.010496078059077263,
          -0.6196256875991821,
          0.2674313187599182,
          -0.15165676176548004,
          -0.5186047554016113,
          -0.08040924370288849,
          -0.31943798065185547,
          0.4474089443683624,
          -0.2911551594734192,
          0.06336531043052673,
          -0.05324781686067581,
          0.21891561150550842,
          -0.2586015462875366,
          -0.7100499272346497,
          -0.43155479431152344,
          0.6557083129882812,
          0.5642820596694946,
          0.3710537254810333,
          -1.3181425333023071,
          1.442344307899475,
          0.19071193039417267,
          0.338561475276947,
          -0.6850806474685669,
          -0.08629573881626129,
          -0.016440894454717636,
          0.6013579368591309,
          -0.7806065678596497,
          -0.9548100829124451,
          0.46122410893440247,
          0.037032660096883774,
          -0.5591338872909546,
          -0.6232336163520813,
          -0.2587531507015228,
          -0.7554239630699158,
          -0.25066235661506653,
          0.02759857289493084,
          0.45814651250839233,
          -0.2969939112663269,
          0.08905233442783356,
          0.6143842935562134,
          0.3008730113506317,
          0.2508348226547241,
          0.5300987362861633,
          0.3237913250923157,
          0.4213128089904785,
          -0.26059290766716003,
          0.08064489811658859,
          0.2718111574649811,
          -0.3570757806301117,
          0.19846582412719727,
          0.029028918594121933,
          -0.8717857003211975,
          0.11848732084035873,
          0.13340166211128235,
          -1.6847565174102783,
          -0.31511420011520386,
          -0.23905730247497559,
          0.9158141016960144,
          -0.6552809476852417,
          -1.0872867107391357,
          -1.2626415491104126,
          -0.3698180019855499,
          -0.1607709527015686,
          -0.26438361406326294,
          0.4211089611053467,
          -0.269731342792511,
          -0.4301089644432068,
          -0.06318310648202896,
          -0.5409559607505798,
          1.2331676483154297,
          -0.027056049555540085,
          -0.0289675984531641,
          0.004730217158794403,
          -0.7084162831306458,
          -0.6192238330841064,
          -0.5426157712936401,
          -0.8952677249908447,
          0.837122917175293,
          -1.8571995496749878,
          -0.6955229043960571,
          -1.0251144170761108,
          0.09721110016107559,
          -0.045919690281152725,
          -0.34736356139183044,
          0.2678142189979553,
          -0.4341587722301483,
          -0.9714257121086121,
          0.3895147442817688,
          -0.006256930064409971,
          -0.13957475125789642,
          -0.13638678193092346,
          0.3255539536476135,
          -0.2023034542798996,
          -0.03872663900256157,
          -0.5084538459777832,
          0.0320904478430748,
          -0.5003411769866943,
          0.1385474056005478,
          0.5215651392936707,
          0.012216457165777683,
          -0.07451001554727554,
          0.24759390950202942,
          0.1835584193468094,
          0.2417541742324829,
          0.10355652868747711,
          0.4118853211402893,
          0.020643405616283417,
          0.3208819627761841,
          -0.061673056334257126,
          0.5500326156616211,
          -0.280141681432724,
          0.9768878817558289,
          -0.11755732446908951,
          -0.31406673789024353,
          -0.5949095487594604,
          -0.35371634364128113,
          0.8192492723464966,
          0.10051217675209045,
          0.03855711966753006,
          -0.022191694006323814,
          0.6571628451347351,
          -0.30203837156295776,
          -0.17885780334472656,
          0.0320873036980629,
          -0.29791590571403503,
          -0.123564712703228,
          -0.18186165392398834,
          -0.44709041714668274,
          -0.04498276486992836,
          -0.02898303046822548,
          -0.1623905748128891,
          0.8468759059906006,
          -0.07980164885520935,
          -0.233843132853508,
          -0.07498594373464584,
          -0.3945215940475464,
          0.9341020584106445,
          -0.8336794972419739,
          0.9645596742630005,
          0.3191133439540863,
          -0.06879125535488129,
          0.42121613025665283,
          -0.9870386123657227,
          0.04813172295689583,
          -1.2776576280593872,
          0.17469261586666107,
          -0.19276893138885498,
          0.35597503185272217,
          -0.24167634546756744,
          -0.809087336063385,
          0.18175441026687622,
          0.2657167315483093,
          0.3807357847690582,
          1.3492997884750366,
          0.28536924719810486,
          0.800092339515686,
          0.1098436564207077,
          0.09735193848609924,
          0.3182268738746643,
          -0.39313608407974243,
          -0.5539532899856567,
          0.2263808250427246,
          -0.0340326651930809,
          -0.43336308002471924,
          -0.9739546179771423,
          -0.9151151776313782,
          1.0478929281234741,
          0.6825873255729675,
          -0.6360471844673157,
          0.088045135140419,
          0.06513625383377075,
          0.41413000226020813,
          -0.46610012650489807,
          -0.070126973092556,
          -0.6307055950164795,
          -0.07189913094043732,
          -0.14890475571155548,
          0.3202592730522156,
          -0.07709372043609619,
          0.34945788979530334,
          0.26668572425842285,
          -0.471749871969223,
          -0.9070033431053162,
          -0.03198729828000069,
          -0.5574889183044434,
          0.48586350679397583,
          -0.34267762303352356,
          0.21920189261436462,
          -0.43796125054359436,
          0.46125465631484985,
          0.077998585999012,
          0.5817659497261047,
          -0.036979641765356064,
          0.05775327607989311,
          1.0047097206115723,
          -0.9624506831169128,
          0.1398354321718216,
          0.6591105461120605,
          -0.09115201979875565,
          0.9049273729324341,
          -0.7337798476219177,
          -0.1983385980129242,
          -0.20222075283527374,
          0.7008302211761475,
          0.05787600576877594,
          0.6687173843383789,
          0.23930075764656067,
          0.2374429702758789,
          -0.38795197010040283,
          -0.2645653188228607,
          0.4596778452396393,
          0.42859530448913574,
          0.3266434669494629,
          -0.22469095885753632,
          0.6876842975616455,
          -0.7106928825378418,
          -0.3388462960720062,
          0.9148373007774353,
          0.4160195291042328,
          0.3809831142425537,
          -0.9052177667617798,
          0.4516013264656067,
          -0.038941774517297745,
          -0.24715077877044678,
          -1.0724258422851562,
          -0.210862398147583,
          -0.10201200097799301,
          0.4831048250198364,
          -0.705381453037262,
          0.8825830221176147,
          0.8535264134407043,
          0.26936033368110657,
          0.12627556920051575,
          0.21776366233825684,
          -0.3748680353164673,
          -0.399848610162735,
          -0.33260104060173035,
          -0.41018009185791016,
          -0.004126370884478092,
          0.012111750431358814,
          -0.15399117767810822,
          0.7122461795806885,
          -0.39074182510375977,
          -0.23069360852241516,
          -0.06323963403701782,
          0.13923439383506775,
          -0.5329484939575195,
          0.39774811267852783,
          0.5851181149482727,
          -0.11558420211076736,
          -0.13408681750297546,
          -0.24992629885673523,
          0.07216491550207138,
          0.5367716550827026,
          0.7671790719032288,
          -0.591377317905426,
          -0.2931390106678009,
          1.74945068359375,
          -0.8554337024688721,
          -0.4561305344104767,
          1.0553059577941895,
          0.8273164629936218,
          -0.166841059923172,
          0.6218954920768738,
          -0.4192233979701996,
          -0.6157383322715759,
          0.8155652284622192,
          -1.2352298498153687,
          -0.18628232181072235,
          -0.10403041541576385,
          0.3217727243900299,
          -0.028594909235835075,
          1.086883783340454,
          -0.4608567953109741
        ]
      },
      "forgetBias": {
        "rows": 20,
        "columns": 1,
        "weights": [
          0,
          0,
          0,
          0,
          0,
          0,
          0,
          0,
          0,
          0,
          0,
          0,
          0,
          0,
          0,
          0,
          0,
          0,
          0,
          0
        ]
      },
      "outputMatrix": {
        "rows": 20,
        "columns": 27,
        "weights": [
          0.37484073638916016,
          0.22828556597232819,
          -0.046764958649873734,
          -0.4450964629650116,
          0.07329621911048889,
          0.027272164821624756,
          -0.01728774979710579,
          0.5938627123832703,
          -0.19095613062381744,
          0.8505250811576843,
          -0.02068185992538929,
          0.2481258511543274,
          -0.29466328024864197,
          0.270927757024765,
          -0.3420950472354889,
          -0.19407455623149872,
          -0.20056748390197754,
          -0.539247453212738,
          -0.42304274439811707,
          -0.058065347373485565,
          0.15449081361293793,
          0.22546307742595673,
          -0.0417012982070446,
          -0.11763500422239304,
          0.1253434419631958,
          0.09957035630941391,
          -0.11916698515415192,
          0.10272888094186783,
          -0.08095873147249222,
          0.10865674167871475,
          -0.6244110465049744,
          -0.0841113030910492,
          0.5700158476829529,
          -0.17740757763385773,
          0.9572916030883789,
          0.10058967024087906,
          -0.2594044506549835,
          0.3637462556362152,
          0.006358177866786718,
          -0.18938048183918,
          0.018586302176117897,
          -0.26979249715805054,
          0.14147484302520752,
          -0.3788648545742035,
          -0.5041002035140991,
          -0.6635773777961731,
          -0.15325839817523956,
          -0.5833376049995422,
          -1.0400909185409546,
          0.48077473044395447,
          -0.020744217559695244,
          -0.36105334758758545,
          0.07249996811151505,
          0.2390424907207489,
          0.07929326593875885,
          -0.32924818992614746,
          0.05083142966032028,
          -0.23008237779140472,
          -0.2705674469470978,
          0.10079848021268845,
          -0.44959381222724915,
          0.17318981885910034,
          0.2950049936771393,
          0.07842604070901871,
          0.9479539394378662,
          -0.4987383484840393,
          0.22412730753421783,
          0.12458793073892593,
          -0.1977909654378891,
          0.32609298825263977,
          -0.054085586220026016,
          -0.43907415866851807,
          -0.8599392175674438,
          0.2453136295080185,
          -0.10780437290668488,
          -0.4282325208187103,
          0.11451534181833267,
          0.006373582407832146,
          0.04666614532470703,
          0.17587889730930328,
          -0.12246019393205643,
          0.38673174381256104,
          0.22858142852783203,
          -0.43909788131713867,
          -0.39963874220848083,
          -0.05102486535906792,
          -0.34335100650787354,
          0.13720892369747162,
          0.7826758623123169,
          -0.14872229099273682,
          0.24270407855510712,
          0.5092176795005798,
          -0.012904387898743153,
          0.14623090624809265,
          0.2860884368419647,
          0.18025898933410645,
          -0.16423183679580688,
          -0.18397317826747894,
          0.08074592798948288,
          -1.4360249042510986,
          0.14829444885253906,
          -0.6287277340888977,
          -0.6544156670570374,
          0.5711604356765747,
          -0.429054856300354,
          -0.1555885523557663,
          0.6025484800338745,
          -0.26765209436416626,
          0.20290270447731018,
          0.18450504541397095,
          -0.29099321365356445,
          -0.8271466493606567,
          0.2596108615398407,
          0.19534923136234283,
          -0.11578425765037537,
          -0.25722187757492065,
          0.28452736139297485,
          0.020477520301938057,
          -0.4678329527378082,
          -0.007783812005072832,
          0.10210760682821274,
          0.2034849375486374,
          -0.15913380682468414,
          -0.4828472137451172,
          -0.33337146043777466,
          0.15976852178573608,
          -0.3977554440498352,
          -0.048616647720336914,
          -0.973328709602356,
          -0.1973130702972412,
          0.3959733843803406,
          -0.21451698243618011,
          -0.4593775272369385,
          0.6523804068565369,
          -0.317148894071579,
          -0.10574916750192642,
          -0.03449687734246254,
          -0.7292366623878479,
          -0.40302324295043945,
          0.11030830442905426,
          -0.04818757250905037,
          0.6089709997177124,
          -1.113993525505066,
          0.07224668562412262,
          0.055671412497758865,
          -0.4478764235973358,
          0.13322027027606964,
          0.551408052444458,
          0.3708767592906952,
          -0.1695811003446579,
          -0.7286987900733948,
          0.20635008811950684,
          0.42591947317123413,
          -0.10304483771324158,
          0.2801488935947418,
          -0.6393626928329468,
          0.2269318699836731,
          -0.18184161186218262,
          -0.18223801255226135,
          -0.7020501494407654,
          0.6513444185256958,
          0.3513013422489166,
          0.371954083442688,
          -0.4133762717247009,
          -0.17826472222805023,
          -0.1574448049068451,
          -0.1350959688425064,
          -0.03142797574400902,
          -0.16704174876213074,
          0.7046701908111572,
          0.24253419041633606,
          0.051888443529605865,
          0.1739630550146103,
          0.09319230169057846,
          0.37801676988601685,
          -0.3838249146938324,
          -0.39185813069343567,
          -0.4983491599559784,
          -0.508278489112854,
          -0.29262346029281616,
          -0.967188835144043,
          0.07624251395463943,
          -0.7005525827407837,
          -0.7278016805648804,
          0.67383873462677,
          0.027463100850582123,
          0.6682483553886414,
          0.2811635732650757,
          -0.08520215004682541,
          -0.10734803974628448,
          0.41980910301208496,
          0.2641862630844116,
          -0.3052123785018921,
          -0.20083008706569672,
          0.07668469101190567,
          0.30501484870910645,
          0.013597466051578522,
          0.2308758944272995,
          -0.15655213594436646,
          -0.18947404623031616,
          0.32202503085136414,
          0.2358362227678299,
          0.15587598085403442,
          -0.3854411840438843,
          -0.7911174893379211,
          0.22763417661190033,
          -0.30405062437057495,
          -0.4137204587459564,
          0.15533730387687683,
          -0.21652813255786896,
          -0.3199392855167389,
          -0.33647528290748596,
          0.12205708026885986,
          -0.6383126378059387,
          0.26855096220970154,
          0.42708680033683777,
          -0.09134740382432938,
          0.11613477021455765,
          -0.7273020148277283,
          -0.11391892284154892,
          -0.28300559520721436,
          0.1808675229549408,
          0.487515926361084,
          -0.3820215165615082,
          -0.29698941111564636,
          0.09928033500909805,
          -0.21398106217384338,
          0.03253311291337013,
          -0.12216071039438248,
          0.4551026523113251,
          0.023532072082161903,
          -0.27195194363594055,
          0.17274150252342224,
          0.2845715880393982,
          0.07477638125419617,
          0.2953527867794037,
          -0.8601495623588562,
          -0.35210782289505005,
          0.33626270294189453,
          0.12655766308307648,
          -0.504038393497467,
          0.6134762167930603,
          -0.08641290664672852,
          -0.039943140000104904,
          0.217174232006073,
          -0.23706220090389252,
          -0.38555485010147095,
          0.06622340530157089,
          0.18660014867782593,
          0.7998235821723938,
          0.641228199005127,
          -0.14579124748706818,
          0.572887122631073,
          -0.11892622709274292,
          0.27960994839668274,
          -0.14443832635879517,
          0.15833184123039246,
          -0.09409646689891815,
          -0.5813072919845581,
          -0.03050137683749199,
          0.08930382132530212,
          0.09804629534482956,
          0.42190781235694885,
          -0.09178715944290161,
          0.02796996384859085,
          0.3905053734779358,
          0.2982771694660187,
          0.25615090131759644,
          0.2966439127922058,
          0.053792525082826614,
          -0.029261264950037003,
          0.21220619976520538,
          0.11709742248058319,
          -0.32082706689834595,
          0.057369645684957504,
          -0.072111576795578,
          -0.1470642387866974,
          0.3831654191017151,
          -0.07614535838365555,
          0.3121565878391266,
          0.009579499252140522,
          0.002008609240874648,
          -0.047774720937013626,
          -0.17735067009925842,
          -0.5836285352706909,
          -0.2427961677312851,
          0.07767412066459656,
          -0.11350817233324051,
          -0.44318461418151855,
          -0.026176342740654945,
          -0.6151071786880493,
          -0.39331191778182983,
          0.03673722594976425,
          -0.048514384776353836,
          -0.39784061908721924,
          0.7389301657676697,
          -0.4491863548755646,
          -0.015284739434719086,
          -0.06134264916181564,
          0.0451982244849205,
          -0.17066515982151031,
          -0.08793579041957855,
          0.19011074304580688,
          -0.43861550092697144,
          1.4252076148986816,
          -0.02244916744530201,
          0.138257697224617,
          0.5393310189247131,
          0.022841766476631165,
          0.19810433685779572,
          0.13028740882873535,
          -0.24527785181999207,
          0.11837612837553024,
          0.11237199604511261,
          -0.28055018186569214,
          -0.5306909680366516,
          0.2555214464664459,
          -0.3971813917160034,
          -0.6783730983734131,
          0.16635294258594513,
          0.14885681867599487,
          -0.055074293166399,
          0.12640830874443054,
          -0.2005518227815628,
          -0.1227547824382782,
          -0.0004620301479008049,
          -0.3691061735153198,
          -0.33398789167404175,
          -0.24183882772922516,
          -0.1831045299768448,
          0.16217924654483795,
          0.5636510252952576,
          -0.237504780292511,
          -0.14138980209827423,
          0.0639997348189354,
          0.04627450183033943,
          -0.14867423474788666,
          -0.024243999272584915,
          -0.691562831401825,
          -0.17434190213680267,
          -0.11481271684169769,
          -0.24640008807182312,
          -0.5937461256980896,
          -0.044690072536468506,
          -0.2894194424152374,
          -0.7081714272499084,
          0.04197292402386665,
          0.18738247454166412,
          -0.15214379131793976,
          0.40768423676490784,
          -0.10513582825660706,
          0.5635823011398315,
          0.09899159520864487,
          0.2785051167011261,
          -0.9939534664154053,
          0.20471125841140747,
          0.02223854698240757,
          0.18966569006443024,
          0.3972245752811432,
          -0.058678414672613144,
          0.15340714156627655,
          0.6893503665924072,
          -0.1545848697423935,
          -0.04998099058866501,
          0.3976716101169586,
          0.1083284392952919,
          0.1151915043592453,
          -0.028881413862109184,
          -0.7400765419006348,
          -0.964963972568512,
          0.02519066259264946,
          -0.6164778470993042,
          -0.6091448068618774,
          0.21826861798763275,
          -0.05027230456471443,
